Sno,Weight
0,-0.009930721
1,-0.0032392123
2,-0.018792832
3,0.0011615027
4,0.00093364425
5,-0.018490369
6,-0.0013004363
7,0.004447501
8,-0.0022208656
9,0.0023145985
10,0.0020752174
11,0.008098976
12,-0.00790142
13,0.00040170466
14,-0.004206978
15,0.011943215
16,-0.0055721486
17,0.009039505
18,0.014196431
19,-0.0055592516
20,-0.014305133
21,-0.017141305
22,-0.018793503
23,-0.0022450283
24,0.0019174226
25,-0.0040862453
26,-0.0025420988
27,0.012087559
28,-0.0151446005
29,-0.0069405185
30,-0.016689312
31,-0.009752723
32,0.016354343
33,-0.009546466
34,-0.008313305
35,-0.015618403
36,-0.0014112308
37,0.0060836347
38,-0.0015192223
39,0.0022610684
40,0.014011334
41,0.0044058454
42,-0.0012502141
43,0.013945304
44,0.0015806246
45,0.0009056752
46,-0.0059175207
47,-0.013563375
48,0.002449745
49,-0.0038330508
50,0.010621755
51,-0.0030195778
52,-0.017047625
53,-0.0140123395
54,0.006139367
55,0.0031140319
56,-0.0014176358
57,-0.000774356
58,-0.017564114
59,0.009597522
60,0.009938665
61,-0.006734499
62,0.014620767
63,0.002268755
64,-0.013399995
65,0.0065407804
66,0.0048754686
67,0.0061289323
68,-0.0169465
69,-0.0075508263
70,-0.010763351
71,-7.697787e-05
72,-0.0022271594
73,0.01447837
74,0.010920162
75,-0.018296978
76,-0.006204842
77,0.00318976
78,-0.013926649
79,0.0056131226
80,-0.010465126
81,-0.008204272
82,-0.0040021394
83,-0.0044437926
84,-0.009230318
85,-0.0035171944
86,0.0048674745
87,0.016253943
88,-0.0002663479
89,-0.0055754846
90,0.0069989017
91,-0.016408525
92,-0.0036577997
93,0.003574737
94,-0.009817783
95,-4.9207007e-05
96,-0.017803399
97,-0.011108009
98,0.0047579305
99,0.009384487
100,0.008796047
101,0.0075774514
102,0.001481662
103,-0.005691652
104,0.0034524214
105,-0.00025196283
106,-0.006980756
107,0.0009891855
108,-0.0032263044
109,-0.014347152
110,0.0028671885
111,0.008570877
112,0.017151432
113,0.0075357324
114,0.012631566
115,-0.010578688
116,0.00013488499
117,-0.00058112905
118,0.00013512715
119,0.0051576737
120,0.006685031
121,0.01931659
122,0.0065769693
123,-0.012321801
124,-0.0010696065
125,0.009552221
126,0.0063044014
127,0.005021081
128,-0.008745646
129,-0.0008472541
130,-0.0075665796
131,0.0042743925
132,-0.0149893705
133,-0.0011792849
134,0.0065814094
135,-0.008330444
136,-0.0017514224
137,-0.014948035
138,-0.012046186
139,0.004486918
140,0.0071775545
141,0.009318124
142,0.003390365
143,-0.0066071283
144,-0.00024889654
145,0.0030728122
146,0.0102196485
147,-0.016252803
148,0.0073221126
149,0.013851664
150,-0.0117724575
151,-0.009768964
152,-0.0059685223
153,-0.014523184
154,-0.011007208
155,-0.0047676205
156,-0.012893888
157,-0.0010547827
158,-0.00843397
159,-0.011147074
160,0.0028998181
161,-0.0011753038
162,0.0020578043
163,-0.0049734823
164,-0.00037826027
165,-0.009421639
166,-0.003621841
167,-0.003958996
168,0.0010919208
169,0.014744643
170,0.0050770976
171,0.008769622
172,0.002082574
173,0.009163824
174,-0.00787851
175,0.019951688
176,-0.018536393
177,0.003276072
178,-0.010085382
179,0.012872026
180,-0.0027205155
181,0.002639242
182,-0.013490427
183,0.004839677
184,0.0052100336
185,0.009800108
186,-0.018317152
187,0.00606861
188,0.0004619696
189,-0.010172409
190,-0.0059227603
191,-0.012771213
192,-0.0076237754
193,-0.017783089
194,0.0051074363
195,0.00068294717
196,-0.0071197795
197,0.00039149646
198,0.0084452545
199,0.0019438947
200,-0.00088665466
201,-0.009278019
202,-0.006889325
203,0.0027110951
204,-0.0026649456
205,0.005901356
206,-0.00881683
207,0.0019997342
208,-0.015460277
209,-0.0034711792
210,-0.0045470437
211,0.0011507956
212,-0.008610438
213,-0.00415778
214,-0.009746123
215,-0.00041660786
216,0.0027162335
217,0.0118215075
218,0.004435644
219,0.004108422
220,-0.0031198969
221,0.0026556128
222,0.0073038517
223,0.008428732
224,-0.015062121
225,0.0054709073
226,-0.0019604142
227,0.005046157
228,0.007522861
229,-6.944318e-05
230,0.0032407965
231,0.0011973015
232,-0.013157378
233,0.007937141
234,-0.0069177174
235,-0.0016342234
236,-0.0018256225
237,0.00359064
238,0.012072158
239,-0.013994401
240,0.001489443
241,0.00085649366
242,0.0071379067
243,-0.000537489
244,-0.007905475
245,-0.0019073657
246,0.009656048
247,-0.01115725
248,0.006376811
249,-0.00095753575
250,-0.010182712
251,0.012703796
252,0.018262945
253,0.0023670595
254,-0.006901361
255,0.00969164
256,-0.0019010243
257,-0.0051301992
258,-0.00389234
259,-0.0054292805
260,0.0005377223
261,0.007999209
262,-0.008783836
263,-0.0030114006
264,0.011181934
265,-0.0009458146
266,-0.004568059
267,-0.0073181735
268,0.019083297
269,-0.017683532
270,-0.006916076
271,0.010752096
272,-0.012429281
273,-0.010016434
274,0.009992844
275,0.0093536135
276,0.006353613
277,-0.007821234
278,0.0025276958
279,0.0013176982
280,0.0010407184
281,0.007415111
282,0.014208159
283,0.0078679435
284,-0.0156083405
285,-0.0030075507
286,0.00025289896
287,0.01372523
288,0.0022318824
289,-0.011224326
290,0.0001940474
291,0.0018000855
292,0.01583749
293,0.006419982
294,0.00082680903
295,0.010863763
296,-0.00057899655
297,-0.017103126
298,0.0045050704
299,0.012738116
300,-0.010522757
301,-1.4293865e-05
302,-0.010785081
303,-0.014215779
304,-0.007127497
305,0.006584724
306,-0.004392158
307,0.004634281
308,-0.0067689125
309,-0.003729582
310,0.018467505
311,0.014694265
312,-0.002930648
313,-0.0033318663
314,-0.0012466398
315,-0.014035217
316,0.006101121
317,-0.002976429
318,0.012215061
319,-0.014317514
320,0.0052237106
321,-0.011852685
322,0.007464152
323,0.00481199
324,0.0037567527
325,-0.0053269267
326,-0.005018492
327,0.0025481833
328,-0.011850717
329,-0.0134772435
330,0.011909858
331,-0.006323893
332,-0.0003907476
333,-0.018272584
334,-0.00092995656
335,-0.0018388098
336,0.019588083
337,0.01389867
338,-0.014501753
339,0.002628118
340,0.0033991372
341,-0.006172393
342,-0.008816764
343,0.013480259
344,0.0025347802
345,0.008934797
346,0.009794459
347,-0.002658954
348,0.00017222235
349,0.0074352273
350,0.017644256
351,0.001865065
352,-0.013281984
353,-0.0043245843
354,-0.0065533137
355,-0.0018666912
356,0.0026250791
357,-0.0028775365
358,-0.00465512
359,0.0020847197
360,-0.006351721
361,-0.014604142
362,-0.0036638072
363,-4.249651e-05
364,-0.0063402695
365,-0.0032073
366,0.00086095475
367,-0.0025973092
368,0.004883363
369,-0.0017103159
370,0.013185447
371,-0.007807327
372,-0.008523313
373,0.005864181
374,-0.015358609
375,-0.0018519326
376,0.01346683
377,0.0018043874
378,-0.018556135
379,0.0025900663
380,0.0012939146
381,-0.009820278
382,0.0013146134
383,0.015029851
384,0.005678508
385,0.009183149
386,0.00428871
387,0.012883948
388,-0.004869418
389,0.0074659307
390,0.0041460395
391,-0.00032812823
392,-0.007035864
393,0.008469471
394,0.011933194
395,-0.0017675991
396,-0.01478426
397,0.009764543
398,0.00501773
399,-0.005753551
400,-0.0040289923
401,0.012444749
402,0.012351246
403,-0.009102539
404,0.004976167
405,-0.0026903618
406,-0.0012098731
407,0.009219776
408,0.0025665027
409,-0.005097711
410,0.0041978834
411,-0.018336166
412,-0.008317361
413,-0.00059639534
414,-0.013064627
415,-0.0008541877
416,-0.00089816656
417,-0.0016313085
418,-0.006629458
419,0.00976267
420,-0.008707023
421,-0.0019094475
422,-0.0008303836
423,-0.006373654
424,-0.0018372086
425,0.0019856242
426,-0.00398749
427,-0.012389346
428,-0.006812222
429,-0.0021301988
430,0.0026737885
431,-0.0075858287
432,0.0058655515
433,0.012097513
434,0.012827765
435,-0.0035827768
436,-0.010968989
437,0.003064345
438,0.0014514128
439,-0.0009992258
440,-0.0021709364
441,0.0046700104
442,0.011264583
443,0.0015336272
444,-0.008533769
445,0.0076672686
446,-0.010400192
447,-0.018729031
448,-0.007395022
449,-0.00046334686
450,-0.0041960017
451,0.01123792
452,0.0068557416
453,0.010805435
454,0.0074469578
455,0.0076345117
456,-5.4860568e-05
457,-0.014198076
458,0.002834763
459,-0.015056046
460,-0.002580373
461,0.0019065934
462,-0.0005084574
463,0.019214345
464,0.010363178
465,-0.01803896
466,0.004038828
467,-0.012670796
468,-0.0039729676
469,5.1639232e-05
470,0.009884675
471,0.012825933
472,-0.0017066895
473,-0.0043211626
474,0.008263679
475,-0.00427815
476,0.0075064516
477,0.012848805
478,-0.0033972661
479,0.004036192
480,0.014691356
481,0.006266703
482,0.0035106211
483,0.013071386
484,-0.004580893
485,-0.014967811
486,0.0016097465
487,0.003985108
488,-0.0098856455
489,-0.006460171
490,0.003053024
491,0.008622299
492,-0.015561919
493,0.007263864
494,0.010723107
495,0.00047966593
496,0.008593919
497,0.006986937
498,0.0056987116
499,0.007107259
500,-0.008829011
501,-0.00035787548
502,-0.011599641
503,-0.012374754
504,-0.0058643087
505,-0.0021051986
506,0.01301528
507,-0.019694991
508,-0.017896142
509,-0.012325279
510,0.009720695
511,0.010750941
512,0.0067327945
513,-0.015559252
514,-0.00370178
515,0.0028184678
516,-0.018854063
517,0.016419739
518,0.0043983413
519,0.002727757
520,-0.0060384297
521,-0.009031698
522,-0.004968251
523,-0.011464105
524,0.0049206046
525,-0.005445033
526,-0.011610811
527,-0.0066476776
528,0.008148153
529,-0.0005687773
530,0.011718315
531,-0.0054527936
532,-0.009281091
533,0.009921252
534,0.001796729
535,0.003816109
536,0.016893566
537,0.006177229
538,-0.0039005808
539,0.0035270557
540,0.008491399
541,0.0044295266
542,0.0034666702
543,0.009695731
544,0.0036162806
545,0.009881017
546,0.010987617
547,0.005890277
548,-0.0027795911
549,0.0013977773
550,-0.010645063
551,0.001030364
552,0.0021258788
553,-0.0096226
554,-0.0066271746
555,-0.0016269941
556,0.004600653
557,0.0009877092
558,0.0032809807
559,-0.0013405364
560,-0.011651238
561,-0.0072253803
562,-0.0047912328
563,0.00049878185
564,-0.0074990434
565,-0.003443753
566,-0.010234635
567,0.0068443315
568,-0.011870727
569,-0.0013545889
570,0.008373869
571,-0.0053222314
572,0.011681824
573,0.008220365
574,-0.0011460197
575,-0.0019636133
576,-0.0071683214
577,0.005267098
578,0.004965889
579,-0.0048645865
580,-0.00728655
581,-0.012450351
582,0.01264591
583,0.018982163
584,-0.0064976444
585,-0.0017334804
586,0.009428765
587,-0.016978957
588,-0.0006268468
589,-0.004035778
590,0.008708445
591,-0.0068948013
592,-0.006344572
593,-0.0009987435
594,0.012973524
595,0.008460159
596,-0.0054386
597,-0.012438409
598,0.00632256
599,-0.011092164
600,0.015020301
601,0.014013477
602,-0.014101447
603,0.003688345
604,-0.0021512615
605,-0.0019644287
606,0.0029216895
607,0.010101032
608,0.007362616
609,0.00082335155
610,0.00074491184
611,-0.000906355
612,-0.009958496
613,0.00037451056
614,0.016365746
615,0.0046413043
616,0.0007200135
617,0.016324576
618,-0.0021898705
619,-0.0015181382
620,-0.0042609912
621,-0.0070636375
622,-0.00520424
623,-0.013185619
624,0.013052307
625,0.012828566
626,-0.0075312164
627,0.009638004
628,0.010313713
629,0.00043152744
630,-0.0029962412
631,0.0050273277
632,-0.0030968676
633,0.006278457
634,0.012470637
635,-0.0016346396
636,0.0044839247
637,0.003274192
638,-0.0030522319
639,-0.0034801136
640,0.009657363
641,-0.0032225917
642,-0.013648395
643,0.016899534
644,-0.008871455
645,-0.009011625
646,-0.0032588372
647,0.0034028543
648,0.009679409
649,0.0039878525
650,-0.012658815
651,0.011779127
652,-0.0040346943
653,0.007151889
654,0.0071429485
655,-0.007576633
656,-0.015749343
657,-0.0030640024
658,0.0036215314
659,0.0056942403
660,-0.005215834
661,0.0019616531
662,-0.0058601215
663,0.012130412
664,0.015295898
665,-0.0030561422
666,-0.006154914
667,-0.008668554
668,-0.008317589
669,0.019819627
670,0.010477706
671,-0.00010355323
672,-0.0053199474
673,0.0041213115
674,0.012574471
675,-0.0037300638
676,0.006318538
677,-0.006588207
678,-0.00062874047
679,-0.019736188
680,0.0029712028
681,0.009506407
682,-0.0014084592
683,-0.010241946
684,0.0033440865
685,0.00063219684
686,-0.00054787676
687,-0.003919033
688,-0.011793691
689,0.00043974546
690,0.01976844
691,0.0019204221
692,0.0034455806
693,-0.008396673
694,0.0008778611
695,-0.004236302
696,-0.015487731
697,-0.0077320817
698,0.015777182
699,0.004049408
700,-0.014552
701,0.0073257084
702,-0.016808227
703,-0.00047038993
704,-0.01442637
705,-0.014408252
706,0.006654285
707,-0.002927704
708,-0.0191185
709,0.0005814878
710,-0.0072607673
711,0.0055231177
712,0.003708589
713,0.0049977456
714,0.0043342677
715,0.0009744358
716,-0.0060991626
717,-0.014640645
718,-0.008453102
719,-0.003313756
720,-0.006991094
721,-0.0020956632
722,-0.0013993923
723,-0.017642034
724,0.015544637
725,-0.0009674246
726,0.016851868
727,0.0027446225
728,0.006192486
729,0.0006861732
730,0.0053384355
731,0.016699022
732,-0.0023659174
733,-0.0047337664
734,-0.0026510092
735,0.003182484
736,-0.0020895347
737,0.0041764136
738,0.005712633
739,0.011017423
740,-0.0040451307
741,0.002339469
742,0.007836391
743,-0.006873723
744,-0.0069435937
745,-0.00094172254
746,0.000588216
747,-0.0072386926
748,-0.008932711
749,0.016488096
750,0.011459448
751,-0.00035108777
752,0.01212752
753,0.00035242602
754,0.00763609
755,-0.0019143588
756,-0.003797716
757,-0.0015622663
758,-0.003061133
759,-0.012181548
760,-0.008723937
761,-0.0038816032
762,0.0074835103
763,0.0012830587
764,0.0016276614
765,0.014812247
766,-0.0026885292
767,0.0020128558
768,-0.007870305
769,-0.009410023
770,0.0077525126
771,-0.0008841328
772,-0.005495056
773,-0.017242903
774,0.017967155
775,0.0050011068
776,-0.00561842
777,-0.003510935
778,-0.004726206
779,-0.0035961494
780,0.009958504
781,-0.004260136
782,0.004967336
783,-0.0046314364
784,-0.00017784286
785,-0.00666389
786,0.0038884685
787,0.0005920536
788,0.005971332
789,0.006691314
790,-0.01154521
791,-0.012317333
792,-0.0060020424
793,-0.0068947575
794,-0.0017382228
795,-0.017532114
796,0.009664778
797,-0.011883585
798,-0.013722967
799,0.0041654995
800,-0.009256252
801,-0.011957142
802,0.003241344
803,-0.008218137
804,0.0034591323
805,-0.0012849417
806,-0.0040977467
807,-0.015071796
808,-0.0050039794
809,0.010614922
810,-0.005016798
811,0.016320156
812,0.0007287152
813,-0.006886078
814,0.0025348284
815,0.009009803
816,-0.003089197
817,-0.0064970655
818,0.007729592
819,0.004839502
820,-0.0100533925
821,0.009677167
822,-0.0077749137
823,-0.008844734
824,0.00537027
825,-0.008556275
826,0.0060159243
827,-0.0033000899
828,-0.0033866419
829,-0.014284164
830,-0.013320468
831,0.0070791636
832,-0.0034937563
833,0.01458512
834,0.005648966
835,0.004652864
836,-0.010403445
837,0.0036148094
838,0.0004286563
839,-0.005542646
840,-0.0070987665
841,0.015073617
842,-0.0061796736
843,0.013180002
844,-0.017601913
845,0.0027419308
846,0.018140888
847,0.002352498
848,0.01297498
849,-0.012480338
850,0.002042406
851,-0.017578227
852,-0.0064137075
853,0.009123131
854,0.0043354123
855,-0.0083965175
856,-0.0037739575
857,-0.006344962
858,-0.0013164376
859,-0.010512967
860,0.0082622785
861,0.0045511876
862,0.0014699654
863,0.010783947
864,-0.00929738
865,0.001241406
866,0.01290941
867,0.0033365712
868,0.00090243784
869,-0.005002588
870,-0.007861577
871,-0.0048076864
872,-0.0011557748
873,0.019666974
874,0.0046538585
875,0.011634761
876,-0.012504522
877,0.005658083
878,0.007766961
879,0.019230153
880,0.0037317958
881,0.007861062
882,0.011069692
883,0.006193944
884,0.0049295556
885,0.0014180902
886,0.0056731384
887,-0.011662399
888,-0.0031041852
889,0.0012900966
890,0.0022759223
891,-0.009930659
892,-0.0019161503
893,0.012942335
894,-0.0044417013
895,-0.0013299822
896,-0.01882151
897,0.00949915
898,0.000267266
899,0.006651309
900,-0.015821716
901,-0.0014877765
902,0.0082584545
903,-0.0020136426
904,-0.0017957224
905,0.0041132844
906,0.00618925
907,-0.004947501
908,-0.007684765
909,-0.010759663
910,-0.0020686884
911,0.01813149
912,-0.0055748974
913,0.003599877
914,0.015276075
915,-0.0055657444
916,0.017863495
917,0.009594913
918,-0.007407913
919,0.0024284527
920,-0.018485388
921,0.012515655
922,0.003110792
923,0.004959064
924,0.0026614056
925,0.009378818
926,0.0061815423
927,-0.0011795153
928,0.016706057
929,0.0011963927
930,0.00021346916
931,0.005119288
932,-0.004842123
933,-0.007842744
934,-0.0024911566
935,-0.009891116
936,-0.012287522
937,-0.0002672607
938,0.011849342
939,0.017609872
940,0.0060496773
941,-0.00049967045
942,-0.0005649113
943,-0.007738443
944,0.008449352
945,-0.013523404
946,-0.0074226903
947,0.011659063
948,2.2153541e-05
949,0.01383286
950,-0.00573537
951,-0.006832152
952,0.004845139
953,8.5922366e-05
954,-0.0052669547
955,-0.007327324
956,0.008177928
957,-0.00018279463
958,0.0026084036
959,0.00081614504
960,0.006033503
961,0.00035414935
962,-0.0113026
963,0.010451591
964,0.007137201
965,0.0005442283
966,0.0075412486
967,0.0049667233
968,0.010845502
969,0.010855784
970,0.017703822
971,-0.0059424876
972,0.015321068
973,-0.0010975945
974,0.012805187
975,-0.00092518434
976,0.014398316
977,0.0031921007
978,-0.0069473716
979,0.007185882
980,-0.0098021645
981,0.011083841
982,0.003625516
983,0.0026047246
984,0.0024799313
985,-0.019212546
986,-0.0077256695
987,0.008202552
988,0.0066517056
989,-0.00712366
990,0.008159389
991,-0.0004561293
992,-0.010145256
993,0.014785418
994,-0.0071176393
995,0.010827707
996,-0.008446553
997,0.0019560587
998,0.009153476
999,0.0022016088
1000,0.011248697
1001,0.0077700526
1002,0.007099663
1003,0.00082181965
1004,-0.0020107015
1005,0.0064896583
1006,-0.0013705047
1007,0.0023207294
1008,-0.011607182
1009,0.006031698
1010,0.0031403678
1011,-0.0036252183
1012,-0.011809669
1013,-0.008788407
1014,0.011007278
1015,0.0069620265
1016,-0.016310615
1017,0.008266796
1018,0.01117614
1019,0.010931377
1020,0.011173005
1021,0.0039471798
1022,-0.00069708616
1023,0.007425066
1024,0.0024844708
1025,0.0073678517
1026,0.010354348
1027,-0.0051598414
1028,-0.0004214175
1029,0.018813696
1030,0.016438134
1031,0.0159334
1032,-0.008720715
1033,-0.0028389788
1034,-0.0021045392
1035,-0.008952769
1036,0.0008321517
1037,-0.0028381804
1038,-0.0125757065
1039,0.013491917
1040,0.0053347102
1041,0.0036594747
1042,0.015170694
1043,0.0025422506
1044,-0.01196973
1045,0.0020302895
1046,0.0033211084
1047,0.006730286
1048,0.010187627
1049,0.005130385
1050,-0.009631341
1051,-0.0021232627
1052,0.009228955
1053,-0.0019240698
1054,0.0030348005
1055,-0.0063178646
1056,0.0150200445
1057,0.019081127
1058,0.0026493873
1059,0.0054518497
1060,0.010796722
1061,-0.0079686465
1062,0.009133689
1063,-0.0127179185
1064,0.016987424
1065,0.0055051316
1066,0.0049444153
1067,0.008186096
1068,0.014844401
1069,0.0014352066
1070,-0.011059159
1071,0.0029285743
1072,-0.008814333
1073,-0.014174982
1074,-0.00901825
1075,-0.008304692
1076,-0.01870689
1077,-0.0012593018
1078,-0.0008728917
1079,0.0008301299
1080,-0.0015485613
1081,0.007059708
1082,-0.0039134435
1083,-0.013000122
1084,-0.008525557
1085,-0.0075210836
1086,-0.008797095
1087,0.0011621704
1088,-0.004148729
1089,-0.0058701923
1090,0.0011243799
1091,0.01236039
1092,-0.0009718561
1093,-0.0011604012
1094,-0.0073291464
1095,0.0073689823
1096,-0.002765956
1097,-0.010936424
1098,-0.0034741329
1099,-0.00076994277
1100,0.019003674
1101,-0.01274673
1102,0.0050343657
1103,0.0015580833
1104,-0.0062317788
1105,0.013958484
1106,0.0088866195
1107,-0.005496591
1108,0.0062946263
1109,0.007732333
1110,0.0073245433
1111,0.008162272
1112,0.0079609845
1113,0.010746813
1114,-0.0051061967
1115,0.005320995
1116,-0.003745742
1117,-0.011458274
1118,-0.011707625
1119,0.008282133
1120,-0.0045352755
1121,0.015435895
1122,-0.004798074
1123,0.0031876313
1124,-0.016058337
1125,0.013164257
1126,-0.0035513444
1127,-0.0017659493
1128,0.0035534657
1129,0.017149972
1130,-0.010526052
1131,0.008232718
1132,0.013274843
1133,-0.0036968326
1134,-0.009974191
1135,-0.015610624
1136,0.0075291623
1137,-0.0025414284
1138,-0.005471127
1139,-0.0014318549
1140,-0.017783895
1141,-0.001689066
1142,-0.0013990472
1143,0.015392074
1144,0.011848443
1145,-0.013185709
1146,-0.014874895
1147,-0.014385143
1148,0.011080341
1149,0.0019190762
1150,-0.007070692
1151,-0.012178546
1152,0.018199252
1153,-0.0048019146
1154,0.010915393
1155,-0.0041168393
1156,0.009131789
1157,0.011021729
1158,-0.004889087
1159,0.0011958255
1160,0.011535523
1161,0.0063940636
1162,-0.001433091
1163,0.0058419877
1164,-0.0046806033
1165,-0.00020040118
1166,-0.008078858
1167,-0.006875121
1168,0.009657712
1169,0.006649241
1170,-0.012754319
1171,-0.0074282163
1172,-0.01008557
1173,-0.009101693
1174,0.0008350684
1175,-0.0129736215
1176,-0.008816992
1177,-0.0010832731
1178,-0.016490197
1179,0.012162736
1180,-0.009224999
1181,-0.0005181082
1182,0.008602639
1183,-0.005082327
1184,-0.008133621
1185,0.004618512
1186,0.0056499788
1187,0.00798752
1188,0.015178305
1189,0.0026553366
1190,0.0043861717
1191,-0.009187975
1192,0.00027543248
1193,-0.0030791513
1194,-0.0004088995
1195,-0.0012176255
1196,-0.008507699
1197,0.0017267973
1198,0.00687835
1199,-0.0050934968
1200,-0.010970315
1201,0.013828178
1202,0.0078007234
1203,-0.0069197356
1204,0.008541177
1205,0.0017320963
1206,0.009336588
1207,-0.00607
1208,-0.0067003914
1209,-0.0017730613
1210,0.0037572647
1211,-0.0057955775
1212,0.0039287424
1213,0.002632054
1214,-0.00082566176
1215,-0.0047644805
1216,0.0074618007
1217,0.010379815
1218,4.643849e-05
1219,-0.0007720361
1220,0.0034037305
1221,-0.016989695
1222,0.0071002645
1223,0.012862026
1224,0.00094529736
1225,0.008795041
1226,0.011178591
1227,-0.013268339
1228,-0.0070095533
1229,0.01563533
1230,-0.004525805
1231,-0.004625008
1232,-0.0075375075
1233,0.019078845
1234,0.012030057
1235,-0.017412348
1236,-0.014573604
1237,-0.003021795
1238,0.0041679256
1239,-0.0069522895
1240,-0.008592223
1241,0.008481676
1242,0.008160468
1243,0.0065651834
1244,0.0054791993
1245,-0.0011637412
1246,0.010615206
1247,0.00034986078
1248,-0.017588843
1249,-0.002538999
1250,-0.001028652
1251,-0.009266896
1252,-0.014979631
1253,-0.014064257
1254,0.0025838935
1255,-0.017833091
1256,-0.0019538782
1257,-0.0028275964
1258,-0.004561141
1259,-0.0038682597
1260,-0.005425475
1261,-0.00032625772
1262,0.000794449
1263,0.0027225942
1264,-0.0049063587
1265,-0.0019448447
1266,-0.004160799
1267,0.0077500893
1268,-0.0068540475
1269,-0.002434304
1270,6.4656844e-05
1271,-0.00067575474
1272,-0.005515795
1273,-0.002477808
1274,0.0047233817
1275,-0.011840481
1276,-0.011761954
1277,0.00040039083
1278,-0.006306684
1279,0.01782345
1280,-0.009623701
1281,0.0011052471
1282,-0.008041294
1283,0.0060967035
1284,-0.015546858
1285,0.006968029
1286,-0.007952073
1287,0.013829802
1288,-0.0021061061
1289,0.00576514
1290,-0.006433972
1291,0.0029920444
1292,0.005306037
1293,-0.0015965283
1294,0.004509058
1295,-0.00084048376
1296,-0.0012588623
1297,-0.0017999344
1298,-0.008790381
1299,0.007415448
1300,0.0069948337
1301,0.005216548
1302,-0.0011895637
1303,-0.0052374583
1304,-0.0020717557
1305,0.008585849
1306,-0.004505325
1307,-0.0032404922
1308,0.0062005175
1309,-0.0041101933
1310,-0.0019233716
1311,0.014925921
1312,0.017179767
1313,-0.005223451
1314,0.012172303
1315,0.0012922462
1316,-0.005725028
1317,-0.0066020116
1318,0.019704292
1319,-0.0010253811
1320,-0.015141887
1321,-0.0016488528
1322,-0.009519878
1323,-0.016486986
1324,0.013353246
1325,-0.015232709
1326,0.00040931453
1327,0.00044074465
1328,-0.0036842553
1329,0.018233681
1330,-0.00049840455
1331,-0.0014146201
1332,-0.005998988
1333,-0.009334838
1334,0.014520105
1335,0.015848076
1336,0.016320236
1337,-0.006154781
1338,-0.003910977
1339,-0.00039552516
1340,-0.007572347
1341,-0.0022035297
1342,-0.007591469
1343,0.006760234
1344,-0.004368785
1345,-0.01724672
1346,0.005738802
1347,0.0027086395
1348,-0.007860685
1349,-0.002987112
1350,0.0010048987
1351,0.0026280489
1352,-0.0074765706
1353,0.0061248583
1354,-0.015061172
1355,-0.001108872
1356,0.01172853
1357,-0.0035952262
1358,-0.009418044
1359,0.014434223
1360,0.0023780896
1361,0.003277191
1362,-0.0013807055
1363,0.010437277
1364,-0.015364676
1365,-0.0062037
1366,-0.0048826765
1367,-0.014326757
1368,-0.008111495
1369,-0.003998184
1370,-0.013989748
1371,0.0005845231
1372,0.0005678532
1373,0.001108206
1374,-0.0008933991
1375,-0.0027908774
1376,-0.011615976
1377,-0.0021573317
1378,0.0019773515
1379,0.0030457783
1380,-0.0044905855
1381,-0.0028642076
1382,-0.009834391
1383,-0.007111883
1384,-0.0039537717
1385,-0.014746877
1386,-0.009777431
1387,0.0036325785
1388,0.007892581
1389,-0.016585078
1390,0.00424265
1391,-0.0105690295
1392,0.010668376
1393,-0.005240881
1394,0.00023307007
1395,0.0070564086
1396,-0.0073850225
1397,-0.013633221
1398,-0.010000865
1399,0.00041690175
1400,-0.005867311
1401,0.010779567
1402,0.0069275727
1403,0.0005493444
1404,-0.0052293288
1405,0.0103791095
1406,0.01148652
1407,-0.0025279531
1408,0.011395073
1409,0.0022475617
1410,0.01734076
1411,-0.0031736523
1412,0.0007906706
1413,0.010823638
1414,-0.008012796
1415,0.0014207874
1416,-0.014969692
1417,-0.017704442
1418,-0.015926927
1419,5.9750182e-05
1420,-0.0051774443
1421,0.002990547
1422,-0.0019836593
1423,-0.0036982144
1424,-0.00017822655
1425,-0.0047771633
1426,0.0012970279
1427,-0.0012969159
1428,0.0025170846
1429,-0.0068046697
1430,-0.018049031
1431,-0.005867817
1432,-0.0028830725
1433,-0.006401971
1434,0.008505455
1435,-0.00762504
1436,-0.017122146
1437,-0.008907977
1438,-0.014255594
1439,0.015691988
1440,0.00080282864
1441,-0.0073474986
1442,-0.012377404
1443,0.00988671
1444,0.0015332574
1445,-0.004785983
1446,0.005036261
1447,0.013964287
1448,0.0043292097
1449,-0.007121557
1450,0.0029107318
1451,0.0014658545
1452,0.0130445
1453,-0.008522101
1454,0.0062206825
1455,0.0007145844
1456,-0.004831973
1457,-0.0015132563
1458,-0.0016712382
1459,-0.0007262879
1460,-0.005306691
1461,0.002293202
1462,0.0064555206
1463,-0.017502049
1464,-0.013182751
1465,-0.0071691917
1466,-0.015435352
1467,-0.018393114
1468,0.0042320983
1469,0.010413523
1470,-0.0063955914
1471,-0.0002115788
1472,0.010695422
1473,-0.019106636
1474,0.003994874
1475,0.013972911
1476,-0.0079032965
1477,-0.006260438
1478,0.005785616
1479,-0.014951897
1480,-0.0039192364
1481,-0.016567184
1482,-0.012125946
1483,0.008776744
1484,0.005705325
1485,0.007688485
1486,0.0002400822
1487,-0.0029979001
1488,0.0032237445
1489,0.0056966688
1490,-0.0102492785
1491,0.0011255657
1492,0.01132271
1493,0.0069774077
1494,-0.018318355
1495,-0.003899149
1496,-0.015373345
1497,0.00092465885
1498,0.010894026
1499,0.00061479415
1500,0.0005867654
1501,0.003628607
1502,-0.0028406947
1503,-0.001948533
1504,-0.0022156448
1505,-0.0018062273
1506,-0.010118076
1507,0.0025479682
1508,0.0015359708
1509,0.0061526173
1510,-0.00011237236
1511,0.0011916909
1512,0.0004132144
1513,-0.0022709682
1514,-0.010261998
1515,-0.0073820082
1516,0.003184358
1517,-0.018431375
1518,0.003449485
1519,-0.009881823
1520,-0.0071288333
1521,-0.0037287786
1522,0.011725163
1523,-0.0009231506
1524,0.0025118347
1525,-0.014006172
1526,-0.004382132
1527,-0.010283358
1528,0.0065755253
1529,-0.01042985
1530,-0.018422572
1531,-0.019101335
1532,0.010036746
1533,-0.0006690169
1534,0.0008169863
1535,0.0058831917
1536,0.007330663
1537,-0.01582827
1538,0.015064484
1539,-0.0014647117
1540,0.009178177
1541,-0.019179232
1542,0.0060939454
1543,-0.003585992
1544,0.007067657
1545,0.0106077865
1546,0.0056023938
1547,-0.00097593723
1548,-0.0194442
1549,0.009111446
1550,-0.0012223402
1551,0.0058489586
1552,-0.006337815
1553,0.0021626125
1554,0.01710131
1555,-0.0020941244
1556,0.0051453053
1557,0.0023124218
1558,0.0025021872
1559,0.006795165
1560,0.0015770296
1561,-0.0073594144
1562,-0.009361209
1563,-0.014232829
1564,-0.0022489484
1565,-0.0024763104
1566,-0.0057590753
1567,7.471413e-05
1568,-0.011203017
1569,0.008308072
1570,0.0036382852
1571,-0.013973892
1572,0.0033348713
1573,-0.003961255
1574,0.0008821796
1575,-0.00029620941
1576,-0.001564316
1577,0.0021749362
1578,0.0022162038
1579,-0.009475761
1580,-0.0039406344
1581,-0.0014551545
1582,0.00049552956
1583,0.006467369
1584,0.011088959
1585,-0.008485113
1586,0.0039618365
1587,0.0004449227
1588,-0.004649135
1589,0.000854569
1590,0.009325241
1591,-0.015328981
1592,0.014756177
1593,-0.009313424
1594,-0.00014672503
1595,-0.0037050387
1596,-0.0075387084
1597,0.00035950713
1598,-0.0028330742
1599,-0.0011352667
1600,-0.006763042
1601,0.007125147
1602,-0.011620807
1603,0.006719808
1604,0.0037818125
1605,0.01365862
1606,0.00017070609
1607,-0.008923532
1608,0.0071464437
1609,0.019740742
1610,-0.006581512
1611,0.009280504
1612,-0.010266235
1613,0.014625479
1614,0.002844287
1615,-0.007561685
1616,0.0035746093
1617,-0.010300409
1618,0.00012894906
1619,0.0073532667
1620,0.0023031477
1621,0.0007846582
1622,-0.009571074
1623,0.002089647
1624,0.010801383
1625,-0.0002031142
1626,-0.019552091
1627,0.010122878
1628,0.00425893
1629,-0.012589654
1630,-0.014877705
1631,-0.004665994
1632,-0.0069565363
1633,0.006078048
1634,0.0092771575
1635,0.00792278
1636,-0.0024172638
1637,0.0050913338
1638,0.017215965
1639,0.016868863
1640,0.0048607686
1641,0.0007090424
1642,-0.011969023
1643,0.0033240882
1644,-0.008214235
1645,0.0023022399
1646,-0.004945237
1647,0.0039041038
1648,-0.0132272085
1649,-0.008374568
1650,8.7792636e-05
1651,-0.01042314
1652,-0.00229956
1653,0.00047864977
1654,0.014582338
1655,0.0008884212
1656,-0.002971018
1657,-0.005688704
1658,-0.0021664822
1659,0.0035819921
1660,-0.0066646473
1661,0.007651983
1662,-0.0067527867
1663,-0.010480362
1664,-0.011841027
1665,-0.00054014457
1666,0.016055238
1667,-0.0010878907
1668,-0.004922244
1669,-0.015107348
1670,-0.0028757758
1671,0.0055958764
1672,-0.018587524
1673,-0.019341923
1674,-0.012168076
1675,-0.0025131253
1676,-0.019181142
1677,-0.007525956
1678,0.004473853
1679,0.008572171
1680,0.0032658454
1681,0.008296837
1682,-0.0013184692
1683,0.0062596994
1684,0.0014826764
1685,-0.0071482705
1686,0.008291677
1687,0.0062267496
1688,-0.009190939
1689,0.005882536
1690,-0.012257695
1691,0.00020137388
1692,0.007937734
1693,0.0038987508
1694,-0.016170785
1695,0.015488581
1696,0.006668311
1697,-0.0018605604
1698,0.0057558115
1699,0.004094551
1700,0.016286535
1701,0.007033549
1702,-0.011456504
1703,0.0174466
1704,0.0024742568
1705,0.007253143
1706,-0.005830587
1707,0.0005856252
1708,-0.004218092
1709,0.003544193
1710,-0.0066202297
1711,0.0032306742
1712,-0.011254162
1713,0.009204462
1714,0.013670246
1715,-0.001654059
1716,0.009755
1717,-0.00018784788
1718,0.007897209
1719,-0.0049720295
1720,-0.0055948817
1721,-0.012717697
1722,-0.01417772
1723,-0.0067601334
1724,0.008488491
1725,-0.004900487
1726,0.0077766906
1727,-0.0019074741
1728,-0.004473238
1729,-0.0008821846
1730,0.0012725026
1731,0.001455211
1732,0.011664027
1733,0.0045312652
1734,0.005738626
1735,-0.01228855
1736,-0.0018938715
1737,0.013403752
1738,0.0020060695
1739,-0.0037636831
1740,-0.013192059
1741,0.0023987964
1742,-0.0037322836
1743,0.00947318
1744,-0.009132849
1745,-0.0022559213
1746,0.006453021
1747,-0.01680056
1748,0.004307737
1749,0.010376766
1750,-0.0007253784
1751,0.002553902
1752,0.0024833386
1753,-0.008727796
1754,0.013541725
1755,-0.018512122
1756,-0.012653714
1757,0.0047156713
1758,-0.015100494
1759,0.0059695966
1760,0.00042526453
1761,-0.0051161256
1762,0.008175293
1763,-0.009368942
1764,0.0116992425
1765,-0.0050553246
1766,0.0032644325
1767,0.0074984347
1768,0.009774852
1769,0.0016731041
1770,-0.0055930265
1771,-0.006040995
1772,0.004750921
1773,-0.0005751478
1774,-0.00045428454
1775,0.009030297
1776,0.0021116533
1777,-0.006475262
1778,-0.003082399
1779,0.0037289779
1780,0.013897041
1781,-0.004679634
1782,0.0050282497
1783,0.009233001
1784,0.011245229
1785,0.0032326847
1786,-0.015944999
1787,0.0052208006
1788,-0.0053497073
1789,-0.00096955005
1790,-0.0037670222
1791,0.011086658
1792,0.0048978818
1793,-0.0042431746
1794,-0.019354522
1795,-0.006519941
1796,0.012486195
1797,0.003546866
1798,0.0027959102
1799,0.0009963659
1800,0.002619936
1801,0.005945903
1802,-0.011389188
1803,0.014623739
1804,0.0031182666
1805,0.0030444325
1806,9.402381e-05
1807,-0.009805056
1808,0.014958414
1809,0.009520226
1810,-0.0068109855
1811,-0.0069011278
1812,-0.013110783
1813,0.015830452
1814,0.0071025398
1815,-0.0004674298
1816,-0.002374419
1817,0.008648877
1818,0.0025942076
1819,-0.0018189275
1820,0.0046935016
1821,0.0026605758
1822,-0.011890199
1823,-0.0044671874
1824,0.0077201477
1825,-0.012874023
1826,0.0065547246
1827,0.009042554
1828,-0.0079464195
1829,0.0059577664
1830,-0.0142516075
1831,0.008268444
1832,0.003041665
1833,-0.00026101308
1834,-0.008345462
1835,-0.0056767706
1836,-0.008111794
1837,-0.009428467
1838,0.007968363
1839,-0.011898289
1840,0.012018172
1841,-0.010503835
1842,-0.012930205
1843,-0.005266221
1844,0.015524922
1845,0.0036758743
1846,0.017762683
1847,0.018391915
1848,-0.00041751144
1849,0.0052634683
1850,0.006722562
1851,-0.00090081897
1852,0.0018704282
1853,-0.014312478
1854,0.007504395
1855,-0.019423729
1856,0.002905703
1857,-0.0031279556
1858,-0.00800209
1859,0.0007259757
1860,0.0010951741
1861,0.007392368
1862,-0.0019155312
1863,-0.01728488
1864,-0.0031268743
1865,-0.01669794
1866,-0.0024970085
1867,-0.010785756
1868,0.0057135043
1869,0.0001993939
1870,-0.01985904
1871,-0.005944974
1872,0.006105627
1873,0.007723124
1874,-0.01036127
1875,0.0030132434
1876,1.2760968e-05
1877,0.014704984
1878,0.008508866
1879,0.007969481
1880,0.010123088
1881,-0.008790881
1882,-0.0061832857
1883,0.014343129
1884,-0.015881594
1885,0.0013028143
1886,-0.013112775
1887,-0.011791272
1888,0.013838692
1889,0.0043907557
1890,-0.001775852
1891,-0.0036416526
1892,0.013859452
1893,-0.0012039003
1894,0.008359659
1895,-0.01445039
1896,0.01907039
1897,-0.010255623
1898,-0.011339758
1899,-0.0069983
1900,-0.003110633
1901,0.009382814
1902,0.0057177367
1903,0.0021812043
1904,-0.013675161
1905,0.010582354
1906,0.0033184742
1907,-0.0014789992
1908,-0.006587739
1909,-0.003194912
1910,0.001207074
1911,-0.0043682843
1912,-0.0015942332
1913,0.010051094
1914,0.0031098316
1915,0.0077694445
1916,0.0040795184
1917,-0.00035925212
1918,0.00038481678
1919,0.004960294
1920,0.0032665732
1921,-0.0057402435
1922,-0.01561792
1923,0.014393358
1924,-0.012677163
1925,-0.009518765
1926,0.004378951
1927,-0.0085316505
1928,0.009413548
1929,0.001530023
1930,0.007935545
1931,-0.0030636648
1932,0.0073590158
1933,0.0036265957
1934,0.0065100766
1935,-0.005395592
1936,-0.01207984
1937,0.010962901
1938,0.015467698
1939,0.011591331
1940,-0.0069906693
1941,-0.0049406444
1942,0.0067130076
1943,0.019135006
1944,-0.01265877
1945,0.0019081541
1946,-0.004945624
1947,-0.015641838
1948,-0.01263464
1949,-0.0056886813
1950,-0.008495434
1951,-0.0039129043
1952,0.0003198451
1953,0.00071330706
1954,-0.0042664167
1955,0.0066466928
1956,-0.001141402
1957,-0.0022163899
1958,8.206486e-06
1959,-0.0052131847
1960,0.002915809
1961,0.0117313815
1962,-0.013388423
1963,0.0062093837
1964,-0.007989589
1965,0.015071573
1966,0.0048495526
1967,-0.002254828
1968,0.006469493
1969,0.0058267354
1970,0.007788425
1971,-0.001273456
1972,-0.0021740545
1973,0.0011296622
1974,0.013760941
1975,-0.0055838465
1976,-0.007819886
1977,0.0026277213
1978,-0.0068129394
1979,-0.0012292486
1980,-0.0078333095
1981,0.00576344
1982,-0.011203885
1983,0.009762025
1984,0.003663751
1985,0.011191169
1986,0.01143127
1987,0.005303259
1988,-0.0067734127
1989,0.0013229644
1990,-0.0019761913
1991,-0.005606842
1992,-0.010072328
1993,-0.0100747105
1994,0.0020279859
1995,-0.010951197
1996,-0.015856978
1997,0.014393637
1998,0.002038127
1999,-0.0054009226
2000,-0.012877732
2001,0.014582774
2002,-0.001260186
2003,-0.0104018
2004,-0.006934953
2005,-1.5498019e-05
2006,-0.0040837293
2007,0.003730104
2008,0.012746818
2009,-0.01504619
2010,-0.0024288525
2011,0.0041639362
2012,-0.0010021161
2013,-0.0042607025
2014,-0.0010691435
2015,-0.0033327364
2016,0.009369465
2017,-0.008398243
2018,0.0077991746
2019,-0.0020451248
2020,-0.015516164
2021,-0.0098993825
2022,-0.00029215676
2023,0.008073789
2024,0.001982474
2025,-0.0051489533
2026,-0.0024099387
2027,-0.0053511285
2028,-0.0012413339
2029,-0.008661897
2030,0.010976878
2031,0.0030128872
2032,-0.011330762
2033,0.007885448
2034,0.0023376266
2035,0.0061538536
2036,0.011999503
2037,0.013504954
2038,-0.0046962798
2039,0.01156492
2040,-0.006983245
2041,-0.00010358782
2042,0.011341167
2043,0.01685568
2044,0.0068391007
2045,-0.0027792635
2046,0.0033189673
2047,0.0043890644
2048,-0.00775671
2049,0.0148103945
2050,0.010033533
2051,-0.016736856
2052,-0.00082668907
2053,0.013673315
2054,-0.009846231
2055,-0.012178703
2056,0.010209917
2057,-0.003190434
2058,0.0164219
2059,-0.004021242
2060,-0.005905709
2061,0.005830565
2062,0.0055399104
2063,-0.005900787
2064,-0.009425197
2065,-0.009463533
2066,-0.005390193
2067,-0.004487511
2068,0.008342092
2069,0.011769989
2070,0.011930698
2071,-0.0032629522
2072,-0.011808476
2073,0.006952238
2074,0.0036497365
2075,-0.011177172
2076,0.007315036
2077,0.0075481636
2078,-0.003370106
2079,-0.008282763
2080,0.007182418
2081,-0.0060678516
2082,-0.010467223
2083,0.017266493
2084,-0.01144806
2085,-0.0028860907
2086,-0.005396488
2087,-0.0029166364
2088,-0.0093341
2089,-0.0069916653
2090,0.008954216
2091,-0.010669259
2092,0.0018849497
2093,0.010015497
2094,-0.011361947
2095,0.012903281
2096,-0.003350825
2097,-0.007946534
2098,-0.0016889626
2099,0.0067307204
2100,-0.0053572343
2101,0.005945633
2102,0.010647712
2103,-0.0046791695
2104,0.008658808
2105,-0.008992474
2106,-0.00086434605
2107,-0.008736923
2108,0.0020831546
2109,-0.008635382
2110,0.00029934093
2111,-0.013708077
2112,0.014792312
2113,0.006343914
2114,-0.0028219959
2115,0.0063313255
2116,0.0141000105
2117,-0.0052311164
2118,-0.0073296553
2119,-0.009780786
2120,0.0037568114
2121,0.0047777537
2122,0.019701712
2123,0.005700816
2124,0.014446293
2125,-0.00069364114
2126,0.0022393675
2127,0.010169956
2128,-0.0073826844
2129,0.012444966
2130,-0.0026816335
2131,0.0076189097
2132,-0.003906388
2133,-0.009837985
2134,0.003629922
2135,0.003276102
2136,0.00070780696
2137,-0.0098854825
2138,-0.016603773
2139,0.014449488
2140,-0.013513571
2141,0.004019491
2142,-0.006738875
2143,0.006616966
2144,0.0011723965
2145,-0.009851099
2146,-0.0015907269
2147,0.008734718
2148,-0.011372635
2149,-0.014435553
2150,-0.007422314
2151,-0.0144136185
2152,0.017176988
2153,-0.0014408688
2154,-0.010678209
2155,-0.009831748
2156,0.013433171
2157,3.658932e-05
2158,-0.0055226497
2159,-0.012762366
2160,0.011769737
2161,-0.01644949
2162,0.009492097
2163,0.010478108
2164,-0.0063409205
2165,-0.010541563
2166,0.0103200395
2167,-0.0071242657
2168,-0.012634446
2169,-0.01034586
2170,0.007271654
2171,-0.017366061
2172,-0.009227723
2173,-0.007166112
2174,0.0013448208
2175,-0.017996414
2176,0.018622572
2177,0.0027200186
2178,-0.0033571562
2179,-0.0144957835
2180,0.0041281623
2181,0.015427968
2182,0.008874492
2183,-0.007296073
2184,0.016143445
2185,-0.01841921
2186,0.008236811
2187,-0.0018226476
2188,0.0034417775
2189,0.015602786
2190,-0.0043936744
2191,-0.016435498
2192,-0.0061440933
2193,-0.0023723652
2194,-0.011781111
2195,-0.0013219697
2196,0.014334038
2197,0.010738447
2198,-0.01668751
2199,0.009326634
2200,-0.013018743
2201,-0.008643789
2202,-0.019846888
2203,0.005231415
2204,0.017350264
2205,0.019929903
2206,0.015715392
2207,-0.015954867
2208,-0.00095113076
2209,-0.015270279
2210,-0.013602254
2211,-0.0105992
2212,0.000538983
2213,-0.0020187006
2214,0.006158825
2215,0.0066740643
2216,0.003579948
2217,0.0065689865
2218,0.00022181465
2219,-0.00048826612
2220,-0.017095068
2221,0.0118442075
2222,0.015706263
2223,0.0067293104
2224,-0.011250369
2225,0.011665887
2226,-0.00030290737
2227,0.010429379
2228,0.00016394466
2229,-0.017273115
2230,0.0048600533
2231,-0.011657139
2232,-0.0041441387
2233,-0.0121120885
2234,-0.0028777746
2235,-0.01153709
2236,0.0009380606
2237,-0.0021027678
2238,0.013971699
2239,-0.0027215108
2240,-0.006185852
2241,0.011565164
2242,-0.015996715
2243,-0.018986145
2244,-0.008242034
2245,0.006243231
2246,-0.0047342223
2247,-0.008517918
2248,-0.009811251
2249,-0.014815225
2250,0.009073861
2251,-0.0004323071
2252,0.0026392415
2253,0.01533441
2254,-0.004597461
2255,-0.003310187
2256,0.0010715475
2257,0.0021657578
2258,0.0033395549
2259,-0.012649259
2260,0.016227784
2261,0.007568744
2262,-0.001299794
2263,0.0067646126
2264,-0.0032395383
2265,0.009658116
2266,-0.016819526
2267,0.0014360719
2268,-0.00549643
2269,0.013767618
2270,0.0067893076
2271,0.0023162044
2272,-0.006217094
2273,0.0070069926
2274,-0.0070904307
2275,0.0015724611
2276,-0.0022651113
2277,-0.0077759568
2278,-0.018200053
2279,-0.0068259286
2280,-0.006372039
2281,-0.0006297791
2282,-0.0051332866
2283,0.004347289
2284,0.0008743348
2285,-0.0109160915
2286,-0.0089639
2287,0.0035862194
2288,0.0077094547
2289,0.0054249675
2290,-0.014030256
2291,0.0059759715
2292,-0.0077383183
2293,0.0054866364
2294,0.008279276
2295,-0.0083933575
2296,-0.016665993
2297,-0.0038317675
2298,0.016093753
2299,-0.0061734654
2300,0.0033691986
2301,-0.000113219074
2302,0.0042395205
2303,0.0052076746
2304,-0.014246823
2305,-0.005916524
2306,-0.014142635
2307,-0.0025879536
2308,-0.01028442
2309,-0.009898223
2310,-0.002196428
2311,-0.0012041979
2312,0.0007240738
2313,-0.0061267344
2314,0.008516169
2315,0.0038958746
2316,0.009822943
2317,0.008644189
2318,0.0023535527
2319,0.0009271808
2320,0.008710788
2321,0.0066373963
2322,0.010354571
2323,0.0019306664
2324,0.010502945
2325,-0.002159059
2326,-0.0039077713
2327,-0.0006325887
2328,-0.011317482
2329,0.012965588
2330,-0.0026663977
2331,-0.0041904957
2332,0.0027467334
2333,-0.002790001
2334,0.0039685965
2335,-0.007293268
2336,-0.009131087
2337,-0.006108966
2338,-0.006112714
2339,-0.013855437
2340,-0.01695352
2341,-0.016292324
2342,0.0015494862
2343,0.015812578
2344,-0.011594062
2345,-0.004590429
2346,0.012401359
2347,-0.0008575517
2348,-0.013122285
2349,0.0007609972
2350,0.0055612074
2351,-0.0059468895
2352,-0.0020697035
2353,0.00733996
2354,-0.0013695322
2355,0.0033317336
2356,0.007940883
2357,-0.009126648
2358,0.0012562351
2359,0.018033594
2360,0.00457411
2361,-0.007839953
2362,-0.014965248
2363,0.013478705
2364,0.007610383
2365,0.010164625
2366,-0.008730561
2367,-0.0015885046
2368,0.008376866
2369,0.008245031
2370,0.00061700225
2371,-0.0029094042
2372,-0.01107065
2373,-0.0027937375
2374,0.008363729
2375,0.012875301
2376,0.016468948
2377,0.0063500702
2378,0.0022764527
2379,0.009484212
2380,0.0006141545
2381,-0.0013778699
2382,-0.011741696
2383,0.0020783115
2384,0.009163964
2385,0.0037768004
2386,-0.010412994
2387,-0.0041221012
2388,0.00042026758
2389,0.013363092
2390,0.017072916
2391,-0.00066367077
2392,-0.012102315
2393,-0.007852387
2394,-0.0029853266
2395,0.0021240164
2396,0.01268791
2397,0.002098888
2398,-0.0077535715
2399,0.0043775104
2400,0.011048765
2401,0.0014878468
2402,-0.014291067
2403,0.0059575904
2404,0.0060296436
2405,-0.004468102
2406,0.008107747
2407,0.011279633
2408,0.012178783
2409,0.007310434
2410,0.0010335919
2411,0.0053789974
2412,0.00015928844
2413,-0.007885061
2414,-0.0089879725
2415,0.0026166216
2416,0.004629251
2417,-0.014826763
2418,-0.0057575842
2419,0.006305729
2420,0.006435539
2421,0.008227218
2422,-0.009149641
2423,0.0039795944
2424,0.0078929765
2425,-0.008136796
2426,0.008877111
2427,-0.0016349286
2428,-0.0047941045
2429,0.008179935
2430,-0.0044828067
2431,0.019210823
2432,0.0073399027
2433,0.0054667317
2434,0.0013170758
2435,-0.0032456613
2436,0.010882405
2437,0.0005067914
2438,0.0055819796
2439,0.0022175766
2440,-0.00172057
2441,0.014082884
2442,-0.0011535588
2443,-0.005534664
2444,0.0042304355
2445,-0.003047104
2446,0.011500637
2447,0.006094312
2448,-0.008677029
2449,-0.00093612866
2450,-0.0120760575
2451,0.00069378986
2452,-0.012026698
2453,0.0015306121
2454,-0.009407215
2455,0.00040654305
2456,0.00806208
2457,-0.009607472
2458,-0.0028079173
2459,-0.0040725656
2460,8.460728e-05
2461,0.011128375
2462,-0.004339011
2463,0.0031486729
2464,0.007133522
2465,-0.008778678
2466,0.00012499752
2467,-0.018156681
2468,-0.008279697
2469,0.008286555
2470,-0.013137934
2471,0.00017007168
2472,0.008274555
2473,0.0031433336
2474,0.010686877
2475,-0.005173601
2476,-0.0092381425
2477,-0.013279347
2478,0.0009109796
2479,0.0003024639
2480,-0.006203792
2481,-0.010123221
2482,0.0015777786
2483,-0.014453747
2484,0.000959293
2485,-0.012768633
2486,0.003683007
2487,-0.004808981
2488,0.015561052
2489,0.006481393
2490,0.0020968227
2491,0.0034261115
2492,-0.0014387976
2493,-0.009437919
2494,-0.0011468389
2495,-0.008808449
2496,-0.011419447
2497,-0.012185074
2498,0.01834123
2499,-0.00088240346
2500,0.011298278
2501,0.010199581
2502,-0.01488981
2503,0.013037579
2504,0.016339954
2505,-0.0001828679
2506,0.019083373
2507,0.019140802
2508,-0.013504673
2509,-0.005172154
2510,0.008252185
2511,0.01113273
2512,0.010507918
2513,0.007829631
2514,0.009549749
2515,0.0026851876
2516,0.00084342953
2517,0.005109026
2518,0.007844748
2519,-0.017554907
2520,0.004264465
2521,0.0061083324
2522,0.011788698
2523,0.00520778
2524,0.0066968575
2525,-0.00582647
2526,-0.008280624
2527,0.010200215
2528,0.00052142
2529,-0.0025277946
2530,-0.0062521147
2531,0.007179259
2532,0.010334928
2533,-0.014041208
2534,0.0038523176
2535,0.0032131295
2536,0.0010134446
2537,-0.0060555553
2538,0.01518536
2539,0.0033614133
2540,0.006419317
2541,-0.00030205128
2542,-0.0005902743
2543,0.005307931
2544,-0.0016395987
2545,0.009926577
2546,0.010797609
2547,0.013088629
2548,0.005585808
2549,0.005958639
2550,-0.007346532
2551,0.015089611
2552,0.0059947344
2553,-0.003069177
2554,0.0023442712
2555,-0.00074807316
2556,-0.0076397173
2557,-0.015094942
2558,0.019724648
2559,-0.008211563
2560,0.015534986
2561,-0.013087476
2562,-0.018458247
2563,-0.003659909
2564,-0.015881063
2565,0.004964718
2566,-0.010426055
2567,0.0025840704
2568,-0.014646801
2569,-0.005271545
2570,-0.014097301
2571,-0.0039817267
2572,-0.0006772551
2573,-0.012023928
2574,-0.011297001
2575,-0.0058806427
2576,0.0074186716
2577,-0.001600464
2578,-9.2000075e-05
2579,-0.007923248
2580,-0.013054654
2581,0.0004145488
2582,-0.0023454928
2583,-0.006223802
2584,-0.01013635
2585,0.017499914
2586,0.002176502
2587,-0.0074650235
2588,0.0021474515
2589,-0.0044635963
2590,-0.0145710325
2591,-0.00088209537
2592,-0.0066586747
2593,0.0005769695
2594,0.0031318218
2595,-0.005062053
2596,0.008960576
2597,0.0068656728
2598,-0.008806892
2599,0.0107065225
2600,-0.0038964518
2601,-0.003884618
2602,-0.00868456
2603,0.009721948
2604,-0.0021654807
2605,0.0015767624
2606,0.007593996
2607,-0.0009506048
2608,0.0010403043
2609,-0.0037835063
2610,0.0044412576
2611,0.0052701794
2612,-0.00042355817
2613,-0.005961153
2614,-0.006198489
2615,-0.005412977
2616,-0.004939069
2617,-0.00032593735
2618,0.011169966
2619,0.0031677268
2620,0.006526292
2621,-0.003968266
2622,-0.00053932366
2623,0.011349951
2624,0.008806907
2625,-0.00049317104
2626,-0.0043896926
2627,-0.009912304
2628,-0.0067560985
2629,-0.00035662888
2630,-0.008697282
2631,0.013748404
2632,0.006745943
2633,0.0009940147
2634,-0.0156076625
2635,0.019970559
2636,-0.0031307568
2637,-0.010430097
2638,0.0058056316
2639,0.012957881
2640,0.0026237734
2641,-0.010744777
2642,0.01735609
2643,0.0027268846
2644,0.009779297
2645,-0.0032461127
2646,0.013446302
2647,-0.0019448559
2648,0.018380737
2649,-0.0042043272
2650,0.006547008
2651,-0.0018414183
2652,-0.007952662
2653,0.0023889283
2654,-0.009311926
2655,-0.01576544
2656,-0.0033555555
2657,-0.0047813845
2658,0.006453025
2659,0.008405818
2660,-0.0090886755
2661,0.012500597
2662,0.0067367586
2663,0.0040562823
2664,0.0136416005
2665,0.014161821
2666,0.006749168
2667,0.0010696832
2668,0.011583222
2669,-0.0094149355
2670,0.010817832
2671,-0.010655483
2672,-0.001963799
2673,-0.015041834
2674,-0.006001202
2675,0.004007012
2676,-0.017899506
2677,0.008039705
2678,-0.017061321
2679,-0.019823836
2680,-0.00097229244
2681,0.014872587
2682,0.008701158
2683,0.015610271
2684,-0.007915577
2685,0.010132164
2686,-0.0049150377
2687,0.01985174
2688,-0.004820232
2689,-0.0019642948
2690,-0.005553001
2691,-0.000453182
2692,-0.016620146
2693,0.011307358
2694,0.0028280756
2695,-0.008540823
2696,0.0041629747
2697,-0.007415786
2698,-0.0032732023
2699,-0.009947882
2700,0.009621601
2701,0.015379844
2702,0.0010537875
2703,0.009908667
2704,-0.004845821
2705,-0.0023405256
2706,-0.006380694
2707,-0.0015595857
2708,0.0053010285
2709,-0.004930062
2710,0.003845789
2711,-0.0116046
2712,-0.018343318
2713,-0.001006
2714,3.9621307e-05
2715,-0.010831323
2716,0.011817677
2717,0.011678662
2718,0.0025576486
2719,-0.015596871
2720,-0.0018670061
2721,0.000842161
2722,0.01167575
2723,-0.016777867
2724,0.0040178373
2725,0.007496532
2726,0.0060515734
2727,0.013097682
2728,0.0136785805
2729,-0.0036551186
2730,-0.0098045515
2731,0.010782705
2732,-0.010520467
2733,0.005439234
2734,0.0024828294
2735,0.0005591812
2736,0.0069669033
2737,-0.0045504067
2738,-0.009069004
2739,-0.008673116
2740,-0.016019559
2741,-0.008202425
2742,0.013850245
2743,0.0020368595
2744,-0.0037986506
2745,-0.0062555093
2746,-0.011975639
2747,-0.00056985725
2748,-0.0027860713
2749,-0.01478078
2750,-0.010085756
2751,0.004060764
2752,0.0039365697
2753,0.007012647
2754,-0.009131702
2755,-0.0005557507
2756,-0.010367375
2757,5.0814186e-05
2758,0.004218959
2759,0.008079548
2760,-0.010466944
2761,0.003296733
2762,0.0005448063
2763,-0.0047114776
2764,-0.013052199
2765,-0.0091698505
2766,0.002035778
2767,-0.0008533926
2768,-0.011215182
2769,0.016408216
2770,0.008792786
2771,-0.01817757
2772,0.016035099
2773,0.013199636
2774,0.0073408713
2775,0.014857515
2776,-0.004855325
2777,0.008337455
2778,0.011691351
2779,-0.011376992
2780,-0.0013073422
2781,0.0044684946
2782,-0.011928124
2783,0.0017293587
2784,0.006965067
2785,-0.01171372
2786,-0.0037448907
2787,-0.0030086674
2788,0.01039662
2789,0.0045463797
2790,-0.00022183891
2791,-0.0054246625
2792,0.0023982744
2793,0.004645153
2794,0.006851586
2795,-0.0045806402
2796,-0.0025027373
2797,0.014533619
2798,-0.006626294
2799,0.00032755508
2800,-0.0048988815
2801,-0.0025349387
2802,-0.008928445
2803,-0.008373658
2804,0.011876228
2805,-0.0019468953
2806,0.003180961
2807,0.011074239
2808,-0.007109368
2809,0.00031684813
2810,-0.004109821
2811,-0.0026948948
2812,0.0072994446
2813,-0.00039209134
2814,0.006842378
2815,-0.006262115
2816,-0.002555374
2817,0.0014703784
2818,0.00055447296
2819,-0.0011024299
2820,0.007942927
2821,0.00532543
2822,0.0068088407
2823,-0.013887622
2824,0.00063172897
2825,-0.011913185
2826,-0.016604437
2827,-0.0041543217
2828,-0.014589307
2829,-0.0077989623
2830,0.01794681
2831,0.014222288
2832,-0.0044493754
2833,0.011951281
2834,-0.008591336
2835,0.0009183837
2836,-0.005567217
2837,0.0064508785
2838,-0.0074618026
2839,-0.007869556
2840,0.0013340266
2841,0.014861338
2842,0.014851102
2843,0.0018280388
2844,0.0072894013
2845,0.0029457102
2846,0.011494051
2847,0.0027785539
2848,0.015425544
2849,-0.007815918
2850,-0.0034041065
2851,-0.0044996445
2852,0.0055242744
2853,0.000104685045
2854,-0.0054400708
2855,-0.001191639
2856,-0.017753586
2857,-0.006819515
2858,0.0069403136
2859,0.01624078
2860,-0.018109132
2861,0.00048741602
2862,-0.010516062
2863,-0.00779976
2864,0.0034186153
2865,0.004433664
2866,-0.008084582
2867,0.012032155
2868,0.0120720705
2869,-0.016743336
2870,0.0099620335
2871,-0.0019578782
2872,0.003110196
2873,7.353574e-06
2874,-0.016441671
2875,0.009779528
2876,0.0067331907
2877,-0.001063883
2878,0.012341017
2879,0.011050901
2880,-0.009836395
2881,-0.0031913966
2882,0.0054215086
2883,-0.008679271
2884,0.0042416197
2885,0.0016828784
2886,0.017401943
2887,0.01207724
2888,0.009308584
2889,-0.0042542485
2890,-0.0021127416
2891,0.012387278
2892,0.00026976503
2893,-0.003980509
2894,0.016243557
2895,-0.0020388071
2896,0.0065987776
2897,-0.0049931905
2898,-0.009081194
2899,0.0060474956
2900,0.0023854044
2901,-0.013578784
2902,0.003861287
2903,0.0017003333
2904,0.0014480726
2905,-0.015834128
2906,0.010720876
2907,-0.0019107382
2908,-0.011306947
2909,0.004983007
2910,0.011198952
2911,0.0004516436
2912,-0.0012366335
2913,0.012718119
2914,0.0046862927
2915,-0.0069331448
2916,0.013110424
2917,0.013286677
2918,-0.010881913
2919,0.0042866995
2920,0.002358197
2921,0.017746571
2922,0.0132462615
2923,0.004591255
2924,-0.0063135508
2925,0.001429159
2926,-0.0054628095
2927,0.0040350673
2928,0.0010742561
2929,-0.0029006645
2930,-0.001473892
2931,0.008866697
2932,0.0015285073
2933,0.012331495
2934,0.006271732
2935,-0.0019234916
2936,-0.01014972
2937,0.0069045434
2938,0.0072197323
2939,-0.010152215
2940,0.012512062
2941,-0.01306897
2942,0.0028097727
2943,-0.008719059
2944,1.850026e-07
2945,0.011900321
2946,-0.008191803
2947,-0.0088771
2948,-0.0018563824
2949,0.0032395169
2950,0.004350792
2951,0.003190349
2952,0.0069786943
2953,0.0056759506
2954,0.0077928198
2955,-0.012627754
2956,0.00061510387
2957,-0.0033628154
2958,-0.008804169
2959,0.0012671443
2960,0.015393997
2961,0.0091384435
2962,0.012507304
2963,-0.016434487
2964,0.012907876
2965,-0.00046205262
2966,2.2990114e-05
2967,0.00392991
2968,0.011527296
2969,0.008323896
2970,0.0022976997
2971,0.002813098
2972,-0.0058640386
2973,-0.00644334
2974,0.010629601
2975,0.012495246
2976,-0.004553883
2977,0.013994989
2978,-0.010182708
2979,0.0022181887
2980,0.01355227
2981,0.010150772
2982,0.0013432957
2983,-0.0032337946
2984,0.0041183163
2985,-0.0024898462
2986,0.016591065
2987,0.0006942111
2988,-0.00263451
2989,-0.0012278245
2990,-0.004531766
2991,0.012099381
2992,0.0020806172
2993,0.0009574311
2994,-0.000728389
2995,-0.0018142858
2996,-0.012355548
2997,0.011283618
2998,0.009206408
2999,0.0027610734
3000,0.008644937
3001,0.011838326
3002,-0.0064439583
3003,0.004893918
3004,0.011159569
3005,0.0155960955
3006,-0.0015115038
3007,-0.019586869
3008,-0.00013305679
3009,0.003120932
3010,0.00961589
3011,0.0049361647
3012,-0.006360443
3013,-0.00843394
3014,-0.0097134495
3015,-0.0010696534
3016,0.0052053593
3017,-0.0014006478
3018,-0.0071681263
3019,-0.0049497783
3020,-0.005582754
3021,-0.00059142965
3022,-0.007507114
3023,-0.0065454696
3024,0.013635343
3025,-0.0014189369
3026,0.0006980963
3027,0.0021494676
3028,0.0021374426
3029,-0.008997266
3030,-0.00579452
3031,0.0003348235
3032,0.009528058
3033,0.0063785627
3034,0.018762687
3035,0.010976346
3036,-0.004806976
3037,-0.0061281845
3038,-0.0040180553
3039,0.010157292
3040,-0.007477775
3041,0.0069374284
3042,0.003680701
3043,-0.004305364
3044,0.0048121004
3045,0.006969786
3046,0.0025349888
3047,0.007665781
3048,-0.013203398
3049,-0.012198401
3050,-0.011760082
3051,-0.00046256967
3052,-0.013138163
3053,-0.0076955324
3054,0.0028303007
3055,-0.0021780955
3056,0.01135863
3057,-0.0021872146
3058,-0.00084639835
3059,0.011020036
3060,0.00437659
3061,0.016244723
3062,-0.0023235406
3063,0.0095191775
3064,-0.0076495274
3065,0.00309612
3066,-0.013840553
3067,0.0070540374
3068,-0.01569159
3069,0.00442875
3070,0.0064712716
3071,-0.0051103733
3072,-0.011905708
3073,-0.0068011796
3074,-0.00018188503
3075,0.0055756522
3076,0.011707395
3077,0.0026521904
3078,0.013729228
3079,-2.699132e-05
3080,0.0061457935
3081,0.0031917642
3082,-0.0012397732
3083,-0.013181805
3084,0.00572626
3085,0.014884003
3086,0.007325944
3087,0.015389302
3088,0.009647153
3089,-0.004101988
3090,-0.009560106
3091,-0.007606164
3092,-0.00031589405
3093,-0.005032916
3094,0.0033519617
3095,0.010960377
3096,-0.0047553345
3097,0.002780512
3098,0.018079663
3099,-0.0039993236
3100,-0.0055091623
3101,0.0014720245
3102,0.008572822
3103,0.00813976
3104,-0.017862933
3105,0.007961597
3106,0.0069056046
3107,-0.007881806
3108,-0.0024761856
3109,0.016547903
3110,-0.012577245
3111,-0.003148747
3112,0.0018491313
3113,0.0069345157
3114,0.0018777958
3115,0.002070862
3116,-0.0013606577
3117,0.009812425
3118,0.005956806
3119,-0.0039614835
3120,0.0115615195
3121,-0.0007903853
3122,0.0063524446
3123,-0.0037108196
3124,0.0066773193
3125,0.0062714512
3126,-0.009147431
3127,-0.012363144
3128,0.00036042606
3129,0.0007008885
3130,-0.015034678
3131,-0.003040861
3132,-0.0058289138
3133,-0.0022803342
3134,-0.012164268
3135,-0.005489649
3136,0.011439745
3137,-0.002824003
3138,-0.00063794275
3139,-0.00445209
3140,-0.0080789095
3141,-0.013725125
3142,-0.0040059197
3143,-0.0027274746
3144,0.00017422557
3145,0.00023183443
3146,0.0022440865
3147,0.01675251
3148,0.006859181
3149,0.007832419
3150,0.0003394908
3151,0.012821311
3152,-0.00803355
3153,0.0003795481
3154,-0.012648405
3155,0.004089255
3156,-0.0054678824
3157,-8.799674e-05
3158,0.007990325
3159,0.008570218
3160,0.017492507
3161,-0.01451968
3162,-0.0028165567
3163,-0.00026521226
3164,-0.002747853
3165,0.016335433
3166,-0.00155806
3167,-0.00018729214
3168,-0.0032923054
3169,0.0074999984
3170,-0.001049704
3171,5.093502e-05
3172,-0.0028908313
3173,0.0077226297
3174,0.0044759456
3175,0.0015014325
3176,0.0021154464
3177,-0.006746833
3178,-0.012409753
3179,0.0038795115
3180,0.00047110862
3181,0.008677689
3182,0.0014564812
3183,0.0026726169
3184,-0.0018796569
3185,0.0009933861
3186,0.0021923007
3187,-0.0091134105
3188,-0.0049890373
3189,-0.006598292
3190,-0.012706997
3191,0.003815114
3192,-0.009770533
3193,0.008858471
3194,-0.0050228196
3195,0.011591315
3196,0.008098908
3197,-0.0018787158
3198,0.009529411
3199,-0.009140145
3200,-0.015860423
3201,-0.013619032
3202,0.010902216
3203,0.006414891
3204,0.0013815812
3205,0.008622655
3206,-0.008172747
3207,0.007878549
3208,-0.018080546
3209,-0.0040859287
3210,-0.0010726628
3211,0.0030289793
3212,0.019909399
3213,0.0020148915
3214,-0.011533209
3215,-0.0058804783
3216,-0.012231635
3217,0.00032795715
3218,-0.0007294655
3219,-0.0011967917
3220,-0.0025796955
3221,-0.0075459704
3222,-0.013353778
3223,0.01186366
3224,-0.0028750217
3225,-0.0008676127
3226,-0.0001507062
3227,-0.0028524047
3228,-0.0012960968
3229,0.008241387
3230,-0.010957915
3231,-0.009510601
3232,-0.013206987
3233,-0.018937137
3234,-0.0048359553
3235,-0.0068344716
3236,-0.0040239883
3237,0.010768016
3238,0.0066994824
3239,0.005771983
3240,0.014178253
3241,-0.004080346
3242,-0.0061487905
3243,0.0065625086
3244,-0.0014367395
3245,-0.0055137505
3246,-0.005704664
3247,-0.019163385
3248,0.012566441
3249,-0.0047427947
3250,-0.004363533
3251,-0.006218464
3252,0.0064541656
3253,-0.005566957
3254,0.0034122858
3255,0.00789465
3256,-0.0014062678
3257,-0.015161622
3258,0.0037798753
3259,0.0070683197
3260,0.0074147237
3261,0.00014183889
3262,-0.0017041522
3263,0.0008395861
3264,0.0018378041
3265,0.015471108
3266,-0.00023942665
3267,-0.008107932
3268,0.002691356
3269,-0.00036639854
3270,0.009149972
3271,-0.006534158
3272,0.0040562106
3273,-0.0069497777
3274,0.0051477687
3275,-0.00032661424
3276,0.0061303484
3277,-0.013473028
3278,0.010072632
3279,0.019681064
3280,-0.003320342
3281,0.013406829
3282,-0.004944814
3283,-6.2956184e-05
3284,-0.005018962
3285,0.017687058
3286,0.0025324356
3287,-0.018379865
3288,-0.010172547
3289,0.010374735
3290,-0.0023954595
3291,-0.0073219026
3292,-0.0069502834
3293,0.007105378
3294,-0.006981585
3295,0.006132979
3296,-0.008567637
3297,0.006838992
3298,-0.010621383
3299,-0.0026598794
3300,0.00047875626
3301,-0.0027122933
3302,-0.012753643
3303,-0.009159091
3304,0.0013630779
3305,-0.00050449156
3306,0.0014065721
3307,-0.0030294014
3308,0.0069308174
3309,-0.00014414011
3310,-0.005560237
3311,0.014301581
3312,0.00721126
3313,-0.007833869
3314,0.017485417
3315,0.0022725344
3316,0.010137608
3317,0.006778706
3318,-0.009811671
3319,0.013927711
3320,0.00028804666
3321,-0.0005260145
3322,0.010293077
3323,0.00966604
3324,-0.0024932763
3325,-0.0028326379
3326,-0.0046853637
3327,-0.00050271966
3328,0.017814172
3329,0.0031401878
3330,0.003485234
3331,-0.009157118
3332,0.010103102
3333,-0.005981672
3334,-0.0037383547
3335,-0.0026673952
3336,-0.00048285988
3337,-0.0018195759
3338,0.0064667035
3339,0.003186643
3340,-0.0012089086
3341,-0.010304462
3342,-0.003327624
3343,0.009392425
3344,-0.0034946864
3345,-0.0011947842
3346,0.0003128618
3347,0.010096341
3348,0.002482976
3349,-0.016178403
3350,0.016077297
3351,-0.009663642
3352,0.008957141
3353,0.015264155
3354,0.009138732
3355,0.0060981554
3356,-0.0038312173
3357,0.003570734
3358,-0.0012959898
3359,0.0031358353
3360,-0.010313647
3361,0.0022181785
3362,-0.006142906
3363,-0.01224779
3364,0.015278684
3365,-0.008170945
3366,-0.005525904
3367,0.010452725
3368,0.008288137
3369,-0.01145853
3370,-0.0064470028
3371,-0.012727817
3372,-0.00863848
3373,0.01215807
3374,-0.0045102024
3375,-0.010021035
3376,0.0015952154
3377,-0.0029538393
3378,0.013865571
3379,-0.0006414081
3380,0.007370426
3381,0.012408922
3382,0.007049334
3383,0.007060923
3384,0.0030711645
3385,0.010253902
3386,0.018912712
3387,0.0041123033
3388,0.0036073453
3389,-0.015554653
3390,-0.009605889
3391,0.012904618
3392,0.005362098
3393,-0.0020601654
3394,-0.005129091
3395,0.004313967
3396,-0.009021414
3397,0.0073202155
3398,-0.016337654
3399,0.0063853334
3400,0.0014932096
3401,0.003894622
3402,-0.0041096313
3403,0.0005378262
3404,-0.0017473086
3405,0.004366777
3406,0.00601402
3407,-0.0010682159
3408,-0.0035538583
3409,0.009091296
3410,-0.005328563
3411,0.0004231719
3412,-0.017023223
3413,0.0070991255
3414,-0.012779656
3415,0.012350995
3416,-0.0077568223
3417,-0.0016189266
3418,0.009336333
3419,0.004603075
3420,0.0016136218
3421,0.00815147
3422,-0.005940375
3423,-0.016497454
3424,0.0026238603
3425,-0.0067282296
3426,0.00512417
3427,-0.016807301
3428,-0.012690282
3429,-0.008944374
3430,-0.0071940273
3431,0.006858815
3432,0.01813852
3433,0.010283085
3434,0.0050286
3435,0.016267586
3436,0.0060043437
3437,-0.0064398795
3438,-0.005555457
3439,0.0085495915
3440,-0.011941357
3441,-0.0056556347
3442,0.0017503528
3443,-0.0085470965
3444,-0.00855156
3445,0.00035500425
3446,-0.0017615455
3447,-0.01866499
3448,0.0021068656
3449,-0.012016253
3450,0.0043675294
3451,-0.0051702457
3452,-0.007138284
3453,-0.0014373888
3454,0.009170811
3455,-0.004720885
3456,0.009161367
3457,0.0028693695
3458,0.005257973
3459,-0.017238222
3460,0.004654341
3461,-0.0056548812
3462,-0.014890563
3463,-0.006305351
3464,0.009172325
3465,0.013249128
3466,-0.001737706
3467,0.0035288134
3468,-0.016914725
3469,0.01013937
3470,0.017786155
3471,-0.012655001
3472,-0.0011253388
3473,0.013571681
3474,-0.003968439
3475,-0.01783247
3476,-0.012564846
3477,0.00029755678
3478,0.0026679097
3479,0.00087462005
3480,-0.0066997237
3481,-0.010103542
3482,-0.0045754197
3483,-0.00048407563
3484,-0.00715389
3485,0.0077911187
3486,0.008576242
3487,-0.003860534
3488,-0.0020785192
3489,-0.008003424
3490,-0.0008838619
3491,0.018782265
3492,0.0065290555
3493,-0.0036617366
3494,0.0056947153
3495,0.00029740823
3496,-0.01944275
3497,0.014882479
3498,-0.0073494148
3499,-0.010333113
3500,-0.0010025083
3501,-0.0018999169
3502,0.017260302
3503,0.00059803826
3504,-0.0042717815
3505,-0.011781054
3506,-0.005867065
3507,0.009994681
3508,-0.0009890487
3509,0.009147844
3510,-0.01524545
3511,-0.0055850954
3512,-0.006665589
3513,0.0020133653
3514,-0.008153514
3515,-0.009767503
3516,0.008080186
3517,0.00928107
3518,-0.004855067
3519,-0.009873547
3520,0.0050931657
3521,0.005232643
3522,0.0035751401
3523,0.014255051
3524,0.01999784
3525,0.010047772
3526,0.004247437
3527,0.011839702
3528,0.004847482
3529,0.0010553197
3530,-0.006115314
3531,-0.006238359
3532,-0.001554422
3533,0.01635399
3534,0.00953713
3535,-0.011709636
3536,-0.016946143
3537,0.0040661544
3538,-0.012325664
3539,0.007076238
3540,-0.008240634
3541,0.010043787
3542,-0.011122763
3543,0.015720144
3544,0.00133624
3545,0.0062606675
3546,0.0076983008
3547,-0.008515331
3548,-0.009316605
3549,-0.002848283
3550,0.00788388
3551,-0.0059152083
3552,-0.0018907764
3553,0.0069006463
3554,0.017882453
3555,0.0030834833
3556,0.0081878705
3557,-0.014828953
3558,-0.0061954926
3559,-0.008676704
3560,0.0036625022
3561,-0.013513865
3562,-0.0082410285
3563,-0.0041791745
3564,0.010001265
3565,-0.0045990087
3566,-0.0063808276
3567,-0.010955704
3568,-0.00032082258
3569,0.0052280137
3570,-0.0056198295
3571,-0.008116113
3572,0.009084633
3573,0.006683683
3574,0.013872403
3575,0.008387942
3576,0.008996359
3577,0.0048058736
3578,0.014778784
3579,0.014253188
3580,-0.0005746895
3581,-0.002986795
3582,-0.003124942
3583,0.00024662
3584,-0.008753754
3585,0.0015193218
3586,0.009925817
3587,-0.0011134993
3588,0.0022408788
3589,0.017957438
3590,0.014718832
3591,-0.01134773
3592,0.006720872
3593,0.0052697943
3594,0.004568456
3595,0.007729648
3596,0.009795636
3597,0.0019804542
3598,0.001705582
3599,0.014241937
3600,-0.0049571483
3601,-0.0039920527
3602,-0.0023448998
3603,0.003747179
3604,0.001474595
3605,-0.0017341968
3606,0.0045026992
3607,-0.0043909363
3608,-0.0074923937
3609,-0.0022166746
3610,-0.012070587
3611,0.0040888
3612,0.010924544
3613,0.0037697563
3614,-0.012786106
3615,0.0081531685
3616,-0.00024286108
3617,0.0059914086
3618,0.006301084
3619,0.007221305
3620,0.0015802109
3621,0.0050645536
3622,0.0082838405
3623,-0.008219964
3624,-0.0025717998
3625,0.010723674
3626,0.00041773153
3627,-0.0027751701
3628,-0.004526655
3629,-0.0048470586
3630,0.006648893
3631,-0.00617142
3632,-0.006430328
3633,-0.0019666995
3634,0.001588792
3635,-0.00307598
3636,-0.00759461
3637,-0.00066136307
3638,-0.0026477634
3639,-0.006929427
3640,-0.010616561
3641,-0.013402333
3642,0.010814901
3643,0.0020822398
3644,0.0023963854
3645,-0.0040821345
3646,0.0048789787
3647,-0.0192913
3648,0.0047134445
3649,0.009333346
3650,0.0112552475
3651,0.006536405
3652,0.007051181
3653,-0.001331916
3654,-0.0057238117
3655,0.011475002
3656,0.0026737195
3657,0.010128173
3658,0.0003783469
3659,-0.0018805478
3660,-0.0046838634
3661,0.017469946
3662,0.009104323
3663,0.0047614765
3664,0.0053545665
3665,-0.004534295
3666,0.0034295004
3667,-0.0017713489
3668,0.0056155473
3669,0.0013659542
3670,0.0042665983
3671,0.014648339
3672,0.0034792454
3673,-0.006602389
3674,0.010600171
3675,0.015122001
3676,0.010042613
3677,-0.004314114
3678,-0.003654024
3679,-0.019017048
3680,0.010661102
3681,0.014239603
3682,-0.0023426516
3683,0.0045016003
3684,-0.010239108
3685,0.006781015
3686,0.0045308517
3687,0.012463744
3688,0.008496512
3689,-0.009179692
3690,0.0101409145
3691,-0.01966381
3692,-0.007133961
3693,-0.0043912022
3694,-0.0032618293
3695,0.0078121787
3696,0.003390604
3697,-0.0028617384
3698,-0.008397274
3699,0.0052705463
3700,-0.008902465
3701,-0.01112565
3702,-0.015716804
3703,0.003254079
3704,0.00415306
3705,-0.009228277
3706,-0.0013906334
3707,0.0021904001
3708,0.013165188
3709,0.012460735
3710,-0.00047634603
3711,0.0051897294
3712,-0.00037752025
3713,-0.007201156
3714,-0.012436816
3715,-0.016217941
3716,0.013518644
3717,0.0045376117
3718,-0.0005638142
3719,0.0068074134
3720,-0.0009945454
3721,0.011493133
3722,0.019087238
3723,0.01465624
3724,0.0011480973
3725,-0.015008196
3726,-0.006236241
3727,0.009229853
3728,0.0030705507
3729,0.009734069
3730,0.01027841
3731,-0.0034256473
3732,-0.0068808803
3733,0.002128837
3734,0.0139760645
3735,-0.0060301656
3736,0.015262061
3737,0.018185856
3738,-0.0056365677
3739,0.0041791913
3740,-0.0073602195
3741,0.019209644
3742,0.012786396
3743,0.00023871723
3744,0.0018238446
3745,-0.014776969
3746,-0.005678393
3747,-0.013298686
3748,0.0060838447
3749,0.007328975
3750,3.893816e-05
3751,-0.00040038137
3752,0.004582051
3753,-0.0056260102
3754,0.0051719206
3755,0.00865721
3756,0.0077971346
3757,0.016681593
3758,0.002376743
3759,-0.0056312843
3760,0.009904341
3761,0.004310932
3762,0.004640755
3763,0.003871993
3764,-0.008497542
3765,-0.01453974
3766,0.0096296845
3767,-0.005768457
3768,-0.006006719
3769,0.012257451
3770,0.0073147505
3771,-0.0045006145
3772,0.0064798016
3773,0.0063063316
3774,0.0035388821
3775,-0.0043679606
3776,0.0053492053
3777,0.008427846
3778,0.0009357169
3779,0.003917463
3780,-2.1853737e-05
3781,-4.8169943e-05
3782,-0.0064562913
3783,-0.0036373383
3784,0.00017122662
3785,-0.007553413
3786,-0.0068146624
3787,0.0028109627
3788,-0.0034091722
3789,-0.0049570315
3790,-0.009110111
3791,-0.0028877323
3792,0.006767876
3793,-0.0045910166
3794,0.010229018
3795,0.006413497
3796,-0.0067728907
3797,0.012817327
3798,0.0062532285
3799,0.015925398
3800,0.003399029
3801,-0.009225301
3802,0.003144986
3803,-0.011672171
3804,-0.0021689194
3805,0.004030251
3806,-0.0022350268
3807,-0.014209219
3808,-0.0034581327
3809,0.006180684
3810,0.016167393
3811,-0.019957537
3812,0.0017004081
3813,0.00911403
3814,-0.004276152
3815,-0.0014819573
3816,0.008559035
3817,-0.005516406
3818,0.018290117
3819,0.004495598
3820,0.0036646791
3821,0.019400954
3822,0.004373314
3823,0.008236168
3824,0.0035586043
3825,-0.012937727
3826,-0.007986579
3827,-0.0056058504
3828,0.005772536
3829,-0.009787806
3830,-0.011143708
3831,-0.00040688782
3832,-0.0021993818
3833,0.00860529
3834,0.00898396
3835,0.011578532
3836,-0.0038097897
3837,0.0027469865
3838,-0.012736311
3839,0.0056076148
3840,-0.0014935727
3841,-0.005559004
3842,-0.012237518
3843,-0.014337478
3844,-0.0013683761
3845,-0.0069448063
3846,-0.009943776
3847,-0.012111124
3848,-0.0047399607
3849,-0.0003518531
3850,0.009892667
3851,0.017652594
3852,0.007727039
3853,0.0061317766
3854,0.0067529394
3855,0.012713629
3856,0.00111455
3857,-0.013450685
3858,-0.017315328
3859,-0.002505981
3860,-0.007883637
3861,-0.004857615
3862,-0.00278983
3863,0.00073538604
3864,0.016302219
3865,-0.002169784
3866,0.009485235
3867,0.00866831
3868,-0.006040774
3869,-0.006265852
3870,0.012720726
3871,0.013922606
3872,-0.0046053566
3873,0.011652975
3874,-0.004645187
3875,-0.010050711
3876,0.011307651
3877,0.005699949
3878,-0.0044413316
3879,-0.009041282
3880,0.01054178
3881,0.003908995
3882,0.0074835247
3883,0.002707058
3884,0.0074370475
3885,0.009385119
3886,-0.011149139
3887,0.0024531127
3888,0.003142581
3889,-0.0011414366
3890,0.019054433
3891,-0.0051925806
3892,-0.0031497497
3893,-0.006876
3894,0.013116895
3895,0.0039006954
3896,0.00016000289
3897,0.007894891
3898,0.007691856
3899,0.010354716
3900,-0.0013260558
3901,0.019359306
3902,0.00092316733
3903,-0.0026079034
3904,-0.00018061919
3905,0.0020781253
3906,-0.004716472
3907,-0.002102687
3908,0.0013024297
3909,-0.005956215
3910,-0.0037764674
3911,-0.010203928
3912,-0.00029787165
3913,-0.008599726
3914,-0.0032999022
3915,0.004709849
3916,-0.0099064475
3917,0.002867541
3918,0.0027045493
3919,0.007417312
3920,-0.009475829
3921,0.009191941
3922,-0.016511023
3923,0.012793834
3924,0.0055854185
3925,-0.014215301
3926,0.00022697
3927,0.007193691
3928,0.0022792278
3929,0.015056245
3930,0.015300996
3931,-0.015751025
3932,-0.0037854565
3933,0.00211607
3934,-0.0035278108
3935,-0.01001208
3936,-0.0015922441
3937,0.011609219
3938,-0.004741079
3939,0.017045578
3940,-0.004275897
3941,-0.0073005604
3942,-0.006089274
3943,0.0046458687
3944,-0.012558384
3945,-0.008994554
3946,-6.853565e-05
3947,-0.011635058
3948,0.015205098
3949,0.0001929742
3950,0.0029777265
3951,0.00023232073
3952,-0.004223138
3953,0.0045474954
3954,4.3502867e-05
3955,0.003977367
3956,-0.0006988384
3957,-0.006476531
3958,0.0096007725
3959,0.005129748
3960,-0.0076402826
3961,-0.01012751
3962,-0.012803592
3963,0.010730173
3964,-0.006961626
3965,-0.008553748
3966,-0.014591748
3967,0.0066453526
3968,-0.0051036696
3969,-0.00078112184
3970,-0.008247254
3971,0.009230278
3972,0.0090242345
3973,0.0026054825
3974,-0.006435434
3975,-0.0041980455
3976,-0.013031781
3977,0.00012469276
3978,0.004662586
3979,0.00026950412
3980,0.006832231
3981,-0.00914074
3982,-0.007927675
3983,0.006863864
3984,0.0059394343
3985,-0.005477738
3986,-0.0048140483
3987,0.010667597
3988,-0.014478322
3989,0.0017735482
3990,-0.018950054
3991,-0.0069231377
3992,-0.0024150726
3993,0.009914113
3994,-0.001240101
3995,-0.0062576192
3996,0.01769086
3997,-0.0068248003
3998,0.007927109
3999,-0.008361874
4000,-0.011485255
4001,0.019916218
4002,-0.013821075
4003,0.019117814
4004,0.0005197777
4005,0.0018764419
4006,0.0004605457
4007,-0.0026448534
4008,-0.014254617
4009,-0.0070229783
4010,0.0081948405
4011,-0.0051516853
4012,-0.0027663687
4013,-0.0058182315
4014,0.004246514
4015,0.0069843624
4016,-0.013910191
4017,-0.012764065
4018,0.004421539
4019,-0.008771592
4020,-0.0039802687
4021,0.01213859
4022,-0.0017603319
4023,0.008178999
4024,0.00393508
4025,0.013265818
4026,-0.003024438
4027,0.0037789752
4028,-0.0030000599
4029,0.00061699434
4030,0.0054730363
4031,0.009914925
4032,0.001352779
4033,0.01579253
4034,-0.007836945
4035,0.00466338
4036,-0.00060326536
4037,0.015768401
4038,-8.978781e-05
4039,-0.004835467
4040,-0.004834771
4041,-0.0006689794
4042,-0.013115595
4043,-0.015337826
4044,-0.01144884
4045,0.0016694308
4046,-0.009147714
4047,0.006102106
4048,0.008093518
4049,0.009598865
4050,0.0051102173
4051,0.009140184
4052,-0.010999457
4053,-0.0006841185
4054,0.002426799
4055,0.014160741
4056,-0.005925766
4057,0.0036712398
4058,0.0033351958
4059,-0.0043963282
4060,0.0088223955
4061,-0.00062210887
4062,-0.013599757
4063,0.0052143694
4064,-0.0065256758
4065,0.00024505908
4066,0.014795282
4067,-0.0013803713
4068,0.005913605
4069,-0.0060698036
4070,0.007743869
4071,0.005816884
4072,0.014122918
4073,-0.009778815
4074,0.0044510816
4075,-0.0058649154
4076,-0.002799804
4077,0.007856658
4078,-0.005477616
4079,-0.010098699
4080,-0.0012185194
4081,0.0015138272
4082,-0.011773001
4083,-0.01657097
4084,0.008943147
4085,0.0066084065
4086,-0.001796664
4087,-0.01877682
4088,0.009770238
4089,-0.0040405504
4090,-0.0032623028
4091,-0.008697951
4092,-0.012941915
4093,-0.00035900052
4094,0.005868176
4095,0.008557077
4096,-0.012026882
4097,-0.0033532563
4098,0.012228379
4099,0.005954059
4100,0.009170489
4101,0.0063690133
4102,-0.00053567276
4103,0.005055785
4104,-0.0018185709
4105,-0.0018935335
4106,-0.014788529
4107,-0.0046459734
4108,-0.0040550805
4109,-0.0013779782
4110,-0.0016187103
4111,-0.010044387
4112,-0.0014249806
4113,0.013157471
4114,-0.0012478806
4115,0.0042980127
4116,-0.018125258
4117,-0.005140598
4118,0.011520474
4119,0.00083324226
4120,-0.0027232699
4121,0.0052300924
4122,0.0062179593
4123,-0.015938722
4124,-0.0010283059
4125,0.008157242
4126,-0.0049315454
4127,-0.0021502106
4128,-0.00033790295
4129,-0.008929378
4130,0.012425678
4131,-0.00481538
4132,-0.0051679546
4133,-0.0048341984
4134,-0.0031098416
4135,-0.004990611
4136,-0.011145982
4137,-0.0025690356
4138,0.0014604939
4139,0.004384648
4140,0.002627159
4141,-0.013605819
4142,0.007192436
4143,-0.0022476865
4144,0.007729701
4145,-0.014555772
4146,0.012084
4147,-0.0010883274
4148,-0.009894679
4149,-0.0016677516
4150,-0.0018961802
4151,0.0077283713
4152,-0.011535435
4153,0.0037781338
4154,0.011947901
4155,0.009807659
4156,-0.006659561
4157,-0.0058144447
4158,-0.00398334
4159,-0.010478211
4160,0.017328247
4161,0.0068032136
4162,-0.005946832
4163,-0.00032849575
4164,-0.011279592
4165,-0.001559734
4166,-0.003278707
4167,0.009191955
4168,-0.016944047
4169,-0.0039356425
4170,0.007900808
4171,0.009108812
4172,0.006092051
4173,-0.00768515
4174,0.013790067
4175,-0.011041794
4176,-0.0030718697
4177,0.010746451
4178,0.0025509754
4179,0.011871155
4180,0.011423874
4181,-0.0066810716
4182,-0.01857532
4183,-0.0054565584
4184,-0.0050215474
4185,0.004155713
4186,0.007756104
4187,0.007080108
4188,0.0040320335
4189,0.013724987
4190,-0.00340845
4191,0.009966494
4192,-0.0002579386
4193,0.0024465038
4194,0.0020895232
4195,0.019647175
4196,-0.007021871
4197,-0.007854705
4198,0.0025508716
4199,-0.013169747
4200,0.012857268
4201,0.013766206
4202,-0.0155006675
4203,0.009905896
4204,-0.002303784
4205,0.0012748708
4206,-0.002965935
4207,-0.0017479737
4208,-0.0077869245
4209,0.0074085584
4210,-0.007201736
4211,-0.013016929
4212,0.005362976
4213,-0.0017230995
4214,0.009759632
4215,0.0008519521
4216,-0.010597084
4217,0.00095256936
4218,0.012274389
4219,0.00419445
4220,-0.0070111556
4221,0.00446315
4222,0.0011928846
4223,0.014160693
4224,-0.0025888283
4225,-0.0002578709
4226,0.0049650623
4227,0.0023007963
4228,0.012375226
4229,-7.493508e-05
4230,-0.0003283154
4231,-0.014566225
4232,0.004697605
4233,-0.007664555
4234,0.006262924
4235,-0.004185798
4236,0.010704734
4237,-0.003110179
4238,-0.007875897
4239,0.0005189236
4240,-0.005142591
4241,0.00791695
4242,0.0013228452
4243,-0.006150029
4244,-0.014575524
4245,0.010865756
4246,-0.0062005245
4247,-0.0036285706
4248,-0.0070988997
4249,-0.010411166
4250,0.008722835
4251,-0.0014876708
4252,-0.011545571
4253,0.004241024
4254,-0.0024258639
4255,-0.0019181182
4256,0.01236486
4257,0.0027767962
4258,-0.008257173
4259,0.00544082
4260,-0.0010862184
4261,-0.0058498248
4262,-0.008710534
4263,0.011318365
4264,-0.010978529
4265,-0.0021678181
4266,-0.004048638
4267,-0.011253519
4268,0.003967706
4269,0.009841289
4270,0.0053867735
4271,-0.003512656
4272,0.0035658388
4273,-0.006810977
4274,-0.0055205207
4275,0.01949899
4276,0.007580079
4277,0.0067953803
4278,-0.0068932353
4279,0.009165042
4280,0.012410179
4281,0.004135145
4282,0.005290464
4283,-0.0031158437
4284,0.007494719
4285,0.0043267976
4286,-0.0062491805
4287,-0.010589718
4288,0.006978245
4289,0.008854048
4290,-0.019163454
4291,-0.0022081344
4292,-0.0027546245
4293,0.0030429394
4294,0.0022847918
4295,-0.006812202
4296,0.011050852
4297,-0.009489952
4298,-0.008134156
4299,0.0036687264
4300,-0.018751483
4301,0.012936115
4302,-0.0056376113
4303,-0.0060910685
4304,-0.0002846072
4305,-0.0054939915
4306,0.012496105
4307,0.006838048
4308,-0.0029242933
4309,-0.007075761
4310,-0.0062826383
4311,0.011513412
4312,0.014359055
4313,0.016013782
4314,6.890157e-05
4315,-0.00037619725
4316,-0.0042969417
4317,0.0005751376
4318,0.008338986
4319,0.0062260637
4320,0.005408264
4321,-0.018269029
4322,-0.012147119
4323,0.0090384465
4324,-0.0012432156
4325,-0.009376829
4326,0.0050682854
4327,0.009359959
4328,-0.0073853876
4329,0.0059994333
4330,-0.0034334392
4331,-0.0043905536
4332,0.0070991153
4333,-0.004688216
4334,-0.011887582
4335,-0.011612362
4336,-0.0002705184
4337,-0.006266329
4338,0.0036687416
4339,0.0026708024
4340,-0.007208847
4341,-0.014996491
4342,-0.011009891
4343,0.013197443
4344,-0.004254749
4345,-0.0011294528
4346,-0.0040113106
4347,0.00965449
4348,0.00039796022
4349,-0.0033567408
4350,0.007124484
4351,-0.0039793625
4352,-0.0045831413
4353,-0.010677232
4354,-0.012948744
4355,0.004635552
4356,0.0014775458
4357,-0.010062203
4358,-0.0007911994
4359,0.00336927
4360,-0.0024500033
4361,0.008746226
4362,-0.0003198411
4363,0.0019894477
4364,-0.017008279
4365,0.006488102
4366,-0.0034804123
4367,-0.0051810183
4368,0.0034976052
4369,0.0068630367
4370,-0.005795917
4371,0.0074284556
4372,-0.00058285886
4373,-0.00063481554
4374,0.008129255
4375,0.004228095
4376,0.009348782
4377,0.016026553
4378,0.015686609
4379,0.009877882
4380,-0.004828656
4381,-0.017203044
4382,-0.0034962748
4383,-0.00052091153
4384,-0.014343733
4385,-0.002913423
4386,-0.0093562305
4387,-0.0022755403
4388,-0.0060399766
4389,0.00041489772
4390,0.0036637585
4391,0.01806188
4392,0.015172524
4393,-0.013732205
4394,-0.006337953
4395,-0.0061964397
4396,-0.008023862
4397,-0.00037372173
4398,-0.0059709055
4399,0.004455517
4400,-0.004632422
4401,-0.0012534107
4402,0.0042813513
4403,-0.0029380221
4404,0.00075420947
4405,0.014691761
4406,-0.01197256
4407,-0.0021803733
4408,-0.0061671278
4409,-0.0036937257
4410,-0.0061816853
4411,0.004502225
4412,0.014231499
4413,-0.0068278047
4414,0.0025417488
4415,0.0053239213
4416,0.00019787281
4417,0.016299428
4418,-0.00027828568
4419,0.0102575235
4420,-0.0063720206
4421,0.0061515137
4422,0.00025276063
4423,-0.008394405
4424,-0.00038168582
4425,-0.0011404387
4426,-0.004808564
4427,-0.018310973
4428,0.0027413943
4429,0.0020926949
4430,-0.0034102486
4431,0.0023087738
4432,-0.0083466405
4433,-0.018089795
4434,0.008943177
4435,-0.005466147
4436,4.6611578e-05
4437,-2.7485126e-05
4438,0.015462696
4439,-0.009540756
4440,-0.006119879
4441,0.007404504
4442,-0.011548916
4443,-0.0029927515
4444,0.0041035167
4445,0.0005038379
4446,0.0069908365
4447,0.011537943
4448,-0.009705719
4449,0.0032307093
4450,0.006226313
4451,0.003301237
4452,0.0025390137
4453,-0.011292726
4454,0.0032316349
4455,0.0014087257
4456,-0.0029401365
4457,0.008676704
4458,-0.0013611241
4459,0.006333212
4460,0.0010791074
4461,0.013949175
4462,-0.017735772
4463,0.007346887
4464,-0.0014493517
4465,0.002201159
4466,0.008065535
4467,-0.0036160755
4468,-0.008697559
4469,0.0122619225
4470,-0.008244288
4471,0.017679028
4472,-0.0015020157
4473,-0.007841879
4474,-0.0016013539
4475,-0.013282825
4476,0.0044177193
4477,-0.001292045
4478,-0.0034483294
4479,0.0050799293
4480,0.011787171
4481,-0.006802102
4482,-0.003911433
4483,-0.004613557
4484,0.004798166
4485,-0.00569456
4486,-0.0042126067
4487,-0.015123066
4488,0.017320814
4489,-0.0072191795
4490,0.0019512286
4491,-0.009441315
4492,0.013798878
4493,0.0019437354
4494,-0.0033148334
4495,0.014269647
4496,-0.003390707
4497,-0.0016001859
4498,-0.008175769
4499,-0.0023352962
4500,0.00502341
4501,0.0068390546
4502,-0.0049794763
4503,0.014511631
4504,0.008244798
4505,-0.005463597
4506,0.00078121974
4507,0.009725801
4508,0.0020191062
4509,0.019142685
4510,-0.011073859
4511,0.0025964044
4512,0.0043347958
4513,-0.0052253525
4514,-0.005436503
4515,0.012536897
4516,-0.00738222
4517,0.007263039
4518,0.005716759
4519,0.011226758
4520,-0.0068859262
4521,0.0034097433
4522,-0.01908796
4523,-0.010364804
4524,-0.002940455
4525,-0.007948382
4526,-0.0019455188
4527,-0.0049080653
4528,-0.00922624
4529,-0.018481897
4530,0.017821072
4531,0.0021576423
4532,-0.018698245
4533,0.017311618
4534,-0.013716252
4535,0.0018503735
4536,-0.0032981967
4537,0.014527526
4538,-0.0010435096
4539,-0.0026741223
4540,-0.006534094
4541,-0.006513041
4542,0.0037472302
4543,0.0023463205
4544,-0.0008684405
4545,0.009030071
4546,-0.0021314516
4547,-0.0154628735
4548,0.009475865
4549,0.010192256
4550,-0.0054431763
4551,-0.0013854716
4552,-0.008686163
4553,-0.0035765609
4554,0.0032932514
4555,-0.0016932301
4556,0.01047834
4557,0.0030497045
4558,-0.004576401
4559,0.0061997217
4560,-0.013621965
4561,-0.009826934
4562,-0.007923569
4563,-0.005649924
4564,0.0031313673
4565,0.0006185209
4566,-0.00096612354
4567,0.0008235169
4568,0.00828601
4569,0.0015949215
4570,-0.0066050687
4571,-0.008107839
4572,0.013225346
4573,-0.001033341
4574,0.0079853665
4575,-0.01332373
4576,-0.0017232546
4577,-0.019251477
4578,-0.0005630777
4579,0.0076057506
4580,0.0042148437
4581,0.014097234
4582,-0.0017849876
4583,0.0061260182
4584,0.0061755357
4585,0.017779177
4586,0.0009894574
4587,0.011007076
4588,0.0022338557
4589,0.005461069
4590,0.0014438357
4591,0.003088878
4592,-0.003354165
4593,0.0017875955
4594,0.0061998107
4595,-0.010107223
4596,0.010034529
4597,0.005160393
4598,-0.003753488
4599,-0.0015554408
4600,0.015449854
4601,-0.0090578245
4602,0.00046232727
4603,-0.0017191364
4604,-0.014794143
4605,-0.0066070147
4606,0.0027614767
4607,-0.0049790563
4608,0.0015453082
4609,-0.0043449216
4610,-0.005185936
4611,0.00025538067
4612,-0.00024931828
4613,0.003988108
4614,-0.002091215
4615,0.006074004
4616,0.006640643
4617,0.008908246
4618,0.0052259197
4619,-0.007066342
4620,0.010087548
4621,0.015245256
4622,0.007271821
4623,0.002618875
4624,-0.0049156323
4625,-0.006405127
4626,-0.0024850874
4627,-0.00023311889
4628,0.010243686
4629,-0.0079182675
4630,-0.009686988
4631,0.017263127
4632,0.0124137
4633,0.011158477
4634,-0.013264306
4635,0.0077556595
4636,-0.010023706
4637,0.0014304119
4638,-0.007898564
4639,0.008726392
4640,-0.012327705
4641,0.004569105
4642,0.002523188
4643,0.011878864
4644,-0.010554544
4645,0.010439624
4646,0.016484592
4647,-0.002138859
4648,0.012835392
4649,0.019925967
4650,-0.0057684104
4651,-0.00867047
4652,0.0051698843
4653,0.0048113847
4654,-0.0013154264
4655,0.014533829
4656,0.00712355
4657,-0.012135969
4658,-0.0038089296
4659,0.012131484
4660,-0.007897857
4661,0.004978749
4662,0.0027207981
4663,0.013106182
4664,0.011440047
4665,0.00040266215
4666,0.009635426
4667,-0.0042371554
4668,-0.0091867335
4669,-0.009002942
4670,0.009170805
4671,-0.0101610115
4672,0.0038950671
4673,-0.0006854626
4674,0.0024861838
4675,-0.009286397
4676,-0.014308841
4677,-0.010902627
4678,-0.010394416
4679,-0.013175177
4680,0.0106529975
4681,-0.0062379534
4682,-0.0027987987
4683,-0.0014412074
4684,0.009133401
4685,0.01894531
4686,0.01051695
4687,0.0056953095
4688,-0.0013172644
4689,0.0013617947
4690,0.0027876901
4691,-0.0043916833
4692,-0.006625004
4693,-0.00021601113
4694,0.005367693
4695,-0.0069896644
4696,0.013389205
4697,-0.0017040771
4698,0.0039106426
4699,0.00063982676
4700,0.0035670933
4701,-0.000835685
4702,-0.018027596
4703,0.012723998
4704,0.015421232
4705,-0.012640185
4706,0.0005301587
4707,0.009144287
4708,0.005976594
4709,0.008656898
4710,-0.008083839
4711,0.010460428
4712,-0.009770169
4713,-0.007264159
4714,-0.0048842304
4715,-0.0050000995
4716,0.012800686
4717,-0.018015087
4718,-0.0058537167
4719,0.0019824384
4720,-0.0022864551
4721,0.0024251633
4722,0.0081834
4723,0.0039344383
4724,-0.0040986943
4725,-0.011762418
4726,-0.0077128904
4727,0.016270231
4728,0.0010554885
4729,0.0054642763
4730,-0.0029522388
4731,-0.0009244204
4732,-0.002829293
4733,0.0030609441
4734,0.007555044
4735,0.0010293876
4736,0.010214741
4737,0.016206238
4738,0.0019779343
4739,0.01436919
4740,-0.010067247
4741,-0.013747099
4742,0.012039188
4743,0.009650623
4744,8.833826e-05
4745,0.0067505417
4746,-0.0055071563
4747,-0.0066245594
4748,-0.0073499014
4749,-0.0039110803
4750,0.004789908
4751,-0.00064740266
4752,0.0036866772
4753,-0.0064776745
4754,0.014110853
4755,-0.00044558794
4756,-0.0005232003
4757,0.008846871
4758,-0.016686821
4759,-0.013407076
4760,-0.009825343
4761,0.004333161
4762,-0.01414159
4763,-0.012167626
4764,0.007023205
4765,-0.00067798526
4766,-0.0075422856
4767,-0.01164454
4768,0.0039838315
4769,-0.015176752
4770,0.0129051795
4771,0.015509878
4772,-0.01294018
4773,-0.0044571697
4774,-0.009116016
4775,-0.0026306035
4776,-0.0037180264
4777,0.009671431
4778,-0.012330137
4779,-0.0075100623
4780,0.0068732128
4781,-0.009254021
4782,0.002322866
4783,0.007622286
4784,0.006710275
4785,-0.006287477
4786,-0.0052151126
4787,-0.005242512
4788,0.0066588223
4789,0.0047176452
4790,0.009451975
4791,-0.0047882986
4792,0.0010800739
4793,0.009702365
4794,0.0029236071
4795,0.002996284
4796,0.012100964
4797,-0.012645145
4798,0.0114524085
4799,-0.011141954
4800,0.0006704491
4801,0.013684091
4802,0.013856115
4803,-0.014826987
4804,-0.0013696391
4805,0.006419489
4806,-0.0015520053
4807,0.0077581797
4808,0.0017971931
4809,-0.0073160236
4810,-0.008847898
4811,0.005914534
4812,0.016115813
4813,-0.010574919
4814,-0.00032474872
4815,-0.016313609
4816,0.00018573842
4817,-0.010075983
4818,-0.0015009213
4819,0.002329165
4820,-0.0027192694
4821,0.018778654
4822,-0.0003618691
4823,0.0018422555
4824,0.0061745034
4825,0.0008276602
4826,0.0002186311
4827,0.012363883
4828,0.011196523
4829,0.0043064994
4830,0.008665831
4831,-0.0013853677
4832,0.016781019
4833,0.008293426
4834,-0.009688331
4835,0.010963964
4836,-0.0029889157
4837,0.00070662395
4838,-0.0134278
4839,-0.008976225
4840,-0.018378753
4841,0.015063783
4842,0.0084203845
4843,-0.005166882
4844,0.004324348
4845,0.0013988925
4846,0.008423294
4847,-0.014806122
4848,0.007361341
4849,0.005900546
4850,0.0042750495
4851,0.0068503916
4852,-0.012950166
4853,0.0044649537
4854,0.011511612
4855,-0.0049783476
4856,0.0065757614
4857,0.0033890526
4858,0.0030476423
4859,0.0028337704
4860,0.003000189
4861,0.014771718
4862,-0.00614601
4863,-0.0012786142
4864,-0.006565187
4865,-0.0011023101
4866,-0.0041162916
4867,-0.012960222
4868,-0.004286997
4869,0.0044036303
4870,-0.014010139
4871,0.006801577
4872,0.0025055362
4873,-0.0062730894
4874,-0.004497852
4875,0.0086151725
4876,0.007457649
4877,0.0051876977
4878,-0.0031293314
4879,0.0049934764
4880,0.0035558713
4881,0.009261871
4882,0.005077697
4883,0.0020511488
4884,0.0045924606
4885,-0.01157819
4886,0.013401153
4887,0.0083886115
4888,0.012529579
4889,-0.00077032624
4890,0.015021893
4891,0.005728885
4892,-0.013532802
4893,0.0015176043
4894,0.008692304
4895,0.00054900476
4896,0.019135501
4897,-0.0025878365
4898,-0.010874391
4899,-0.0059866826
4900,-0.0052944873
4901,-0.0075645247
4902,-0.006927808
4903,-0.00092643214
4904,0.013357194
4905,-0.010089759
4906,-0.008718145
4907,0.011773592
4908,-0.01248039
4909,-0.009436956
4910,1.4792637e-05
4911,0.002634964
4912,0.0065975455
4913,-0.0002695509
4914,-0.0037254686
4915,0.0053337365
4916,-0.00011732902
4917,-0.013922134
4918,0.00508219
4919,0.015048715
4920,0.0046895402
4921,-0.013531962
4922,0.018235987
4923,-0.0015520001
4924,-0.0037540137
4925,0.003583527
4926,0.0042225616
4927,-0.00041133407
4928,0.0031499192
4929,-0.011850719
4930,0.0073722163
4931,0.004228442
4932,-0.0041544638
4933,0.00046251033
4934,0.008301216
4935,-0.017513158
4936,0.0038408097
4937,0.001911433
4938,0.007963236
4939,-0.0041954974
4940,0.013555695
4941,-0.0010204766
4942,-0.0044079893
4943,0.005523044
4944,-0.00900595
4945,-0.0007273797
4946,-0.0040891203
4947,0.014276176
4948,-0.010435111
4949,-0.013971937
4950,-0.0037975677
4951,0.0027780796
4952,0.017022433
4953,-0.012581331
4954,0.011549107
4955,-0.012660763
4956,-0.008464563
4957,0.0047820434
4958,0.0049787452
4959,-0.0049660285
4960,-0.0077163535
4961,-0.003693923
4962,-0.012800263
4963,-0.011946982
4964,0.005882931
4965,-0.013358853
4966,0.0023893793
4967,-0.012883449
4968,-0.0078621935
4969,0.0006053905
4970,-0.0009297527
4971,0.007190361
4972,-0.014745029
4973,0.0012979408
4974,0.0008430829
4975,0.014361056
4976,-0.0062939194
4977,0.0026966245
4978,0.0147409495
4979,-0.0050264485
4980,-0.0081941765
4981,0.009919944
4982,0.0034804442
4983,-0.008276549
4984,0.0047338884
4985,0.014150218
4986,-0.0009879528
4987,0.009695922
4988,0.013807268
4989,-0.0019363302
4990,-0.018375667
4991,-0.0013566124
4992,0.0107829515
4993,-0.0050372523
4994,0.0064916294
4995,-0.002617922
4996,0.012896367
4997,0.00920886
4998,-0.018260822
4999,0.0043608956
5000,-0.0006510578
5001,0.008377891
5002,0.0028822096
5003,0.002163592
5004,0.017060034
5005,0.006115822
5006,-0.0006304824
5007,-0.0052738725
5008,-0.017623797
5009,0.007700418
5010,-0.010335746
5011,0.009684322
5012,-0.009462234
5013,-0.015207807
5014,0.005540856
5015,0.015700532
5016,-0.0077551883
5017,-0.0010580341
5018,-0.007347211
5019,0.010503122
5020,-0.009498795
5021,0.019831654
5022,0.0040567447
5023,-0.0016323797
5024,-0.00095547637
5025,-0.0005622877
5026,-0.009366203
5027,0.008418589
5028,-0.008133301
5029,-0.0013589723
5030,-0.0023068194
5031,0.010596073
5032,0.0012700567
5033,0.0114328265
5034,-0.008089566
5035,-0.005232395
5036,-0.007453586
5037,0.004099313
5038,0.012066014
5039,-0.0026440343
5040,0.004414524
5041,-0.0042076656
5042,-0.011525178
5043,0.009236803
5044,0.0044655055
5045,-0.0046477867
5046,-0.003159354
5047,0.0013052358
5048,0.01336993
5049,0.005109085
5050,-0.005107651
5051,0.013434695
5052,0.015961917
5053,-0.011567474
5054,0.0052591553
5055,-0.005257596
5056,0.018828405
5057,0.014922767
5058,-0.0023019963
5059,0.0149488095
5060,-0.0008550654
5061,0.0046908744
5062,0.008260031
5063,-0.0020714956
5064,-0.0019204778
5065,0.0006132137
5066,0.0026285022
5067,0.00236717
5068,-0.014257819
5069,0.0072986437
5070,-0.012636757
5071,0.0016993193
5072,0.012952044
5073,0.005191222
5074,-0.001996108
5075,-0.019791061
5076,-0.0015948341
5077,-0.01430708
5078,0.0046495064
5079,0.008489976
5080,-0.0064413594
5081,0.014575966
5082,0.003638907
5083,-0.0029882528
5084,-0.014659211
5085,0.0042244447
5086,-0.01064024
5087,0.008266913
5088,-0.014486127
5089,-0.0028292031
5090,-0.0009281917
5091,-0.013325622
5092,-0.001088136
5093,-0.0086638415
5094,-0.0068414677
5095,0.0060816957
5096,0.0005407094
5097,0.0005940323
5098,0.006806869
5099,0.010986182
5100,-0.005732698
5101,-0.01412566
5102,0.010460477
5103,0.005693947
5104,8.622163e-05
5105,-0.017398389
5106,-5.79601e-05
5107,0.009196232
5108,-0.0072821407
5109,0.013867753
5110,-0.006672552
5111,0.011021048
5112,0.0018243319
5113,-0.01489148
5114,0.005798925
5115,0.0011003214
5116,-0.008189706
5117,-0.0010105056
5118,0.015505479
5119,0.007970977
5120,-0.003009835
5121,-0.001986754
5122,0.016745644
5123,0.00026770993
5124,0.0067212
5125,-0.016212633
5126,-0.018935552
5127,-0.0013655035
5128,-0.0029777049
5129,-0.0073018484
5130,-0.0033218586
5131,-0.007010762
5132,0.005852199
5133,0.009932485
5134,-0.010920484
5135,0.0015360004
5136,0.0075204647
5137,0.00023040429
5138,0.012804807
5139,-0.013560847
5140,0.0123107
5141,-0.009269941
5142,-0.0046985033
5143,0.013842782
5144,0.0034647686
5145,0.0023931304
5146,-0.0017872247
5147,0.0017393784
5148,0.012005766
5149,0.0069701397
5150,-0.0027711466
5151,0.0019663053
5152,-0.002333037
5153,0.007214453
5154,-0.0084022
5155,0.0024847612
5156,-0.006001189
5157,0.00858119
5158,0.014993344
5159,-0.008172386
5160,0.00555347
5161,-0.018585851
5162,-0.0013958821
5163,-0.003912561
5164,-0.004294325
5165,0.010925742
5166,-0.018880561
5167,-0.0042003584
5168,0.00034623567
5169,-0.013671583
5170,0.006136663
5171,0.0013766972
5172,0.010295283
5173,-0.006578761
5174,-0.0029647618
5175,0.0025512066
5176,-0.0025716876
5177,-0.0038409564
5178,0.0010303389
5179,-0.0021436703
5180,-0.0018813241
5181,0.009954327
5182,0.0055713253
5183,-0.013766071
5184,0.012606502
5185,0.00817525
5186,0.004024535
5187,-0.00080727105
5188,0.007952274
5189,-0.0030774022
5190,-0.002998854
5191,0.0020711722
5192,0.003950135
5193,0.0048950417
5194,-0.0012729949
5195,0.0014886446
5196,0.010129396
5197,0.014045477
5198,-0.002261926
5199,-0.007997832
5200,0.010278637
5201,0.0150176985
5202,0.013653039
5203,0.014749952
5204,0.017779097
5205,-0.008714303
5206,-0.008488887
5207,0.001461208
5208,-0.014243821
5209,-0.008891358
5210,-0.003365424
5211,0.015341074
5212,-0.011652808
5213,-0.008065532
5214,-0.0032533996
5215,0.007733371
5216,0.0002909459
5217,0.008589711
5218,-0.0097180065
5219,0.0047494574
5220,-0.009657356
5221,-0.0045186784
5222,-0.01640703
5223,-0.010665707
5224,-0.015347152
5225,0.005937589
5226,-0.010785071
5227,-0.014814317
5228,-0.011163885
5229,0.0069028027
5230,-0.010276762
5231,-0.013847359
5232,-0.002444354
5233,0.005162536
5234,-0.012805375
5235,-0.0047346815
5236,-0.005724716
5237,-0.006091143
5238,0.007190802
5239,0.001723365
5240,-0.013401013
5241,0.0007144575
5242,-0.013972161
5243,-0.003249895
5244,-0.0025338018
5245,-0.0008534761
5246,0.0150100235
5247,-0.0038996139
5248,0.0036342002
5249,0.0057918117
5250,-0.007167634
5251,-0.00493083
5252,-0.0005314514
5253,-0.00013531341
5254,0.009143324
5255,-0.017471949
5256,-0.008613488
5257,-0.010070715
5258,-0.0060758623
5259,0.012380986
5260,0.0029688198
5261,0.005672487
5262,-0.012747924
5263,-0.013179639
5264,-0.0039033974
5265,0.007571875
5266,-0.0051356303
5267,-0.015257899
5268,-0.0045169187
5269,-0.0050842008
5270,0.015747925
5271,0.007580471
5272,0.010485674
5273,0.001253285
5274,-0.0036853403
5275,0.018688437
5276,0.009517767
5277,-0.00011060527
5278,0.007108485
5279,-0.011255103
5280,-0.0018267343
5281,0.0029091178
5282,-0.0053775357
5283,0.0017655195
5284,-0.009469558
5285,-0.004637405
5286,-0.0020674518
5287,0.0018861546
5288,0.0014618486
5289,0.00306818
5290,0.0009868073
5291,-0.007948445
5292,0.0055936086
5293,0.004688881
5294,-0.0023654036
5295,-0.008811429
5296,-0.0047201132
5297,-0.008066678
5298,0.012913296
5299,-0.01763931
5300,0.0029116967
5301,-0.007673228
5302,0.012370464
5303,-0.0010118538
5304,0.007845824
5305,-0.0026149875
5306,0.015161559
5307,0.003007618
5308,-0.003960682
5309,0.0039017326
5310,0.0071999943
5311,-0.0051435786
5312,-0.0009711579
5313,-0.0027738942
5314,0.0066539655
5315,0.0018183318
5316,2.8633342e-05
5317,-0.0099432375
5318,0.01529234
5319,-0.012039786
5320,-0.0062167207
5321,0.0094323605
5322,-0.005377249
5323,0.01958916
5324,-0.0030054906
5325,-0.0027221334
5326,-0.00034520152
5327,0.00074836926
5328,0.0003700034
5329,0.008805686
5330,-0.01126011
5331,-0.008187944
5332,-0.002804059
5333,0.010700368
5334,-0.0043850592
5335,-0.0079140505
5336,-0.006027427
5337,-0.00011573318
5338,-0.014073026
5339,-0.00094539335
5340,-0.014080703
5341,0.009917311
5342,0.008939188
5343,-0.0016922295
5344,0.0017334837
5345,0.009791961
5346,0.0081056645
5347,-0.008109081
5348,-0.007285185
5349,-0.007411936
5350,0.0054202992
5351,0.0046658516
5352,-0.014365862
5353,0.0067346506
5354,-0.012563723
5355,0.0033351951
5356,0.015618936
5357,-0.018823782
5358,-0.015296801
5359,0.004364524
5360,0.017788505
5361,-0.0048265397
5362,0.004892191
5363,-0.010159109
5364,-0.01155975
5365,-0.006872023
5366,0.0034622469
5367,0.00063391344
5368,-0.0016478519
5369,-0.0029926107
5370,0.0007444843
5371,0.010122656
5372,-0.009856844
5373,-0.0075635435
5374,0.01717976
5375,-0.0043051234
5376,0.0076791854
5377,0.015901003
5378,0.0096206125
5379,0.0067429715
5380,-0.0064686015
5381,-0.002971337
5382,0.0011693214
5383,0.0055093127
5384,-0.0015054144
5385,-0.009539337
5386,-0.012203277
5387,-0.0073644267
5388,-0.017270584
5389,-0.00090251415
5390,-0.011185507
5391,-0.011578317
5392,0.0059755617
5393,-0.0064603006
5394,-0.0007267504
5395,0.0042278706
5396,0.005395254
5397,0.015745495
5398,0.00051044323
5399,0.0050800033
5400,0.015337013
5401,0.00592456
5402,0.012227908
5403,-0.003905042
5404,-0.0046745134
5405,0.004458674
5406,-0.002381793
5407,-0.0053201756
5408,0.0061141257
5409,0.009963384
5410,-0.0007375658
5411,-0.0071743736
5412,-0.0091507295
5413,-0.016986247
5414,0.007738801
5415,-0.01621101
5416,-0.004690391
5417,0.003018083
5418,-0.010793857
5419,0.0027660076
5420,-0.01920592
5421,-0.0058366857
5422,0.004664668
5423,-0.009091125
5424,0.013475348
5425,0.011518443
5426,0.0022298063
5427,0.018880062
5428,0.0012342128
5429,0.0028785095
5430,0.011164818
5431,-0.015374427
5432,0.011363868
5433,-0.0031262762
5434,0.0062899324
5435,-0.01376351
5436,-0.0050287666
5437,0.009522205
5438,0.0065010334
5439,0.006113075
5440,0.009727277
5441,-0.004991357
5442,0.008811681
5443,0.016736273
5444,0.0019860496
5445,-0.004233639
5446,0.0057575903
5447,-0.0056507476
5448,-0.012117784
5449,-0.0051600304
5450,0.010955342
5451,0.0043263594
5452,0.002839518
5453,0.0013622788
5454,-0.0071782223
5455,-0.008879338
5456,0.0021573796
5457,-0.0018567956
5458,-0.005066816
5459,0.010229423
5460,0.010098655
5461,-0.0025421865
5462,0.018355453
5463,-0.0047922637
5464,-0.0009668658
5465,0.0011240606
5466,0.008858647
5467,0.01840458
5468,-0.0021149141
5469,-0.0072300485
5470,-0.0060834447
5471,0.0035888625
5472,0.00081925007
5473,0.015237098
5474,0.018226767
5475,-0.005961614
5476,0.007868465
5477,0.0014665212
5478,0.002699232
5479,0.009635657
5480,0.009685578
5481,0.0002100857
5482,0.0008089852
5483,0.012983766
5484,-0.002124645
5485,-0.018822633
5486,-0.018102637
5487,0.0072599086
5488,0.0074022566
5489,-0.0146002965
5490,0.005931086
5491,0.0018179287
5492,-0.010530267
5493,-0.00934066
5494,0.016536247
5495,-0.0100811655
5496,0.017884897
5497,0.0023573602
5498,-0.0065193097
5499,-4.8681406e-05
5500,-0.003585076
5501,0.0017888977
5502,0.009834365
5503,-0.005947175
5504,-0.015041184
5505,-0.00409806
5506,-0.014467787
5507,-0.014921897
5508,0.0026743729
5509,-0.001054444
5510,-0.011228342
5511,0.007453952
5512,0.012259182
5513,-0.0036484909
5514,-0.0073475298
5515,-0.0031290154
5516,0.006776324
5517,0.00919223
5518,0.0056496495
5519,-0.0014776968
5520,-0.007910363
5521,-0.00026944868
5522,-0.013070932
5523,0.019634224
5524,0.009538636
5525,-8.1977094e-05
5526,0.0113581475
5527,-0.012078006
5528,-0.005232319
5529,-0.014084492
5530,-0.001309632
5531,-0.0036204522
5532,0.0008980467
5533,-0.018097537
5534,0.0065720757
5535,-0.0017894186
5536,0.012788752
5537,-0.019343928
5538,0.0078565655
5539,-0.0007693972
5540,0.0001821403
5541,0.006944268
5542,-0.012196546
5543,0.0012075334
5544,0.007651099
5545,0.0069979667
5546,-0.0004206453
5547,0.0039589508
5548,-0.008267004
5549,0.00774076
5550,0.0054943115
5551,0.010322323
5552,-0.0053261607
5553,0.010288282
5554,0.00089153665
5555,-0.0031893349
5556,0.0045442185
5557,-0.0022595667
5558,0.005052214
5559,0.016471421
5560,-0.01671777
5561,0.009581828
5562,-0.005168672
5563,-0.008775217
5564,-0.0046789423
5565,-0.009578344
5566,-0.011993489
5567,-0.010598659
5568,-0.008475064
5569,-0.01742038
5570,0.013653756
5571,-0.0042759595
5572,0.0067160823
5573,3.200415e-05
5574,-0.00569766
5575,0.0032203947
5576,0.015098154
5577,0.0075894506
5578,0.008360112
5579,-0.010189643
5580,-0.011423969
5581,0.0048025455
5582,-0.00823326
5583,-0.007661002
5584,0.009615067
5585,0.0012671899
5586,0.008850631
5587,0.008679984
5588,0.0009243702
5589,0.0035393673
5590,-0.016400363
5591,0.006326988
5592,-0.002521642
5593,-0.014069451
5594,-0.0029728485
5595,-0.011810563
5596,-0.009982785
5597,-0.010731528
5598,-0.0051565985
5599,0.009783921
5600,0.0061059594
5601,-0.008297331
5602,0.0008112745
5603,0.012385153
5604,-0.0070795002
5605,0.0049242526
5606,0.004307698
5607,0.004053101
5608,0.0071361605
5609,-0.0127336
5610,-0.0045824815
5611,-0.005705732
5612,-0.00016648963
5613,-0.0052042995
5614,-0.002714842
5615,-0.0029519396
5616,0.0019741985
5617,0.00047447157
5618,-0.013004909
5619,-0.00029099203
5620,0.009907955
5621,0.004108629
5622,0.0021050833
5623,-0.004364171
5624,0.011928083
5625,0.008433862
5626,-0.0051764217
5627,-0.00065731036
5628,0.00777675
5629,0.0010749286
5630,0.006819677
5631,-0.013527166
5632,-0.0010873727
5633,0.009473528
5634,0.011236217
5635,0.0026502588
5636,-0.0052724425
5637,0.010832634
