Sno,Weight
0,-0.011041597
1,-0.005169536
2,0.0016415936
3,-0.0005258831
4,-0.009453838
5,0.0019206589
6,-0.011568937
7,0.005946314
8,0.00071245024
9,0.0004675659
10,-0.0054896595
11,0.0016657517
12,0.0052995444
13,0.0082216
14,-0.0012896898
15,0.01302909
16,-0.0012835886
17,0.010771256
18,0.0019986192
19,0.011708895
20,-0.018125968
21,0.0037637388
22,0.0023761278
23,0.018661322
24,0.0005086457
25,-0.0130044585
26,0.0019540833
27,-0.008907693
28,-0.0028493758
29,0.010473251
30,0.0073879613
31,-0.0038573113
32,0.018021617
33,-0.0010866325
34,0.0037463522
35,-0.008240453
36,0.009915948
37,0.011029406
38,-0.0129263755
39,0.0019055945
40,-0.0037113074
41,0.00018122428
42,0.0017946007
43,0.00083693693
44,-0.0027860387
45,0.004748899
46,-0.0001752588
47,-0.0032220115
48,-0.0021153777
49,-0.017798368
50,0.008021164
51,-0.015571428
52,-0.0098343855
53,0.01651902
54,-0.00156002
55,0.0016687274
56,-0.017527549
57,-0.0035390866
58,0.01328718
59,0.0051209633
60,0.0073526204
61,0.011057876
62,0.0015726755
63,0.0020870352
64,0.015432206
65,-0.0042888443
66,-0.0061223647
67,0.0023194924
68,-0.014508862
69,-0.0085913325
70,0.017767714
71,-0.014985384
72,0.013620297
73,-0.007085803
74,0.012960774
75,0.0060105617
76,0.0059240498
77,0.0052099447
78,-0.002481187
79,0.0020255514
80,0.0065134997
81,-0.0067369826
82,-0.0067312424
83,-0.019628985
84,-0.0034903984
85,0.003707495
86,-0.0050756335
87,-0.0011083763
88,-0.006900026
89,-0.01179644
90,0.007846499
91,0.010150249
92,-0.011315969
93,-0.00076334685
94,-0.0023165965
95,0.007963036
96,-0.0068396227
97,-0.0011358404
98,0.0069626393
99,0.006667934
100,0.011284464
101,0.016276442
102,-0.0028614243
103,-0.009781985
104,-0.0019512173
105,0.004980468
106,0.008615237
107,-7.584362e-05
108,-0.0045711515
109,-0.008528241
110,0.005345059
111,0.0016779144
112,-0.0046376195
113,0.0016529944
114,0.0044399565
115,0.0065124133
116,0.006310503
117,-0.007221156
118,-0.012609615
119,-0.0065989136
120,-0.0041565425
121,0.016385913
122,-0.006824501
123,0.006556688
124,0.014514777
125,-0.007626634
126,0.0040635755
127,-0.008053248
128,0.0023002774
129,0.0038803308
130,-0.005270795
131,0.004116431
132,0.0033075183
133,0.0040825866
134,-0.0036981204
135,0.009895642
136,-0.017626364
137,0.0032161535
138,0.009065942
139,0.00048627023
140,0.017797232
141,0.00017660846
142,0.0086442
143,0.006806012
144,-0.010362815
145,-0.016269056
146,0.019266522
147,-0.00018327299
148,-0.013740044
149,0.008078279
150,0.0010642139
151,-0.0031136014
152,-0.008631199
153,0.00037032153
154,-0.0053521115
155,-0.0033967276
156,0.012917117
157,-0.005520186
158,-0.0062498525
159,-0.006183849
160,0.016408987
161,-0.008448875
162,-0.00053778826
163,-0.007256005
164,-0.0019811199
165,-0.0065496047
166,0.013584473
167,-0.0018461597
168,-0.016198404
169,-2.30116e-05
170,-0.0017747309
171,0.0100626545
172,0.006777815
173,-0.0035799972
174,5.306689e-05
175,0.0087609645
176,-0.0043340917
177,0.0010432015
178,-0.0024966535
179,0.00082396
180,0.01298782
181,0.0047457023
182,-0.0047170953
183,-0.011089834
184,0.0068452237
185,0.014150396
186,0.0018041164
187,-0.0011572798
188,-0.007522436
189,0.003610223
190,-0.0054048602
191,0.012436599
192,0.0066156816
193,-0.0066007045
194,0.000863822
195,0.003476266
196,0.0039668693
197,0.0016956321
198,0.018802457
199,-0.0047095483
200,0.0074707796
201,0.0020848813
202,-0.010612856
203,0.0022368964
204,0.00151092
205,-0.0042565647
206,0.0043947324
207,0.001921696
208,-0.0062533957
209,0.0052859387
210,-0.009237031
211,-0.0038391023
212,0.0021554132
213,-0.006087725
214,0.00010647946
215,-0.0033586624
216,-0.0019668217
217,0.010023557
218,-0.0020424265
219,-0.0046927035
220,0.016123293
221,-0.0011641899
222,0.0060009044
223,-0.0099485535
224,-0.019727407
225,-0.004251184
226,0.0013200341
227,-0.005372847
228,-0.006014719
229,-0.0017999397
230,0.014567908
231,0.008972983
232,-0.0065104724
233,0.0025914279
234,-0.0060126283
235,0.011222665
236,0.0017654826
237,-0.006504888
238,0.004131942
239,0.010880101
240,-0.0018599718
241,0.0018681958
242,0.0063555166
243,-0.008317606
244,0.011168932
245,-0.004888864
246,0.012629232
247,0.00024934168
248,0.009400801
249,0.0150030665
250,-0.0023014036
251,0.004499983
252,-0.0040867436
253,-0.0037556924
254,-0.014064873
255,-0.0024847996
256,-0.0053559397
257,0.010860548
258,0.00043688974
259,-0.007321126
260,-0.012688755
261,-0.018558115
262,-0.007881555
263,0.018132443
264,0.007923235
265,0.001630769
266,0.0047548553
267,-0.0068351803
268,0.011103053
269,0.0055363663
270,0.0037260358
271,0.012585875
272,-0.0034052108
273,-0.009887419
274,0.0036681592
275,-0.00451918
276,-0.0019681505
277,0.0033220653
278,-0.008214926
279,0.00061505777
280,-0.008528396
281,-0.007721927
282,0.015318441
283,0.001119179
284,-0.0006055669
285,-0.0015408075
286,0.011899173
287,-0.0016608263
288,-0.0011380358
289,-0.011650296
290,-0.00092957
291,-0.013241739
292,0.011616264
293,-0.010123953
294,0.015542473
295,0.014477412
296,0.008318133
297,0.0019979677
298,-0.005744958
299,-0.00604914
300,-0.00961272
301,0.01820195
302,-0.005941249
303,-0.0059219124
304,-0.0110555375
305,0.00084651646
306,-0.012426814
307,-0.0008664078
308,0.0012396936
309,-0.0013540105
310,-0.009094295
311,-4.3843887e-05
312,-0.0059589874
313,-0.012458571
314,0.005030897
315,0.0026207375
316,-0.0067170477
317,0.009682438
318,0.0007141882
319,0.002872694
320,0.009815228
321,0.0043495554
322,0.005386471
323,-0.005622609
324,-0.0010116491
325,0.0030501536
326,0.0026989952
327,0.0066166585
328,-0.014825576
329,0.0044355816
330,-0.01316654
331,0.0076662707
332,0.01031215
333,0.00019087008
334,0.007739448
335,-0.0045752595
336,-0.009869739
337,0.012158511
338,-0.009894941
339,0.0039102067
340,0.0007824237
341,0.0040306803
342,0.009188475
343,-0.0024233314
344,2.9537021e-05
345,-0.0020535726
346,0.009463395
347,-9.5320735e-05
348,0.0062511335
349,-0.0076909317
350,-0.009149543
351,-0.0075342325
352,-0.01116673
353,0.00067449117
354,0.004063925
355,-0.0075148875
356,0.011365864
357,0.0015466093
358,0.0057822457
359,-0.019809859
360,0.0012998926
361,0.0019184275
362,-0.0183518
363,0.01608818
364,-0.0024366751
365,0.0010227611
366,-0.008096865
367,-0.0025525647
368,0.0071920766
369,0.0067859027
370,-0.0061600255
371,-0.010325607
372,0.004663323
373,-0.00070787244
374,-0.0018033211
375,-0.016272081
376,0.00437994
377,0.0018734431
378,0.018920843
379,-0.0053289765
380,-0.0046847095
381,0.011021922
382,-0.010740994
383,-0.00790608
384,-0.0055449856
385,-0.00937998
386,-0.013761633
387,0.0028162764
388,0.00020912329
389,0.0029344733
390,-0.009377542
391,0.019575108
392,-0.013171305
393,0.0037060557
394,-0.0023877607
395,-0.013110636
396,-0.002043655
397,0.007176326
398,0.00016090728
399,-0.00010645247
400,-0.013834325
401,-0.01656702
402,-0.010263499
403,0.0030053635
404,-0.010754097
405,0.0028501926
406,0.00076107384
407,-0.017239574
408,-0.005487083
409,0.0070316605
410,-0.019159257
411,0.008412075
412,0.008158202
413,-0.003080327
414,0.005541941
415,0.007049451
416,-0.0028480222
417,0.018527435
418,0.011802139
419,-0.003336337
420,0.007223099
421,0.0140951825
422,-0.015558956
423,0.0086368695
424,-0.009214557
425,-0.0018760038
426,0.0059819804
427,-0.00281465
428,-0.010108024
429,-0.010779206
430,0.009429672
431,0.014905111
432,0.008841904
433,0.007986282
434,-0.009695785
435,0.009364236
436,0.001080914
437,0.006797088
438,-0.0047489274
439,-0.0039537176
440,-0.010513786
441,-0.0043808743
442,0.012535485
443,0.010443943
444,-0.0063930224
445,0.0018148443
446,0.009606974
447,-0.002797386
448,-0.007602924
449,-0.009683626
450,0.00071835145
451,0.0029689248
452,0.0063317255
453,-0.0077257296
454,-0.010332027
455,0.007980254
456,0.008143519
457,-0.013452036
458,-0.004276657
459,-0.006355879
460,0.0040040636
461,0.0074645663
462,-0.009886429
463,-0.007564691
464,0.004224695
465,0.003047951
466,0.015768588
467,0.0017864346
468,0.0069877245
469,-0.0039210836
470,0.0015173956
471,0.007467269
472,0.011811149
473,-0.004484969
474,0.0035590765
475,-0.0056581446
476,-0.014778157
477,-0.0022671388
478,-0.0023917248
479,-0.0018657834
480,-0.007276484
481,-0.0012636924
482,0.010823144
483,-0.0037050676
484,0.0033142574
485,0.019354384
486,0.0028132321
487,0.0051042307
488,0.0180194
489,-0.013324891
490,-0.008897989
491,0.0073584276
492,0.0069551836
493,-0.0029935422
494,-0.009517616
495,0.0030134958
496,0.011847969
497,0.015063584
498,-0.0038883036
499,-0.011386375
500,0.017579643
501,0.0059550893
502,0.0028561782
503,0.0032849624
504,-0.0022884829
505,0.0063645015
506,-0.0014578536
507,-0.0050804256
508,0.009577463
509,-0.009354492
510,0.004036204
511,0.003935915
512,-0.0018288719
513,0.010679463
514,-0.0048711924
515,-0.008161578
516,0.012956734
517,0.0037636287
518,0.007374681
519,-0.013723562
520,0.007975449
521,-0.0025690687
522,-0.013495773
523,0.0050303102
524,0.00969117
525,0.0039473055
526,0.009323175
527,0.0036085877
528,0.012905814
529,-0.0073856795
530,0.018691495
531,0.0138806105
532,-0.012304267
533,0.0052094106
534,0.011624904
535,0.016518153
536,0.005415412
537,-0.0121236425
538,0.007194734
539,-0.009824572
540,-0.0011333864
541,0.011293236
542,0.010015496
543,0.0032706023
544,-0.004099736
545,0.006149601
546,0.008932999
547,0.0039054342
548,0.017621959
549,-0.0013521
550,0.009587177
551,0.016524903
552,0.01709283
553,0.0047450615
554,0.009872194
555,0.015737843
556,-0.011622303
557,0.013593163
558,0.0019073937
559,-0.002975082
560,0.010660928
561,-0.012635929
562,-0.0052064047
563,0.0023926643
564,-0.010772859
565,0.008490215
566,-0.004535347
567,-0.008052681
568,0.0012412653
569,-0.008748197
570,-0.019535616
571,0.00473823
572,0.01677957
573,-0.010281985
574,0.0080695925
575,0.009312861
576,-0.008771166
577,0.00087681063
578,-0.013847155
579,-0.006600078
580,0.0012862202
581,0.0014412461
582,0.007993682
583,0.0014669034
584,0.0045948927
585,-0.0042256825
586,0.0064129354
587,-0.00012928036
588,-0.001834182
589,0.0016492527
590,-0.0107424995
591,-0.009798332
592,-0.0050290134
593,0.003498887
594,-0.0014846257
595,-0.015050453
596,0.0025026875
597,0.005733238
598,-0.019479752
599,0.0072500077
600,-0.009811417
601,0.017049383
602,0.0033106315
603,0.0018762216
604,-0.014411865
605,-0.00191466
606,-0.013525767
607,-0.01293206
608,0.0032331313
609,0.0039242553
610,0.004549914
611,0.0126571255
612,0.0016182649
613,0.008146932
614,0.009738845
615,0.017148165
616,0.004084637
617,0.0053781257
618,0.012373774
619,0.001159688
620,-0.013003751
621,0.007867871
622,0.015326922
623,-0.00092617184
624,0.0036316905
625,0.00043328287
626,0.005044034
627,0.00088034646
628,0.0062811137
629,0.009861967
630,-0.002391888
631,-0.009661205
632,-0.0021311266
633,0.000115164294
634,0.0009186854
635,0.005624666
636,-0.012168514
637,-0.009419911
638,0.010318224
639,-0.0062041325
640,-0.011414808
641,0.0066681714
642,0.015447672
643,-0.0054512233
644,0.011354873
645,0.0046952283
646,-0.0013271306
647,-0.0034544214
648,-0.002221259
649,0.0015722612
650,-0.0031788927
651,-0.01366806
652,-0.00088234985
653,-0.014997642
654,-0.01623673
655,0.0069192895
656,0.000965951
657,0.00050314364
658,-0.0027257141
659,0.0059166057
660,0.0014109717
661,-0.004714612
662,-0.012464178
663,-0.016564893
664,0.007898474
665,0.0014789639
666,-0.005086381
667,-0.0034529744
668,-0.0035297377
669,-0.0058566025
670,0.018879903
671,0.0010091729
672,0.0056291833
673,-0.0019862922
674,-0.0045594205
675,-0.010740336
676,-0.009631706
677,-0.01634194
678,-0.01002936
679,-0.0030795184
680,0.0047505954
681,9.304981e-05
682,0.015705055
683,0.006830028
684,0.010066475
685,0.0069295187
686,0.001388135
687,-0.007198846
688,0.0026229627
689,-0.01031764
690,-0.0074285506
691,0.008221369
692,0.0045616264
693,-0.0055364347
694,0.0012467001
695,-0.0035578697
696,-0.012755941
697,0.0037868104
698,-0.015620617
699,-0.009109801
700,0.0007861605
701,-0.014526215
702,0.0012326925
703,-0.0010661203
704,0.010067449
705,-0.0055815578
706,-0.0041563027
707,0.00958908
708,-0.002353393
709,0.008113334
710,0.0068529244
711,0.011416255
712,0.0046329424
713,-0.007147116
714,-0.0048954035
715,0.008293199
716,0.006235539
717,-0.012533658
718,-0.009281758
719,-0.010382352
720,0.006534121
721,-0.013346437
722,0.01308491
723,0.016738249
724,0.0048121624
725,-0.014354358
726,0.002435619
727,-0.009069419
728,0.006680856
729,-0.005067742
730,-0.004342157
731,-0.009259435
732,0.008490682
733,0.0027078185
734,-0.0005345255
735,-0.004862528
736,-0.002527582
737,-0.011223035
738,-0.013059731
739,0.0066119027
740,-0.008160599
741,0.0071166856
742,0.005059733
743,-0.002033373
744,0.00047461438
745,-0.010231245
746,0.009474818
747,-0.0021941306
748,0.01916847
749,0.0020495648
750,0.012248468
751,-0.0041865073
752,0.0041406816
753,-0.0046418053
754,-0.012003473
755,0.0050880304
756,0.016329195
757,0.012948902
758,0.009217514
759,0.0031443278
760,0.00747221
761,-0.013450671
762,0.000761346
763,0.008856304
764,-0.0016367236
765,-0.016321095
766,0.0012513559
767,0.011342774
768,-0.00039195758
769,-0.001830026
770,0.010471205
771,0.0022917357
772,0.001422185
773,0.011844867
774,0.0065722927
775,-0.010717855
776,0.018354602
777,-0.003419688
778,-0.0025223978
779,0.0053193336
780,-0.0028592178
781,-4.1346716e-06
782,0.017300405
783,0.010835129
784,-0.00026735206
785,0.009898716
786,0.0061929314
787,0.0014357585
788,-0.013371651
789,-0.008467515
790,0.01708252
791,-0.012809652
792,0.004422659
793,0.008577946
794,0.011066877
795,-0.005441345
796,0.0050384505
797,-0.008441593
798,0.0020794522
799,0.015877001
800,-0.0031607293
801,0.019604767
802,-0.005963965
803,0.003154093
804,0.0089767035
805,-0.017534383
806,-0.008352563
807,-0.00514837
808,0.002432097
809,0.0028882276
810,-0.01651483
811,-0.002365808
812,0.006115427
813,-0.012482799
814,-0.009121987
815,-0.009150619
816,0.0021442848
817,0.0040532607
818,-0.004021107
819,0.008981524
820,0.005785414
821,-0.0066712755
822,-0.0031354353
823,-0.00055742107
824,0.001379988
825,0.0069907117
826,-0.018000301
827,0.0015240023
828,0.0039611063
829,-0.011249791
830,0.0052965116
831,0.0005778408
832,-0.009439697
833,0.0046060844
834,0.0023588545
835,-0.0027844724
836,-0.0045209583
837,-0.010790928
838,-0.005844542
839,0.008223981
840,0.009137331
841,-0.0031858045
842,-0.00664747
843,-0.009274341
844,0.0015439276
845,0.012464605
846,0.009816986
847,0.007488738
848,-0.013210691
849,-0.008281753
850,0.00062328076
851,0.006057403
852,-0.003410617
853,-0.0073132906
854,-0.011912192
855,0.00094330264
856,-0.0077778376
857,0.001159434
858,0.016531069
859,-0.017815467
860,0.0007649872
861,-0.016922496
862,-0.01616026
863,0.00031502204
864,-0.017809715
865,-0.010821855
866,2.468588e-05
867,-0.00022151305
868,0.0064318147
869,0.008490327
870,0.0016898362
871,0.016334044
872,-0.004122151
873,-0.0056052012
874,-0.008952024
875,-0.0033207247
876,-0.0020325226
877,0.0021405967
878,-0.002971716
879,-0.012974295
880,-0.00052991585
881,-0.005361928
882,0.0045381547
883,-0.0005784084
884,-0.008550363
885,-0.006676231
886,-0.010611193
887,0.012969992
888,0.013477189
889,-0.0053049545
890,0.014548726
891,-0.0182087
892,0.008850938
893,0.00089577655
894,0.0066300235
895,-0.003257102
896,0.001516716
897,-0.012748221
898,-0.0073588295
899,0.000908975
900,-0.0023190414
901,0.002366931
902,-0.00042535138
903,-0.012524665
904,-0.0077509284
905,0.013853966
906,0.006298624
907,-0.013572371
908,-0.013081737
909,-0.014771295
910,-0.018401928
911,-0.008560398
912,-0.0026907455
913,-0.0030553057
914,-7.048059e-05
915,-0.00042130024
916,-0.0073894886
917,0.00090085017
918,0.0054921093
919,-0.002494455
920,-0.001746507
921,-0.0039674104
922,-0.014217289
923,0.0016798439
924,0.002666612
925,-0.0045656986
926,0.0093067605
927,0.014433683
928,-0.011129858
929,0.0045931824
930,0.008887148
931,0.01434592
932,0.011100972
933,0.008065022
934,-0.011620849
935,0.004661011
936,0.0008636187
937,0.011845786
938,0.0025397127
939,-0.0087377895
940,-0.013211457
941,0.0087635005
942,0.003540021
943,-0.0014222024
944,0.017907133
945,-0.003178661
946,0.0051300507
947,-0.00062085706
948,-0.0030737591
949,-0.0015280556
950,0.014754509
951,0.0074054585
952,-0.001235826
953,-0.0071092853
954,0.0051316856
955,-0.0069351057
956,0.011903784
957,0.00058616453
958,-0.012861342
959,0.01875346
960,0.0017803143
961,-0.012874861
962,0.014826496
963,-0.01066636
964,0.013855901
965,-0.0030252722
966,0.019704308
967,0.0017540046
968,-0.00057176565
969,-0.011194129
970,0.0013123208
971,0.009911598
972,-0.016617391
973,0.0074993656
974,-0.0022214444
975,-0.002133873
976,-0.0071219117
977,-0.0010373656
978,0.004072325
979,-0.009142685
980,0.0016059143
981,-0.0044606784
982,-0.007583325
983,0.005366484
984,-0.0031577195
985,0.009644241
986,-0.006364144
987,-0.01434513
988,0.0011350757
989,0.004137471
990,-0.008677865
991,-0.018560719
992,-0.005959972
993,-0.0074814633
994,-0.0052851737
995,-0.004333064
996,-0.0031066604
997,0.009306521
998,-0.0068348525
999,-0.0096289
1000,0.008463717
1001,0.0039460678
1002,-0.0027701883
1003,0.012907106
1004,-0.011071063
1005,0.008108343
1006,-0.017098663
1007,-0.0024135998
1008,0.0020726763
1009,-0.005040347
1010,-0.008743046
1011,0.006520479
1012,0.005321452
1013,0.01081517
1014,0.004484807
1015,0.003431065
1016,-0.0058710347
1017,0.014678698
1018,-0.009296379
1019,0.0020744083
1020,-0.0032711513
1021,-0.0019820556
1022,-0.004287763
1023,0.016695594
1024,-0.003708453
1025,0.010328663
1026,0.0045794933
1027,0.010426592
1028,-0.014168586
1029,0.0017139645
1030,0.00077401416
1031,0.0024815802
1032,0.012070411
1033,-0.018553806
1034,0.0035513851
1035,-0.0172303
1036,-0.014800979
1037,-0.00675929
1038,-0.010503653
1039,0.0002583438
1040,-0.0027551514
1041,-0.016113332
1042,-0.011694564
1043,0.011911842
1044,0.009402733
1045,-0.0014251635
1046,0.013836167
1047,0.016023014
1048,-0.00021645574
1049,-0.0027263975
1050,-0.006695002
1051,-0.009860457
1052,-0.011319664
1053,-0.004256331
1054,-0.0041053677
1055,-0.012165105
1056,0.0017607863
1057,0.0050311694
1058,-0.015275709
1059,-0.0063637453
1060,-0.006187958
1061,0.008946762
1062,-0.0020315559
1063,-0.010667514
1064,0.0076877503
1065,-0.0058429902
1066,0.01506342
1067,0.003652012
1068,-0.0018412325
1069,-0.007443919
1070,-0.0048575494
1071,0.009733335
1072,0.0105012385
1073,0.0014337992
1074,0.0059405817
1075,0.0065005147
1076,0.005487559
1077,-0.0007088781
1078,0.008325536
1079,0.012301616
1080,0.0006694344
1081,0.0010945763
1082,0.0016450858
1083,-0.001988654
1084,5.6959765e-05
1085,0.010451379
1086,0.00060029514
1087,-0.00520543
1088,-0.016268339
1089,-0.009577157
1090,-0.0015725935
1091,-0.014137481
1092,-0.011025775
1093,-0.00046803913
1094,0.0039082635
1095,0.013724687
1096,-0.0021747253
1097,0.008312415
1098,0.010588849
1099,-0.0066682403
1100,0.008779331
1101,-0.0018532696
1102,-0.004519454
1103,0.0046201716
1104,0.011245571
1105,0.004804926
1106,0.011168199
1107,0.011787852
1108,-0.015393819
1109,-0.009558084
1110,-0.007113913
1111,-0.013971923
1112,-0.017966656
1113,0.011654635
1114,-0.00015762138
1115,-0.006559193
1116,0.014588731
1117,-0.00790077
1118,0.004191809
1119,-0.01110451
1120,-0.0073697837
1121,0.0054136855
1122,0.010244363
1123,-0.008899059
1124,0.015631886
1125,0.0064734383
1126,0.008273337
1127,-0.011644528
1128,-0.0053143203
1129,0.0070104883
1130,-0.0030361908
1131,0.009870897
1132,0.003508046
1133,0.011904275
1134,0.009370934
1135,-0.019993395
1136,-0.014397066
1137,-0.011723659
1138,0.01287292
1139,-0.015041662
1140,-0.010018616
1141,0.0025016046
1142,0.0064702546
1143,-0.012378925
1144,0.0135726975
1145,-0.00828937
1146,0.011593015
1147,0.0076680197
1148,0.008670241
1149,0.0020739385
1150,-0.0010194442
1151,-0.009977049
1152,0.0026572617
1153,-0.013735032
1154,-0.007832286
1155,-0.009126831
1156,0.00709847
1157,0.002440641
1158,-0.009313067
1159,0.004859755
1160,-0.01241169
1161,0.01560308
1162,-0.004409117
1163,-0.0077129006
1164,0.008255214
1165,-0.0066400655
1166,-0.0080248
1167,0.0048141833
1168,-0.012302396
1169,0.010224053
1170,-0.007233382
1171,0.0062306602
1172,-0.014819919
1173,0.0028081704
1174,-0.003027352
1175,0.003081998
1176,0.0069581065
1177,-0.011164144
1178,0.0015653151
1179,-0.0009015241
1180,0.019702712
1181,-0.0076751118
1182,-0.0008560703
1183,0.004598731
1184,0.007949784
1185,-0.012089681
1186,-0.017190238
1187,0.00336074
1188,0.009977803
1189,-0.0031844848
1190,0.0055253753
1191,-0.0044484045
1192,0.017309057
1193,0.0042892
1194,0.008265935
1195,0.0014606158
1196,0.007880524
1197,-0.008353805
1198,-0.005163043
1199,-0.013108667
1200,-0.004841985
1201,-0.013908044
1202,0.008946338
1203,-0.0008338609
1204,-0.0024513076
1205,-0.001720213
1206,0.0039174687
1207,0.00096669904
1208,0.007499578
1209,0.004681011
1210,-0.019503402
1211,0.010287132
1212,0.019317904
1213,-0.004296068
1214,-0.011073158
1215,-0.0040496467
1216,-0.008857998
1217,-0.003838618
1218,0.010682962
1219,-0.011555903
1220,0.007921543
1221,0.0051601524
1222,0.012000511
1223,-0.009192813
1224,-0.0047538932
1225,-0.0137600005
1226,-0.018414289
1227,-0.00086715154
1228,0.008610633
1229,-0.009222145
1230,-0.0052661053
1231,-0.01709546
1232,0.0067070113
1233,0.016367806
1234,0.0041522915
1235,-0.002744875
1236,0.012000735
1237,-0.0102056125
1238,-0.0001439199
1239,0.0002614668
1240,1.0766725e-05
1241,0.008021236
1242,0.0075562666
1243,-0.0052197757
1244,-0.0006670035
1245,-0.01166631
1246,0.0032669124
1247,-0.003480764
1248,0.0058715288
1249,-0.008978522
1250,0.005477022
1251,-0.011404371
1252,0.0014722812
1253,-0.012648908
1254,-0.012634584
1255,0.00020112123
1256,-0.004498504
1257,0.006782279
1258,-0.0031089394
1259,-0.0011618558
1260,-0.0051956195
1261,0.0014098054
1262,0.007028349
1263,-0.002160236
1264,-8.080173e-05
1265,0.0114302
1266,-0.00963648
1267,-0.01365007
1268,0.0060102693
1269,-0.009466839
1270,6.5236854e-05
1271,-0.006206063
1272,-0.01620336
1273,0.0052667516
1274,-0.0025651765
1275,-0.007462897
1276,-0.0075565656
1277,0.0034913984
1278,-0.0029555243
1279,-0.0024644034
1280,0.005459822
1281,0.010570893
1282,9.85877e-06
1283,0.0064189415
1284,-0.014560672
1285,-0.010682022
1286,0.0015672448
1287,0.0029710438
1288,0.007224642
1289,-0.0004316523
1290,0.0010722148
1291,0.0028324432
1292,0.010550359
1293,-0.00034923144
1294,0.0076304767
1295,-0.00045257105
1296,-0.008141543
1297,-0.008364242
1298,-0.004439802
1299,0.009308932
1300,0.01087858
1301,0.0073643876
1302,0.007873347
1303,0.0135148475
1304,0.00284666
1305,0.013780701
1306,0.014885382
1307,-0.0064165858
1308,-0.0027310557
1309,-0.015794722
1310,-0.010116248
1311,0.016091462
1312,0.009451771
1313,0.004806785
1314,-0.0053251493
1315,-0.013123158
1316,0.011795631
1317,-0.008754551
1318,0.00559172
1319,0.013214581
1320,0.014519638
1321,-0.013956499
1322,0.0036709504
1323,0.014601359
1324,0.012747266
1325,-0.0032340356
1326,-0.0030543646
1327,-0.008697827
1328,-0.016221773
1329,0.003676936
1330,0.007066664
1331,0.019172361
1332,-0.014432967
1333,-0.0064026923
1334,0.007499153
1335,0.00747743
1336,0.010473665
1337,-0.00744282
1338,0.0009924488
1339,0.010323546
1340,-0.0047895727
1341,0.019755594
1342,-0.012845592
1343,-0.00010856699
1344,-0.0017977832
1345,0.006726978
1346,-0.008796191
1347,0.00963242
1348,-0.0037063372
1349,-0.0048922854
1350,-0.0045306226
1351,0.009795694
1352,-0.00042158138
1353,-0.0038413298
1354,0.007898021
1355,0.0030367826
1356,0.011055717
1357,0.0049783154
1358,-0.009844361
1359,-0.005991955
1360,-0.0078832
1361,-0.00150333
1362,0.004325809
1363,-0.009879935
1364,0.0004277511
1365,0.0037620855
1366,0.0018230369
1367,0.0065587587
1368,-0.01142054
1369,0.015588282
1370,0.016840978
1371,-0.01155352
1372,0.018400058
1373,-0.0030362273
1374,-0.0035885167
1375,-0.016651092
1376,0.004907696
1377,0.0026284896
1378,0.0058691017
1379,-0.0014374953
1380,0.0039246236
1381,0.0032882472
1382,0.009980989
1383,0.010400634
1384,-0.01385137
1385,0.004252154
1386,-0.0004849862
1387,0.011267137
1388,0.002493573
1389,-0.00894169
1390,0.0018565634
1391,-0.01087928
1392,-0.003567344
1393,0.016472522
1394,-0.012692796
1395,0.0010269948
1396,0.0069917827
1397,0.00905573
1398,0.013570983
1399,0.018691147
1400,0.0054247947
1401,0.0060437755
1402,0.008411893
1403,-0.009896852
1404,-0.013593978
1405,0.011076721
1406,0.011811766
1407,0.011288946
1408,-0.0033741866
1409,-0.0018444139
1410,0.0053175217
1411,0.009905866
1412,0.003011198
1413,0.007128305
1414,-0.00839346
1415,-0.008951208
1416,-0.0028870108
1417,-0.017088516
1418,-0.010986807
1419,0.0042356923
1420,0.008888452
1421,0.017452927
1422,0.014143462
1423,0.016976492
1424,-0.0035268122
1425,-0.0032682966
1426,-0.015713934
1427,0.010488427
1428,0.009859122
1429,-0.0019715682
1430,0.013242014
1431,0.0141334515
1432,-0.0025315266
1433,-0.003647759
1434,0.006023171
1435,-0.008416747
1436,-0.0031578285
1437,-0.0012936554
1438,0.0011104194
1439,-0.009180831
1440,-0.013961477
1441,0.0067450153
1442,0.014931971
1443,-0.000789274
1444,0.0046379655
1445,0.007960741
1446,0.0002954384
1447,0.000736064
1448,0.015536067
1449,0.009121863
1450,-0.0042858073
1451,-0.011270861
1452,-0.011816609
1453,0.012026703
1454,0.0024090344
1455,-0.0004792347
1456,-0.013820218
1457,-0.003897196
1458,-0.0073459535
1459,-0.00635217
1460,0.01198705
1461,-0.019352626
1462,-0.01146516
1463,0.006014824
1464,0.0018821665
1465,-0.0067098187
1466,0.01372531
1467,-0.00907573
1468,0.008358533
1469,0.0063370955
1470,0.002042622
1471,-0.0068704183
1472,-0.0076281354
1473,-0.01702559
1474,0.0012452946
1475,0.0023763713
1476,0.017981378
1477,0.008083204
1478,-0.010971377
1479,-0.0053139953
1480,0.014008244
1481,0.007154685
1482,0.014516772
1483,0.001358982
1484,0.010514105
1485,-0.014984191
1486,-0.010465127
1487,0.0004175188
1488,0.0049573714
1489,-0.010190795
1490,0.019302199
1491,0.0026737633
1492,0.0035023082
1493,0.0063793426
1494,-0.0006828298
1495,0.00862829
1496,0.011063858
1497,-0.013455458
1498,0.01217439
1499,-0.0010233128
1500,0.00047800367
1501,-0.018715559
1502,0.0015130503
1503,-0.0015349546
1504,0.011773649
1505,0.0015069544
1506,0.008380041
1507,-0.0060477094
1508,0.014594449
1509,-0.0019697747
1510,0.0046730763
1511,-0.007875282
1512,0.0042878096
1513,-0.014307679
1514,0.010880325
1515,-0.00461504
1516,-0.00502381
1517,0.007380522
1518,-0.013495511
1519,-0.004177334
1520,-0.0011089148
1521,-0.00064792804
1522,-0.0040629017
1523,0.011139181
1524,-0.00595159
1525,0.016523298
1526,0.0016842393
1527,0.002330467
1528,-0.010286876
1529,0.005146379
1530,-0.0020518792
1531,0.004649981
1532,0.017567992
1533,0.007572118
1534,-0.0008007445
1535,-0.0002848741
1536,0.0037034452
1537,0.011990504
1538,0.0022419763
1539,0.007138762
1540,0.010512029
1541,0.0046227938
1542,0.00834354
1543,-0.0030641707
1544,0.010702814
1545,0.0025153253
1546,-0.00480997
1547,-0.009346457
1548,-0.013907276
1549,0.0006547302
1550,-0.0066445237
1551,0.0030248272
1552,-0.0035514622
1553,0.0008524498
1554,-0.004082008
1555,0.00017535863
1556,-0.011024906
1557,-0.014086063
1558,-0.0045585856
1559,0.013052398
1560,-0.00015006466
1561,-0.002064773
1562,0.002763338
1563,0.009009351
1564,-0.01052381
1565,-0.000894395
1566,0.0031447234
1567,-0.011581173
1568,0.009479615
1569,-0.01721747
1570,0.005432295
1571,-0.009544357
1572,0.016299918
1573,0.013866521
1574,0.00619942
1575,0.0015567383
1576,0.014472778
1577,0.0055396985
1578,-0.00056478457
1579,0.0154311415
1580,0.012444998
1581,-0.0017468396
1582,0.00628442
1583,-0.005198222
1584,-0.018421894
1585,-0.010548896
1586,-0.006987093
1587,0.0076649147
1588,0.0026304275
1589,0.0058085644
1590,-0.0064145713
1591,-0.0004260284
1592,-0.009478332
1593,-0.0040053492
1594,-0.0021208983
1595,-0.012517648
1596,-0.007805025
1597,-0.008226457
1598,-0.00044894082
1599,-0.0042484854
1600,0.012775377
1601,0.005148598
1602,-0.009368401
1603,-0.006013398
1604,0.00056358567
1605,0.0021785516
1606,0.0050243414
1607,0.0027858505
1608,-0.005160832
1609,-0.01240074
1610,0.0008488308
1611,0.0030858829
1612,0.0012955337
1613,-0.0125342775
1614,0.0014167703
1615,-0.006889675
1616,-0.015946105
1617,0.009050067
1618,0.0002472874
1619,-0.00052555074
1620,0.007331723
1621,-0.0063436343
1622,0.011085984
1623,-0.00965727
1624,-0.007472099
1625,-0.005242676
1626,-0.006141368
1627,-0.011535196
1628,0.0016304693
1629,0.00790864
1630,-0.00886422
1631,0.005096635
1632,-0.0009403624
1633,0.005353958
1634,0.014402454
1635,-0.009136291
1636,0.014674793
1637,-0.0061609065
1638,0.004500759
1639,-0.0072128787
1640,0.014777592
1641,-0.0015065374
1642,-0.008301365
1643,-0.0056279064
1644,0.0004724963
1645,-0.0021345594
1646,0.0077573885
1647,0.0066038794
1648,0.0022430988
1649,-0.014382889
1650,0.008680063
1651,0.010757366
1652,-0.017043306
1653,-0.0070796534
1654,-0.008202699
1655,0.01051112
1656,0.01140042
1657,-0.0005534771
1658,0.010249916
1659,-0.01791491
1660,-3.917239e-05
1661,0.00794569
1662,0.010019097
1663,0.005451042
1664,-0.004632089
1665,-0.017055739
1666,0.014960081
1667,0.0011723557
1668,-0.0033917304
1669,0.0016421413
1670,0.011908963
1671,-0.0033448557
1672,-0.008577474
1673,-0.001140345
1674,0.009653311
1675,-0.0048119244
1676,0.010130397
1677,-0.011235916
1678,0.0016515582
1679,0.0029983956
1680,0.004230511
1681,0.006077691
1682,0.0026218297
1683,0.0053767236
1684,-0.007099912
1685,-0.0037595443
1686,0.005657128
1687,0.0133341495
1688,-0.017362092
1689,0.01417551
1690,0.008512547
1691,-0.012138438
1692,-0.013363573
1693,-0.009115807
1694,-0.019352635
1695,0.009996531
1696,-0.0042722193
1697,-0.0013844051
1698,0.010731112
1699,0.0035604325
1700,-0.0051285876
1701,-0.0091532245
1702,0.010211766
1703,-0.011492272
1704,-0.008559057
1705,-0.018828798
1706,0.005991026
1707,-0.011188388
1708,0.014680746
1709,0.010315717
1710,0.0076036
1711,0.019007355
1712,0.002728846
1713,-0.0065333014
1714,-0.000709548
1715,-0.0040677316
1716,0.004912526
1717,-0.0057442146
1718,0.011760731
1719,-0.0022409826
1720,-0.00600911
1721,0.002252749
1722,-0.00091204775
1723,0.0142932935
1724,0.002830846
1725,-0.00047204652
1726,-0.006109069
1727,0.0025910505
1728,0.0021017415
1729,0.0036950062
1730,-0.008211106
1731,-0.005992351
1732,0.019130679
1733,0.0036235873
1734,-0.01296122
1735,-0.0068891207
1736,0.006918768
1737,-0.0020389657
1738,-0.007942102
1739,-0.0017273236
1740,0.012817516
1741,-0.0074729864
1742,-0.0038866366
1743,-0.0026195538
1744,-0.010301932
1745,-0.018779345
1746,-0.0089595225
1747,-0.0058610016
1748,-0.011761822
1749,0.0017734923
1750,-0.0045562163
1751,-0.008609122
1752,-0.001395654
1753,-0.0043453733
1754,0.011538406
1755,0.0018315592
1756,0.014711501
1757,-0.0039024446
1758,-0.0050714016
1759,0.0007725852
1760,0.012407222
1761,-0.007622169
1762,0.0015518204
1763,-0.0012917956
1764,0.008491338
1765,-0.0046682437
1766,0.0028361725
1767,-0.00095503876
1768,0.008180479
1769,-0.0048902305
1770,-0.0059319683
1771,-0.0073807207
1772,-0.0007505803
1773,-0.014265904
1774,0.013917382
1775,-0.010840926
1776,0.001403945
1777,0.007449745
1778,0.010957576
1779,-0.00095966295
1780,0.0065120114
1781,-0.012688576
1782,0.0016300777
1783,0.0064769876
1784,-0.0022408634
1785,-0.00028845895
1786,0.0016588506
1787,-0.0015270226
1788,0.0028963536
1789,-0.0053897155
1790,-0.00029297255
1791,0.0037611765
1792,0.018279394
1793,0.004812815
1794,-0.0079571195
1795,0.0152575495
1796,0.0072908807
1797,-0.019259004
1798,-0.0031089361
1799,-0.007428571
1800,0.0046425536
1801,0.00074880634
1802,0.005111008
1803,-0.00045634777
1804,0.011324562
1805,-0.007916153
1806,0.0037944082
1807,-0.0066713276
1808,-0.0196026
1809,0.016049812
1810,-0.0046623
1811,0.010935481
1812,0.0038498652
1813,0.0028542792
1814,-0.01293932
1815,0.0063168216
1816,0.0054914346
1817,-0.0035979925
1818,-0.0020292364
1819,-4.205685e-05
1820,0.0145971235
1821,0.0067492034
1822,0.009622109
1823,0.0053604213
1824,-0.0074354154
1825,0.015685434
1826,0.012168563
1827,-0.00012469792
1828,0.0027628033
1829,-0.014343659
1830,0.006884971
1831,-0.012069945
1832,0.0081734145
1833,-0.0009457424
1834,-0.00944822
1835,-0.009386197
1836,-0.011549856
1837,0.0046078884
1838,-0.005019748
1839,0.011343844
1840,-0.0056210705
1841,-0.0052551385
1842,-0.013783168
1843,-0.0071770344
1844,-0.0030261823
1845,-0.004420977
1846,-0.01574436
1847,-0.0048254966
1848,0.009870793
1849,-0.0021190827
1850,-0.0015787896
1851,-0.00084345683
1852,0.0039244276
1853,-0.010524396
1854,0.0038984453
1855,0.0125770895
1856,-0.00059796195
1857,-0.00047343646
1858,-0.005820074
1859,0.007881226
1860,-0.00081897987
1861,0.010684701
1862,-0.0015618865
1863,0.0023134698
1864,-0.008879599
1865,0.0033777268
1866,-0.0041398183
1867,-0.0010236005
1868,0.0017100822
1869,-0.004706838
1870,-0.016471056
1871,0.010887935
1872,-0.0046411515
1873,0.0045563644
1874,0.011000438
1875,0.0027990055
1876,-0.00248464
1877,0.014025386
1878,0.000577427
1879,0.0018066055
1880,-0.006905033
1881,0.007671663
1882,-0.0008372553
1883,-0.01167442
1884,0.00796504
1885,0.0016024264
1886,-0.013883984
1887,0.004769596
1888,0.009958016
1889,0.0015196126
1890,0.0038074548
1891,-0.011190124
1892,-0.01816197
1893,-0.01769771
1894,0.008034161
1895,0.009776585
1896,-0.001713315
1897,0.0033372988
1898,-0.0031720344
1899,-0.0021731944
1900,-0.004369784
1901,-0.0036760438
1902,-0.0028579554
1903,-0.0032373625
1904,0.01248571
1905,0.00033099292
1906,0.0118367765
1907,-0.003816516
1908,0.0036413167
1909,0.0061865523
1910,-0.006156919
1911,0.005246592
1912,0.016492194
1913,0.008146426
1914,0.016015794
1915,0.00721
1916,-0.005690737
1917,-0.0058518546
1918,0.013545867
1919,0.014257771
1920,0.009657674
1921,-0.014753643
1922,0.0080044605
1923,-0.013131117
1924,0.0037468332
1925,-0.004040051
1926,-6.99105e-05
1927,-0.015425364
1928,0.0053454693
1929,0.0035449618
1930,0.0033544055
1931,0.0019755438
1932,-0.006853133
1933,-0.0069471723
1934,0.0029143365
1935,-0.004411072
1936,0.0064126067
1937,0.0047597066
1938,0.012596011
1939,0.019993348
1940,-0.00075124146
1941,2.7678378e-05
1942,-0.0062220907
1943,-0.0039411453
1944,0.004085097
1945,0.0005112626
1946,-0.0032458326
1947,-0.0032683017
1948,-0.0037584233
1949,0.0047993474
1950,-0.004116529
1951,-0.015871223
1952,-0.012106627
1953,0.0068884557
1954,-0.0075097685
1955,-0.0033501713
1956,0.011794018
1957,0.0064548478
1958,-0.002556728
1959,-0.00022054372
1960,0.002220682
1961,-0.0006183843
1962,-0.017986182
1963,0.0025551938
1964,-0.018845752
1965,-0.012504489
1966,0.016091414
1967,-0.009537023
1968,-0.0049613807
1969,-0.017667098
1970,-0.00035826454
1971,0.0036304719
1972,-0.008485096
1973,0.01940906
1974,-0.0037607027
1975,-0.004497402
1976,-0.009178596
1977,0.00410154
1978,-0.013720415
1979,0.008969315
1980,0.009607751
1981,-0.01344776
1982,-0.011387464
1983,-0.004740144
1984,-0.0023506891
1985,0.00014647239
1986,0.0006732707
1987,-0.016076105
1988,0.006533358
1989,0.0063218134
1990,0.014343449
1991,4.623341e-05
1992,-0.0034422576
1993,0.0020998218
1994,-0.01614636
1995,0.0018441748
1996,-0.0047267284
1997,0.007798199
1998,0.008175521
1999,0.0003602292
2000,0.011673061
2001,0.010983318
2002,0.01030876
2003,-0.0083062975
2004,-0.005287715
2005,-0.00817404
2006,-0.012078244
2007,-0.002832338
2008,-0.01602466
2009,0.0051481063
2010,-0.008125637
2011,0.0142340865
2012,-0.005051281
2013,0.015199792
2014,0.006991755
2015,0.00791465
2016,-0.0025824022
2017,0.0054152575
2018,0.0009901335
2019,0.0052141165
2020,0.0029217598
2021,-0.0047935043
2022,-0.00021466648
2023,0.0077251336
2024,0.009146231
2025,-0.00047533834
2026,0.0016596402
2027,0.003316542
2028,0.019994032
2029,-0.014273908
2030,-0.0032452636
2031,-0.004822663
2032,0.012468736
2033,0.008163924
2034,0.0036855657
2035,-0.007934909
2036,-0.00010012123
2037,0.0041406928
2038,-0.009391437
2039,-0.017971475
2040,0.006569712
2041,-0.010865857
2042,0.0052777985
2043,0.0010796501
2044,-0.0042141345
2045,-0.013195945
2046,0.0022826893
2047,0.0039478224
2048,-0.0018191825
2049,0.0043586087
2050,-0.0029714329
2051,-0.0019137455
2052,-0.012221133
2053,-0.006678326
2054,0.007550672
2055,-0.015241226
2056,-0.016851962
2057,-0.008701293
2058,-0.0069210916
2059,-0.00686645
2060,0.01961691
2061,-0.000971142
2062,-0.0027868543
2063,-0.007346165
2064,0.0002235218
2065,-0.00020338914
2066,0.018200593
2067,0.004700943
2068,0.008272001
2069,0.0029420233
2070,0.009962417
2071,-0.008201424
2072,0.0008827785
2073,-0.0052975337
2074,0.010284647
2075,-0.011521791
2076,-0.008733775
2077,-0.007892943
2078,-0.004507617
2079,0.0024064337
2080,0.0034329758
2081,0.010644322
2082,-0.011457479
2083,0.0059947944
2084,0.011077965
2085,0.006598633
2086,0.0106303925
2087,-0.0008682928
2088,0.0074911076
2089,-0.0018566087
2090,0.00022990583
2091,0.008403595
2092,-0.0027128072
2093,-0.00883484
2094,0.0008027984
2095,-0.007860106
2096,-0.0038757895
2097,-0.007565927
2098,-0.014455252
2099,0.0017254718
2100,0.012838198
2101,0.006543104
2102,0.009365665
2103,-0.006048907
2104,-0.006975193
2105,0.00020821614
2106,0.005958223
2107,0.010639007
2108,0.016141685
2109,0.00035045852
2110,0.0048775654
2111,0.01846532
2112,-0.004619338
2113,-0.012990797
2114,0.013694496
2115,-0.0047672736
2116,0.003536983
2117,0.010150931
2118,-0.008256445
2119,-0.009459041
2120,0.0077555976
2121,0.004345305
2122,0.0010470191
2123,-0.014878202
2124,0.00088632543
2125,0.0036664724
2126,-0.011530416
2127,-0.0042711897
2128,-0.001042749
2129,-0.007550029
2130,-0.014938716
2131,-0.012571177
2132,0.0009127961
2133,-0.0066169905
2134,-0.006553719
2135,0.00404261
2136,0.0026076904
2137,-0.0030893225
2138,0.0025281096
2139,0.0028062072
2140,-0.015666524
2141,-0.0068386765
2142,0.006261071
2143,0.006614498
2144,-0.009606706
2145,-0.000334623
2146,-0.015170794
2147,0.018466474
2148,-0.0071817897
2149,-0.0008990077
2150,-0.0076602655
2151,0.007965932
2152,0.0058495067
2153,-0.014706842
2154,-0.01575874
2155,0.0031095203
2156,0.0025017161
2157,-0.0020278837
2158,-0.004600815
2159,0.0073667346
2160,-0.0056997477
2161,-0.0049340758
2162,0.0047894516
2163,-3.286829e-05
2164,-0.015818086
2165,-0.006032991
2166,0.0056792856
2167,0.0066165263
2168,-0.01723169
2169,-0.009617355
2170,0.010102064
2171,0.013460246
2172,0.0028712766
2173,-0.0022732273
2174,-0.010607373
2175,-0.005652361
2176,-0.00049639517
2177,-0.00051264674
2178,-0.004470891
2179,-0.0051556407
2180,0.013525978
2181,-0.011289675
2182,0.00402188
2183,-0.010126539
2184,-0.0019913677
2185,-0.0010730672
2186,0.002122941
2187,0.00015004227
2188,0.00039040862
2189,0.0003557676
2190,0.0046789185
2191,0.0005882406
2192,0.00057886087
2193,-0.0067658564
2194,-0.00033888363
2195,0.015133307
2196,0.019139212
2197,-0.005204642
2198,0.01837355
2199,0.0060880943
2200,0.018263375
2201,0.0008259651
2202,0.011793035
2203,-0.008589334
2204,0.015470981
2205,-0.0049123345
2206,-0.004476801
2207,-0.0066106347
2208,-0.010255185
2209,-0.0069088023
2210,-0.00051639695
2211,0.009396507
2212,-0.003508839
2213,-0.003975537
2214,0.007874287
2215,-0.015182078
2216,-0.014598974
2217,-0.012431068
2218,0.01164643
2219,-0.006031996
2220,-0.0037133815
2221,-0.008219287
2222,-0.008005169
2223,-0.0009934969
2224,0.014843964
2225,-0.013650883
2226,-0.0022572717
2227,-8.6773194e-05
2228,0.01680373
2229,0.012576729
2230,-0.016163286
2231,-0.0070844134
2232,0.009509739
2233,0.01463764
2234,-0.0032290018
2235,0.0110584665
2236,0.007687489
2237,-0.00095810974
2238,-0.0070440057
2239,-0.0038545437
2240,-0.0011386669
2241,-0.0056830705
2242,-0.01502538
2243,-0.004023872
2244,0.011453955
2245,-0.002456206
2246,0.0070658177
2247,0.0011797815
2248,-0.0052884375
2249,0.0036716848
2250,0.003871586
2251,0.012573575
2252,0.008509167
2253,0.0053412574
2254,0.006630772
2255,-0.011677447
2256,-0.0051318253
2257,4.121757e-05
2258,0.0020907966
2259,-0.011869081
2260,-0.006115572
2261,-0.003232934
2262,0.01857783
2263,0.0012684371
2264,-0.0032459337
2265,0.017257487
2266,-0.00028803895
2267,0.008279594
2268,0.0018011086
2269,0.0030486146
2270,0.0057174554
2271,-0.0058112442
2272,0.010650931
2273,0.018975038
2274,0.0015161209
2275,-0.0017947698
2276,-0.01625367
2277,-0.0031013237
2278,-0.0026053528
2279,0.00057314074
2280,-0.0016414403
2281,0.0005002331
2282,-0.0043408754
2283,0.0035143702
2284,0.003909308
2285,0.013762272
2286,0.0045844098
2287,-0.005575029
2288,-0.0030859576
2289,0.008405723
2290,-0.0051338705
2291,0.0028524918
2292,-0.0050146123
2293,0.011227227
2294,0.011195925
2295,-0.0030029202
2296,-0.0034025724
2297,0.0042981165
2298,0.0069503584
2299,0.00024659553
2300,-0.0069556353
2301,0.012005662
2302,0.0016047902
2303,0.00503501
2304,0.00325557
2305,-0.0078086862
2306,-1.2162865e-06
2307,0.0123897
2308,-0.0017149495
2309,-0.013669389
2310,0.017729789
2311,-0.008731935
2312,0.00472403
2313,0.0112254275
2314,-0.01604635
2315,-0.0033473352
2316,-0.000990943
2317,0.003052902
2318,-0.014221942
2319,-0.0021446678
2320,0.0043337136
2321,0.004593191
2322,-0.002294931
2323,-0.0030674979
2324,-0.004940116
2325,-0.0064064716
2326,-0.0060894173
2327,0.0037378133
2328,0.0033716606
2329,0.007406633
2330,-0.01585575
2331,0.0022336124
2332,-0.001351698
2333,-0.006158715
2334,0.007231535
2335,0.007635499
2336,-0.0007379051
2337,-0.0035780903
2338,-0.002725279
2339,-0.0025596302
2340,-0.004211038
2341,0.0016311521
2342,-0.0022743922
2343,0.0018129316
2344,-0.0034798142
2345,0.0064745005
2346,-0.003686996
2347,0.0027207965
2348,-0.002175669
2349,-0.00881947
2350,0.014619859
2351,-0.01682467
2352,-0.0008565061
2353,0.008983044
2354,-0.0035796827
2355,-0.0001541916
2356,0.010851798
2357,-0.000389457
2358,0.008926948
2359,0.008714238
2360,-0.0016308428
2361,-0.012994489
2362,-0.0007375359
2363,0.015465896
2364,0.016053515
2365,-0.0010176114
2366,-0.0042762146
2367,-0.01884192
2368,0.009277947
2369,-0.013422056
2370,-0.014754447
2371,-0.0016900864
2372,-0.012570395
2373,-0.0030788777
2374,0.006937362
2375,-0.0018933507
2376,0.0034350802
2377,0.0022610943
2378,0.0027211022
2379,-0.0007744638
2380,0.0011504326
2381,-0.018831626
2382,0.013852266
2383,0.014394866
2384,-0.016073043
2385,0.012946518
2386,-0.0043659974
2387,-0.00039197516
2388,-0.013004717
2389,0.011151144
2390,-0.008375318
2391,0.003879748
2392,-0.0008511283
2393,-0.0045661395
2394,0.011350216
2395,0.0056449845
2396,0.0036580467
2397,0.013318592
2398,0.0031287752
2399,0.018951338
2400,0.0059049916
2401,0.00983652
2402,-0.00884921
2403,-0.0069405716
2404,0.014089627
2405,0.009876085
2406,-0.010954791
2407,-0.01347251
2408,-0.0015519428
2409,0.0034227495
2410,0.01087958
2411,-0.008772184
2412,0.006886902
2413,0.012692088
2414,-0.018745363
2415,0.0077758166
2416,0.0026504432
2417,-0.01175188
2418,0.010265333
2419,0.010940968
2420,0.0012126964
2421,0.007959297
2422,-0.0032190522
2423,-0.0116443625
2424,-0.0031965831
2425,0.0013812473
2426,0.0028611794
2427,0.00042120845
2428,0.004750985
2429,-0.0037870994
2430,-0.006073344
2431,-0.00081973727
2432,0.009770898
2433,0.011243469
2434,0.0061437534
2435,-0.008230324
2436,-0.0029578968
2437,0.0019002095
2438,0.012636436
2439,-0.0028177097
2440,0.011344294
2441,-5.868533e-05
2442,0.0013453795
2443,-0.012555336
2444,-0.0032812746
2445,-0.01793048
2446,-0.007920045
2447,0.014166821
2448,0.004963689
2449,-0.009913624
2450,-0.012294313
2451,0.0058911676
2452,-0.019787146
2453,-0.01158211
2454,0.006448384
2455,0.00043150378
2456,0.012293457
2457,0.0034612096
2458,-0.0044878325
2459,-0.019592013
2460,-0.0029508283
2461,0.0021155097
2462,-0.0023311812
2463,-0.019348366
2464,0.010690436
2465,0.0013558054
2466,6.907615e-05
2467,0.0054470613
2468,0.0005420754
2469,-0.0037513436
2470,0.0029106052
2471,0.0044302717
2472,0.0053071002
2473,-0.001440418
2474,-0.014923601
2475,-0.0025431912
2476,-0.012957197
2477,-0.00052784197
2478,-0.0019819092
2479,0.012846098
2480,0.0115196835
2481,-0.0096568335
2482,0.003331611
2483,0.017127877
2484,-0.0024431676
2485,-0.005825461
2486,-0.008874715
2487,0.010470434
2488,-0.0074508693
2489,-0.002764513
2490,0.0098299915
2491,-0.0010102438
2492,-0.005291054
2493,0.0010165138
2494,0.0036485372
2495,-0.004476871
2496,0.0077404953
2497,0.004775063
2498,0.0020243155
2499,-0.0016255673
2500,-0.0059339986
2501,-0.012188692
2502,-0.013869571
2503,0.017970242
2504,0.010283739
2505,0.01392074
2506,0.005506191
2507,-0.0017878277
2508,0.009410975
2509,-0.00937377
2510,-0.0056928783
2511,-0.004811521
2512,-0.0014192251
2513,-0.004500156
2514,0.0033143123
2515,-0.005570351
2516,0.0081382
2517,-0.010594908
2518,-0.0125163235
2519,0.013008291
2520,-0.0030248566
2521,-0.0038423738
2522,0.00076826144
2523,-0.015185122
2524,-0.011869995
2525,0.006198768
2526,0.0040358175
2527,0.009064111
2528,-0.011938462
2529,-0.01241737
2530,-0.008025741
2531,0.00480899
2532,0.008186075
2533,-0.005093322
2534,0.017247409
2535,-0.0061685676
2536,0.0077410825
2537,0.0016043113
2538,-0.006251778
2539,0.0047699036
2540,0.0047274185
2541,-0.003115836
2542,0.007374187
2543,0.003081556
2544,0.005337177
2545,0.016091375
2546,-0.0107519105
2547,0.008232479
2548,0.0015497137
2549,-0.00400917
2550,0.016937824
2551,0.0034620625
2552,0.003336606
2553,-0.00963698
2554,-0.010366577
2555,0.0017935267
2556,-0.0015756086
2557,7.2002826e-05
2558,-0.0020627545
2559,0.0058108526
2560,-0.0059453724
2561,-0.0063898675
2562,-0.001611701
2563,0.009462188
2564,0.005720836
2565,-0.009141794
2566,0.014626261
2567,0.0053729066
2568,0.0035065827
2569,-0.0064041317
2570,0.008038919
2571,-0.0014339569
2572,0.01645221
2573,0.006542046
2574,-0.0073362975
2575,0.004862453
2576,-0.009041893
2577,-0.00054241286
2578,0.0029091707
2579,0.0045704516
2580,-0.0027022625
2581,-0.017819159
2582,-0.0009943602
2583,-0.013790143
2584,0.005991563
2585,-0.005770457
2586,-0.006601158
2587,-0.005063925
2588,0.005283272
2589,-0.0028249407
2590,0.009909421
2591,0.01216582
2592,-0.008831674
2593,-0.012255079
2594,0.0036757158
2595,-0.0065270914
2596,-0.0030615504
2597,-0.015872855
2598,0.0171175
2599,0.007935407
2600,-0.0041568605
2601,-0.004736178
2602,0.013627395
2603,-0.015481694
2604,0.0008281086
2605,0.010534417
2606,-0.008646022
2607,-0.0059307977
2608,-0.0007241082
2609,0.0057403753
2610,-0.0056079375
2611,0.0021242907
2612,0.00047269926
2613,0.004160061
2614,-0.004480745
2615,-0.014155574
2616,-0.010747609
2617,0.0039681806
2618,-0.013308562
2619,-0.002279203
2620,-0.0035938409
2621,0.0055046002
2622,0.004268962
2623,0.005215861
2624,-0.0013730818
2625,0.012466315
2626,-0.0048267688
2627,0.002832567
2628,-0.0070385244
2629,-0.0025325813
2630,0.006600768
2631,0.007548148
2632,-0.0088976
2633,-0.0033590968
2634,0.008754289
2635,-0.007322227
2636,-4.202735e-05
2637,0.001375224
2638,-0.014876544
2639,0.0009175113
2640,0.014691277
2641,-0.0047699464
2642,-0.016831536
2643,0.016142111
2644,-0.0032888309
2645,-0.00035584296
2646,0.0066606635
2647,0.012158559
2648,0.001150534
2649,-0.0024865803
2650,-0.000890998
2651,2.2061939e-05
2652,0.003169595
2653,0.005583378
2654,-0.011282477
2655,-7.706681e-05
2656,-0.014136434
2657,-0.0070879185
2658,-0.00764953
2659,-0.007074036
2660,0.0046129352
2661,-0.007971585
2662,0.007512926
2663,0.0024264904
2664,0.005650008
2665,-0.006007098
2666,0.0026989947
2667,0.007222414
2668,-0.0034150418
2669,-0.009168188
2670,-0.013960478
2671,0.0006068037
2672,0.008011115
2673,-0.001345674
2674,-0.00951347
2675,0.0011294893
2676,0.011614447
2677,-0.012749157
2678,0.006627127
2679,0.0069041783
2680,0.0026592554
2681,-0.0077646924
2682,-0.0024679846
2683,-0.007514562
2684,-0.002566865
2685,-0.0037586945
2686,-0.0076621994
2687,-0.0045701475
2688,-0.016176667
2689,-0.015736451
2690,-0.008339781
2691,-0.006129411
2692,0.013090287
2693,0.007732773
2694,-0.008782894
2695,0.017696667
2696,0.00041774646
2697,-0.012099122
2698,0.0063768234
2699,-0.0024964197
2700,0.007910757
2701,0.0065463604
2702,-0.0093042385
2703,0.007668302
2704,-0.007212592
2705,-0.01628742
2706,0.018953454
2707,-0.0011521382
2708,-0.0012239343
2709,-0.016492179
2710,-0.0045900326
2711,-0.0004035601
2712,-0.0152386855
2713,-0.0159056
2714,-0.0016401721
2715,0.00068366755
2716,0.0066282945
2717,0.005605545
2718,0.013508729
2719,0.007716964
2720,-0.019101392
2721,-0.009605425
2722,0.0034602007
2723,-0.013188621
2724,-0.0014765988
2725,0.008940663
2726,-0.009655225
2727,-0.011723269
2728,-0.0088818865
2729,0.006124377
2730,0.014485174
2731,-0.006596921
2732,-0.010042937
2733,-0.0072429525
2734,0.0073383763
2735,-0.0071387277
2736,0.015069314
2737,0.001322772
2738,0.0107999975
2739,-0.00026265476
2740,0.002205845
2741,-0.013981268
2742,0.0004647417
2743,0.006140566
2744,-0.0067502977
2745,0.010393688
2746,-0.012577478
2747,0.0035848422
2748,0.019069254
2749,0.0055793016
2750,0.0027093757
2751,0.0032353746
2752,0.0025087153
2753,-0.0046714623
2754,-0.005422771
2755,-0.005992528
2756,-0.004460602
2757,0.002908432
2758,-0.00095330057
2759,-0.016601425
2760,0.005387743
2761,-0.0067868405
2762,-0.012742257
2763,-0.0021609068
2764,0.012942988
2765,0.008579653
2766,-0.0045977123
2767,0.006296308
2768,-0.015113745
2769,0.007773377
2770,0.0051875645
2771,0.0050760764
2772,0.00864896
2773,0.009063879
2774,-0.0033886032
2775,0.0023004743
2776,-0.0065901084
2777,-0.0098451385
2778,-0.0010425042
2779,-0.000104989915
2780,-0.0018280743
2781,-0.008710744
2782,0.0068970053
2783,0.014180715
2784,0.012492923
2785,0.016247636
2786,-0.010461217
2787,-0.016909314
2788,0.00052226614
2789,0.006539611
2790,0.0070422227
2791,-0.012400261
2792,0.005801152
2793,-0.0067673638
2794,0.01762628
2795,0.0143217435
2796,0.0016225848
2797,-0.009668247
2798,-0.017486602
2799,-0.012782511
2800,-0.019434914
2801,-0.006096108
2802,0.013022762
2803,0.0074844877
2804,-0.00122289
2805,-0.014369867
2806,-0.006626531
2807,0.0058848346
2808,0.019492459
2809,-0.012025177
2810,0.009120867
2811,-0.002747821
2812,0.003691505
2813,-0.019835472
2814,0.010223908
2815,-0.011184655
2816,-0.0056773606
2817,-0.004413234
2818,0.011135016
2819,-0.007311191
2820,-0.0038415713
2821,0.0051598735
2822,0.0015630026
2823,0.017169774
2824,-0.00039130775
2825,-0.0044851354
2826,-0.007735244
2827,0.006235973
2828,0.0039118156
2829,0.016422538
2830,-0.013247575
2831,-0.0007467563
2832,0.0020517178
2833,0.0002649493
2834,0.010934517
2835,0.0006645753
2836,0.018256577
2837,-0.011688153
2838,-0.0038732586
2839,-0.008894362
2840,-0.004360214
2841,-0.012484989
2842,0.01501894
2843,0.00893912
2844,0.0013470158
2845,0.003714101
2846,-0.003333329
2847,-0.013346685
2848,-0.0035755588
2849,0.004685004
2850,-0.018579999
2851,-0.013244682
2852,-0.01844123
2853,-0.002305978
2854,0.0011926752
2855,0.0047715977
2856,-0.007154189
2857,0.011791764
2858,0.013418425
2859,0.0071691563
2860,0.0059300917
2861,0.010224159
2862,-0.0063883644
2863,-0.0011467211
2864,-0.0020458996
2865,0.0032666824
2866,0.0022889702
2867,5.8377616e-05
2868,-0.006634566
2869,0.01196394
2870,-0.010211532
2871,0.008682884
2872,0.004838292
2873,-0.018509796
2874,0.0017380873
2875,0.0041698306
2876,0.018568907
2877,0.010417053
2878,0.0054113935
2879,-0.0074193077
2880,0.010229803
2881,-0.0043966672
2882,-0.011240012
2883,-0.008239785
2884,0.00041186484
2885,0.00085249735
2886,0.015571698
2887,0.019098125
2888,-0.004060431
2889,0.008927012
2890,-0.004702118
2891,-0.004520729
2892,0.013990464
2893,-0.00034001126
2894,0.0042761797
2895,0.0056251204
2896,0.0070029907
2897,-0.01180029
2898,0.015860764
2899,0.005330196
2900,-0.0144286435
2901,-0.0064379913
2902,0.007823277
2903,-0.0122283045
2904,-0.004389525
2905,-0.0044675027
2906,-0.0057499716
2907,-0.0044527426
2908,-0.008122349
2909,0.01734594
2910,-0.00873731
2911,0.00592032
2912,0.009639974
2913,0.009086363
2914,-0.003638054
2915,0.005241535
2916,-0.0031194119
2917,-0.014851846
2918,0.004127872
2919,-0.010979826
2920,0.004470449
2921,-0.0050847796
2922,-0.0039628274
2923,-0.0098223165
2924,0.0063315732
2925,0.011642355
2926,0.0004277516
2927,0.00036174452
2928,0.0033893613
2929,0.008703619
2930,-0.0017503739
2931,0.011986496
2932,0.0086191455
2933,-0.00019607088
2934,-0.0111928405
2935,-0.003113997
2936,-0.013454101
2937,0.009786643
2938,-0.0054976125
2939,-0.0026874803
2940,-0.0010678575
2941,-0.019559968
2942,-0.007241677
2943,-0.0069067944
2944,-0.005367502
2945,-0.0058580018
2946,-0.007933087
2947,-0.003738062
2948,-0.009133994
2949,-0.010259719
2950,0.0048225923
2951,-0.0067926687
2952,0.01600169
2953,0.002418185
2954,0.0065512666
2955,0.006669474
2956,-0.006814623
2957,0.0014557627
2958,-0.012122738
2959,0.004052224
2960,-0.0083264625
2961,-0.00501427
2962,-0.007648342
2963,-0.0003073368
2964,-0.010046049
2965,0.0059315995
2966,-0.0070621297
2967,-0.0036819153
2968,-0.0008107464
2969,-0.00499273
2970,-0.003619081
2971,0.004301915
2972,0.0071550505
2973,-0.002049498
2974,0.0069803265
2975,-0.010196379
2976,0.016758801
2977,-0.0007719816
2978,0.00076868525
2979,-0.0032940453
2980,-0.011217256
2981,0.009310264
2982,0.006064799
2983,-0.0012879152
2984,-0.013900884
2985,-0.005137378
2986,0.01349078
2987,-0.01766613
2988,-0.009104131
2989,-0.0047794287
2990,0.010507631
2991,-0.0013589113
2992,-0.0015721044
2993,-0.00090982445
2994,0.008603247
2995,-0.013918943
2996,0.003232364
2997,0.015841158
2998,-0.010966606
2999,0.0001306701
3000,0.0019930836
3001,-0.009244993
3002,-0.0010384346
3003,0.0146479085
3004,-0.0016800623
3005,0.0034527224
3006,-0.0013025005
3007,-0.019898336
3008,0.011456024
3009,-0.013576067
3010,0.0066134543
3011,-0.006420707
3012,0.0010278001
3013,0.0032945878
3014,-0.014755894
3015,0.0039141383
3016,0.00091499236
3017,0.0041532028
3018,0.005163955
3019,0.009638281
3020,-0.0018018375
3021,0.015665509
3022,-0.009848967
3023,0.015836546
3024,0.011434124
3025,0.0036863666
3026,-0.014178937
3027,0.005866002
3028,0.008746757
3029,-0.0040461314
3030,-0.0021181346
3031,6.2742525e-05
3032,-0.010386924
3033,-0.0028466312
3034,-0.007892622
3035,-0.014006519
3036,0.0064973347
3037,-0.014105986
3038,-0.001510693
3039,0.002856579
3040,-2.5745023e-05
3041,-0.01455121
3042,0.00409583
3043,0.012872206
3044,0.0025855775
3045,-0.010210901
3046,-0.002667422
3047,-0.0014143778
3048,-0.011301294
3049,-0.006429442
3050,0.014891206
3051,0.004848507
3052,0.0024544464
3053,0.013890814
3054,-0.008850996
3055,0.012015184
3056,0.010385475
3057,-0.0021412566
3058,-0.0036830676
3059,-0.00043395933
3060,0.00014035754
3061,-0.010887898
3062,-0.005460598
3063,-0.0034384723
3064,-0.018493595
3065,-0.0028569822
3066,0.009020699
3067,-0.00019405397
3068,0.0083249025
3069,0.008268817
3070,-0.0019430985
3071,0.010964056
3072,0.004848702
3073,-0.009572036
3074,-0.004591565
3075,0.0025485542
3076,-0.0042149145
3077,-0.00094680896
3078,0.003924912
3079,-0.011166195
3080,0.002742362
3081,0.0030911027
3082,-0.019882657
3083,0.0067261187
3084,0.0009269726
3085,-0.014016234
3086,0.007606687
3087,-0.0010760587
3088,0.013986036
3089,-0.012331734
3090,-0.00121631
3091,0.010730208
3092,-0.010239274
3093,-0.0020133338
3094,-0.0012380678
3095,-0.0050875563
3096,0.012879337
3097,0.007898474
3098,0.0015570335
3099,-0.019863455
3100,-0.0028544723
3101,0.0015019003
3102,0.0019866133
3103,-0.004411491
3104,-0.005836463
3105,0.00085500674
3106,-0.0055776387
3107,0.0021276725
3108,0.00015022182
3109,-0.0036342319
3110,-0.0014627086
3111,-0.0038810757
3112,-0.0105414055
3113,-0.00523805
3114,0.018728035
3115,-0.005789174
3116,0.00985982
3117,0.0005427609
3118,-0.0094071
3119,0.015723653
3120,0.00061304873
3121,0.0016340077
3122,-0.0038151918
3123,0.016677925
3124,0.009203466
3125,-0.0066016344
3126,-0.011861445
3127,0.013615307
3128,-0.010883121
3129,0.0018549
3130,-0.0040761824
3131,0.0036636775
3132,-0.005944877
3133,0.016448904
3134,-0.0010084551
3135,0.0009266187
3136,7.993803e-05
3137,-0.001244831
3138,0.010127813
3139,0.0057333554
3140,-0.0014626768
3141,-0.006269186
3142,-0.0028005997
3143,0.00097281544
3144,-0.014911065
3145,0.013641392
3146,-0.0069996617
3147,0.016129522
3148,0.0011890387
3149,-0.00805674
3150,0.009692624
3151,0.013708252
3152,0.00058053964
3153,0.011699467
3154,0.005823334
3155,0.005614288
3156,0.0049551255
3157,-0.003734284
3158,-0.013608662
3159,0.0023312648
3160,-0.013437018
3161,0.0046394602
3162,0.01741385
3163,-0.0053707953
3164,-0.0012490622
3165,0.014464665
3166,0.0028835319
3167,-0.010628797
3168,0.0035917622
3169,0.008135073
3170,-0.0003749987
3171,0.002144714
3172,0.013670178
3173,-0.0015789975
3174,0.008282157
3175,0.0069873915
3176,0.01796093
3177,-0.007925189
3178,0.0022475861
3179,-0.010780733
3180,-0.011687003
3181,-0.0016948967
3182,0.0039087585
3183,0.005046636
3184,0.0049644103
3185,-0.010161347
3186,-0.0039219013
3187,-0.00081593543
3188,-0.0048906277
3189,-0.005007305
3190,0.0038239236
3191,-0.012401779
3192,0.0016165276
3193,-0.0017767218
3194,0.008757878
3195,0.01268288
3196,-0.0049856952
3197,0.0076444093
3198,0.007831992
3199,0.0071261143
3200,-0.0070495834
3201,-0.0075363503
3202,0.011196799
3203,0.0008440388
3204,-0.007308661
3205,-0.0036048908
3206,0.012118765
3207,-0.0018379501
3208,7.687881e-05
3209,-0.017958747
3210,0.015944662
3211,0.019999584
3212,-0.01635505
3213,0.0078047477
3214,-0.005733569
3215,0.0019837979
3216,0.008640745
3217,-0.000663571
3218,-0.0077287364
3219,-0.0027568592
3220,0.0065671448
3221,0.0014341513
3222,-0.007920255
3223,0.0056795487
3224,0.0026155172
3225,0.015787812
3226,-0.005598934
3227,-0.012323021
3228,-0.002584871
3229,-0.013141482
3230,-0.0039098347
3231,0.009715698
3232,-0.0015219884
3233,0.008879504
3234,0.01320323
3235,-0.0074217827
3236,-0.0043412335
3237,-0.010955614
3238,-0.018245038
3239,0.0110407425
3240,0.006513924
3241,-0.0069334544
3242,-0.007197369
3243,-0.009997152
3244,-0.017419605
3245,0.0071103983
3246,0.003233062
3247,0.011904875
3248,0.00391783
3249,-0.005927553
3250,-0.0181269
3251,-0.01971679
3252,-0.0071875434
3253,0.0009474407
3254,-0.0032663636
3255,0.0074306615
3256,-0.011349951
3257,0.0027031447
3258,-0.0067890617
3259,0.014246219
3260,0.0012865281
3261,0.0026573148
3262,-0.0020560173
3263,0.006513287
3264,0.008484696
3265,0.0010477117
3266,0.009248055
3267,-0.006315794
3268,-0.003945401
3269,-0.011756052
3270,0.0038876203
3271,-0.007004074
3272,0.012600845
3273,-0.0014205283
3274,-0.01591955
3275,-0.0058841957
3276,-0.0103659155
3277,-0.0028175043
3278,0.012247855
3279,0.0026307108
3280,0.009676109
3281,0.0066454634
3282,0.00891832
3283,-0.005577278
3284,0.002119619
3285,0.006127981
3286,-0.0007057882
3287,0.014506143
3288,0.0006302105
3289,-0.01161747
3290,0.00445334
3291,-0.011913921
3292,-0.0011224069
3293,0.0020787509
3294,0.0035822454
3295,0.00875057
3296,-0.0023540633
3297,0.008214179
3298,-0.0033006757
3299,-0.008813437
3300,0.009330949
3301,0.006238778
3302,-0.00024842288
3303,0.0032586379
3304,-0.014379911
3305,-0.00039951678
3306,0.007492419
3307,0.0009499782
3308,-0.0110774245
3309,0.0036436038
3310,0.0005946327
3311,0.008737322
3312,0.011273228
3313,0.0069113644
3314,-0.012898379
3315,0.0041468274
3316,-0.0074328473
3317,-0.009631222
3318,-0.009775834
3319,-0.006443756
3320,0.015359949
3321,-0.0007562649
3322,0.0012973836
3323,0.0026368173
3324,-0.00067812926
3325,0.008929116
3326,-0.014677081
3327,0.013220981
3328,0.015217429
3329,-0.009455815
3330,-0.004666467
3331,-0.010835089
3332,0.010820115
3333,-0.0020268846
3334,0.012616655
3335,-0.0068101687
3336,-0.0011670667
3337,0.0048015798
3338,-0.0020223288
3339,0.0017578184
3340,0.013847023
3341,0.0022243392
3342,0.007777941
3343,0.008680861
3344,0.009410925
3345,0.013569484
3346,-0.01815949
3347,-0.00692701
3348,0.0036954312
3349,0.0020751732
3350,0.0060514905
3351,-0.0022334724
3352,-0.0060962327
3353,-0.0068702227
3354,-0.009277475
3355,0.00486239
3356,0.0043664626
3357,0.0060653253
3358,0.003575157
3359,0.0100170355
3360,0.01697779
3361,-0.0020426007
3362,-0.0016484418
3363,0.00033002533
3364,-0.0064537553
3365,0.00072144304
3366,-0.013008351
3367,-0.010685602
3368,-0.002020829
3369,0.009420481
3370,0.007907545
3371,0.0013827313
3372,0.0018688027
3373,0.005911081
3374,-0.0027298732
3375,-0.0005269872
3376,0.0005109624
3377,0.010566961
3378,-0.006987816
3379,-0.0039707674
3380,0.0044940403
3381,-0.010141585
3382,-0.0048918985
3383,-0.00094277516
3384,-0.00094131153
3385,-0.004326063
3386,0.008602408
3387,-0.019379428
3388,0.012823211
3389,-0.008471615
3390,-0.000651108
3391,0.004371494
3392,0.0046494524
3393,-0.0025166536
3394,-0.009132266
3395,-0.0077858986
3396,-0.007345079
3397,-0.01353349
3398,-0.011533566
3399,-0.00075441087
3400,-0.014893997
3401,-0.008401042
3402,0.002560815
3403,0.011635988
3404,-0.000825716
3405,-0.0016984754
3406,0.018417872
3407,-0.009167851
3408,0.004253621
3409,0.009439313
3410,-0.0051424084
3411,-0.002078212
3412,0.0056879884
3413,0.00157435
3414,0.0065146214
3415,-0.007887684
3416,-0.003938327
3417,0.003555194
3418,0.008510302
3419,-0.00048232294
3420,-0.008111573
3421,-0.014843075
3422,-0.0030267292
3423,-0.012902893
3424,-0.000615489
3425,-0.004171356
3426,-0.0025060992
3427,-0.004064216
3428,0.004349798
3429,-0.008479338
3430,0.00014018045
3431,-0.0060188747
3432,0.006652981
3433,0.009856444
3434,-0.0055699404
3435,0.014801192
3436,0.007991705
3437,-0.010608887
3438,0.009316277
3439,-0.010438522
3440,-0.00036757384
3441,0.005978242
3442,0.00192584
3443,0.008266315
3444,0.005503123
3445,0.0074220574
3446,0.0026127882
3447,0.0024011545
3448,-0.00030765403
3449,-0.0032698326
3450,0.0077313124
3451,0.0062796944
3452,0.0067186
3453,-0.0018564439
3454,-0.00013434557
3455,-0.007429151
3456,0.0027832277
3457,0.0038524487
3458,0.006730733
3459,-0.0070941574
3460,0.0078015593
3461,0.008477983
3462,0.0013586429
3463,0.013104004
3464,-0.0020585295
3465,0.003921908
3466,0.011861518
3467,0.014559921
3468,-0.0029848465
3469,0.008492342
3470,0.0025477703
3471,0.0072646188
3472,0.009491194
3473,0.005773793
3474,0.005933617
3475,-0.0013073649
3476,-0.0039588376
3477,0.005234711
3478,-0.0054485737
3479,0.00921634
3480,0.004525955
3481,0.002819872
3482,-0.006535242
3483,-0.011947837
3484,0.010665941
3485,0.0012774061
3486,0.009750622
3487,0.0024334136
3488,0.0050502657
3489,-0.0005845209
3490,0.014576855
3491,0.016155768
3492,-0.010875405
3493,0.010575997
3494,-0.0012903184
3495,0.0028632595
3496,0.008126458
3497,0.0003058505
3498,-0.0021841105
3499,-0.00872355
3500,0.00451022
3501,-0.010119917
3502,0.00078748155
3503,-0.012357375
3504,0.019225108
3505,0.008634989
3506,-0.011695277
3507,-0.014391558
3508,-0.007610844
3509,0.0074639525
3510,-0.0023516493
3511,0.003608659
3512,0.013456928
3513,0.00026583753
3514,-0.005883639
3515,-0.008847611
3516,-0.012900106
3517,0.019494073
3518,-0.0005201372
3519,-0.013043315
3520,0.0047908463
3521,-0.0023146048
3522,0.0016594857
3523,-0.008977245
3524,0.00321593
3525,0.0094989
3526,-0.010278441
3527,-0.0018793448
3528,0.014579302
3529,0.0008183659
3530,0.009386871
3531,-0.00048824304
3532,0.018753953
3533,-0.016016588
3534,0.0060668043
3535,0.012538523
3536,0.0075894175
3537,-0.0015572124
3538,0.0040498413
3539,-0.016574964
3540,0.0055888537
3541,0.015060225
3542,-0.0009777496
3543,-0.007747089
3544,0.019594114
3545,0.009396096
3546,-0.0052600014
3547,0.008049645
3548,-0.007895342
3549,0.0031491483
3550,-0.010417124
3551,0.011312304
3552,-0.0048998967
3553,-0.007974346
3554,0.003101301
3555,0.005052502
3556,-0.0101817595
3557,-0.014127289
3558,-0.0013177863
3559,-0.011996434
3560,-0.013281757
3561,-0.0033010305
3562,-0.007859925
3563,-0.0050484235
3564,-0.0075643235
3565,0.012562797
3566,0.0068469294
3567,0.011566474
3568,-0.008194768
3569,0.011339574
3570,-0.007378099
3571,-0.018855842
3572,0.0037424937
3573,0.0043795193
3574,0.0019700178
3575,-0.0019034873
3576,0.009363256
3577,0.0061257165
3578,-0.006913538
3579,0.009457372
3580,0.0148192365
3581,-0.002070373
3582,0.00934498
3583,-0.006619292
3584,-3.4546958e-06
3585,0.0010080703
3586,0.005473226
3587,-0.010549967
3588,-0.0017150999
3589,0.002673991
3590,-0.0037780122
3591,0.0060797855
3592,0.0062493687
3593,-0.008652115
3594,0.017837247
3595,0.017249767
3596,0.013966861
3597,0.0028966253
3598,0.006099784
3599,0.004143455
3600,0.00109074
3601,-0.0063699917
3602,0.011596403
3603,0.012400037
3604,-0.010996463
3605,-0.009939017
3606,-0.0044516027
3607,0.004365295
3608,0.007944528
3609,-0.010239855
3610,0.0056791576
3611,0.00922178
3612,-0.012313305
3613,0.0043494487
3614,-0.012006426
3615,0.005574269
3616,0.014891761
3617,0.009113096
3618,0.0012614356
3619,-0.017249944
3620,-0.00061616243
3621,0.0077295913
3622,-0.0076558255
3623,-0.014607067
3624,0.0004914886
3625,0.007488736
3626,0.012312577
3627,-0.00073464616
3628,-0.014022985
3629,0.012622766
3630,-0.009615452
3631,0.007418992
3632,-0.0086726695
3633,-0.005483903
3634,-0.00088921416
3635,-0.014505456
3636,-0.010003452
3637,0.00978149
3638,0.0062314733
3639,0.016821025
3640,-0.0035812166
3641,0.0061639533
3642,0.0004425862
3643,-0.0052225357
3644,-0.0043550488
3645,0.011725665
3646,0.0016150431
3647,-0.0066075088
3648,0.0019094205
3649,0.0035769686
3650,0.005253123
3651,-0.0059058564
3652,0.008140129
3653,0.0017624616
3654,0.0025408333
3655,-0.002303592
3656,0.010244933
3657,0.004899137
3658,-0.009399986
3659,-0.004322327
3660,0.0069379373
3661,-0.0047883466
3662,0.011048062
3663,-0.0053247884
3664,-0.00074414065
3665,-0.013149638
3666,-0.006623145
3667,0.0037809818
3668,0.008246383
3669,-0.018580267
3670,-0.007064519
3671,0.005965393
3672,-0.009386209
3673,-0.012796907
3674,0.012892211
3675,-0.010838263
3676,0.002874608
3677,0.0034943868
3678,0.009353552
3679,-0.003727578
3680,-0.014014006
3681,-0.0043786988
3682,-0.0010307633
3683,-0.019120017
3684,0.00357995
3685,0.0014138306
3686,0.009361583
3687,0.0044484073
3688,-0.0006077853
3689,0.0044975127
3690,-0.00041735495
3691,-0.015692545
3692,-0.0064616106
3693,-0.017653765
3694,-0.0033654962
3695,0.013540598
3696,0.00527102
3697,0.013261323
3698,0.0038002213
3699,-0.0065325275
3700,-0.0067123696
3701,-0.015705464
3702,-0.006828135
3703,0.0062101283
3704,-0.008479486
3705,-0.011336764
3706,0.0076360847
3707,-0.0145516945
3708,-0.0019787245
3709,0.0006152931
3710,0.008242439
3711,-0.005299374
3712,0.0060265157
3713,-0.009410624
3714,0.015095271
3715,-0.011764216
3716,-0.019659754
3717,-0.0010364571
3718,0.003650967
3719,0.010552591
3720,-0.007881876
3721,-0.008520588
3722,0.0065102233
3723,-0.009910447
3724,0.0139171425
3725,-0.0071704825
3726,0.0044694343
3727,-0.013295782
3728,-0.01137276
3729,0.0018456714
3730,0.018174501
3731,-0.007264672
3732,-0.009477987
3733,-0.009710887
3734,0.0008120595
3735,0.0053185686
3736,0.009167529
3737,-0.015624038
3738,0.008758438
3739,0.0031695138
3740,0.0016685224
3741,-0.001312608
3742,0.0019328012
3743,-0.006993912
3744,-0.0074980557
3745,0.007036214
3746,0.017615626
3747,0.0009424015
3748,-0.006481381
3749,-0.006757841
3750,0.012400665
3751,0.013538252
3752,-0.01431613
3753,-0.0010656108
3754,0.0030946878
3755,-0.011339719
3756,0.013695045
3757,-0.0047758804
3758,0.010427741
3759,0.010862221
3760,0.002538908
3761,-0.011538321
3762,0.0056117503
3763,-0.01608442
3764,-0.0112823825
3765,0.008745263
3766,-0.015057072
3767,0.003295835
3768,-0.0047285343
3769,-0.012843145
3770,-0.016756546
3771,-0.008438957
3772,0.0132573005
3773,0.007305196
3774,-0.017117916
3775,0.0065198983
3776,-0.0015738601
3777,-0.010301844
3778,-0.00067361514
3779,-0.008638142
3780,0.0038348758
3781,-0.004601221
3782,-0.0025197621
3783,-0.01096526
3784,0.001587776
3785,-0.0038257116
3786,0.012436685
3787,-0.011871783
3788,0.009580546
3789,-0.0070548723
3790,0.013511367
3791,0.0076202666
3792,-0.010385354
3793,0.013777975
3794,0.0008855108
3795,0.0003003161
3796,0.005957004
3797,0.0060168644
3798,-0.0026202537
3799,-0.009521945
3800,-0.019571114
3801,0.009541748
3802,0.019389084
3803,-0.0068025496
3804,-0.0015178989
3805,-0.015088833
3806,0.017812014
3807,0.008679975
3808,0.0012021416
3809,-0.0033319849
3810,-0.0020904383
3811,-0.016570317
3812,-0.0046083545
3813,-0.00012739528
3814,0.00020104839
3815,-0.0006045264
3816,-0.0070658415
3817,0.014421716
3818,-0.008243493
3819,-0.009403231
3820,0.009230801
3821,-0.016584126
3822,-0.0054742703
3823,0.009799972
3824,0.015793422
3825,-0.0060134167
3826,-0.0050356537
3827,-0.0028471996
3828,0.003505055
3829,0.0006914716
3830,-0.0018753263
3831,0.001957768
3832,0.0033774804
3833,0.0014931399
3834,-0.011544695
3835,0.0055319713
3836,-0.017644303
3837,0.002898389
3838,-0.0047569904
3839,-0.0071378914
3840,-0.008237007
3841,0.0006321303
3842,0.0054188585
3843,-0.01516161
3844,0.0023959992
3845,0.0020750442
3846,-0.002229978
3847,-0.0027933952
3848,0.011221745
3849,-0.008652287
3850,0.0015954257
3851,-0.01805932
3852,0.0062304675
3853,0.017210335
3854,0.005875806
3855,0.0034890957
3856,-0.012694994
3857,-0.015110157
3858,-0.0022939555
3859,0.005417346
3860,0.009544482
3861,-0.0015148992
3862,0.010311666
3863,0.005410235
3864,0.0015311467
3865,0.011784033
3866,0.0011703229
3867,-0.007473991
3868,0.012273496
3869,-0.0005680157
3870,-0.012397814
3871,0.008953545
3872,-0.015636187
3873,-0.004431903
3874,-6.908966e-05
3875,-6.3382155e-05
3876,-0.0058670747
3877,-0.0046952367
3878,0.017189182
3879,0.013270379
3880,-0.0045679454
3881,0.0059796344
3882,0.015923599
3883,-0.01193992
3884,0.000335867
3885,0.002010623
3886,-0.007881625
3887,0.0020807001
3888,-0.0045227967
3889,0.009027715
3890,0.012184249
3891,0.0032405837
3892,0.014323501
3893,0.00988152
3894,-0.009533015
3895,0.005988865
3896,-0.0018427017
3897,0.006683233
3898,-0.006315374
3899,-0.013102107
3900,-0.006936593
3901,-0.010473984
3902,0.0032719662
3903,-0.014492209
3904,-0.018688701
3905,-0.0030933907
3906,0.0018347946
3907,-0.008936843
3908,0.014658125
3909,-0.0016146068
3910,-0.00082145206
3911,-0.003571574
3912,-0.018622994
3913,0.0009911173
3914,-0.007862216
3915,0.005174167
3916,-0.0077680512
3917,-0.0097639095
3918,-0.000712505
3919,0.008270741
3920,0.01691372
3921,0.003769897
3922,0.0044928594
3923,-0.004065087
3924,-0.005312287
3925,-0.00012561757
3926,-0.013372763
3927,-0.001643483
3928,0.013649668
3929,0.01478791
3930,-0.0071224184
3931,-0.0102925245
3932,-0.004234883
3933,-0.014065567
3934,0.0063661085
3935,0.0019355181
3936,-0.017373635
3937,3.539638e-05
3938,0.007469259
3939,-0.0021064344
3940,0.0030861436
3941,0.002198158
3942,0.007255066
3943,0.00944632
3944,-0.0072232317
3945,-0.014162645
3946,-0.01340122
3947,0.012059552
3948,0.0037264833
3949,0.0041171573
3950,-0.0112719415
3951,0.0045431894
3952,-0.001587651
3953,0.0007790421
3954,-0.0029910982
3955,-0.0057417103
3956,-0.007401701
3957,0.00086706993
3958,-0.0078438325
3959,0.008918791
3960,0.018328456
3961,0.0024344167
3962,-0.0020164282
3963,-0.0010933771
3964,0.00084774004
3965,0.00011561534
3966,-0.0032260704
3967,0.0006294612
3968,0.005361018
3969,-0.013244648
3970,-0.009194413
3971,0.0041225348
3972,0.013199209
3973,0.0026257278
3974,-0.0091233775
3975,0.015322854
3976,0.004238142
3977,-0.005457159
3978,-0.0005341233
3979,-0.0034391566
3980,-0.0046940856
3981,0.0047780727
3982,0.0005221379
3983,0.003081723
3984,0.006481028
3985,-0.013772187
3986,-0.009548988
3987,0.0041806656
3988,-0.0062271203
3989,0.016512943
3990,-0.013399983
3991,0.0047887824
3992,-0.005503278
3993,-0.0074158697
3994,0.003132504
3995,-0.011837927
3996,-0.016071564
3997,-0.0114482725
3998,0.0033646997
3999,-0.0023917968
4000,-0.009183122
4001,0.005251371
4002,-0.0038494815
4003,5.2686446e-05
4004,-0.0079205455
4005,-0.018629868
4006,-0.004902487
4007,-0.011964013
4008,-0.00120718
4009,0.00089601683
4010,0.006443357
4011,-0.0075066076
4012,-0.0018864904
4013,-0.0046821344
4014,0.0025041644
4015,0.007960727
4016,-0.017757231
4017,0.0033266328
4018,-0.005188584
4019,-0.004564305
4020,-0.0018306967
4021,-0.014210349
4022,-0.0086338855
4023,-0.013735018
4024,0.01295781
4025,0.00176187
4026,-3.1013955e-05
4027,-0.007567743
4028,0.005853192
4029,-0.01183476
4030,0.008795155
4031,0.002522468
4032,0.016285684
4033,-0.014919281
4034,-0.0002780727
4035,0.0020639037
4036,-0.0066316803
4037,-0.0015692661
4038,-0.0052987332
4039,-0.0002650295
4040,0.0073509933
4041,-0.0021866525
4042,-0.012223716
4043,-0.008145998
4044,0.0038635128
4045,-0.0047987965
4046,0.0056630303
4047,0.015059226
4048,0.00818148
4049,0.010331372
4050,-0.006685632
4051,-0.0025335876
4052,-0.006442465
4053,0.01854145
4054,-0.004060353
4055,0.0013552887
4056,-0.0036493514
4057,-0.00735397
4058,0.013620466
4059,0.016532749
4060,0.012965848
4061,-0.011592191
4062,-0.009106675
4063,-0.0061649056
4064,-0.0010622449
4065,0.0020086358
4066,0.01629836
4067,0.005452881
4068,0.018645076
4069,-0.0014832079
4070,0.0007107214
4071,-0.0061701224
4072,0.0013513532
4073,-0.0068372074
4074,-0.0046086917
4075,0.0103394175
4076,-0.0044829263
4077,-0.017558625
4078,-0.008552985
4079,0.009181838
4080,-0.004190636
4081,-0.0055213603
4082,-0.013342552
4083,0.016434101
4084,-0.005495918
4085,0.006721439
4086,-0.008302541
4087,0.001206797
4088,-0.0013185063
4089,-0.01114547
4090,-0.0043371283
4091,-0.0008764673
4092,-0.0041917153
4093,0.00908337
4094,-0.01635407
4095,-0.0044177445
4096,-0.007231099
4097,-0.0019953821
4098,-0.0020554294
4099,-0.010327346
4100,0.00054088916
4101,-0.0047925916
4102,0.00034371932
4103,0.005036547
4104,7.5550284e-05
4105,-0.013525246
4106,0.01736157
4107,0.0005856141
4108,-0.008866311
4109,-0.0016402348
4110,0.004077835
4111,-0.016463038
4112,0.00091410225
4113,0.0018221954
4114,0.013722082
4115,-0.015547127
4116,0.0014821297
4117,-0.0053614145
4118,-0.006924157
4119,-0.0059306417
4120,0.00046501405
4121,0.00015466586
4122,-0.00752616
4123,-0.0015050368
4124,-0.004437581
4125,0.003174425
4126,0.0023267712
4127,-0.009107136
4128,-0.0015030788
4129,-0.004040559
4130,-0.0006767277
4131,0.007474633
4132,-0.0013601582
4133,0.0013960468
4134,0.0002495388
4135,0.0066453796
4136,-0.00062702183
4137,0.0067127435
4138,-0.016738553
4139,0.012214236
4140,0.0082905255
4141,-0.0011073151
4142,-0.007320531
4143,-0.008262483
4144,0.00073821924
4145,-0.0019781338
4146,0.0046461048
4147,0.016017366
4148,-0.0032655438
4149,-0.005250074
4150,7.031388e-05
4151,-0.005637394
4152,0.007237126
4153,0.0043287105
4154,0.0047324738
4155,0.004911259
4156,0.0069247796
4157,-0.0036781176
4158,0.005421694
4159,0.004437279
4160,0.0144852325
4161,0.010535008
4162,0.0016773967
4163,-0.004551919
4164,-0.0028439094
4165,-0.009387977
4166,0.018907353
4167,0.004526427
4168,-0.011718728
4169,-0.0016709313
4170,-0.0027799613
4171,-0.013510599
4172,0.015724706
4173,0.0072839186
4174,0.009322035
4175,-0.0014854905
4176,0.006790527
4177,0.007329254
4178,-0.0008633813
4179,0.011225129
4180,0.002510573
4181,-0.009274471
4182,0.0024090405
4183,-0.00080516166
4184,-0.0010861603
4185,0.0032070081
4186,0.0060306047
4187,-0.0018655496
4188,-0.0002868721
4189,0.0043807337
4190,0.01249106
4191,-0.010094116
4192,-0.00081572786
4193,-0.0008982284
4194,-0.004408026
4195,0.0023823879
4196,0.001496912
4197,0.004791012
4198,0.0067968145
4199,-0.002193591
4200,0.0014144608
4201,0.0015911085
4202,0.0003097204
4203,-0.0014654952
4204,-0.00028060153
4205,0.001364793
4206,-0.009087637
4207,0.00551857
4208,-0.00067134725
4209,0.0035156559
4210,0.0037636268
4211,-0.005682847
4212,0.0042584944
4213,-0.0027232005
4214,0.001959382
4215,0.009297648
4216,0.00066035084
4217,-0.004379709
4218,0.000908261
4219,-0.0069454736
4220,0.0025463996
4221,-0.012203695
4222,0.0017551044
4223,0.0056109694
4224,0.013640818
4225,-0.0067833504
4226,-0.012457785
4227,0.0029124324
4228,0.0096197855
4229,0.0023766896
4230,0.006100307
4231,0.00418776
4232,-0.013110526
4233,0.0039083622
4234,-0.00449722
4235,-0.013657552
4236,-0.00680591
4237,-0.0016879567
4238,-0.008091484
4239,-0.006477191
4240,-0.0077962587
4241,-0.008301635
4242,-0.007101588
4243,0.003215504
4244,0.0059561087
4245,-0.0032416265
4246,-0.012102386
4247,0.0074516595
4248,-0.008999947
4249,-0.012464309
4250,0.016376277
4251,-0.0099090235
4252,-0.00022186626
4253,-0.0027082488
4254,-0.0038480079
4255,-0.019285958
4256,-0.0020864373
4257,0.018036058
4258,-0.011772566
4259,0.014056304
4260,0.0012474488
4261,0.00028877333
4262,0.00020227362
4263,0.0029253503
4264,-0.0103701325
4265,-0.0067135966
4266,0.0056490037
4267,-0.0025455202
4268,0.0026849862
4269,-0.0095208315
4270,0.0047828327
4271,0.01825489
4272,-0.0050194766
4273,-0.012141277
4274,-0.00043383986
4275,-0.0017830126
4276,9.910265e-06
4277,-0.0013350007
4278,-0.0008379543
4279,0.0015308857
4280,-0.009592161
4281,0.018079165
4282,-0.014103558
4283,0.00059841713
4284,0.010771381
4285,-0.0027722456
4286,-0.011352315
4287,-0.002548167
4288,-0.00030699454
4289,0.0055183717
4290,0.0011875227
4291,-0.018684184
4292,-0.009347588
4293,0.008131416
4294,0.01114034
4295,0.0011733808
4296,-0.0061245738
4297,0.004891558
4298,0.013018679
4299,0.010257293
4300,0.01696355
4301,0.004655152
4302,0.0021002938
4303,-0.0011480594
4304,0.008981946
4305,-0.016867857
4306,-0.0038841043
4307,0.0022091586
4308,0.013792115
4309,-0.0071843546
4310,0.010999143
4311,0.0028101595
4312,-0.003218334
4313,-0.0025622433
4314,0.009878313
4315,0.0066932132
4316,0.004643394
4317,0.0032108657
4318,0.006102875
4319,-0.011593967
4320,0.0018042346
4321,0.0032033247
4322,-0.013088477
4323,0.010430298
4324,0.0039038225
4325,0.0045795343
4326,0.009275171
4327,-0.011559982
4328,0.0030578696
4329,-0.008733988
4330,0.0018960914
4331,-0.010072899
4332,0.0104530845
4333,-0.004649804
4334,0.0020811623
4335,-0.004311492
4336,0.00072317367
4337,0.010801567
4338,0.015348439
4339,-0.009678958
4340,-0.007282949
4341,-0.009003422
4342,0.005552538
4343,0.0075310646
4344,-0.0042100926
4345,-0.014208043
4346,0.001133024
4347,0.005878117
4348,0.007704722
4349,0.0043835975
4350,-0.0035914367
4351,0.0014238486
4352,-0.007768159
4353,-0.0022413388
4354,-0.00021961263
4355,-0.0027957275
4356,0.0034061242
4357,-0.005231282
4358,0.008675728
4359,0.005350203
4360,0.002913431
4361,0.008558504
4362,0.01014639
4363,-0.012266739
4364,0.005042995
4365,0.010181315
4366,-0.009171008
4367,-0.01028274
4368,-0.0060035824
4369,0.0015620857
4370,0.019532586
4371,0.009845559
4372,-0.01050455
4373,-0.010996052
4374,-0.009499915
4375,-0.009987233
4376,-0.0067094713
4377,0.015980516
4378,-0.019053034
4379,0.010093968
4380,-0.0067528263
4381,0.0040965844
4382,0.012101086
4383,0.0091718035
4384,-0.003440159
4385,-0.00015049375
4386,0.007441511
4387,0.013180653
4388,-0.0035613251
4389,-0.004046843
4390,-0.014698964
4391,0.00025025246
4392,0.01493705
4393,-0.012750569
4394,-0.015223054
4395,0.0010587284
4396,-0.0031819728
4397,-0.006066851
4398,-0.0138356285
4399,0.005717271
4400,-0.0138428705
4401,0.0028431902
4402,-0.0019971689
4403,0.0032761397
4404,0.004188981
4405,-0.008562924
4406,-0.010700763
4407,0.0022445596
4408,0.00870619
4409,0.0022178835
4410,0.0069959043
4411,-0.0045001013
4412,0.007074719
4413,0.012987917
4414,0.004137582
4415,-0.004367114
4416,-0.008919811
4417,0.00036443985
4418,-0.0073290933
4419,0.0068400954
4420,-0.003334016
4421,-0.0024098791
4422,-0.01415372
4423,-0.0075756204
4424,0.016417468
4425,-0.004199104
4426,-0.016781954
4427,0.017651044
4428,-0.0037311255
4429,0.0040688803
4430,-0.010503073
4431,0.013325674
4432,0.0051376675
4433,0.009935733
4434,0.01112296
4435,0.01127508
4436,-0.016575132
4437,-0.004622204
4438,0.01570799
4439,-0.004547874
4440,0.013268383
4441,-0.010656874
4442,0.0038512
4443,0.0030857588
4444,0.0038143417
4445,0.00039604062
4446,-0.0136510525
4447,0.010557476
4448,0.0050672484
4449,-0.0030530188
4450,0.00050926965
4451,0.016994424
4452,-0.009690493
4453,-0.011098366
4454,-0.0068560056
4455,-0.0007703248
4456,-0.0010465753
4457,-0.0056461487
4458,0.011944042
4459,-0.012210364
4460,-0.0050542364
4461,-0.003491425
4462,0.008765503
4463,-0.016922064
4464,0.012814168
4465,-0.010058222
4466,0.0068914862
4467,-0.002916952
4468,0.006921212
4469,-0.0021022784
4470,-0.016706876
4471,-0.016590219
4472,-0.007182809
4473,-0.010451184
4474,0.0011737964
4475,-0.00484551
4476,0.0013206323
4477,0.018833712
4478,-0.0084417835
4479,0.0020228913
4480,0.002370461
4481,-0.008846026
4482,-0.007328163
4483,-0.00685117
4484,-0.0072529744
4485,-0.0043123728
4486,0.016592488
4487,-0.0075242147
4488,-0.010939714
4489,0.004994505
4490,-0.007881279
4491,-0.0035512806
4492,0.0042822487
4493,0.009993429
4494,0.006161449
4495,0.016622305
4496,0.017012222
4497,-0.0034521848
4498,-0.010333221
4499,0.012387134
4500,0.014088357
4501,0.005763892
4502,0.01679314
4503,0.007878421
4504,-0.0014429914
4505,0.016560614
4506,0.0028757756
4507,0.0015701166
4508,0.017527824
4509,0.009498398
4510,0.011623694
4511,0.014909558
4512,0.014377127
4513,-0.0062453533
4514,-0.0022375658
4515,-0.004232123
4516,0.0017508544
4517,0.0049512824
4518,-0.0039475607
4519,0.011152053
4520,-0.018493531
4521,-0.0135126775
4522,-0.00058303133
4523,-0.0027884967
4524,-0.010189816
4525,-0.010709176
4526,0.01815972
4527,0.016623544
4528,-0.003727024
4529,-0.013143178
4530,0.008639166
4531,-0.0040602917
4532,-0.007559465
4533,-0.002364988
4534,-0.0054949173
4535,-0.004255905
4536,-2.8348399e-05
4537,0.0015327435
4538,0.013791351
4539,0.004587392
4540,0.00832193
4541,-0.008133042
4542,-0.0037713926
4543,0.013547988
4544,-0.0071808905
4545,0.008198694
4546,-0.00062473316
4547,-0.012427848
4548,0.016054887
4549,0.0066420375
4550,0.006348645
4551,0.011138784
4552,-0.009178476
4553,-0.0054220357
4554,0.0012867219
4555,-0.007624748
4556,-0.0054542175
4557,-0.004050782
4558,-0.008610244
4559,-0.0013421472
4560,0.011488773
4561,-0.002213703
4562,0.004104447
4563,0.012068689
4564,0.009382181
4565,0.006153
4566,0.003902175
4567,0.0032023026
4568,-0.013934498
4569,-0.012417944
4570,0.0012221285
4571,-0.0051529454
4572,0.016963655
4573,-0.0043086186
4574,0.00779927
4575,-0.0004109525
4576,-0.002031158
4577,0.0069592334
4578,-0.008048358
4579,0.0065667545
4580,-0.0049780067
4581,0.005009425
4582,-0.0037221063
4583,-0.018066028
4584,-0.0053613866
4585,-0.0029273073
4586,0.01763962
4587,-0.0033394524
4588,0.0001420494
4589,-0.013690925
4590,-0.011488524
4591,0.0030250354
4592,-0.0071021654
4593,-0.00028083514
4594,-0.0011277657
4595,-0.007054947
4596,0.0036306372
4597,-0.008141748
4598,0.0056129987
4599,-0.00076536165
4600,-0.0070300307
4601,-0.0001534853
4602,0.007375277
4603,-0.01109706
4604,-0.007373992
4605,0.0123069985
4606,0.015261536
4607,0.0020638814
4608,0.0047995215
4609,-0.00065242115
4610,0.004807386
4611,0.00050785224
4612,0.0025041786
4613,-0.0024413087
4614,0.00346863
4615,-0.011038528
4616,-0.010787632
4617,0.0043240227
4618,0.00556522
4619,-0.011177387
4620,0.01111339
4621,-0.00181829
4622,0.012157208
4623,-0.004461865
4624,0.013675189
4625,-0.0016452963
4626,0.012018607
4627,-0.006657329
4628,0.0019029519
4629,0.0035932406
4630,-0.0054651164
4631,-0.00096111605
4632,-0.012454894
4633,0.0059307814
4634,-0.0050382195
4635,0.0005469695
4636,-0.011090741
4637,0.0010664116
4638,0.0074695083
4639,0.004391297
4640,-0.012159347
4641,0.0026873646
4642,0.015340063
4643,0.0039061152
4644,0.008270797
4645,0.002311398
4646,0.00064389774
4647,0.00046852996
4648,-0.005001642
4649,-0.005863045
4650,-0.006928742
4651,0.00045534535
4652,0.0048881513
4653,0.007981502
4654,0.00038283496
4655,-0.0031480198
4656,0.011468432
4657,-0.0003015757
4658,-0.0052654203
4659,0.002484751
4660,-0.002369477
4661,-0.0061082444
4662,-0.0009295937
4663,-0.0025659446
4664,0.012829995
4665,-0.009509767
4666,-0.0031914338
4667,0.010762979
4668,0.002588674
4669,0.00041726677
4670,-0.014534914
4671,-0.019553944
4672,0.0051700072
4673,-0.0060814857
4674,0.013080529
4675,-0.0015700319
4676,0.007218035
4677,-0.0025649106
4678,-0.0026688294
4679,0.012551151
4680,-0.0024707555
4681,0.0016065622
4682,-0.015336243
4683,0.0006196584
4684,0.004083738
4685,0.01790554
4686,-0.0075963
4687,0.016284011
4688,0.008303887
4689,0.00044597915
4690,-0.009975049
4691,-0.00022210556
4692,0.00045949494
4693,0.0022151757
4694,0.007380431
4695,-0.002954956
4696,-0.00993001
4697,0.009926011
4698,0.004897977
4699,0.00015075931
4700,0.0031098376
4701,-0.0065278825
4702,-0.0074154437
4703,-0.009540441
4704,-0.01281509
4705,-0.011786764
4706,-0.010128852
4707,0.010697611
4708,0.014728498
4709,-0.016637573
4710,-0.015740652
4711,0.0016583231
4712,-0.0031324537
4713,-0.0007605564
4714,0.017639251
4715,0.005245271
4716,-0.014830154
4717,-0.012680625
4718,-0.01727284
4719,-0.01773185
4720,0.0053527593
4721,-0.004277336
4722,-0.008055778
4723,0.014308808
4724,-0.0054735593
4725,0.015175701
4726,0.008220904
4727,0.0013623673
4728,0.0067739785
4729,3.327024e-05
4730,-0.0006797208
4731,-0.0008063933
4732,-0.017467525
4733,-0.017141718
4734,-0.0005660913
4735,0.008877168
4736,-0.0021291731
4737,-0.0148503315
4738,0.012341203
4739,0.0013831314
4740,0.008254162
4741,0.0006322961
4742,0.0037823468
4743,0.01374626
4744,0.0032518401
4745,7.199017e-05
4746,0.013735742
4747,-0.0035184047
4748,0.008757277
4749,-0.0060103643
4750,0.013743631
4751,0.00096880464
4752,0.0021584812
4753,-0.01225784
4754,-0.014352776
4755,-0.008689002
4756,0.0024970542
4757,0.014494963
4758,0.002501182
4759,-0.006141967
4760,0.0046999445
4761,-0.0044105262
4762,7.4134434e-05
4763,0.001893532
4764,0.006299149
4765,-0.0030528312
4766,0.014915267
4767,0.0035917345
4768,-0.008644027
4769,-0.00031326868
4770,0.002045303
4771,0.008799252
4772,-0.014945456
4773,-0.0009954454
4774,-0.0069971234
4775,-0.00076326414
4776,9.480017e-06
4777,-0.008716065
4778,0.009259743
4779,-0.018196523
4780,-0.0020027154
4781,0.008378258
4782,-0.011805292
4783,0.00056288514
4784,-0.002530009
4785,-0.007899023
4786,-0.0060199434
4787,0.01850317
4788,-0.003995288
4789,0.012505198
4790,-0.0008840783
4791,0.010313634
4792,0.00743188
4793,-0.010451512
4794,-0.009804266
4795,0.0008348388
4796,0.0002950791
4797,-0.012010737
4798,0.0075089745
4799,-0.002285182
4800,0.0035762996
4801,-0.00700206
4802,-0.012548984
4803,0.012331317
4804,-0.011611416
4805,0.0073856665
4806,0.0095666135
4807,0.010781205
4808,0.0005293391
4809,-0.013937585
4810,-0.010742749
4811,-0.012280934
4812,-0.006284448
4813,-0.010802733
4814,-0.0010634429
4815,-0.00492312
4816,0.002699972
4817,-0.0050058276
4818,-0.007631552
4819,-0.0072018667
4820,0.0036118547
4821,-0.006259832
4822,0.0026178826
4823,0.007015312
4824,0.010655394
4825,-0.0070805326
4826,-0.0052447193
4827,0.004848987
4828,0.008180927
4829,0.00038499033
4830,0.0064721704
4831,-0.019548723
4832,0.016169552
4833,0.013299687
4834,0.016997444
4835,0.0042965063
4836,0.0010285064
4837,0.016024292
4838,-0.018531168
4839,0.006704264
4840,0.007920807
4841,0.00062665436
4842,-8.856962e-05
4843,0.017417608
4844,-0.0088022025
4845,0.018277878
4846,-0.007596401
4847,0.011838055
4848,0.013937399
4849,-0.005314794
4850,-0.006082759
4851,0.0010019651
4852,0.01498946
4853,-0.010924832
4854,0.012861079
4855,-0.01107404
4856,-0.007958269
4857,0.005253603
4858,0.009604622
4859,-0.016839435
4860,-0.0031927906
4861,0.00327533
4862,0.010968555
4863,-0.007423048
4864,0.014650149
4865,0.006248538
4866,0.009419938
4867,-0.009150164
4868,-0.016755072
4869,0.015592547
4870,0.00041026686
4871,0.007063164
4872,0.010602419
4873,-0.0059988117
4874,8.506364e-06
4875,0.01805821
4876,0.0033216923
4877,-0.000297433
4878,-0.010889434
4879,0.009195336
4880,-0.0076387427
4881,-0.012160855
4882,-0.007137028
4883,0.010052727
4884,-0.009064816
4885,-0.0058530443
4886,0.005509318
4887,-9.3979645e-05
4888,-0.00317948
4889,-0.016941274
4890,0.0059268745
4891,0.003665494
4892,-0.008566796
4893,0.0025187957
4894,-0.0030709894
4895,-0.006546649
4896,0.007951977
4897,-0.0017014055
4898,0.0035626546
4899,0.008091736
4900,0.006748691
4901,-0.011357035
4902,-0.004729654
4903,0.012515116
4904,-0.0010823763
4905,0.007711214
4906,0.0013934697
4907,0.0028387022
4908,1.9234081e-05
4909,0.008871653
4910,0.01627722
4911,-0.013131184
4912,0.014547403
4913,-0.008483878
4914,-0.002811155
4915,-0.010001635
4916,0.0063941116
4917,0.0137386015
4918,-0.0004921784
4919,0.005161382
4920,0.009576472
4921,-0.012610013
4922,-0.0047362717
4923,0.0125042945
4924,-0.009159972
4925,0.019532332
4926,-0.005383708
4927,-0.0073385257
4928,-0.011869141
4929,-0.004118864
4930,-0.018964231
4931,-0.01294713
4932,-0.003914806
4933,0.0017319927
4934,0.015731385
4935,0.00056479906
4936,-0.00045415756
4937,-0.019601218
4938,0.00070783746
4939,-0.01258364
4940,0.0046292124
4941,0.0011029219
4942,-0.0012549458
4943,0.0018370266
4944,-0.007260357
4945,0.0064327586
4946,0.013270541
4947,-0.00692193
4948,0.01174419
4949,0.0104706185
4950,-0.008475502
4951,0.004323773
4952,-0.0046730265
4953,0.012743742
4954,-0.0051898677
4955,-0.0022585029
4956,0.017503595
4957,0.00031092225
4958,-0.014087877
4959,0.0059026554
4960,-0.00914454
4961,-0.0066222064
4962,-0.017581638
4963,-0.0030582307
4964,-0.015109808
4965,0.0071216496
4966,0.008594099
4967,0.0028272967
4968,0.015906159
4969,0.002123588
4970,-0.014741678
4971,-0.002841954
4972,0.017043162
4973,0.015079758
4974,0.00041125773
4975,-0.010426685
4976,0.005773983
4977,-0.006590256
4978,-0.0027421706
4979,0.0029659797
4980,-0.0036664368
4981,0.009649057
4982,-0.008593221
4983,0.0018469758
4984,0.015545626
4985,-0.0038200568
4986,0.0044831666
4987,0.0016126116
4988,-0.017246254
4989,-0.0002501614
4990,0.0031070714
4991,-0.0007724505
4992,-0.008694482
4993,0.010030777
4994,0.0015917863
4995,-0.0102547975
4996,0.0034339475
4997,-0.0014126808
4998,-0.000518082
4999,0.0041540167
5000,-0.013145117
5001,0.0056951526
5002,0.0038540473
5003,-0.010952595
5004,-0.0046534166
5005,0.0076697147
5006,0.0034107403
5007,0.00084286625
5008,0.01790926
5009,-0.003883604
5010,0.00669596
5011,0.012617866
5012,0.009677543
5013,-0.019068109
5014,-0.003964367
5015,-0.012538524
5016,0.008183109
5017,0.007347586
5018,-0.0014524817
5019,-0.0035993268
5020,-0.017116733
5021,-0.015903376
5022,0.005878422
5023,0.0061998353
5024,-0.0010002881
5025,-0.0005267211
5026,0.008101389
5027,0.013137595
5028,0.015533951
5029,-0.012490256
5030,-0.0030903073
5031,-0.0017636736
5032,0.018218359
5033,0.01212876
5034,0.011612787
5035,-0.003932793
5036,0.017288515
5037,-0.008813865
5038,0.017800178
5039,0.008627405
5040,0.013662193
5041,0.005622347
5042,-0.013137581
5043,0.0037230891
5044,0.004097155
5045,-0.004304991
5046,-0.007252821
5047,-0.014640328
5048,0.0154315615
5049,-0.0034194703
5050,-0.0064954194
5051,-0.0027986297
5052,0.0006776621
5053,0.016679818
5054,-0.0015259983
5055,-0.0025273447
5056,0.010072448
5057,0.0013354538
5058,-0.013019126
5059,-0.014761194
5060,-0.009219177
5061,0.009355045
5062,0.012214142
5063,0.003476273
5064,0.005727284
5065,-0.005663068
5066,-0.003950917
5067,-0.006246619
5068,0.0049330075
5069,-0.007250919
5070,-0.0024102454
5071,-1.924681e-05
5072,-0.013530135
5073,0.01244528
5074,0.014737828
5075,-0.010736986
5076,0.0049212836
5077,0.008328713
5078,0.004374178
5079,0.010189585
5080,0.015639286
5081,-0.007128206
5082,0.0038160805
5083,0.011396228
5084,0.013703909
5085,-0.0033264533
5086,0.00020638242
5087,-0.0041820738
5088,-0.008525404
5089,-0.010489152
5090,0.0056827213
5091,-0.0058661452
5092,-0.0014829219
5093,0.0007149851
5094,-0.00033676767
5095,0.0005598046
5096,-0.010963208
5097,0.01862472
5098,-0.015684286
5099,-0.004492891
5100,0.013163818
5101,-0.00019287528
5102,0.009288055
5103,0.010700962
5104,-0.0038237139
5105,-0.006150717
5106,6.998593e-05
5107,-0.012678588
5108,-0.008307746
5109,-0.0028671345
5110,-0.0016233668
5111,-0.004406412
5112,0.005867419
5113,-0.008487652
5114,-0.015123331
5115,-0.007163766
5116,-0.005820896
5117,-0.012812796
5118,-0.002705754
5119,0.004984036
5120,0.0001802142
5121,0.01729894
5122,0.0021596497
5123,0.0032276039
5124,0.00016179301
5125,0.0016175375
5126,0.013017611
5127,0.0010196085
5128,0.0050131194
5129,0.0019949668
5130,0.014309648
5131,-0.010946538
5132,-0.014266154
5133,0.005555959
5134,-0.0020244226
5135,-0.008241038
5136,0.0017114745
5137,-0.008746565
5138,-0.00872871
5139,-0.0023590757
5140,-0.0008224067
5141,-0.0052881828
5142,-0.009460383
5143,-0.0029000638
5144,-0.0059907045
5145,0.009343529
5146,-0.00619383
5147,0.010719421
5148,-0.005626262
5149,-0.018908337
5150,-4.2339474e-05
5151,-0.0106265545
5152,-0.00063912664
5153,-0.0017135248
5154,0.013489318
5155,-0.008717093
5156,0.0027747864
5157,-0.008804977
5158,-0.012888739
5159,-0.009890599
5160,-0.012519277
5161,0.01388375
5162,0.011169305
5163,-0.009257439
5164,0.01404504
5165,-0.0024503479
5166,-0.0016557027
5167,-0.0052090823
5168,-0.0027966597
5169,-0.004735585
5170,0.01269146
5171,-0.0053884643
5172,0.0053098304
5173,0.008562426
5174,0.018162724
5175,-0.0100845955
5176,-0.0026651775
5177,0.009261197
5178,-0.0010348617
5179,0.012598691
5180,-0.013740876
5181,0.007041421
5182,0.0060710968
5183,-0.010710485
5184,-0.0034439203
5185,0.011761505
5186,0.013961477
5187,0.0018569164
5188,-0.0014464636
5189,0.0010129275
5190,-0.0053730514
5191,-0.0016624414
5192,0.004325441
5193,-0.00339797
5194,-0.0015676077
5195,-0.0106661795
5196,-0.0012747829
5197,-0.008107005
5198,0.0014341513
5199,-0.007329639
5200,-0.0083639575
5201,0.0002076341
5202,-0.005879815
5203,-0.0015437884
5204,0.011265681
5205,-0.0152758015
5206,-0.012505122
5207,0.0050626276
5208,-0.014197603
5209,0.0005062096
5210,0.012515454
5211,-0.0012727747
5212,-0.017072033
5213,0.009616615
5214,0.0131083075
5215,-0.015405357
5216,0.012540366
5217,0.007764642
5218,0.010110023
5219,-0.010767917
5220,0.003510433
5221,0.0094681615
5222,0.0031772992
5223,0.00025099533
5224,0.00097524363
5225,0.0050650756
5226,-0.0018792301
5227,-0.016313352
5228,0.0142807
5229,-0.0057597305
5230,0.00060878386
5231,0.0025834846
5232,0.00027941752
5233,0.018651597
5234,0.002987081
5235,0.013485225
5236,0.0005663595
5237,0.009540409
5238,-0.009469773
5239,0.003351937
5240,-0.018026888
5241,-0.004220017
5242,-0.0090058455
5243,-0.006045501
5244,-0.0021394314
5245,0.008542578
5246,0.0010374887
5247,0.011710409
5248,-0.018107282
5249,-0.008093007
5250,-0.0061423657
5251,-0.0009025131
5252,0.006886137
5253,0.008438677
5254,0.009175759
5255,0.00033397792
5256,0.0018757706
5257,-0.0014785469
5258,-0.013704386
5259,0.0027051077
5260,0.0051829573
5261,0.016306514
5262,-0.00956528
5263,-0.005561331
5264,-0.00366734
5265,0.0005778123
5266,-0.0014777929
5267,-0.013161766
5268,0.016113464
5269,0.0054065604
5270,-0.009420746
5271,0.016610812
5272,0.010829375
5273,4.873467e-05
5274,-0.007342495
5275,-0.004844779
5276,0.0046400875
5277,-0.004834813
5278,0.012777941
5279,-0.009084955
5280,-0.0029322065
5281,0.0070123915
5282,-0.0063369116
5283,0.0057988106
5284,0.012385904
5285,0.003979087
5286,0.0040283273
5287,-0.0019403463
5288,-0.01326301
5289,-0.002203888
5290,0.0059073637
5291,-0.0025419036
5292,-0.010705609
5293,0.0008830174
5294,-0.008590987
5295,0.010907449
5296,0.0015331104
5297,-0.0001262286
5298,0.0054876506
5299,-0.0069634872
5300,-0.0032295075
5301,-0.006957496
5302,-0.0135265365
5303,-0.010445253
5304,0.009399629
5305,-0.013387722
5306,-0.0043701245
5307,-0.009941774
5308,0.0033490928
5309,0.005478621
5310,0.013680881
5311,-0.006265783
5312,0.014672708
5313,-0.0066986405
5314,-0.0147016905
5315,0.0058213077
5316,-0.006008052
5317,0.008202781
5318,0.0039487574
5319,-0.016946262
5320,-0.0009525113
5321,0.008989764
5322,-0.006599118
5323,0.010367648
5324,-0.0111489175
5325,-0.0017094943
5326,-0.0031075415
5327,0.002212744
5328,0.016875697
5329,0.0028646302
5330,0.017901765
5331,-0.0037145792
5332,-0.007228002
5333,-0.008202691
5334,0.0067642564
5335,-0.010252556
5336,-0.0053470796
5337,-0.010560896
5338,-0.004291692
5339,0.012630738
5340,-0.0146197425
5341,-0.013476821
5342,0.0039596516
5343,0.0009401961
5344,0.0025354153
5345,-0.013391782
5346,0.0039914646
5347,0.00089799927
5348,-0.018620614
5349,-0.007556493
5350,-0.002719551
5351,-0.0047433265
5352,-0.011082668
5353,0.01468406
5354,0.0076139267
5355,-0.0026181582
5356,-0.009406886
5357,0.0006626931
5358,-0.0056994846
5359,-0.004204618
5360,0.008954298
5361,0.005776059
5362,0.008833808
5363,-0.007411965
5364,-0.019982168
5365,-0.010929625
5366,-0.012553417
5367,-0.014593323
5368,-0.002099821
5369,0.01597603
5370,-0.0039339685
5371,0.008217673
5372,-0.019169997
5373,-0.00972522
5374,0.019944409
5375,-0.009931531
5376,-0.015024949
5377,0.0031495872
5378,-0.0016522075
5379,0.01973437
5380,0.015400524
5381,-0.00189216
5382,0.013830773
5383,0.010614111
5384,-0.009355104
5385,0.0041929344
5386,0.011647719
5387,0.00032138126
5388,0.0031857078
5389,-0.014767904
5390,0.017191414
5391,0.013224832
5392,0.008125313
5393,-0.005555439
5394,0.0058040572
5395,-0.0062470757
5396,0.00953041
5397,0.013131239
5398,0.010742015
5399,-0.00197212
5400,-0.0025086396
5401,0.0007379148
5402,0.014448786
5403,-0.011692228
5404,0.0033189962
5405,0.013614647
5406,0.010991753
5407,-0.013168906
5408,-0.0034167862
5409,0.011353383
5410,-0.006319072
5411,0.015391979
5412,-0.0018003414
5413,-0.0039323918
5414,-0.009801918
5415,-0.010610866
5416,0.0026556987
5417,-0.008687455
5418,-0.004782215
5419,0.0020966113
5420,-0.012802572
5421,-0.006391179
5422,-8.331218e-05
5423,0.007781407
5424,-0.012217355
5425,0.003741641
5426,0.010385854
5427,0.009046159
5428,-0.009184418
5429,-0.008033261
5430,-0.00019008062
5431,0.01034596
5432,0.016949786
5433,0.0111354645
5434,0.013543954
5435,-0.007735414
5436,0.0011793531
5437,-0.0069375085
5438,0.0065443125
5439,-0.004985379
5440,0.0055057006
5441,-0.0184142
5442,0.004558554
5443,0.0055474336
5444,0.0125050945
5445,-0.0039162007
5446,-0.0039044882
5447,-0.0045659253
5448,-0.0015386634
5449,-0.010854201
5450,-0.0062576383
5451,0.006462743
5452,-0.010133028
5453,0.012347137
5454,5.984927e-05
5455,-0.011989348
5456,0.0005656121
5457,0.010150005
5458,0.007144526
5459,4.1376712e-05
5460,-0.018070659
5461,0.011206004
5462,-0.0027127338
5463,0.0031263297
5464,0.0075723426
5465,0.0029799086
5466,-0.016522061
5467,0.0020868008
5468,-0.01616316
5469,-0.010445907
5470,0.008112966
5471,0.010079288
5472,-0.0017264601
5473,0.008498624
5474,0.0075659226
5475,0.010587459
5476,0.0046410915
5477,-0.009949807
5478,0.00990233
5479,-0.005559263
5480,-0.002481541
5481,0.009668365
5482,-0.0015258973
5483,0.014233033
5484,-0.0021672272
5485,0.004080563
5486,-0.0056099575
5487,-0.0054841004
5488,0.00804581
5489,0.0097267255
5490,-0.012831047
5491,-0.002770763
5492,-0.0049790656
5493,-0.004361302
5494,-0.0012892513
5495,-0.012950335
5496,0.0005196184
5497,0.0043125846
5498,-0.010140576
5499,-0.0041997572
5500,0.00053618394
5501,-0.0063505773
5502,0.016267847
5503,0.009427444
5504,0.013927794
5505,0.01353543
5506,7.226816e-06
5507,0.010372722
5508,-0.0048099756
5509,0.018351745
5510,0.0011084793
5511,0.00080753886
5512,0.0072899917
5513,0.011873123
5514,0.004952509
5515,-0.008742124
5516,-0.010569628
5517,-0.009584693
5518,-0.0041703326
5519,0.00512979
5520,0.009975764
5521,0.008746592
5522,-0.01429372
5523,0.012100184
5524,-0.009090456
5525,0.0036442762
5526,0.009444598
5527,0.0006089818
5528,0.0093336515
5529,-0.007486255
5530,-0.0010956008
5531,-0.008954104
5532,-0.006854267
5533,0.016821168
5534,0.011868164
5535,-0.0033808264
5536,0.0013084759
5537,0.014282093
5538,0.008342862
5539,0.008861746
5540,0.007310802
5541,0.0031787087
5542,-0.014518523
5543,0.002304999
5544,0.008541038
5545,-0.012534844
5546,-0.01969715
5547,0.00060155644
5548,0.011366908
5549,-0.011139567
5550,0.014114647
5551,0.007627885
5552,-0.000254064
5553,0.00766486
5554,0.011092146
5555,-0.0037039942
5556,0.003737816
5557,0.003936356
5558,-0.0011122162
5559,-0.0040776515
5560,-0.006416673
5561,0.0031069587
5562,-0.0019500641
5563,0.009106342
5564,-0.016379634
5565,-0.016701866
5566,-0.0006587263
5567,0.0029419197
5568,-0.008736039
5569,0.015537314
5570,-0.018005107
5571,-0.003261607
5572,0.014926833
5573,0.012384026
5574,-0.0028067387
5575,0.0055834223
5576,0.0020429632
5577,0.009783487
5578,0.013850755
5579,0.0038737215
5580,-0.0051499074
5581,-0.0010790885
5582,0.0050620344
5583,-0.012400976
5584,0.0015753488
5585,-0.011135732
5586,0.01004755
5587,0.006701863
5588,0.008460765
5589,-0.011642469
5590,-0.012316357
5591,-0.010988484
5592,-0.0035844897
5593,0.0046073208
5594,0.008080699
5595,0.0025506709
5596,0.0116038
5597,0.007975755
5598,-0.0035469995
5599,-0.008367154
5600,-0.018526351
5601,-0.0038199052
5602,-0.005579262
5603,4.0715693e-07
5604,-0.009104181
5605,-0.017360859
5606,0.004747623
5607,-0.0021157034
5608,-0.016327642
5609,0.007274356
5610,-0.005140565
5611,0.005964681
5612,0.01739575
5613,0.0065001626
5614,0.0055557503
5615,0.015227699
5616,0.013953667
5617,0.005584124
5618,-0.0050643915
5619,-0.0011269596
5620,-0.0138847325
5621,-0.0059483796
5622,0.010288571
5623,0.00092707464
5624,-0.007702655
5625,-0.019875163
5626,0.012108617
5627,0.003230831
5628,-0.016476082
5629,-0.0020082735
5630,-0.007814017
5631,0.00020431612
5632,0.0034534724
5633,0.00828792
5634,0.0113212215
5635,-0.0049247425
5636,-0.0042114933
5637,0.0027817774
5638,0.014752256
5639,-0.01236689
5640,0.015454828
5641,0.013526181
5642,-0.008191685
