Sno,Weight
0,0.01193051
1,-0.0047962777
2,0.006144431
3,0.011775232
4,-0.00035734964
5,-0.0022146779
6,0.0007042075
7,-0.0031239737
8,0.0035195036
9,-0.007877066
10,-0.003720747
11,-0.0025030815
12,0.005340465
13,-0.016854012
14,0.005992989
15,0.006150686
16,-0.0030328752
17,-0.003602861
18,0.0019369613
19,-0.00081218604
20,-0.0115481485
21,0.0054669445
22,0.0010708229
23,0.014063398
24,0.0013806351
25,-0.0028332553
26,0.009911493
27,0.0039757364
28,-0.0041563087
29,-0.008530622
30,-0.0072294264
31,-0.0015350071
32,0.007973021
33,0.0058033993
34,0.0034162921
35,-0.008629208
36,-0.011923725
37,-0.0044902684
38,0.0051781945
39,-0.0056815813
40,0.010516695
41,-0.0070853936
42,0.0041768244
43,-0.011679288
44,-0.0021487735
45,0.001542278
46,0.0016650595
47,0.0024953398
48,-0.014557943
49,0.011740223
50,-0.0058549014
51,0.0025097583
52,0.019374723
53,-0.00012517466
54,0.0135813635
55,-0.014630643
56,-0.007412971
57,-0.00097112247
58,0.0036414403
59,-0.013522775
60,0.0017216495
61,0.00050812506
62,-0.0055919588
63,0.005204361
64,0.01027087
65,-0.008312159
66,-0.0034050425
67,0.00577166
68,0.017024986
69,-0.0046131285
70,-0.0017640443
71,-0.009174208
72,0.008138949
73,0.01334903
74,0.013475202
75,-0.015069569
76,-0.009755515
77,-0.0016982268
78,-0.0072751427
79,0.012344646
80,0.0004962705
81,-0.0074301166
82,0.0036938502
83,0.0076411883
84,-0.002817671
85,-0.011813079
86,-0.009854499
87,-0.0028395653
88,0.0065547
89,-0.005405925
90,-0.001268016
91,-0.0002886907
92,0.00059672544
93,-0.01103581
94,0.011217119
95,0.0025544686
96,0.0071752993
97,-0.011763948
98,-0.0011222739
99,0.0038287716
100,0.001342844
101,0.0032428412
102,0.0015886459
103,0.006075932
104,0.0132730715
105,0.017152328
106,0.0012714758
107,0.00020183263
108,-0.009877474
109,-0.0053258594
110,-0.005798074
111,0.0024166428
112,0.0007399727
113,-0.00058007333
114,-0.017241495
115,0.016543265
116,-0.019778289
117,0.006023793
118,-0.011430677
119,0.0076146643
120,-0.0052055274
121,-0.0026971772
122,0.002197295
123,0.00260981
124,0.0012873261
125,-0.010305192
126,-0.0009353036
127,-0.005758058
128,-0.001496508
129,0.007453091
130,0.0032233987
131,-0.007946531
132,0.012659219
133,-0.0050711124
134,-0.0061404123
135,0.0001425911
136,-0.007844291
137,-0.0063232277
138,-0.0038598378
139,0.0020762756
140,-0.0073053204
141,0.0017382633
142,0.0071605043
143,0.0010907378
144,-0.0011793784
145,0.01609567
146,0.002258598
147,-0.0049606715
148,0.0143517405
149,-0.00021297591
150,0.0070799296
151,0.015608571
152,0.0070815342
153,0.0075188684
154,-0.0038819737
155,0.0027883272
156,0.0063221776
157,0.010288459
158,-0.009491997
159,0.009735793
160,0.002551105
161,-0.0070281886
162,0.007948039
163,0.014013859
164,-0.0059157806
165,0.009572723
166,0.017496878
167,0.00029183115
168,-0.0027260839
169,-0.00041201117
170,0.0016883416
171,-0.005154556
172,-0.014439055
173,0.01572021
174,0.0073822383
175,0.002805789
176,-0.0021261433
177,0.0036827
178,-0.0026946398
179,-0.0001484382
180,-0.013726728
181,0.007899155
182,0.01870096
183,0.009133353
184,0.016307697
185,0.015913976
186,0.011722336
187,-0.004228802
188,0.0056493846
189,0.0039636847
190,-0.0081943
191,0.008426012
192,-0.008641607
193,-0.007725173
194,-0.009532402
195,-0.0010176076
196,-0.00595385
197,-0.008715452
198,0.013437968
199,-0.0038217122
200,-8.6917295e-05
201,0.001345558
202,0.0073414156
203,0.011365605
204,-0.0016028334
205,-0.015106032
206,-0.0017483459
207,-0.00959719
208,-0.0039168783
209,0.0013616661
210,0.0148552405
211,0.016088963
212,0.004962603
213,-0.0018299271
214,0.004952827
215,0.012566761
216,-0.008477399
217,-0.00841499
218,0.0015759413
219,0.00085879286
220,-0.0052994248
221,0.013340428
222,-0.0014586004
223,-0.003273712
224,-0.006970123
225,-0.00036895886
226,0.0032311846
227,0.0018769877
228,0.011409895
229,0.018407082
230,0.0027990178
231,-0.012341879
232,0.0057183024
233,0.008402988
234,-0.011560384
235,-0.018436115
236,-0.00029630875
237,0.0038959105
238,0.0033581671
239,-0.0057086446
240,0.00763796
241,0.006134427
242,-0.0040309266
243,0.012768245
244,-0.01215546
245,-0.0033750427
246,-0.0057443962
247,0.012911713
248,0.000423723
249,-0.0044066343
250,0.0073751276
251,-0.00011387949
252,-0.0014980604
253,-0.0005048796
254,-0.0045615863
255,0.01025084
256,0.003338449
257,0.010773369
258,-0.004715464
259,-0.0044880738
260,-0.0113537945
261,0.012798638
262,-0.0032907461
263,0.009434139
264,-0.000806359
265,-0.009269506
266,-0.0017354089
267,0.009318987
268,0.006014387
269,0.006580354
270,-0.0068308823
271,0.0020539449
272,-0.00031215456
273,0.01577701
274,-0.010991434
275,-0.009034582
276,-0.0027412532
277,0.006952796
278,-0.0030443238
279,0.00048404853
280,-0.009605289
281,-0.007999412
282,-0.0038573751
283,-0.004559922
284,-0.010782307
285,-0.0028809474
286,-0.0016761426
287,-0.0056665274
288,0.00324739
289,-0.005719165
290,-0.014163023
291,-0.014765771
292,0.015996197
293,-0.014501871
294,-0.008626794
295,0.009928781
296,-0.0048180264
297,-0.008442206
298,0.0007862839
299,0.0064802384
300,0.0060817124
301,-0.0076763225
302,0.0011905836
303,-0.004299436
304,0.0040739523
305,0.0013238278
306,-0.00032162748
307,-0.008459508
308,0.00048059775
309,0.014672952
310,-0.009095334
311,0.0030287383
312,-0.00021562155
313,-0.0012388831
314,-0.009588768
315,0.0067909206
316,0.0049283793
317,-0.0034948539
318,0.011109653
319,-0.0068101995
320,0.00737632
321,0.0056258393
322,-0.0056667244
323,-0.007083968
324,0.0076026106
325,-0.006012614
326,-0.016184915
327,-0.0065078344
328,-0.0021513156
329,-0.008827718
330,0.011260039
331,-0.0096951965
332,-0.0054865773
333,-0.006212045
334,0.0024003263
335,0.0064296587
336,0.005696537
337,0.018166129
338,0.0080199065
339,0.007425076
340,0.008968918
341,-0.009878903
342,0.005317362
343,-0.0025354482
344,-0.0113710975
345,-0.016461467
346,0.004009351
347,0.009186528
348,0.00083205313
349,0.013639441
350,0.00054140313
351,-0.0040007858
352,0.0045350427
353,-0.006962577
354,0.019710537
355,0.0047427723
356,0.004622849
357,0.002758715
358,0.0010381463
359,0.007172967
360,0.002661241
361,0.008468679
362,-0.015028106
363,0.006640099
364,0.0019285772
365,0.0052987617
366,0.008874011
367,-0.01629399
368,-0.0069213733
369,0.01382911
370,0.0039229267
371,-0.00974868
372,0.004214654
373,-0.0044691293
374,-0.011375311
375,0.0048795994
376,-0.0018355346
377,0.012084628
378,0.0016333219
379,-0.0007212336
380,-0.00013644029
381,-0.0010806803
382,0.019080952
383,0.019368837
384,-0.0035454738
385,0.000102729406
386,-0.011745953
387,0.0023640203
388,-0.0183922
389,9.618128e-05
390,0.015687762
391,-0.0024955112
392,-0.009834997
393,-0.008254725
394,0.007438716
395,-0.0018277713
396,-0.0031577258
397,0.0012657758
398,0.019533327
399,-0.011754619
400,0.016264787
401,-0.0044783154
402,-0.00701069
403,-0.00086179614
404,-0.007083649
405,0.010610133
406,0.0019112178
407,-0.00023732372
408,0.007895247
409,0.0009234731
410,0.013610376
411,0.011591596
412,0.001911581
413,0.014611294
414,0.008501679
415,-0.0036037073
416,-0.0031950914
417,-0.00069943944
418,0.0069080903
419,-0.016828196
420,0.008444809
421,0.004444746
422,0.003668692
423,-0.002252338
424,0.010580401
425,0.0012146295
426,0.0004771382
427,0.013334668
428,0.005872401
429,0.009675703
430,-0.008630546
431,0.005435536
432,0.008707257
433,0.0117403045
434,-0.015841547
435,-0.006067702
436,0.004868678
437,-0.008574458
438,-0.014546784
439,-0.009838011
440,-0.011298791
441,-0.0064819646
442,-0.0017291364
443,-0.0151128955
444,-0.006819251
445,0.016637964
446,-0.008670793
447,0.00045134098
448,-0.003026015
449,-0.002558139
450,-0.008878938
451,0.0056226254
452,0.012695554
453,0.010330769
454,0.011949748
455,0.0023692953
456,-0.011516141
457,0.015698448
458,0.0009545462
459,0.0048090485
460,0.00525361
461,0.009618403
462,0.002543348
463,-0.00903687
464,0.0018310297
465,-0.00918997
466,0.0033597175
467,-0.019089084
468,-0.0037287166
469,0.006538275
470,0.013350234
471,0.008399382
472,-0.00022616655
473,-0.013691303
474,-0.0023964248
475,-0.01228884
476,-0.004104367
477,-0.0076553384
478,0.007841674
479,0.006402786
480,-0.014554563
481,-0.016143369
482,0.009673676
483,0.0033252721
484,-0.008517616
485,0.0071348455
486,-0.012545711
487,-0.0031925752
488,-0.0067758244
489,0.0055521205
490,-0.005578038
491,0.0037534176
492,-0.00661208
493,0.005170825
494,0.018980183
495,-0.00350898
496,0.001448227
497,0.004216242
498,0.0007411978
499,-0.008879617
500,-0.013200752
501,-0.003921886
502,-0.0040061017
503,-0.013238087
504,-0.010716519
505,-0.0058987513
506,0.009881523
507,0.0042007794
508,0.00054054044
509,-0.0037001409
510,0.006111926
511,0.003975238
512,-0.0077987276
513,-0.015801005
514,-0.012534012
515,-0.0003460624
516,-0.001923733
517,-0.0030123591
518,0.0050864117
519,0.009266696
520,0.01134795
521,0.0114856195
522,0.0009020673
523,0.013153759
524,0.016830163
525,-0.010053299
526,0.013838635
527,0.00814379
528,-0.008585628
529,0.0057790587
530,-0.0050721993
531,0.0131884925
532,-0.014666536
533,-0.008650557
534,-0.008317348
535,0.009004026
536,-0.003819645
537,0.002431365
538,0.0031485897
539,0.012283407
540,-0.0044167377
541,-0.017570818
542,-0.00036584656
543,0.009025798
544,-0.010816632
545,0.0014953336
546,-0.008599822
547,1.9778186e-05
548,0.004930335
549,0.010026987
550,-0.0032447348
551,-0.0097717345
552,0.007860979
553,-0.010799578
554,-0.00222257
555,0.011858778
556,0.00954753
557,-0.015552792
558,0.00597392
559,-0.00097514305
560,-0.01394168
561,-0.016089149
562,-0.004938128
563,0.013523916
564,-0.011933344
565,0.0037346384
566,-0.0030581336
567,0.00702712
568,0.01427337
569,0.006724469
570,0.0013050165
571,0.0077672275
572,0.012721048
573,-0.00851493
574,-0.010377013
575,0.014867259
576,-0.0038176894
577,-0.006854184
578,0.0022169908
579,0.010946316
580,0.002777497
581,-0.010287163
582,-0.0011992459
583,0.0007578402
584,0.0048758066
585,0.018676164
586,-0.009824139
587,-0.01025138
588,-0.0057025542
589,-0.016609792
590,-0.0012914268
591,-0.007709343
592,0.015796497
593,0.014186067
594,0.004453705
595,0.005362119
596,0.004649834
597,0.009291737
598,-0.002493864
599,0.0014488151
600,-0.0128345415
601,0.00932482
602,-0.010764907
603,-0.009684523
604,0.0102914795
605,0.013811147
606,-0.005551291
607,0.0030948408
608,0.007454163
609,-0.0060281893
610,-0.014902267
611,0.015559369
612,-0.015872614
613,0.007212829
614,-0.0014198446
615,-0.0008083783
616,-0.008822591
617,-0.0035191714
618,0.00493505
619,0.010933139
620,0.01878326
621,-0.014754648
622,-0.0062718606
623,-0.010336711
624,-0.009146108
625,-0.004940008
626,-0.008297007
627,0.0043681064
628,-0.0096409125
629,-0.0017353449
630,0.00012575807
631,-0.014453
632,-0.015933761
633,-0.003025975
634,-0.013300244
635,-0.0035898385
636,0.0075286743
637,0.0051966766
638,-0.005173313
639,-0.012294115
640,-0.008021127
641,-0.008809934
642,0.009819017
643,-0.004134377
644,-0.009777389
645,0.0043008025
646,-0.004727506
647,0.011195765
648,-0.0055551482
649,0.0072865486
650,-0.013247262
651,-0.0043813977
652,0.0027237409
653,0.009379565
654,0.0013182715
655,0.0046953624
656,-0.006881162
657,-0.012827996
658,0.01005067
659,-0.016207369
660,0.003444195
661,0.008169506
662,0.012283593
663,0.005350374
664,-0.008782255
665,0.014625788
666,-0.00014386649
667,0.014221162
668,-0.0133577855
669,0.017167037
670,0.011758168
671,0.005760539
672,-0.0021727055
673,0.0029548015
674,0.015509374
675,0.0037648133
676,-0.0074099083
677,-0.006864624
678,0.016726302
679,-0.0052739894
680,-0.0028993536
681,0.01438885
682,6.21532e-05
683,-0.009050666
684,-0.016787754
685,0.011365282
686,0.009366787
687,0.007998366
688,0.017208215
689,0.005438065
690,0.01642438
691,0.007724265
692,0.00668911
693,-0.005736973
694,0.004134752
695,-0.002320164
696,-0.0071182684
697,-0.01332848
698,0.008516061
699,0.0035428084
700,-0.0038568503
701,0.00025646258
702,-0.0043792278
703,-0.014611267
704,-0.0014368468
705,0.018193498
706,0.0028890625
707,0.004851672
708,0.0062252562
709,-0.010433218
710,-0.016678121
711,-0.00617006
712,-0.0061677955
713,-0.0034240722
714,0.0036997285
715,0.0042244988
716,0.0070485384
717,0.011108031
718,-0.019098068
719,0.00970038
720,0.010308761
721,-0.0061086817
722,-0.00063483365
723,-0.0038699412
724,-0.011926225
725,0.01005433
726,-0.008290651
727,-0.016647357
728,-0.010619123
729,0.0029354142
730,0.0011499391
731,0.0106663685
732,-0.017907748
733,-0.004307523
734,-0.008010387
735,-0.0062496797
736,-0.0039999583
737,0.0062711174
738,0.0052246633
739,0.016733387
740,-0.0004455633
741,0.013092086
742,-0.013389876
743,0.015042536
744,-0.004635228
745,5.7284746e-05
746,0.017323153
747,0.019607455
748,-0.004478206
749,0.0062344186
750,-0.0019192568
751,0.011820388
752,0.001774095
753,-0.0014224983
754,0.002818158
755,-0.0031221122
756,-0.0046361163
757,-0.018330855
758,-0.009508797
759,0.0015478675
760,-0.012904621
761,0.0037536742
762,-0.00561051
763,0.015015832
764,0.01754354
765,-0.013404397
766,0.006011481
767,0.013306398
768,0.011711217
769,0.0027118817
770,-0.015225591
771,-0.0021846024
772,-0.0075279525
773,-0.011974228
774,-0.00070826133
775,-0.00064352265
776,0.0040097563
777,0.002778882
778,-0.008707552
779,-0.0061446
780,0.0064232927
781,-0.01980668
782,-0.0006517238
783,-0.0063698315
784,0.0045133526
785,-0.0032581433
786,-0.0065450035
787,-0.0053491197
788,0.00561355
789,-0.013469135
790,0.0015629705
791,0.005993536
792,0.0031426176
793,-0.0037844954
794,-0.012528545
795,0.002540019
796,0.0073876013
797,-0.00010028886
798,-0.0115250135
799,-0.010610361
800,0.012603223
801,-0.001029789
802,0.0012408128
803,0.010661033
804,0.006153335
805,-0.006946262
806,0.013841979
807,-0.01852875
808,0.015809668
809,-0.00075939216
810,0.0051417467
811,0.0040469496
812,-0.0026798209
813,0.0010208032
814,-0.0048368643
815,-0.010350601
816,-0.0058721253
817,0.002189857
818,0.0026820872
819,0.017030656
820,0.0060895304
821,-0.008750482
822,-0.00047158072
823,0.002013178
824,0.0023035116
825,0.0016231044
826,-0.012635835
827,-0.009307914
828,0.0031778
829,0.004285882
830,-0.009520383
831,0.0070204954
832,-0.006682449
833,-0.00037317706
834,-0.009422162
835,-0.0054382295
836,-0.0074925125
837,0.0022749894
838,-0.0043391604
839,-0.004102002
840,-0.00499188
841,0.002373664
842,0.012029562
843,0.008076365
844,-0.0004953437
845,0.011975983
846,-0.0077444264
847,-0.0021807083
848,0.0008939759
849,-0.011669232
850,0.01117569
851,-0.014345026
852,-0.002632078
853,0.0026311856
854,0.0054744245
855,-0.0038924753
856,-0.015725411
857,0.01464899
858,-0.00040110145
859,-0.0012140255
860,-0.0131960595
861,-0.014983276
862,-0.008357657
863,-0.0027953384
864,0.0123932855
865,-0.009378922
866,-0.0046291403
867,-0.0028175574
868,-0.0030006545
869,0.0040314407
870,0.0036142683
871,0.014457429
872,-0.007795269
873,-0.003235753
874,0.007017199
875,-0.0009076061
876,0.0008044142
877,0.014758726
878,-0.006862
879,0.007625415
880,-0.014080245
881,0.00057962455
882,0.0040367083
883,0.01287805
884,0.00065660087
885,0.010061227
886,-0.012697305
887,-0.0045849094
888,-0.00546743
889,-0.009300841
890,0.01679143
891,-0.008303632
892,-0.011795466
893,0.00649938
894,0.007896667
895,-0.014047623
896,0.0025370123
897,-0.0032247638
898,0.010885357
899,-0.00347308
900,0.008201572
901,-0.0044228807
902,0.009991434
903,-0.0008332953
904,0.0035513625
905,0.011012087
906,0.00052792387
907,0.009579843
908,-0.009234345
909,-0.004700552
910,0.0022893236
911,0.0025383246
912,0.009099401
913,-0.013858934
914,-0.01336026
915,0.0092570335
916,-0.0029769812
917,0.009184777
918,-0.015643544
919,0.0046027647
920,0.007832389
921,0.0054395064
922,0.00826998
923,0.006405191
924,0.01201761
925,0.0008138445
926,-0.017106056
927,-0.010329353
928,-0.004096235
929,0.0036519552
930,-0.0045861355
931,-0.0051176394
932,-0.00390265
933,0.002797786
934,-0.0068397513
935,-0.011030433
936,0.0041392576
937,0.011767268
938,0.00016969562
939,0.0028730987
940,0.00031361097
941,-0.016224096
942,0.0007106506
943,-0.016563168
944,0.017846383
945,-0.0028200347
946,-0.0027345729
947,-0.0056832163
948,0.004524643
949,0.0051713656
950,0.0036504567
951,0.002462274
952,0.0067487815
953,0.0029659003
954,0.0054564923
955,-0.00011137225
956,0.008616331
957,0.002235272
958,-0.00066530146
959,-0.0027446223
960,0.00032651337
961,0.016122168
962,0.0013981146
963,-0.0040247715
964,-0.010458141
965,0.004991383
966,0.005903047
967,-0.0016679404
968,0.008294702
969,-0.0086308895
970,-0.0017953195
971,-0.002480257
972,-0.0015260874
973,-0.0030550647
974,0.0052869343
975,0.003596703
976,-0.0059972485
977,0.01896267
978,0.0059923213
979,0.001941608
980,-0.011579438
981,0.015149943
982,0.013841074
983,-0.005227233
984,-0.0055558984
985,-0.007165861
986,0.016544068
987,-0.01795315
988,0.010995653
989,-0.0063973754
990,0.00996286
991,-0.009308783
992,0.010869478
993,0.012875039
994,-0.004378319
995,-0.0008316422
996,0.005709384
997,-0.0056561194
998,-0.004047953
999,-0.0074610244
1000,-0.0147664035
1001,0.007802637
1002,-0.0007836081
1003,-0.0022823645
1004,-0.00701966
1005,-0.0060273497
1006,0.008729621
1007,-0.009892944
1008,0.014883213
1009,-0.004875462
1010,-0.0016618519
1011,-0.010682802
1012,-0.009429244
1013,0.000411868
1014,0.0060426667
1015,-0.0041225366
1016,-0.005789648
1017,-0.0010592459
1018,-0.005290542
1019,0.005702986
1020,-0.0044566775
1021,0.00050120335
1022,-0.015335744
1023,0.019408314
1024,-0.004099973
1025,-0.008195516
1026,0.011701029
1027,-0.011381011
1028,-0.00057603867
1029,0.0028088687
1030,0.0004942985
1031,0.00698914
1032,-0.007705397
1033,0.012913059
1034,0.0055829883
1035,0.0057181795
1036,0.003810123
1037,-0.0053378753
1038,0.011755414
1039,0.0044340333
1040,-0.0016587664
1041,-0.008978473
1042,-0.0026859785
1043,0.00819846
1044,-0.013432589
1045,0.00936617
1046,0.0067781806
1047,-0.0025177079
1048,0.008450846
1049,0.017536385
1050,-0.00791103
1051,0.010252252
1052,-0.0025119593
1053,0.0102255335
1054,-0.018208869
1055,-0.010325468
1056,-0.007110944
1057,0.0052285744
1058,-0.0019290204
1059,0.0050236317
1060,-0.0043134354
1061,-0.010937835
1062,0.00594069
1063,0.013560362
1064,-0.0024509334
1065,-0.000115190596
1066,0.012162274
1067,0.0051914677
1068,-0.015121477
1069,-0.0028516783
1070,0.0023757892
1071,-0.00041869396
1072,-0.008474775
1073,-0.0017767831
1074,-0.010816852
1075,-0.009601111
1076,0.005580403
1077,0.0039628646
1078,0.004096648
1079,0.0032664286
1080,-0.0074764565
1081,0.00023764525
1082,0.0070629744
1083,0.0047119567
1084,-0.0034107943
1085,-0.0015859067
1086,-0.0059458865
1087,-0.00027563758
1088,-0.012151765
1089,0.0017624196
1090,0.0032979273
1091,0.0020823714
1092,-0.0020921119
1093,-0.0065097664
1094,0.0015456058
1095,0.002034895
1096,0.0009539046
1097,0.005423749
1098,-0.0066738664
1099,0.0027752435
1100,0.007013609
1101,-0.0036052747
1102,-0.010583351
1103,-0.0019232763
1104,-0.0022274496
1105,0.0035998665
1106,-0.0013022472
1107,-0.010952421
1108,-0.019052373
1109,-0.007800682
1110,0.0039549787
1111,-0.01257043
1112,0.005565598
1113,-0.0035143292
1114,0.0008483622
1115,0.0036336896
1116,-0.0068277796
1117,0.0049431464
1118,0.008280529
1119,0.014464274
1120,0.004792888
1121,0.0012871755
1122,-0.0062628454
1123,-0.0028986242
1124,-0.0062851403
1125,0.005591328
1126,-0.013122879
1127,0.018914305
1128,-0.0035611575
1129,0.0030187308
1130,0.0034793778
1131,-3.9545524e-05
1132,0.0014372295
1133,-0.018977517
1134,0.0048956713
1135,0.011789294
1136,-0.0021078754
1137,0.0051946146
1138,-0.017598875
1139,0.0009907621
1140,0.0015656826
1141,-0.0073653148
1142,0.016256694
1143,0.00581866
1144,0.0015131307
1145,-0.010803726
1146,-0.0005255158
1147,-0.017442454
1148,-0.0040516974
1149,-0.011541254
1150,-0.0063811634
1151,0.0005996101
1152,0.0040102913
1153,0.0013026494
1154,-0.003938198
1155,0.005734925
1156,0.0153998565
1157,5.6168938e-06
1158,-0.007880413
1159,-0.002622134
1160,-0.003914369
1161,0.0071377354
1162,0.008120626
1163,0.004327928
1164,0.0025200953
1165,-0.0063162246
1166,-0.00056267646
1167,0.013599364
1168,-0.001706588
1169,0.015173392
1170,0.004348938
1171,0.008313026
1172,-0.0045320727
1173,0.003849143
1174,-0.0019337047
1175,-0.014490445
1176,-0.0084912
1177,0.009174258
1178,-9.9265315e-05
1179,-0.0071250955
1180,0.003307557
1181,0.019769277
1182,0.0030567022
1183,0.00075987086
1184,0.016275303
1185,-0.010390839
1186,0.0058543365
1187,-0.0030428024
1188,0.003419722
1189,-0.007149372
1190,0.00095273234
1191,0.007922139
1192,0.00048069132
1193,-0.0041034203
1194,-0.011811939
1195,-0.004746326
1196,-0.013144461
1197,0.001778433
1198,-0.012145581
1199,0.004178274
1200,-0.0029835745
1201,-0.018760605
1202,0.0017195022
1203,-0.0036116566
1204,0.007968586
1205,0.0063319784
1206,-0.009454214
1207,-0.007091025
1208,-0.010772909
1209,0.0062582856
1210,-0.0063910596
1211,-0.002510986
1212,-0.0033756786
1213,0.004281842
1214,-0.011341382
1215,-0.01937653
1216,0.008844078
1217,0.016631586
1218,-0.0023228347
1219,0.0022682524
1220,0.0042582317
1221,0.0048732683
1222,-0.0024566676
1223,0.0055944053
1224,0.0013236272
1225,-0.00875725
1226,-0.0005211992
1227,0.011604579
1228,0.00054147275
1229,0.0077346587
1230,0.013222241
1231,-0.0048694247
1232,-0.010422785
1233,0.00083424005
1234,-0.014351284
1235,-0.007961748
1236,0.011038036
1237,0.009282437
1238,-0.0007905301
1239,0.015916927
1240,-0.018564189
1241,-0.0041720876
1242,0.01661306
1243,0.008470506
1244,-0.007859498
1245,-0.0054499595
1246,0.009224639
1247,-0.016499344
1248,-0.004048276
1249,0.0007955103
1250,-0.0009406624
1251,0.0034045023
1252,-0.016143588
1253,-0.003964948
1254,-0.006055399
1255,0.018883454
1256,-0.012205943
1257,0.00088958285
1258,0.0011266143
1259,-0.0026017174
1260,-0.0021806364
1261,-0.0015616423
1262,-0.005354241
1263,0.004924099
1264,-0.0026533066
1265,-0.019110858
1266,-0.0015568697
1267,-0.016902858
1268,-0.0070826123
1269,0.011352973
1270,0.004221058
1271,-0.010991171
1272,0.00739569
1273,0.013207055
1274,0.00062234973
1275,0.0043454077
1276,-0.006729184
1277,-0.014800888
1278,0.0063873064
1279,0.00066543167
1280,-0.00046590174
1281,0.00079543795
1282,0.011134698
1283,0.003197039
1284,0.0086382525
1285,-0.019625591
1286,-0.0015874183
1287,-0.00052160356
1288,-0.001433963
1289,0.005660709
1290,-0.0075429017
1291,-0.0059562502
1292,0.009993091
1293,-0.0028938458
1294,-0.0043133083
1295,0.011032995
1296,-0.014591286
1297,-0.015794663
1298,0.00027205577
1299,-0.0011807026
1300,-0.00616178
1301,-0.008041648
1302,-0.007884191
1303,-0.0008930561
1304,-0.0015490794
1305,0.0020698712
1306,-0.0048827156
1307,-0.00598687
1308,0.0028615042
1309,0.0032243382
1310,0.008680062
1311,0.015721897
1312,0.010181422
1313,-0.009223056
1314,0.009360666
1315,0.0075511066
1316,-0.0024593896
1317,-0.002280661
1318,0.003285303
1319,0.006261506
1320,0.010426465
1321,-7.1589304e-05
1322,-0.0065215654
1323,-0.010984156
1324,0.00035057
1325,0.004833734
1326,0.0031367114
1327,0.011823661
1328,-0.0037047716
1329,0.0049599186
1330,-0.00989882
1331,-0.0018012237
1332,-0.010705357
1333,-0.014125433
1334,-0.01374978
1335,0.0047876555
1336,0.013512272
1337,-0.0005599651
1338,0.007884636
1339,-0.0015615687
1340,-0.017687825
1341,-0.012883737
1342,0.0069711264
1343,-0.015081261
1344,0.010375617
1345,0.0019418658
1346,-0.006700058
1347,-1.4050832e-05
1348,-0.0013288241
1349,-0.0088664405
1350,0.0063364557
1351,0.0050901375
1352,0.004769023
1353,0.0028540497
1354,-0.008135281
1355,0.012995165
1356,-0.0049541523
1357,0.01030385
1358,-0.005824439
1359,0.012938845
1360,-0.008934163
1361,0.0014857879
1362,0.003206989
1363,0.00431431
1364,0.00011013157
1365,0.0010424622
1366,-0.010370942
1367,0.0039778133
1368,0.0025375665
1369,0.015082898
1370,-0.0017175251
1371,0.003297588
1372,0.005727886
1373,0.0059394995
1374,-0.0020944476
1375,-0.0047310917
1376,-0.006176992
1377,-0.005735564
1378,0.0032535398
1379,0.0053479546
1380,0.0019668618
1381,-0.008132988
1382,-0.00740608
1383,-0.004761882
1384,0.0021106114
1385,0.008225412
1386,-0.0040495503
1387,0.005004541
1388,0.017600145
1389,0.015142855
1390,0.00449368
1391,-0.0033672063
1392,0.0020208443
1393,-0.013425969
1394,0.01747919
1395,0.0139699215
1396,-0.001084218
1397,-0.012324765
1398,0.0055263583
1399,0.00492639
1400,-0.0032440918
1401,0.0022537005
1402,-0.0060519855
1403,0.008287301
1404,0.0064214515
1405,0.009584888
1406,-0.01122708
1407,0.007740822
1408,-0.0077251955
1409,-0.009715637
1410,0.0033817145
1411,0.016024487
1412,-0.005688271
1413,0.008636516
1414,-0.0047941385
1415,0.009222004
1416,-0.0006103416
1417,0.0016176176
1418,-0.009757996
1419,-0.006542752
1420,-0.0081358105
1421,-0.017645082
1422,0.0013878621
1423,0.017185058
1424,-0.01571965
1425,-0.013917201
1426,0.0024672751
1427,0.0005403187
1428,-0.010327599
1429,-0.013925064
1430,-0.010130556
1431,0.0017819671
1432,0.0013904583
1433,0.010329674
1434,0.013684935
1435,-0.0015861521
1436,0.0033220546
1437,0.009920431
1438,0.016251033
1439,0.009833
1440,-0.011022
1441,-0.011114321
1442,0.008263938
1443,-0.0060942243
1444,-0.00974805
1445,0.004962427
1446,-0.008177971
1447,0.0019985002
1448,0.0059540314
1449,-0.011979613
1450,-0.009887776
1451,0.003970749
1452,-0.0105129015
1453,-0.00041967048
1454,-0.014509308
1455,-0.012878832
1456,0.016201453
1457,-0.0007952692
1458,0.0017299112
1459,0.012868082
1460,0.0006444022
1461,-0.0038802475
1462,0.011718147
1463,-0.010137588
1464,-0.011396558
1465,-0.0068168333
1466,-0.002540876
1467,0.0028442687
1468,0.0062584016
1469,-0.0015524527
1470,0.0056875963
1471,0.0009492631
1472,-0.009592406
1473,0.017214995
1474,0.003983975
1475,0.008585535
1476,0.008066402
1477,8.609728e-06
1478,0.0040606433
1479,0.0051605916
1480,0.01200585
1481,-0.009375232
1482,0.006572113
1483,0.0017149954
1484,0.0042810063
1485,-7.650638e-06
1486,0.016807996
1487,-0.016418768
1488,0.0040080687
1489,-0.002230237
1490,-0.0004414304
1491,0.005827236
1492,-0.0059780655
1493,-0.005780957
1494,0.00015614872
1495,-0.0077041886
1496,0.014025217
1497,-0.006185353
1498,0.01018939
1499,-0.003818109
1500,0.00084172515
1501,-0.0017919983
1502,-0.0016045541
1503,-0.004550426
1504,0.0017370414
1505,-0.014160025
1506,0.0055780225
1507,0.017648332
1508,0.0069025913
1509,-0.015840914
1510,0.008843783
1511,-0.005605368
1512,0.0059756325
1513,-0.0029705223
1514,-0.011848834
1515,0.00043685542
1516,-0.0008053958
1517,-0.0005867985
1518,-0.009074289
1519,0.0058361045
1520,-0.002557264
1521,-0.01062991
1522,0.01675328
1523,-0.006650293
1524,-0.0053674895
1525,-0.017607963
1526,-0.00512066
1527,-0.008102029
1528,0.00691446
1529,-0.005326686
1530,0.017648896
1531,0.0022117111
1532,0.0014072002
1533,-0.010349895
1534,-0.0058563547
1535,-0.007097011
1536,0.004535976
1537,-0.0018627549
1538,-0.0057448363
1539,0.0006448579
1540,0.0026614289
1541,0.008590423
1542,0.010082926
1543,0.016543709
1544,-0.0030492255
1545,0.0041064727
1546,-0.005211863
1547,-0.017989708
1548,-0.00977644
1549,-0.0044359597
1550,-0.010815616
1551,-0.008515047
1552,0.018238965
1553,-0.015369456
1554,8.088083e-06
1555,0.007567134
1556,-7.747174e-05
1557,0.001840588
1558,-0.0055082254
1559,-0.0012348893
1560,0.0037817445
1561,-0.0037018934
1562,-0.0010150044
1563,-0.007530751
1564,0.009574781
1565,-0.008587518
1566,-0.012646605
1567,-0.012387608
1568,0.0024479043
1569,-0.00926846
1570,0.010637377
1571,-0.005758232
1572,0.01036257
1573,-0.006941722
1574,0.0071147447
1575,0.009226562
1576,0.009176061
1577,0.008094336
1578,-0.004107165
1579,-0.0010621446
1580,-0.0033551678
1581,-0.002138531
1582,-0.00022147139
1583,0.0070955423
1584,-0.010617032
1585,0.016736235
1586,0.007105072
1587,0.0017385931
1588,-0.006094239
1589,-0.0046718353
1590,0.015254226
1591,-0.00022130643
1592,0.006457208
1593,-0.007911924
1594,-0.0012252025
1595,-0.007643824
1596,0.00057972426
1597,-0.017071662
1598,0.0070102746
1599,-0.018665979
1600,-0.0051957415
1601,0.003197358
1602,-0.00042259443
1603,0.0013394874
1604,0.010395446
1605,0.0041309013
1606,-0.005175412
1607,-0.009537651
1608,-0.007951804
1609,-0.015662648
1610,-0.0009898266
1611,-0.012332177
1612,0.01837607
1613,-0.0071023977
1614,-0.012479514
1615,0.007917892
1616,0.0014574706
1617,-0.009576891
1618,-0.00086237286
1619,0.019475583
1620,-0.003883288
1621,-0.0063596833
1622,-0.011079228
1623,-0.0133570405
1624,0.012516639
1625,-0.011454825
1626,0.016165933
1627,-0.0034679507
1628,0.004851073
1629,-0.0043590525
1630,0.011466039
1631,-0.007150585
1632,0.008868136
1633,-0.0035059399
1634,-0.0130449
1635,-0.0059570544
1636,0.0024176505
1637,-0.0033532276
1638,0.0027395096
1639,0.010854054
1640,-0.0026284105
1641,-0.0055987854
1642,0.0043307305
1643,0.008764254
1644,-0.005611757
1645,-0.01856278
1646,-0.008154014
1647,-0.008029305
1648,-0.0024551253
1649,-0.0065834746
1650,0.0041431445
1651,0.003738813
1652,0.00018687415
1653,-0.014473496
1654,0.0060334993
1655,0.00094913744
1656,-0.006969864
1657,0.00059172726
1658,-0.0045898845
1659,-0.005661096
1660,0.0006249366
1661,-0.0012654305
1662,0.004463784
1663,0.013602999
1664,-0.008035003
1665,-0.005319311
1666,0.009619851
1667,0.0024126703
1668,-0.006977325
1669,-0.009282077
1670,-0.0033078727
1671,0.0062277294
1672,-0.004040949
1673,0.0064465636
1674,0.00045471572
1675,-0.0005644774
1676,0.00016184745
1677,-0.0058348714
1678,-0.00041212596
1679,-0.015991867
1680,0.003545411
1681,-0.011987955
1682,0.008427683
1683,0.011081897
1684,-0.00656492
1685,-0.017074056
1686,0.004464127
1687,0.0020544978
1688,0.017569605
1689,-0.010072798
1690,-0.0019113241
1691,-0.004040546
1692,0.008942811
1693,0.011638052
1694,-0.010779789
1695,-0.01101038
1696,-0.0027787685
1697,0.009504957
1698,-0.0010935749
1699,0.0028887223
1700,0.003668827
1701,-0.0010036216
1702,-0.010025502
1703,-0.012890188
1704,-0.0006909534
1705,-0.017402181
1706,0.019837825
1707,0.0032254783
1708,0.008681829
1709,-0.00018156513
1710,-0.012084011
1711,-0.001765554
1712,0.0032069725
1713,0.0053848624
1714,-0.002999504
1715,0.0114055695
1716,-0.008372078
1717,-0.0040387777
1718,0.0019453824
1719,-0.015016428
1720,0.015269315
1721,-0.0082625365
1722,0.0075168884
1723,0.012841614
1724,0.004218404
1725,-0.0160355
1726,0.0012892508
1727,0.00050414813
1728,-0.00022690168
1729,0.00020235618
1730,-0.01736536
1731,0.007314859
1732,-0.007704353
1733,-0.0015115052
1734,0.0067844614
1735,-0.004063473
1736,-0.0094516445
1737,-0.0063879895
1738,-0.0012613914
1739,-0.0017974025
1740,0.014675498
1741,0.00023753844
1742,-0.009259187
1743,0.0027607519
1744,0.010181412
1745,0.01037527
1746,-0.009865143
1747,-0.012351932
1748,0.011752903
1749,0.004229392
1750,0.0060202563
1751,0.016473904
1752,-0.005979034
1753,0.014472793
1754,0.0034839355
1755,0.01635516
1756,-0.010383712
1757,-0.0005412995
1758,-0.00047071828
1759,-0.001983774
1760,-0.009878172
1761,-0.009753784
1762,-0.010178835
1763,-0.014652448
1764,0.0026282745
1765,0.005411116
1766,-0.0009830557
1767,0.0002162684
1768,-0.014712049
1769,-0.0016071706
1770,-0.00781845
1771,0.0014081337
1772,-0.008197982
1773,-0.003868308
1774,0.00835047
1775,0.007030951
1776,-0.018044507
1777,0.016173217
1778,-0.0005116765
1779,-0.016927566
1780,0.0011713556
1781,0.014778275
1782,0.0011286391
1783,-0.0012996247
1784,-0.0010308328
1785,0.00051322073
1786,0.011862939
1787,-0.010949718
1788,0.008439677
1789,-0.01655076
1790,-0.0055313176
1791,-0.0035265055
1792,0.007183307
1793,0.0008295605
1794,0.013038933
1795,-0.007317052
1796,0.0061527705
1797,0.004039879
1798,-0.012815344
1799,-6.0301983e-05
1800,-0.0167888
1801,0.0038055736
1802,-0.0006109743
1803,0.01094244
1804,0.008092367
1805,0.0035863097
1806,-0.003385651
1807,0.012995775
1808,0.000659742
1809,-0.011638216
1810,-0.0031943643
1811,-0.008439604
1812,0.017215345
1813,-0.0013782518
1814,0.012951783
1815,0.007580555
1816,0.0062686047
1817,0.0010280384
1818,-0.0017781601
1819,-0.0038223334
1820,-0.0010284074
1821,0.010457219
1822,0.010711744
1823,0.011635424
1824,-0.010217963
1825,-0.0041019064
1826,0.007951755
1827,-0.005060011
1828,-0.002524496
1829,-0.008949948
1830,0.010627088
1831,-0.011485047
1832,-0.0091586
1833,0.011767762
1834,0.010124906
1835,0.0014358169
1836,0.013378503
1837,0.019920632
1838,0.007911451
1839,0.00079727755
1840,-0.0018718349
1841,0.00066096865
1842,0.007819431
1843,0.0011814361
1844,0.011257249
1845,-0.0065506804
1846,-0.019032631
1847,0.006118066
1848,0.017574932
1849,-0.019623417
1850,0.016982652
1851,0.007957018
1852,0.014624366
1853,0.00026374255
1854,-0.013083445
1855,0.0030305567
1856,0.012367658
1857,-0.0040728627
1858,0.0006324686
1859,0.00515461
1860,-0.01074811
1861,0.0087257745
1862,-0.0076959035
1863,-0.0045525557
1864,-0.005389048
1865,-0.0031970036
1866,0.008118254
1867,-0.0079392465
1868,0.0011050842
1869,-0.0003844659
1870,-0.014951643
1871,0.014068133
1872,-0.006498429
1873,-0.011483901
1874,-0.013410615
1875,0.008731029
1876,-0.014241031
1877,-0.004619379
1878,-0.0132271405
1879,0.0118767535
1880,0.0007620135
1881,0.0051566884
1882,0.006929287
1883,0.0023946501
1884,-0.0106609585
1885,-0.015422761
1886,0.0063140797
1887,0.0061212406
1888,0.0042591626
1889,0.011938564
1890,0.0067947316
1891,0.013610062
1892,-0.007823872
1893,-0.0052180695
1894,-0.0010802473
1895,-0.012691516
1896,0.0054147416
1897,-0.009176484
1898,0.007586688
1899,-0.010097686
1900,-0.017339617
1901,0.002190748
1902,0.005924989
1903,-0.004691511
1904,-0.0010388985
1905,-0.00827814
1906,0.00458832
1907,0.005759732
1908,0.0009687282
1909,-0.0012054773
1910,-0.0051376224
1911,-0.00040908522
1912,0.013945967
1913,-0.005037
1914,0.0012335188
1915,0.011082245
1916,-0.009731246
1917,-0.011210723
1918,0.0042488216
1919,-0.013059965
1920,-0.00023384858
1921,-0.0009762653
1922,-0.0016354418
1923,0.0013785572
1924,-0.0010876477
1925,-0.0027468535
1926,0.0017967644
1927,-0.0040219664
1928,-0.01888029
1929,-0.00046195483
1930,0.008290548
1931,0.009290056
1932,0.0001985492
1933,-0.01680951
1934,0.0011882569
1935,0.004969905
1936,-0.013118933
1937,-0.011231903
1938,0.0005589133
1939,-0.009013505
1940,0.019679207
1941,-0.0077528604
1942,0.003007698
1943,-0.0063534067
1944,-0.0030440805
1945,-0.011806165
1946,0.008642462
1947,0.011205295
1948,-0.007050255
1949,0.006225092
1950,-0.01181846
1951,-0.00044924553
1952,-0.00598805
1953,0.008845419
1954,-0.005810539
1955,0.007472424
1956,0.0012440608
1957,-0.007621458
1958,0.00466194
1959,0.00093969156
1960,0.009215787
1961,-0.009930804
1962,-0.0009912754
1963,-0.0147960335
1964,-0.007774766
1965,0.0133786565
1966,-0.0022479624
1967,-0.012402497
1968,-0.009795624
1969,0.0151274735
1970,0.006405041
1971,-0.002385976
1972,-0.0023624196
1973,0.006073925
1974,0.0020958662
1975,0.005644911
1976,0.01058843
1977,-0.0051683886
1978,0.009484351
1979,0.0021017275
1980,0.002307881
1981,0.00792787
1982,0.0016886052
1983,0.0023398069
1984,-0.0035032954
1985,0.0029283438
1986,-0.00677737
1987,-0.012882594
1988,-0.0031389596
1989,0.0058503044
1990,-0.0038199886
1991,0.0075411797
1992,0.0035128864
1993,-0.010286366
1994,0.006605459
1995,-0.004423159
1996,0.0020315284
1997,-0.013559125
1998,-0.0055379486
1999,0.005535296
2000,-0.008459409
2001,-0.0006359505
2002,0.004609059
2003,-0.014257542
2004,-0.015163886
2005,0.005163992
2006,-0.00020192243
2007,-0.0049339044
2008,0.008277382
2009,-0.015411707
2010,-0.00045024132
2011,0.0052501373
2012,0.013080701
2013,0.007954106
2014,0.010066188
2015,-0.0102331685
2016,-0.0067964504
2017,0.00095727213
2018,0.0012292303
2019,0.009879529
2020,-0.0026781836
2021,-0.011696135
2022,0.0012274078
2023,-0.0055110822
2024,0.0009215257
2025,0.006863173
2026,0.0023421065
2027,0.005140808
2028,-0.006714641
2029,-0.0042852876
2030,-0.004090402
2031,-0.006422142
2032,0.007576136
2033,0.015849989
2034,-0.007433095
2035,-0.007123788
2036,-0.011111668
2037,0.0005207529
2038,-0.011347512
2039,0.003711802
2040,-0.0060314653
2041,0.0054749083
2042,-0.012458773
2043,-0.008802585
2044,0.018172517
2045,0.0066112536
2046,-0.0051302155
2047,0.0060920906
2048,0.010400382
2049,-0.007155355
2050,0.0017359774
2051,-0.011863548
2052,-0.012490657
2053,0.008136914
2054,0.013240942
2055,-0.0030192847
2056,0.0076712132
2057,-0.01726055
2058,0.0075246827
2059,0.0012445704
2060,0.010147354
2061,0.0075953216
2062,0.006084147
2063,0.015520071
2064,-0.0031112493
2065,0.0017153234
2066,0.0018395789
2067,0.0084043415
2068,0.006574093
2069,0.0046075187
2070,-0.0021107248
2071,0.00019004535
2072,0.0019719533
2073,-0.007851031
2074,0.007151994
2075,-0.007815856
2076,-0.004130012
2077,-0.009289441
2078,-0.011272808
2079,0.0003839079
2080,0.0078999875
2081,0.01378131
2082,0.0021710559
2083,-0.017852398
2084,0.015145728
2085,-0.0060613006
2086,0.0026981165
2087,0.003908271
2088,-0.0049139396
2089,-0.002492323
2090,0.0097649265
2091,-0.01749825
2092,-0.0021512888
2093,-0.007239103
2094,-0.013062589
2095,-0.0023820137
2096,-0.0022162665
2097,-0.0005999283
2098,-0.0022151787
2099,0.014867617
2100,0.018088497
2101,0.007839755
2102,-0.0052417377
2103,0.012422203
2104,-0.014495403
2105,0.0008453452
2106,-0.003175172
2107,0.016399598
2108,-0.01763589
2109,-0.009379695
2110,-0.0063349856
2111,-0.0053188605
2112,0.0048876284
2113,0.002339399
2114,-0.010710903
2115,0.0010080471
2116,-0.014007778
2117,0.0095743155
2118,0.017018814
2119,-0.006049793
2120,-0.0113034425
2121,0.019749014
2122,0.016165413
2123,0.0031802396
2124,-0.0033605697
2125,0.0020841623
2126,-0.0044964603
2127,-0.005747244
2128,0.0032109385
2129,0.0116559565
2130,0.00019963905
2131,0.0042490847
2132,0.0050591147
2133,0.007375854
2134,0.010568657
2135,0.009426957
2136,0.008402627
2137,-0.0002653138
2138,-0.009157644
2139,-0.00053576275
2140,0.011263256
2141,-0.00020954171
2142,-0.0115589695
2143,-0.0039332095
2144,-0.011573019
2145,-0.002021005
2146,-0.005859297
2147,-0.013383378
2148,0.0019286686
2149,0.00034038263
2150,0.009953278
2151,-0.011529482
2152,-0.0135012865
2153,0.013075522
2154,0.010311134
2155,0.0024365073
2156,-0.0009782731
2157,0.012344266
2158,-0.0029665977
2159,0.0044214656
2160,-0.018765032
2161,-0.0049411333
2162,0.007488764
2163,-0.015355509
2164,-0.012305427
2165,0.0050539905
2166,-0.014271115
2167,0.0027017342
2168,0.003627936
2169,-0.016031278
2170,-0.017644158
2171,0.004115711
2172,0.010691027
2173,0.0028659513
2174,-0.0031655785
2175,0.0031988064
2176,0.0075611877
2177,0.0005203481
2178,-0.0048342803
2179,-0.006306114
2180,0.009715017
2181,0.01592279
2182,-0.0006731934
2183,0.0022848377
2184,0.008147398
2185,0.009281885
2186,0.010133227
2187,-0.0039725155
2188,0.0034618543
2189,-0.0074270065
2190,0.0037870172
2191,0.0006648345
2192,-0.0072100973
2193,0.008147397
2194,-0.0015693669
2195,-0.0038310033
2196,0.0072708083
2197,0.0051227454
2198,-0.0017208126
2199,-0.005532332
2200,-0.009697264
2201,-0.011011537
2202,0.0010575393
2203,0.0024068535
2204,-0.0013922882
2205,-0.003597141
2206,-0.00401775
2207,0.011643135
2208,0.016699942
2209,-0.013253114
2210,-0.008027759
2211,0.008894885
2212,0.00666686
2213,0.0034388218
2214,-0.00022285926
2215,-0.0012164998
2216,-0.0052211434
2217,0.00092987274
2218,0.017728144
2219,0.018053433
2220,0.008270266
2221,-0.0064862086
2222,-0.007993758
2223,0.00013035523
2224,0.009841509
2225,0.008029225
2226,-0.0071277265
2227,0.0024649608
2228,0.013697626
2229,0.0100607425
2230,0.011697776
2231,-0.012380099
2232,0.0066858386
2233,0.0026664298
2234,-0.002677755
2235,-0.007351343
2236,0.0004273391
2237,0.007709942
2238,0.017344091
2239,0.0003149008
2240,-0.007826279
2241,-0.006022151
2242,0.0025628284
2243,-0.002164169
2244,-0.0036745083
2245,-0.004820763
2246,-0.008435821
2247,0.0013143145
2248,-0.010336454
2249,-0.005694391
2250,0.0020026576
2251,-0.008090796
2252,-0.0065413252
2253,0.007041273
2254,-0.0031693892
2255,-0.0005913338
2256,-0.0063966755
2257,-0.003971307
2258,-0.007175508
2259,0.0018422749
2260,-0.00028537915
2261,-0.0009547939
2262,-0.0061748205
2263,-0.0038678767
2264,-0.0026391577
2265,-0.011691806
2266,-0.010913913
2267,-0.004293132
2268,-0.009978335
2269,-0.00430432
2270,-0.00086662744
2271,0.0035755902
2272,-0.01541015
2273,0.0046993294
2274,0.0011678115
2275,-0.016371382
2276,0.009531169
2277,-0.008993765
2278,-0.0025788646
2279,-0.0037684545
2280,-0.011576567
2281,-0.010057028
2282,0.014961344
2283,-0.00805593
2284,-0.00084613025
2285,0.0039444882
2286,0.0065108496
2287,-0.0012886042
2288,0.00029876656
2289,0.0046047973
2290,0.0040015266
2291,0.00029624897
2292,0.015114833
2293,0.013576123
2294,0.008943436
2295,-0.00036224278
2296,-0.003225887
2297,-0.015576682
2298,0.008199869
2299,0.0053526387
2300,0.011760299
2301,0.007440447
2302,0.010686278
2303,-0.010523038
2304,-0.0003623107
2305,-0.014967908
2306,-0.01780953
2307,0.011256546
2308,-0.011250539
2309,-0.005956352
2310,0.010828916
2311,-0.0018687705
2312,0.0062077073
2313,-0.01137664
2314,0.0042048786
2315,0.019300412
2316,0.009598898
2317,-0.00919733
2318,-0.00013263483
2319,0.0024616744
2320,0.0011483944
2321,-0.014883139
2322,-0.00071937154
2323,0.015452334
2324,0.0063909795
2325,-0.0011844074
2326,-0.01009247
2327,-0.006872695
2328,0.0048096078
2329,-0.017886255
2330,-0.0023756553
2331,-0.0011789532
2332,0.010828284
2333,0.008005359
2334,0.00843071
2335,-0.0046512675
2336,0.0029570279
2337,0.0074921837
2338,-0.005969173
2339,-0.004045269
2340,0.0048198914
2341,0.009293133
2342,0.0013633315
2343,0.005532087
2344,0.01550277
2345,-0.0012179291
2346,-0.0032075339
2347,-0.008272892
2348,0.0012963829
2349,-0.011593366
2350,0.012086068
2351,0.017330306
2352,-0.008258508
2353,0.015132266
2354,-0.012774465
2355,-0.001544031
2356,-0.0010844049
2357,0.012467909
2358,-0.00967089
2359,-0.005787794
2360,-0.013587219
2361,-0.011733241
2362,-0.0073696203
2363,0.010549282
2364,0.0029670775
2365,-7.532922e-05
2366,0.010966812
2367,-0.009061557
2368,-0.00559655
2369,0.0013941899
2370,0.018224256
2371,-0.008209255
2372,0.015814073
2373,0.00010068755
2374,0.004854572
2375,0.0008574458
2376,-0.003048516
2377,-0.0056762844
2378,-0.0029750667
2379,-0.007941084
2380,0.0050064004
2381,-0.012479882
2382,-0.0033888977
2383,0.0022168115
2384,0.0038996672
2385,-0.01629324
2386,0.01372707
2387,-0.017551465
2388,0.00016650358
2389,-0.007420299
2390,0.011484418
2391,-0.015360122
2392,0.0005028842
2393,-0.0038827013
2394,0.013245312
2395,-0.014599406
2396,0.0064443853
2397,0.0072414847
2398,-0.0071445396
2399,-0.010658617
2400,0.004083354
2401,-0.00979505
2402,0.010865372
2403,0.0005332684
2404,-0.017306177
2405,-0.012702973
2406,-0.0066593187
2407,0.0055775507
2408,-0.0051813866
2409,0.008640479
2410,-0.00023972087
2411,-0.003164595
2412,-0.0030456167
2413,-0.009396155
2414,-0.006492136
2415,-0.009026376
2416,-0.0036543412
2417,-0.0039837104
2418,-0.012393755
2419,0.008555455
2420,-0.006921034
2421,0.009938115
2422,-0.006185728
2423,-0.010747776
2424,-8.674011e-05
2425,0.0018399355
2426,0.0105164405
2427,0.005336593
2428,-0.0060635996
2429,0.0024569668
2430,0.019583808
2431,0.006861767
2432,0.005363002
2433,-0.011498393
2434,0.011697663
2435,0.005165927
2436,-2.9409597e-05
2437,0.0033322566
2438,-0.0037123826
2439,0.00025395636
2440,-0.014846919
2441,-0.015602537
2442,-0.0034045242
2443,0.004369163
2444,-0.008400269
2445,0.00556381
2446,-0.01574947
2447,0.012025214
2448,-0.0100022005
2449,-0.00049161684
2450,0.0024817085
2451,0.011806757
2452,-0.007881213
2453,0.0050525297
2454,-0.0069389152
2455,0.0007656719
2456,-0.0018988393
2457,0.0053957887
2458,-0.0070691644
2459,-0.007004391
2460,-0.0059146094
2461,-0.0050651543
2462,-0.002124152
2463,-0.005721374
2464,0.0043765046
2465,-0.005595996
2466,-0.0022949788
2467,-0.0054510986
2468,0.015817354
2469,-1.3263356e-05
2470,0.0065718074
2471,0.0037642445
2472,-0.012937113
2473,0.013869935
2474,-0.007823174
2475,-0.016659815
2476,0.0045500793
2477,-0.009320879
2478,0.014725426
2479,0.018932415
2480,-0.004078477
2481,0.00954521
2482,0.0041790465
2483,-0.01458834
2484,0.0014216809
2485,0.00040384807
2486,-0.007451922
2487,0.0027646641
2488,-0.0014278275
2489,-0.016390314
2490,-0.0070822947
2491,-0.0029610556
2492,-0.0071836985
2493,-0.005037783
2494,0.008133573
2495,-0.009834544
2496,0.00087839854
2497,0.0087468065
2498,0.0013049592
2499,0.0033039523
2500,0.0048501315
2501,-0.0017280524
2502,0.008719762
2503,-0.0048985267
2504,0.003256746
2505,-0.0009133238
2506,0.0045845164
2507,0.00018711916
2508,-0.001938737
2509,0.0011012749
2510,0.010292806
2511,-0.012134464
2512,0.015007881
2513,-0.008990355
2514,-0.009797095
2515,-0.01791015
2516,-0.011452077
2517,0.0077170967
2518,-0.010604746
2519,-0.011762494
2520,0.017046325
2521,-0.00541657
2522,-0.0053232857
2523,0.0036761395
2524,-0.0039021268
2525,-0.012300197
2526,-0.00083320896
2527,-0.0029698175
2528,-0.0068558473
2529,-0.010256534
2530,-0.0048823934
2531,-0.016922465
2532,-0.004991005
2533,0.00034429753
2534,-0.0009900518
2535,0.004340599
2536,-0.0025605564
2537,0.014378608
2538,0.010094026
2539,-0.0031658867
2540,0.0060080504
2541,0.0038854924
2542,0.013408146
2543,-0.0013526268
2544,-0.0032587438
2545,0.012639071
2546,0.009661817
2547,0.001796352
2548,-0.0055223424
2549,-0.0025678498
2550,0.01699288
2551,-0.0034527206
2552,0.007839063
2553,-0.0042267
2554,0.0011538253
2555,0.005400957
2556,-0.0063063884
2557,-0.005278493
2558,0.006907488
2559,-0.009398465
2560,0.0030245017
2561,0.0072619854
2562,0.0017347739
2563,0.0018193361
2564,0.0037497645
2565,0.004074433
2566,-0.0038405976
2567,0.0044643567
2568,0.002336938
2569,-0.00665439
2570,0.0059502777
2571,0.004954762
2572,0.0099296225
2573,0.013974581
2574,-0.0061403085
2575,0.013626611
2576,-0.015830638
2577,0.006755122
2578,0.012060347
2579,0.0066701146
2580,-0.002335225
2581,0.012575887
2582,-0.016494103
2583,0.006287451
2584,-0.015522935
2585,0.017883616
2586,0.0027639375
2587,0.003018439
2588,-0.011698693
2589,0.00582586
2590,-0.01870441
2591,0.00018703543
2592,0.006626327
2593,0.00071669486
2594,0.0048481114
2595,0.0013683779
2596,0.016599037
2597,-0.00047178386
2598,-0.0025353304
2599,-0.011466599
2600,-0.003168462
2601,0.0006300582
2602,-0.0106186345
2603,0.017177708
2604,0.012574325
2605,-0.015634082
2606,-0.014621063
2607,-0.0020670465
2608,0.013632
2609,-0.007947016
2610,0.0041832253
2611,-0.005445139
2612,0.0017268703
2613,0.0075667407
2614,-0.0025775577
2615,0.0011539122
2616,-0.0072444296
2617,0.0024978514
2618,-0.013756911
2619,0.0054017305
2620,-0.0041187163
2621,0.0015101141
2622,0.00040303974
2623,-0.007255466
2624,-0.007814877
2625,-0.0053222873
2626,-0.0032089485
2627,-0.006028922
2628,0.012737467
2629,-0.011706705
2630,-0.0033223953
2631,0.003610027
2632,-0.0013313163
2633,-0.0075911502
2634,-0.0044964086
2635,0.0020766705
2636,-0.009973448
2637,-0.011646215
2638,-0.0073981597
2639,-0.0100875795
2640,-0.0034841967
2641,-0.019899866
2642,-0.012964145
2643,-0.017566558
2644,0.00736653
2645,-0.005972972
2646,-0.009728518
2647,-0.008682174
2648,-0.003605051
2649,-0.0077453083
2650,-0.0031740775
2651,0.0082942005
2652,-0.00472421
2653,-0.001950246
2654,-0.010744318
2655,-0.0030802388
2656,-0.005479703
2657,-0.007918407
2658,0.0052245925
2659,0.010311074
2660,0.004282019
2661,-0.017834453
2662,0.0010725004
2663,-0.0005323551
2664,-0.0015286341
2665,-0.010375041
2666,0.014352005
2667,0.014311491
2668,-0.01800077
2669,-0.0062935376
2670,-0.0068328944
2671,0.016214047
2672,-0.011019644
2673,-0.0023527301
2674,0.0042935717
2675,-0.0012367703
2676,-0.009625096
2677,-0.012387683
2678,0.0039130966
2679,0.008262975
2680,0.008465123
2681,-0.0007733726
2682,-0.001545266
2683,0.0018319912
2684,-0.00087192585
2685,-0.0024062174
2686,-0.003105805
2687,0.014789088
2688,-0.013424171
2689,0.009331643
2690,0.000605272
2691,-0.018745584
2692,-0.0025518388
2693,-0.006001356
2694,-0.007767365
2695,-0.0018488714
2696,-0.008469926
2697,-0.0017016266
2698,0.009261391
2699,-0.0032551792
2700,0.013256181
2701,0.006513029
2702,-0.00083843444
2703,-0.015569339
2704,0.01032618
2705,0.0049487413
2706,0.0051169884
2707,0.011581813
2708,-0.0036070417
2709,-0.004504784
2710,0.0005979568
2711,-0.0063273483
2712,0.000699104
2713,-0.009635712
2714,0.011175645
2715,0.0027138272
2716,-0.005875228
2717,-0.0077944007
2718,0.0058324425
2719,-0.006505475
2720,0.01723191
2721,-0.0038114227
2722,-0.010130714
2723,-0.004570899
2724,-0.0027563479
2725,0.0047954293
2726,-0.0051145433
2727,0.0060946993
2728,-0.0034446104
2729,-0.0010879651
2730,-0.0015510317
2731,-0.0022089907
2732,0.008119492
2733,-0.00030575058
2734,0.003424756
2735,0.004336794
2736,0.0018577116
2737,-0.0020174456
2738,-0.016953642
2739,0.00061513024
2740,0.0044330554
2741,-0.016190581
2742,-0.014886235
2743,-0.0055480646
2744,-0.0063867224
2745,-0.001530652
2746,-0.019853275
2747,-0.008888921
2748,0.0006943935
2749,0.008143843
2750,0.0011213628
2751,0.007833206
2752,-0.007967946
2753,0.018325914
2754,-0.0033142099
2755,-0.0011591407
2756,-0.0043786247
2757,0.013310091
2758,0.0050112493
2759,0.0076953904
2760,0.004437413
2761,-0.01283745
2762,0.0072664306
2763,0.013719981
2764,0.007570494
2765,-0.012356047
2766,-0.005587972
2767,-0.002122835
2768,-0.003220979
2769,0.0010157891
2770,0.008635657
2771,0.0045981104
2772,-0.0012764008
2773,0.00456043
2774,-0.0037856065
2775,0.004743538
2776,0.010345229
2777,0.0007385032
2778,0.013157116
2779,-0.004600967
2780,-0.0030856882
2781,0.006401655
2782,0.016138287
2783,0.0042259735
2784,0.0010524774
2785,0.00074669655
2786,0.007630538
2787,-0.0035189332
2788,-0.000949349
2789,-0.005993671
2790,0.015546206
2791,0.009600533
2792,-0.0051631574
2793,-0.005509811
2794,-0.002808361
2795,0.0070196483
2796,-0.010555947
2797,-1.4946436e-05
2798,0.0071614776
2799,-0.0011291017
2800,-0.013357717
2801,0.012910441
2802,4.8039044e-05
2803,0.0036843063
2804,-0.01964314
2805,-0.00095041574
2806,0.008172008
2807,0.016519792
2808,0.0023892515
2809,-0.008173928
2810,-0.0058984794
2811,0.008510294
2812,0.003693822
2813,0.0068974337
2814,-0.012941413
2815,0.0077200197
2816,-0.006863232
2817,-0.007403484
2818,-0.0031999939
2819,0.017623994
2820,-0.007097054
2821,-0.008138025
2822,-0.010142746
2823,0.000911139
2824,-0.0023378285
2825,-0.0033233531
2826,-0.0075184787
2827,-0.0019029576
2828,-0.012493369
2829,0.0062403535
2830,-0.006029698
2831,-0.0042161876
2832,-0.00073758984
2833,-0.006763314
2834,-0.008159125
2835,0.017050749
2836,0.00529468
2837,-0.007335987
2838,-0.0096558025
2839,0.00078748266
2840,-0.007207385
2841,-0.007629666
2842,-0.007838969
2843,0.0069643934
2844,0.006201972
2845,0.0072220806
2846,-0.01824249
2847,0.01199497
2848,-0.003575144
2849,0.004478548
2850,-0.0045656753
2851,0.017806115
2852,-0.0031140319
2853,-0.00451673
2854,0.0071808216
2855,-0.008863377
2856,0.0053937603
2857,0.0005541176
2858,-0.010693059
2859,-0.00230741
2860,-0.0028718219
2861,0.007837411
2862,-0.0035783849
2863,0.0016209306
2864,0.006819503
2865,-0.015976682
2866,0.0062574265
2867,0.0037277187
2868,0.003342617
2869,-0.00028665597
2870,-0.0007416196
2871,0.0018585537
2872,-0.013877021
2873,-0.009885695
2874,0.0053024213
2875,0.005511805
2876,-0.0035916667
2877,-0.016966177
2878,-0.0071314992
2879,0.016181698
2880,-0.013412585
2881,0.019747827
2882,-0.0011812741
2883,0.006585731
2884,0.018722745
2885,-0.0027836428
2886,0.0067217476
2887,-0.0021267359
2888,-0.011967387
2889,0.007951313
2890,-0.0010076473
2891,-0.0010132468
2892,0.013082381
2893,0.0024099534
2894,0.0012797406
2895,-0.0065666432
2896,-0.011134091
2897,-0.0005104871
2898,0.0017218994
2899,0.002924731
2900,0.011783328
2901,-0.0010035837
2902,-0.00047776048
2903,0.0010791844
2904,-0.0055348272
2905,0.00046807277
2906,-0.013444226
2907,0.00068950845
2908,-0.00013254266
2909,-0.006585311
2910,0.00067418016
2911,0.0041084928
2912,0.0071262983
2913,-0.008116897
2914,0.002324825
2915,0.010222822
2916,-0.0067228824
2917,-0.016396744
2918,0.014306962
2919,0.005934863
2920,0.011060973
2921,0.0039654193
2922,-0.009404935
2923,0.003030535
2924,0.014614708
2925,0.0042229192
2926,-0.0063069756
2927,-0.0022867946
2928,0.01840968
2929,-0.0034542035
2930,0.0081671085
2931,0.0056360173
2932,0.00014235011
2933,0.009837992
2934,0.003891397
2935,-0.005792908
2936,-4.1515475e-05
2937,0.011631239
2938,-0.0083554955
2939,-0.00050815596
2940,-0.009233812
2941,-0.0072517954
2942,-0.012196519
2943,0.0016274259
2944,0.014729637
2945,-0.006791527
2946,0.0036883955
2947,-0.0069630416
2948,0.004266954
2949,-0.0020774
2950,-0.007954493
2951,-0.009555288
2952,0.0043213284
2953,-0.012534496
2954,-0.015256937
2955,-0.001677096
2956,0.0036166366
2957,0.018110791
2958,-0.00447835
2959,0.016267318
2960,-0.00930053
2961,0.006208711
2962,0.0066145156
2963,-0.016631646
2964,0.0026588864
2965,-0.006514062
2966,-0.0037104026
2967,0.0022646897
2968,0.007804146
2969,0.010143296
2970,0.006295363
2971,0.010586886
2972,-0.0034247804
2973,-0.0063920864
2974,0.002754619
2975,0.011555672
2976,0.0033750106
2977,-0.005215798
2978,0.013457705
2979,0.008506034
2980,0.0076543037
2981,-0.006757932
2982,0.008385938
2983,-0.015558075
2984,0.008791006
2985,-0.010776716
2986,0.0034923903
2987,0.0013358897
2988,0.0046671587
2989,0.0072191283
2990,-0.004717817
2991,-0.0068357512
2992,0.008195772
2993,0.017546305
2994,-0.01287719
2995,0.0018645199
2996,-0.007179479
2997,-0.0012480513
2998,0.006794963
2999,0.0041758986
3000,-0.0064121536
3001,-0.019812755
3002,-0.0023907851
3003,-0.007920407
3004,0.0094418
3005,-0.0053299568
3006,-0.008688517
3007,0.00045123816
3008,0.011697472
3009,0.0016285805
3010,0.0004677305
3011,0.005024033
3012,0.0015133473
3013,0.006770863
3014,-0.0028968323
3015,0.005209631
3016,-0.01521335
3017,0.00016499656
3018,-0.0032082023
3019,-0.0030309788
3020,0.00018710487
3021,-0.0017504101
3022,-0.010180985
3023,-0.0020213544
3024,0.003828681
3025,0.013011964
3026,-0.0014523885
3027,0.0023973456
3028,0.0142483255
3029,0.0016934304
3030,-0.0038670592
3031,0.0160284
3032,0.009187951
3033,0.007834568
3034,0.00045271515
3035,-0.0016230448
3036,0.011465965
3037,-0.006937341
3038,0.0032940544
3039,-0.0075016264
3040,0.0027193527
3041,0.011915627
3042,-0.01611599
3043,0.0074187
3044,-0.015323023
3045,-0.00027092663
3046,-0.014222801
3047,-0.004609675
3048,0.003422896
3049,0.015635388
3050,-0.0015897668
3051,-0.006542769
3052,-0.006043528
3053,0.0054752356
3054,-0.013827719
3055,-0.009858252
3056,-0.00037626736
3057,0.0033908181
3058,-0.0051840357
3059,-0.006038169
3060,0.018950496
3061,0.0024171954
3062,0.019789796
3063,-0.007063428
3064,0.005282452
3065,0.0035079797
3066,-0.005681413
3067,0.0027106227
3068,-0.004868278
3069,0.016320083
3070,-0.013752908
3071,-0.01130043
3072,-0.013339755
3073,-0.0035908297
3074,0.009577169
3075,0.007011239
3076,0.0080277845
3077,0.00420302
3078,-0.010132048
3079,0.0016241559
3080,0.0040433137
3081,0.011493329
3082,-0.0059922133
3083,0.01653603
3084,-0.013030359
3085,-6.6989705e-05
3086,-0.0027715566
3087,0.0017269918
3088,0.011731305
3089,-0.0065646595
3090,-0.00079249265
3091,-0.004860898
3092,-0.004516749
3093,0.0035668972
3094,0.013538244
3095,-0.019469352
3096,-0.0069312784
3097,0.007991844
3098,-0.00032352013
3099,-0.0038332152
3100,-0.0033336042
3101,0.009659869
3102,0.010129687
3103,-0.0037956603
3104,0.0031037482
3105,-0.0015827089
3106,-0.004037661
3107,-0.0027708015
3108,0.00708613
3109,0.0041993433
3110,-0.0031863295
3111,0.0077655385
3112,0.0019940154
3113,-0.009359732
3114,0.0029362964
3115,0.008217057
3116,0.019670349
3117,-0.010566739
3118,-0.00039408234
3119,0.016479826
3120,-0.0039220112
3121,0.014643394
3122,0.010530261
3123,-0.012819981
3124,-0.00090906816
3125,0.007608841
3126,0.0006961331
3127,0.008610591
3128,0.009953317
3129,0.011711356
3130,-0.011143861
3131,0.0039747274
3132,-0.00046326517
3133,-0.010721249
3134,-0.0051707537
3135,0.0005005871
3136,-0.011874628
3137,-0.00044885217
3138,-0.0022948806
3139,0.0033379945
3140,0.0124627855
3141,0.0041510006
3142,0.0066508185
3143,0.0024796752
3144,-0.0058990456
3145,0.0011631533
3146,0.0017062471
3147,-0.0136342775
3148,-0.0009070629
3149,-0.010441304
3150,-0.007589878
3151,0.010824936
3152,-0.015173067
3153,-0.009450672
3154,0.01238401
3155,0.0069732303
3156,-0.015062941
3157,0.0056857043
3158,-0.004822208
3159,-0.00031008731
3160,-0.0067993216
3161,0.0005006319
3162,0.00056914083
3163,0.0029347832
3164,-0.008013511
3165,0.0056750067
3166,0.0030528058
3167,-0.01122582
3168,-0.012111617
3169,0.003173251
3170,0.0010898687
3171,-0.0006231732
3172,-0.0057582916
3173,-0.0016805052
3174,0.008120842
3175,-0.0012125581
3176,-0.0084470725
3177,-0.015746955
3178,-0.0038442751
3179,0.013036839
3180,0.0042806007
3181,-0.006314479
3182,0.008433482
3183,0.0010249496
3184,-0.0039789598
3185,-0.0007941313
3186,0.0039579915
3187,0.010340621
3188,-0.003606978
3189,-0.016549416
3190,0.008502318
3191,-0.010202506
3192,-0.00016791758
3193,-0.0071729026
3194,0.005184809
3195,-0.006715556
3196,-0.013079107
3197,-0.0049881735
3198,0.0023723408
3199,-0.0014628718
3200,-0.0138120465
3201,-0.0066560297
3202,-0.005631886
3203,-0.0060787974
3204,0.0143145975
3205,-0.0059881867
3206,0.017225953
3207,0.0022860141
3208,0.005901263
3209,0.00041920974
3210,-0.01448046
3211,-0.013024703
3212,-0.01852293
3213,0.0005955812
3214,-0.00912995
3215,0.01611619
3216,-0.018649701
3217,0.012502207
3218,-0.0063413195
3219,0.004705222
3220,-0.003512121
3221,-0.015142796
3222,-0.014799383
3223,-0.0013763086
3224,0.007026131
3225,-0.007185305
3226,-0.0025698554
3227,0.0022448816
3228,0.0035244056
3229,-0.0019846805
3230,0.011440918
3231,-0.0054584243
3232,0.0013065034
3233,0.0077308933
3234,0.008827428
3235,-0.014661866
3236,-0.010757274
3237,-9.308665e-05
3238,-0.0005062198
3239,0.006074084
3240,0.013797734
3241,-0.013626295
3242,-0.0059087756
3243,0.004522256
3244,-0.0007912227
3245,-0.0035198003
3246,0.008006915
3247,0.004971387
3248,-0.006385244
3249,-0.0069307187
3250,-0.008174527
3251,0.012132339
3252,-0.012427578
3253,0.0050906003
3254,0.009994085
3255,0.0064963805
3256,0.013408418
3257,-0.0104128355
3258,0.005401076
3259,-0.0055335187
3260,-0.008628875
3261,0.01663558
3262,-0.007242284
3263,0.0025236707
3264,0.005630408
3265,0.0065721027
3266,-0.0029760024
3267,0.005421481
3268,0.016493632
3269,0.013838274
3270,0.009542641
3271,-0.007234847
3272,0.016367473
3273,-0.0028951173
3274,0.007463571
3275,0.0021169442
3276,-0.0048217834
3277,-0.0023228559
3278,-0.00011427366
3279,-0.009283003
3280,-0.00041913675
3281,-0.0011733562
3282,0.0029477512
3283,-0.0089792255
3284,0.011770053
3285,-0.016378475
3286,-0.0014681736
3287,0.008417355
3288,0.007863863
3289,-0.0021118238
3290,0.0028164121
3291,0.0033735551
3292,0.008607549
3293,-0.004069189
3294,-0.017099507
3295,0.0027851546
3296,0.005168422
3297,-0.0029168248
3298,0.00059046864
3299,0.001775534
3300,-0.0036805687
3301,0.010674781
3302,-0.0035470556
3303,-0.014047148
3304,-0.012847947
3305,0.0025671013
3306,-0.0012408
3307,-0.011734401
3308,0.010671994
3309,0.004333164
3310,0.009676597
3311,0.003963827
3312,-0.007962017
3313,0.008877567
3314,-0.012540647
3315,-0.0080097355
3316,-0.0112203695
3317,-0.0007467693
3318,0.0021582032
3319,0.0063304114
3320,-0.004248389
3321,0.004724399
3322,0.011210302
3323,-0.011464754
3324,0.004498981
3325,0.0012786224
3326,0.0041040434
3327,0.011027841
3328,-0.012990808
3329,0.0017482667
3330,0.003894172
3331,-0.0076556
3332,-0.0034310287
3333,0.009553555
3334,-0.009648145
3335,0.003355763
3336,0.014326017
3337,-0.0050037783
3338,-0.018123265
3339,-0.0115288915
3340,-0.008951823
3341,0.012628338
3342,0.014395664
3343,-0.007847241
3344,-0.0007463157
3345,-0.004096444
3346,-0.00092526834
3347,0.0019926913
3348,-0.0030393945
3349,0.01575218
3350,-0.0058406214
3351,-0.006496114
3352,0.011494415
3353,0.01706105
3354,-0.0056342995
3355,-0.008890471
3356,-0.009341417
3357,0.009158952
3358,0.004276835
3359,-0.014091029
3360,0.0004878864
3361,0.00034876142
3362,-0.011851511
3363,0.00399695
3364,-0.01453322
3365,-0.005907868
3366,0.00013396444
3367,-0.0015346333
3368,0.002790095
3369,0.004004938
3370,-0.0021493253
3371,0.0056214035
3372,-0.0033327173
3373,-0.01139686
3374,-0.00091861567
3375,0.0011735988
3376,-0.003092733
3377,-0.0012603618
3378,0.0008058741
3379,0.016054906
3380,0.016049467
3381,-0.0023308685
3382,0.0002175622
3383,-1.2857266e-05
3384,0.005201196
3385,-8.248785e-05
3386,-0.0014709657
3387,-0.0049361195
3388,0.0077291024
3389,-0.002939528
3390,-0.011877878
3391,-0.008566458
3392,-0.002185899
3393,-0.011448686
3394,0.011798421
3395,0.0012466393
3396,-0.0041373866
3397,0.0011493852
3398,0.0066000614
3399,0.00049054954
3400,-0.006462411
3401,0.008335628
3402,0.0020195686
3403,-0.005798221
3404,0.0045246184
3405,0.0040112133
3406,-0.004204972
3407,0.00668096
3408,-0.004988867
3409,0.004822732
3410,-0.004163993
3411,-0.004110132
3412,-0.006748325
3413,-0.006111069
3414,-0.01905752
3415,-0.006624414
3416,-0.016563056
3417,-0.016127456
3418,-0.0127326185
3419,-0.0034048622
3420,0.0003158792
3421,0.004371066
3422,-0.001186086
3423,0.009176675
3424,-0.0077351555
3425,-0.0016936788
3426,0.0019001613
3427,-0.004182878
3428,-0.011831455
3429,-0.006719468
3430,0.0102358125
3431,0.004828219
3432,0.0054948954
3433,0.01315837
3434,-0.013930058
3435,-0.00048300717
3436,0.0046921107
3437,0.012331256
3438,0.0046852273
3439,-0.003889946
3440,0.0012038145
3441,-0.003212065
3442,-0.007404925
3443,0.0056974655
3444,0.0012039057
3445,-0.005155789
3446,0.0146034835
3447,-0.0031446037
3448,-0.0018252152
3449,-0.00029010026
3450,-0.0046634106
3451,0.011059076
3452,0.0114698345
3453,0.014447703
3454,-0.0053093145
3455,3.1140282e-06
3456,-0.0115923155
3457,-0.007662917
3458,0.0143621545
3459,0.00480693
3460,-0.004583099
3461,0.012308533
3462,0.0077734482
3463,0.010503741
3464,0.0067515085
3465,-0.008296654
3466,-0.004212568
3467,0.010538736
3468,0.01001144
3469,0.008367189
3470,-0.0020705112
3471,-0.010927805
3472,0.017116562
3473,0.0033601758
3474,-0.0055848137
3475,-0.0023171576
3476,0.008350148
3477,0.00626744
3478,0.004313603
3479,-0.008625923
3480,-0.008188847
3481,0.0068594273
3482,-0.0018710411
3483,0.010096754
3484,0.008749748
3485,-0.010016301
3486,-0.0059528
3487,-0.0025912481
3488,0.0169362
3489,-0.014441212
3490,0.010388525
3491,-0.016182948
3492,0.015888102
3493,0.0050784373
3494,0.007120774
3495,0.0043887673
3496,0.01026327
3497,-0.0042973175
3498,0.0013758667
3499,-0.01520475
3500,-0.00094238465
3501,0.0024994838
3502,0.011967852
3503,-2.2894472e-05
3504,0.0073752324
3505,-0.004926509
3506,-0.0077124923
3507,-0.0031411608
3508,0.0023530114
3509,0.008064979
3510,0.006568243
3511,-0.0061343214
3512,-0.01177667
3513,-0.015140193
3514,-0.005427615
3515,-0.01147544
3516,-0.0010406156
3517,-0.0122975875
3518,0.00815176
3519,-0.011880417
3520,0.0048894775
3521,0.008890009
3522,-0.003877639
3523,0.008736017
3524,0.0014105762
3525,0.014315006
3526,0.0073534832
3527,-0.004458128
3528,0.012614741
3529,-0.0014010521
3530,-0.0103817815
3531,-0.0024226806
3532,0.008977748
3533,0.015844205
3534,0.010298027
3535,0.010368238
3536,-0.01043786
3537,-0.0030331549
3538,0.011419272
3539,0.001339754
3540,-0.00662151
3541,0.00443643
3542,-0.009417512
3543,-0.0022142965
3544,0.004830587
3545,0.0013141021
3546,0.0121770585
3547,0.008415132
3548,0.005003265
3549,0.012111164
3550,-0.0050657177
3551,0.0077087637
3552,0.0019521731
3553,-0.0053186845
3554,0.0015130679
3555,-0.008465005
3556,-0.0029555608
3557,-0.005010907
3558,-0.006669158
3559,0.007651236
3560,0.011983937
3561,-0.0005317814
3562,-0.0063974634
3563,-0.017485585
3564,0.0023692646
3565,0.0032452722
3566,-0.00042068513
3567,0.0055994275
3568,0.011378468
3569,-0.017090559
3570,0.011900946
3571,0.013764851
3572,-0.010253468
3573,-0.019699158
3574,0.012721599
3575,0.0015267152
3576,-0.0041131945
3577,-0.003816786
3578,0.0010015644
3579,-0.0053946385
3580,0.0045801667
3581,-0.0012838235
3582,-0.0011062078
3583,-0.01297004
3584,-0.006182379
3585,-0.0012044549
3586,0.008945778
3587,0.003452014
3588,-0.009647062
3589,0.006902419
3590,-0.001431943
3591,0.012575935
3592,0.0070032296
3593,0.004680281
3594,-0.018221727
3595,0.010890188
3596,0.00487025
3597,0.01033009
3598,-0.006185391
3599,0.002729127
3600,0.006382043
3601,0.008933968
3602,-0.0040414142
3603,-0.011781024
3604,0.013909087
3605,0.010404771
3606,-0.0016413374
3607,0.011109429
3608,0.012536741
3609,-0.002398809
3610,0.001824615
3611,-0.0044030407
3612,0.007977868
3613,0.0146694
3614,0.004950452
3615,-0.008056909
3616,-0.009107681
3617,0.006109178
3618,0.018132614
3619,0.0014823511
3620,0.0018750115
3621,0.011665597
3622,-0.004597821
3623,-0.010303894
3624,0.01477652
3625,-0.010327081
3626,-0.00042138837
3627,-0.01697482
3628,0.009395467
3629,-0.00068787934
3630,-0.0048395195
3631,0.005641844
3632,0.00047331463
3633,0.007147988
3634,-0.017901164
3635,-0.009925142
3636,0.001917493
3637,0.0045729885
3638,0.0070300293
3639,0.012612211
3640,-0.011630788
3641,-0.009913858
3642,0.0047136736
3643,0.0017376256
3644,-0.0066332724
3645,-0.0003304829
3646,-0.009767483
3647,-0.010081446
3648,-0.007080358
3649,0.0022244554
3650,0.003248265
3651,-0.013215484
3652,0.001954091
3653,-0.006282867
3654,-0.004050243
3655,-7.506297e-05
3656,0.016521566
3657,0.0008756982
3658,-0.0050913724
3659,-0.0061397445
3660,0.011743469
3661,-0.003728203
3662,0.0009865557
3663,-0.0051563494
3664,-0.005008426
3665,0.009657227
3666,0.006909929
3667,0.015130561
3668,0.0056682965
3669,0.004697775
3670,0.0075259
3671,0.004042434
3672,0.007033232
3673,-0.0022266393
3674,0.0038484477
3675,0.0014446129
3676,0.003893761
3677,0.013280888
3678,0.0041479194
3679,-0.007898721
3680,0.016459288
3681,-0.014347078
3682,0.0072851297
3683,-0.002447348
3684,0.009937717
3685,0.0058910856
3686,-0.003195573
3687,-0.0011776288
3688,0.0067515275
3689,-0.0034306936
3690,-0.011745186
3691,-0.011511289
3692,-0.0075262683
3693,-0.010857171
3694,-0.016890576
3695,0.0075789313
3696,-0.01367705
3697,0.013036097
3698,-0.00020071167
3699,-0.0017430907
3700,-0.0042076316
3701,-0.006297512
3702,0.010263841
3703,0.0023969884
3704,-0.0050330632
3705,0.016280616
3706,0.013170671
3707,-0.0027697461
3708,0.0014726153
3709,0.0023628084
3710,0.012288655
3711,0.011357175
3712,-0.0056783687
3713,0.0056889793
3714,0.0070312023
3715,0.009615895
3716,-0.0091660945
3717,0.002894823
3718,0.0016825069
3719,0.0066591636
3720,0.006352972
3721,-0.0005489693
3722,5.8849197e-05
3723,0.0051216055
3724,-0.0005893783
3725,0.0017799222
3726,-0.0074346517
3727,0.0073218313
3728,-0.0075553064
3729,0.001963051
3730,0.006181632
3731,0.0036019501
3732,0.0029941062
3733,-0.005661969
3734,-0.00081429293
3735,0.004769805
3736,-0.006707699
3737,0.0039591095
3738,0.0023806782
3739,-0.012797998
3740,-0.010213203
3741,-0.005845356
3742,0.00084082637
3743,0.0011537375
3744,0.00078812346
3745,-0.0040140054
3746,0.006764374
3747,0.018080067
3748,0.0060762
3749,0.0031431892
3750,0.015824564
3751,0.011803581
3752,-0.0024819567
3753,-0.0005811374
3754,-0.013677744
3755,-0.0016260443
3756,0.0017708486
3757,0.0060859136
3758,-0.0065164557
3759,-0.0074396697
3760,0.0136422925
3761,0.007834247
3762,0.00558744
3763,0.01643716
3764,0.0075732116
3765,-0.0019688841
3766,-0.017810598
3767,0.0025504928
3768,0.0054888176
3769,-0.011252968
3770,-0.015224254
3771,-0.0069778804
3772,-0.0001012837
3773,-0.010527824
3774,0.01791398
3775,-0.014738915
3776,0.0033159223
3777,0.00021441281
3778,-0.0074979262
3779,0.011263758
3780,0.0054993653
3781,-0.0069012907
3782,-0.00062074536
3783,-0.017351476
3784,-0.0030610487
3785,-0.001799204
3786,0.005428302
3787,0.011812476
3788,-0.006018914
3789,-0.003394918
3790,-0.0038678253
3791,-0.00038834108
3792,-0.013541707
3793,0.015661558
3794,-0.009786696
3795,-0.011774182
3796,-0.008430212
3797,9.381493e-05
3798,0.003577999
3799,-0.0035514582
3800,-0.0035798156
3801,0.0037520502
3802,-0.0045658415
3803,-0.00087523065
3804,0.0039421646
3805,0.012456623
3806,-0.010826081
3807,-0.0008691848
3808,-0.017471503
3809,-0.00754535
3810,-0.019106297
3811,0.0068351817
3812,0.010531057
3813,0.004941589
3814,-0.0025356743
3815,-0.00037993837
3816,0.01437309
3817,0.004044629
3818,0.004850873
3819,0.005522414
3820,0.004923103
3821,0.009378269
3822,-0.0037088837
3823,0.0006154541
3824,0.002352017
3825,-0.0039259777
3826,0.0028219558
3827,0.004945377
3828,-0.003286668
3829,0.0024252937
3830,0.0050291154
3831,-0.0101006925
3832,0.011821221
3833,0.008253011
3834,-0.0026493988
3835,-0.0071183643
3836,-0.0020154545
3837,0.002086856
3838,9.617543e-06
3839,0.018008793
3840,0.0022518516
3841,-0.0027990227
3842,0.0032265054
3843,0.008925918
3844,0.012750273
3845,0.016421137
3846,-0.017911782
3847,0.0055178576
3848,0.0034202198
3849,-0.0015370463
3850,-0.0050994568
3851,0.009027692
3852,-0.0020593419
3853,0.018249966
3854,0.004389807
3855,0.0012787792
3856,-0.0045270654
3857,0.005448567
3858,0.0020755948
3859,0.0101395985
3860,0.005307636
3861,-0.0049662036
3862,-0.007212435
3863,-0.017545579
3864,-0.0019034675
3865,0.00510572
3866,0.000428927
3867,-0.015368088
3868,0.0091408035
3869,-0.0039700847
3870,0.002523816
3871,-0.00807003
3872,0.0093585355
3873,-0.012767385
3874,0.009521819
3875,0.008353255
3876,-0.00011931674
3877,0.006633106
3878,0.004269168
3879,0.0004834726
3880,0.005770608
3881,-0.0011170702
3882,0.006461365
3883,0.015483657
3884,-0.014693044
3885,-0.0057822377
3886,0.0017382219
3887,-0.0075128656
3888,0.0018679079
3889,0.004841419
3890,-0.0063270275
3891,0.013240666
3892,-0.0038395566
3893,0.007250372
3894,0.010286536
3895,0.010346577
3896,-0.007491214
3897,0.0064014248
3898,-0.01683261
3899,-0.005425703
3900,-0.002042809
3901,-0.0009089477
3902,-0.008363222
3903,-0.010414933
3904,0.011205997
3905,0.013334057
3906,0.0013933162
3907,-0.004276938
3908,-0.019066887
3909,0.019085292
3910,0.015328199
3911,0.0070962827
3912,-0.012332129
3913,-0.0038286792
3914,-0.0008705679
3915,0.0023312438
3916,0.013289363
3917,0.0009475816
3918,0.010202731
3919,-0.0009101101
3920,0.0028033385
3921,-0.0045712204
3922,-0.014593868
3923,0.012835062
3924,0.007358511
3925,0.0017501585
3926,0.017271752
3927,-0.00012765307
3928,0.0006890514
3929,-0.0027097135
3930,0.009037601
3931,-0.0022639413
3932,0.0041304184
3933,0.0023074455
3934,-0.012357182
3935,-0.006413876
3936,0.0074443645
3937,0.017751392
3938,0.0030565907
3939,0.004007439
3940,-0.014745466
3941,-0.0061758542
3942,-0.005554295
3943,-0.0025271126
3944,-0.010588637
3945,-0.004161439
3946,0.0006474614
3947,0.00083130127
3948,-0.0047822087
3949,0.004220149
3950,0.009644116
3951,-0.006917749
3952,0.004561322
3953,-0.013310071
3954,0.0025112575
3955,0.0016041643
3956,-0.0025299524
3957,-0.0041705836
3958,-0.012619172
3959,-0.011086656
3960,-0.008392765
3961,0.008590147
3962,-0.0033998517
3963,-0.0083365
3964,-0.012951703
3965,-0.008315402
3966,-0.00070780487
3967,-0.013602012
3968,-0.007665
3969,-0.0072708405
3970,-0.00584899
3971,0.0016977894
3972,-0.0074513303
3973,0.004169247
3974,-0.01027969
3975,0.0036310134
3976,0.0047816075
3977,0.017961893
3978,-0.0007200494
3979,0.016297262
3980,0.0111483205
3981,-0.0031724775
3982,-0.013863164
3983,-0.009489466
3984,0.011912215
3985,-0.006829132
3986,-0.002932983
3987,0.012100582
3988,-0.0066939085
3989,0.0055785016
3990,0.009815191
3991,-0.00047905731
3992,0.010780794
3993,-0.014207543
3994,0.00015451535
3995,0.0040447125
3996,0.008005331
3997,-0.009274559
3998,-0.00044081014
3999,0.0075572263
4000,-0.006111307
4001,-0.00053086743
4002,-0.012052392
4003,0.004846824
4004,-0.018721217
4005,0.005460942
4006,0.006771914
4007,0.005665963
4008,-0.0020269852
4009,-0.008367498
4010,-0.008840717
4011,-0.016775768
4012,-0.011732024
4013,-0.005380856
4014,-0.011146032
4015,-0.007618738
4016,0.0022214479
4017,-0.0052160025
4018,-0.0026584633
4019,-0.00017484304
4020,-0.008914296
4021,-0.012388906
4022,0.0067792814
4023,-0.018768642
4024,0.00028911253
4025,0.017401835
4026,0.010299263
4027,-0.019440025
4028,0.0020188158
4029,-0.00014213168
4030,0.0017317084
4031,0.014189807
4032,0.011021076
4033,0.0036341774
4034,0.017006634
4035,0.0044838907
4036,0.014324722
4037,0.0020727243
4038,0.0044026
4039,-0.009263956
4040,0.01893305
4041,-0.001811779
4042,0.004945474
4043,-0.0026242535
4044,-0.015915815
4045,-0.009137129
4046,-0.007829417
4047,-0.0035666318
4048,-0.0117106885
4049,-0.0044608233
4050,-0.004345782
4051,0.009072655
4052,-0.0033190772
4053,0.0010637745
4054,0.014227263
4055,0.0055176592
4056,-0.003584354
4057,-0.010519768
4058,-0.005838473
4059,-0.01338209
4060,-0.0020050185
4061,-0.0023192524
4062,-0.005223329
4063,-0.005617978
4064,0.012817992
4065,0.0027460768
4066,0.006678082
4067,-0.00020445931
4068,-0.0059470297
4069,0.0012265504
4070,0.0082432
4071,0.0042615226
4072,0.013452366
4073,0.010395549
4074,0.009372143
4075,0.0012728542
4076,-0.004439506
4077,-0.011974944
4078,-0.01380702
4079,0.019100802
4080,-0.01617647
4081,-0.015465508
4082,0.003979684
4083,0.018363189
4084,0.011124862
4085,-0.0018513767
4086,-0.0077524614
4087,-0.0024168077
4088,0.00045760235
4089,-0.018049372
4090,0.0021338968
4091,0.006637701
4092,-0.004137614
4093,-0.0022532183
4094,0.006566253
4095,-0.01287595
