Sno,Weight
0,0.0027123494
1,-0.00036181218
2,-0.006482357
3,0.0056381826
4,-0.0073392703
5,-0.0032752585
6,-0.019954218
7,-0.019000843
8,-0.0019527859
9,-0.011697766
10,-0.0027257986
11,-0.0053850184
12,0.008554517
13,0.009914397
14,0.01106405
15,-0.00029488595
16,0.0033681665
17,0.0014463455
18,-0.0006586614
19,0.0010127292
20,0.0056915577
21,0.0011608638
22,0.0040472737
23,0.017011698
24,-0.0005997232
25,-0.0016091549
26,0.009622982
27,0.01045849
28,0.0015272269
29,-0.008474126
30,-0.006350101
31,-0.001660709
32,-0.0011696607
33,-0.01001212
34,0.0062657483
35,0.0085997395
36,0.0063811643
37,-0.010164546
38,-0.010222044
39,-0.0070933537
40,0.0010331179
41,0.004036778
42,0.0033430208
43,-0.005091392
44,0.00066473964
45,-0.005960774
46,0.0016361031
47,-0.010582975
48,-0.007178713
49,-0.0091393255
50,0.0015707066
51,-0.0037530335
52,-0.0030170383
53,0.012710982
54,-0.0054007573
55,-0.003498106
56,-0.0015212477
57,-0.0052862787
58,0.004685477
59,-0.0061238906
60,-0.0053418004
61,0.0015206813
62,0.003581839
63,0.00045965274
64,-0.0057830564
65,0.0081105
66,0.004435717
67,-0.0008779841
68,-0.0011290992
69,-0.002645984
70,-0.0050350055
71,0.0033188225
72,0.006492832
73,0.005830076
74,-0.0019409648
75,0.0043698614
76,0.012206819
77,-0.0027258033
78,-0.0035772203
79,0.006416493
80,0.008984828
81,0.003647479
82,-0.007563801
83,0.004796814
84,-0.018411515
85,0.0075688357
86,0.011273548
87,-0.0078492
88,0.012057008
89,0.008073299
90,0.005691678
91,0.012654338
92,0.0015678721
93,0.009047723
94,-0.01227804
95,-0.0101827765
96,0.011069149
97,-0.00039264027
98,-0.008258388
99,-0.0037167287
100,-0.0036148415
101,0.0102554895
102,0.000553275
103,0.007169471
104,0.0066716606
105,0.00070815184
106,0.007148043
107,-0.0011635596
108,-0.003941059
109,0.010867023
110,-0.002665541
111,0.015611337
112,-0.005731302
113,0.016154248
114,-0.0061493893
115,0.008284889
116,0.012057416
117,-0.00415341
118,0.018848628
119,-0.005988154
120,0.00899212
121,-0.002275699
122,-0.0059527643
123,0.0028650444
124,-0.008995252
125,0.0013545
126,0.008392715
127,-0.009062737
128,-0.00930143
129,0.008185647
130,-0.0006447653
131,-0.0013412923
132,0.002045995
133,-0.0027827027
134,0.013923778
135,0.0032054256
136,0.0026603704
137,-0.009783222
138,-0.0032075779
139,-0.019215979
140,-0.0042269067
141,0.0038179823
142,-0.0019746737
143,0.0025726028
144,0.0052264147
145,-0.019857652
146,-0.005151153
147,-0.0035911188
148,0.0013539045
149,-0.011246079
150,0.017667789
151,0.0061674467
152,0.019278264
153,0.005591302
154,-0.018503305
155,0.0022738136
156,0.0075341784
157,-0.003192272
158,0.0005467565
159,0.0041055605
160,0.0011483344
161,-0.0033586377
162,0.0029718368
163,0.0051915077
164,0.00062569557
165,0.00028911105
166,0.0044722394
167,0.01188625
168,0.01698078
169,0.010003497
170,0.016998144
171,-0.0012830484
172,0.0027365203
173,-0.0044285306
174,-0.0066504916
175,0.005711001
176,-0.0022474888
177,-0.0015799418
178,-0.015899835
179,-0.0026895518
180,0.016165473
181,0.006356436
182,-0.0049799923
183,0.009087285
184,-0.011782317
185,0.0030941244
186,0.006529101
187,-0.019584
188,-0.019763099
189,-0.008329111
190,0.002305586
191,0.0048945886
192,-0.016474416
193,0.009226623
194,-0.0021749474
195,-0.014128312
196,0.014288385
197,0.0074031125
198,0.0011076111
199,-0.0023393973
200,0.0058604996
201,-0.009405343
202,0.018430041
203,-0.0018416325
204,-0.0069299885
205,0.014397366
206,0.018238703
207,-0.0027259279
208,0.0126145575
209,0.0075494084
210,0.007556555
211,0.016867237
212,0.014731352
213,0.0073589343
214,-0.013659219
215,0.003994785
216,0.015955858
217,-0.0013083079
218,0.0021841107
219,-0.0011506333
220,0.0039884
221,-0.001171375
222,0.002173941
223,-0.0077959276
224,0.0068848142
225,0.0011916724
226,0.015867326
227,0.0073431814
228,0.0044311206
229,0.003759892
230,0.01533018
231,-0.0034096611
232,-0.017785842
233,-0.015595577
234,0.0014772612
235,0.005486692
236,-0.00026812276
237,0.0031077852
238,-0.016158968
239,0.0010584038
240,-0.011015447
241,-0.0031099839
242,0.00114879
243,0.0011780591
244,-0.0018667224
245,0.0010092087
246,0.0038004487
247,0.0041412087
248,0.0033305732
249,-0.009285394
250,0.0037520714
251,-0.0072765774
252,-0.019612921
253,-0.0022629295
254,-0.008679449
255,0.0004776978
256,0.009250317
257,0.009029483
258,0.0060918564
259,-0.003505411
260,-0.0024267773
261,0.010220817
262,-0.0070788204
263,0.005797717
264,-0.0078076134
265,0.0077387597
266,-0.014857463
267,-0.013856148
268,0.0013575562
269,-0.00028173832
270,0.009613352
271,0.0026539993
272,0.012601082
273,-0.0018041264
274,0.003765313
275,0.0065274104
276,0.008362327
277,-0.005368915
278,0.0020136223
279,-0.011293418
280,0.0053162514
281,0.0030426492
282,-0.0038005235
283,-0.0009062582
284,-0.0037291986
285,-0.0116525395
286,0.00011325234
287,-0.002808554
288,-0.005934904
289,0.007853506
290,-0.013200852
291,0.00804859
292,0.0041642254
293,0.0037388592
294,-0.00032995763
295,0.011971689
296,0.009084937
297,-0.006679744
298,-0.000452937
299,-0.0054154694
300,-0.0007280589
301,0.0143527305
302,-0.0029309585
303,0.007638461
304,0.000849179
305,-0.011854371
306,-0.007924738
307,0.008321606
308,0.009641407
309,-0.0009176498
310,-0.0014612302
311,0.0015782535
312,0.0018969945
313,0.011120743
314,-0.006853307
315,0.016422866
316,-2.2689494e-05
317,-0.005748645
318,0.018962579
319,-0.007581606
320,-0.010775756
321,-0.009535876
322,-0.001782831
323,-0.010466728
324,0.013108911
325,-0.0177451
326,0.015568743
327,-0.0040161884
328,-0.008603809
329,-0.013154768
330,0.0033225592
331,-0.003471065
332,0.0031357144
333,0.0077060405
334,-0.00028230992
335,-0.010767816
336,-0.013945762
337,0.0036678698
338,-0.015623174
339,-0.006762156
340,-0.0049845204
341,-0.005073244
342,0.0133947935
343,0.0043703634
344,0.0054593603
345,0.0075262957
346,-0.012990215
347,0.0035773108
348,0.0018785716
349,0.00091954187
350,-0.0041083996
351,-0.014990055
352,0.0069874157
353,0.0035489716
354,-0.0024356921
355,-0.011368049
356,-0.004920289
357,-0.007141319
358,-0.011171665
359,0.011522074
360,-0.006611016
361,-0.0069179963
362,0.006307528
363,-0.012602712
364,-0.009564468
365,0.013576344
366,-0.0002628784
367,0.017446205
368,-0.006279376
369,0.0075072926
370,0.017606564
371,-0.013941415
372,-0.010654947
373,-0.005426744
374,-0.0049456237
375,-0.006034186
376,-0.007334509
377,-0.00089973793
378,-0.00850337
379,0.001077101
380,-0.00012914844
381,0.012997016
382,-0.0048103645
383,0.00071440416
384,-0.01115352
385,0.010101043
386,-0.0043223505
387,-0.012867346
388,0.014212282
389,0.009068169
390,0.0033144678
391,0.0065093916
392,-0.0012601148
393,-0.0002133737
394,-0.01656441
395,-0.008682042
396,-0.0032766343
397,-0.003877985
398,-0.0024423178
399,-0.0035287528
400,0.011560202
401,-0.0016995721
402,0.01840483
403,0.019101338
404,-0.004802339
405,0.012882761
406,0.010865254
407,0.0005662167
408,-0.011039819
409,-0.0063932096
410,0.008137372
411,-0.001976583
412,-0.0019550587
413,0.0104123065
414,-0.004376361
415,0.008425026
416,0.0056260014
417,0.0038356418
418,0.01634231
419,-0.012809929
420,0.015928831
421,0.002948318
422,-0.0002410883
423,-0.0076477556
424,0.015307793
425,0.015532129
426,-0.0046254783
427,0.017242828
428,0.0025237412
429,0.009154893
430,0.0053544915
431,-0.00845799
432,-0.0026183731
433,0.0075845704
434,-0.0033177102
435,-0.0024945533
436,-0.011958109
437,0.010886309
438,0.007094783
439,-0.00963123
440,0.0017315882
441,-0.003947719
442,0.0052982653
443,0.0045020008
444,0.0059701093
445,0.005076782
446,0.01951532
447,-0.013429935
448,0.004518866
449,-0.00874001
450,-0.0073326086
451,-0.0034793844
452,0.002747051
453,0.009992273
454,-0.0034821376
455,0.0075326464
456,0.0068931496
457,0.007727684
458,0.013455565
459,0.008661112
460,-0.008033352
461,0.017141672
462,0.007882191
463,-0.015774569
464,0.00081228605
465,-0.013766074
466,-0.00086035306
467,-0.011204695
468,0.0016129068
469,-0.01464695
470,0.0035181283
471,0.010586332
472,0.0003991767
473,-0.008924808
474,-0.0043101427
475,0.011505126
476,0.007284953
477,0.014344727
478,0.008952233
479,-0.00086058315
480,0.0034519413
481,-0.014865847
482,0.008135995
483,0.013894806
484,-0.010032276
485,0.013547461
486,0.009886575
487,0.008342155
488,-0.0046318453
489,-0.007761143
490,0.002253641
491,0.0057747955
492,0.0013141059
493,0.003399306
494,0.011850602
495,0.008491229
496,-0.009629113
497,0.011355743
498,-0.0022929946
499,-0.016224021
500,0.0010751591
501,-0.00055587385
502,-0.014841035
503,0.011915603
504,-0.004450452
505,-0.0005456927
506,-0.015405731
507,-0.008158599
508,-0.0015618205
509,0.007901024
510,0.003855752
511,0.008137577
512,0.009555556
513,-0.013911251
514,-0.008455459
515,-0.0034141608
516,-0.011166284
517,-0.0031924308
518,-0.01575583
519,0.0013051116
520,-0.00902847
521,-0.004729649
522,0.0050453944
523,-0.008713478
524,0.01743193
525,-0.004025634
526,0.0008893229
527,-0.00749569
528,0.010558866
529,-0.00147507
530,-0.0026100555
531,-0.01677496
532,0.013470529
533,-0.011453883
534,0.009357258
535,0.00883031
536,0.002946349
537,0.0005258597
538,0.004215947
539,0.0032126696
540,-0.00019772467
541,0.0014704656
542,-0.014067068
543,0.007531174
544,0.004065794
545,-0.0009914695
546,-0.00061143615
547,-0.0061748493
548,-0.0021589994
549,-0.004382405
550,0.008028845
551,-0.0021341168
552,-0.00847167
553,0.0015773233
554,-0.003572341
555,0.0008959104
556,0.004077764
557,-0.009435722
558,0.003115013
559,0.009447972
560,-0.005304004
561,0.002082414
562,0.009701602
563,-0.00897295
564,0.0043547084
565,-0.015384763
566,-0.012823022
567,0.0064075347
568,0.007070687
569,0.0055397954
570,-0.00019636076
571,-0.0014104644
572,-0.0068398677
573,-0.0015848876
574,-0.013784446
575,-0.004245172
576,0.002173706
577,0.0073857442
578,-0.007781309
579,-0.008065
580,0.0049776337
581,0.011841898
582,-0.0008463714
583,-0.00763091
584,-0.006199189
585,-0.007029819
586,-0.012190947
587,-0.0075033796
588,0.0038787902
589,0.0014683418
590,-0.0030888242
591,0.019264646
592,0.0019496847
593,0.0066541918
594,0.013757337
595,0.0028291903
596,0.010572141
597,0.0030981028
598,0.00011712851
599,-0.008633715
600,0.0074564177
601,0.011599082
602,-0.0014906289
603,-0.0075157066
604,0.0009991609
605,0.0024056402
606,0.010809479
607,-0.007700861
608,0.00858784
609,0.0138576105
610,0.0019830742
611,-0.014796737
612,0.0066424916
613,0.015253322
614,-0.014597882
615,0.0040971874
616,0.015816923
617,0.006186047
618,-0.0052701654
619,0.0074181985
620,0.018795194
621,-0.013577121
622,0.011075211
623,0.008482693
624,-0.0032534958
625,-0.0032798992
626,0.009323494
627,-0.006789858
628,0.0062290244
629,-0.006615521
630,0.011681335
631,-0.0056722006
632,0.003510989
633,-0.0029101572
634,-0.0068818447
635,0.008523708
636,0.007743572
637,-0.010738704
638,0.0059761503
639,-0.0067942967
640,0.007026271
641,-0.010944816
642,0.005128115
643,0.006755374
644,-0.008437685
645,-0.0044114827
646,0.01255715
647,0.00020089264
648,-0.0012978996
649,0.0014225002
650,0.015717681
651,-0.014974043
652,-0.00082785095
653,0.009940713
654,0.0022064417
655,-0.012803246
656,-0.01729787
657,0.0025996517
658,0.0011179076
659,-0.005513741
660,-0.001359484
661,-0.016717039
662,-0.003250237
663,-0.01032544
664,-0.013345987
665,0.010667493
666,0.00234333
667,0.000115832954
668,0.0017655337
669,-0.005027472
670,0.0020640884
671,0.008966106
672,0.00083183957
673,0.0034444504
674,0.0014009536
675,-0.011717122
676,-0.008871263
677,0.013232305
678,0.0041283336
679,-0.0020511104
680,0.01138535
681,-0.00039827748
682,0.0058617275
683,0.005882672
684,-0.005831607
685,-0.0070216972
686,0.0037840535
687,0.000100714045
688,-0.0142030325
689,-0.003293708
690,0.017210482
691,-0.007258683
692,-0.0052490127
693,-0.0024994228
694,-0.007071253
695,-0.005849059
696,0.004796646
697,-0.00021117377
698,-0.0064599086
699,0.008221363
700,-0.0011860006
701,0.015657246
702,0.008243927
703,-0.0022417721
704,0.0048768497
705,-0.00828332
706,-0.0053632236
707,0.007394842
708,0.0046014017
709,-0.008775107
710,-0.0100207385
711,-0.0032059122
712,-0.008566495
713,-0.0082998155
714,0.0049394234
715,-0.0004201178
716,-0.00468311
717,-0.015666522
718,0.0019995912
719,0.009962441
720,0.002571465
721,-0.0046381834
722,0.003945282
723,-0.0049252333
724,-0.0016617741
725,-0.009082501
726,-0.015306998
727,-0.0028365012
728,-0.0020305875
729,0.0023241842
730,0.0020785625
731,-0.009396211
732,0.0046756174
733,0.002614833
734,0.005904914
735,-0.01147938
736,-0.0019863716
737,-0.019715112
738,-9.52683e-05
739,0.0034761121
740,0.0040108175
741,0.009782924
742,-0.003699833
743,-0.0031643268
744,0.00936711
745,0.010799249
746,-0.014476168
747,0.0033422166
748,-0.016261062
749,0.0021990065
750,-0.0017660189
751,-0.015230418
752,0.0033318491
753,-0.0036219386
754,-0.0049710623
755,0.008865152
756,-0.0098035885
757,0.007689521
758,-0.010863566
759,-0.0012065811
760,-0.0119057065
761,0.0033777505
762,-0.008922823
763,0.0022357334
764,-0.001171522
765,-0.0005490411
766,-0.01018027
767,0.0063893558
768,-5.61058e-05
769,0.0035241093
770,-0.013925043
771,-0.0019147532
772,0.015639555
773,-0.008838284
774,0.011414056
775,-0.009568812
776,0.018043427
777,-0.01122334
778,-0.002366267
779,-0.012540696
780,-0.0069463616
781,-0.009244687
782,-0.010626217
783,-0.0077044726
784,-0.01564516
785,0.011623382
786,0.006895853
787,0.004486108
788,-0.0056179557
789,0.0014454256
790,0.007078974
791,-0.015436765
792,-5.2858853e-05
793,0.0057534315
794,-0.0049167797
795,0.0027549425
796,0.0017596489
797,-0.006403228
798,-0.006049967
799,0.009048503
800,0.012996091
801,-0.008178732
802,-0.0065491307
803,0.0067542517
804,0.0053345254
805,0.017126933
806,-0.009418758
807,-0.009754875
808,0.0021730335
809,-0.0010721585
810,0.0029670007
811,0.0018121048
812,0.0038577325
813,0.0053771995
814,-0.00652036
815,0.007301854
816,-0.0035914879
817,-0.016697122
818,-0.012334459
819,-0.017498646
820,-0.0006104433
821,0.002990311
822,0.0033569864
823,-0.0040832735
824,0.017456567
825,-0.003815138
826,-0.002544501
827,-0.0055342084
828,-0.0019929206
829,-0.010968508
830,-0.010701098
831,-0.004688614
832,-0.00027221296
833,-0.009205803
834,-0.0059919353
835,-0.01037348
836,-0.0012337503
837,-0.016378367
838,0.0011368747
839,-0.016020518
840,0.01468221
841,-0.01025987
842,-0.003589647
843,-0.013523789
844,-0.008251997
845,-0.006000536
846,-0.007911694
847,-0.008566505
848,0.009711747
849,-0.006655562
850,-0.009483691
851,0.012045054
852,0.013018717
853,0.009466766
854,-0.0074884137
855,0.012475866
856,0.0040128175
857,0.012361452
858,0.003318922
859,-0.009850518
860,0.0030311616
861,0.0042279074
862,-0.0053658914
863,0.010982341
864,-0.0039111017
865,0.0044545177
866,-0.0046892306
867,0.007116301
868,-0.014256685
869,-0.0015137226
870,-0.015401817
871,0.0034475222
872,0.008368387
873,-0.0077701844
874,-0.0033989346
875,-0.012944406
876,-0.00546753
877,-0.004795976
878,-0.007236074
879,-0.0028601552
880,-0.0043433146
881,0.0060766204
882,0.0030663535
883,-0.0056022923
884,-0.008223348
885,-0.010163628
886,-0.006697097
887,0.01072543
888,0.009729742
889,-0.0064650974
890,0.005040677
891,0.003938808
892,-0.010234709
893,0.0058198343
894,0.0027125916
895,-0.014360338
896,-0.012668584
897,0.019626029
898,0.0012360476
899,0.000823041
900,-0.007956385
901,0.009026574
902,-0.0068318844
903,-0.009249362
904,-0.0023897039
905,-0.0060997196
906,0.007311403
907,0.01032637
908,-0.003973825
909,0.0046566837
910,-0.010113619
911,0.0032725618
912,-0.0011593032
913,-0.005116687
914,0.0078743985
915,-0.004450789
916,-0.007732014
917,-0.00019268894
918,0.0021070836
919,-0.009887887
920,0.00081042893
921,-0.0069544697
922,-0.0020834703
923,0.014181624
924,-0.008009684
925,-0.00037095745
926,0.0016339583
927,-0.014832218
928,0.009549338
929,0.015733633
930,0.0012317025
931,0.01295725
932,0.010942225
933,0.009378744
934,0.010387505
935,0.0014876156
936,0.006930548
937,-0.0058764424
938,-0.0020738135
939,-0.004033194
940,0.00841737
941,-0.00026425117
942,0.009186442
943,-0.0073408056
944,-0.0087676635
945,0.002775898
946,-0.008164566
947,-0.014285858
948,-0.01078321
949,-0.0010377468
950,-0.0037098355
951,0.015465129
952,-0.01258996
953,0.016067304
954,-0.0043159868
955,0.0074345684
956,0.0038163431
957,0.0044285823
958,-0.007920118
959,0.013246072
960,0.00088209665
961,0.00097220956
962,0.011548296
963,-0.010928341
964,-0.0046692365
965,0.0062127546
966,0.017034747
967,0.0040541133
968,-0.0057817115
969,-0.00543862
970,0.0040342878
971,0.010087666
972,-0.011064832
973,0.0031135315
974,0.00532476
975,0.013240605
976,0.0019143514
977,-0.007840252
978,0.001461378
979,-0.0012042258
980,-0.014376869
981,-0.012009414
982,-0.008241081
983,0.009535931
984,-0.006534263
985,0.0058751027
986,0.011567007
987,-0.00837307
988,-0.00042304344
989,0.004729701
990,0.007235004
991,0.008034156
992,0.017434577
993,-0.004615306
994,-0.0044021946
995,-0.014206073
996,-0.0021489111
997,-0.017318536
998,-0.00826984
999,0.0010674427
1000,0.0026445698
1001,0.012582036
1002,-0.00305891
1003,-0.0049707564
1004,0.0064867744
1005,-0.006102922
1006,0.0040353206
1007,0.0014517498
1008,-0.012269143
1009,0.009495753
1010,0.019674474
1011,0.0122550065
1012,-0.00019765354
1013,0.00656686
1014,0.0009273963
1015,0.0074860165
1016,0.0037637881
1017,-0.0006168212
1018,0.011703968
1019,-0.015269902
1020,0.0052018147
1021,-0.005904969
1022,-0.010370901
1023,-0.0023740598
1024,-0.0045760735
1025,0.0008331307
1026,-0.0045026215
1027,0.01702461
1028,0.008874047
1029,0.010646915
1030,-0.0019154568
1031,-0.004642106
1032,-0.0010620333
1033,-0.0051294197
1034,0.0030510295
1035,0.0006054505
1036,-0.0052401577
1037,0.0021759153
1038,-0.0012910346
1039,0.00073479797
1040,0.002755969
1041,-0.0033450308
1042,0.0016357461
1043,-0.014894948
1044,-0.0020813607
1045,0.0083215125
1046,0.008271367
1047,0.00039418536
1048,0.014262094
1049,0.009381301
1050,-0.0011922801
1051,-0.00047200295
1052,0.0031981105
1053,0.0017494077
1054,-0.003468161
1055,-0.01583217
1056,0.0015435236
1057,0.0010783597
1058,0.0059744343
1059,0.002788684
1060,0.012917343
1061,-0.007089991
1062,-0.004287469
1063,0.0029655765
1064,-0.0066788835
1065,0.009352927
1066,-0.013085154
1067,0.014665281
1068,-0.0043525607
1069,0.0038144747
1070,0.0006422123
1071,-0.008257744
1072,0.008714244
1073,-0.011532011
1074,0.008967602
1075,-0.007668038
1076,-0.0033776849
1077,0.005556455
1078,-0.006607717
1079,0.0006388333
1080,-0.01865208
1081,-0.003327613
1082,-0.014978917
1083,0.015239779
1084,0.0023579858
1085,0.0042736605
1086,-0.0013215994
1087,0.0054965857
1088,0.0036403872
1089,-0.008398158
1090,-0.00023507744
1091,-0.017300317
1092,0.010092201
1093,0.001810811
1094,-0.011952776
1095,-0.012603178
1096,0.015658451
1097,0.005965011
1098,-0.0016331155
1099,-0.00032291826
1100,4.9185834e-05
1101,0.015601783
1102,0.0069750003
1103,-0.008557008
1104,0.01669101
1105,0.0049677487
1106,-0.014061342
1107,0.009969416
1108,-0.006254801
1109,0.0020503143
1110,-0.008222786
1111,0.008235426
1112,-0.011545904
1113,0.005767092
1114,0.013801228
1115,0.013206222
1116,-0.004941506
1117,-0.004727164
1118,-2.4526602e-05
1119,0.0004952674
1120,0.0067005916
1121,-0.0045619053
1122,-0.00047307563
1123,0.0036615967
1124,0.0032269196
1125,0.0015402385
1126,-0.017268535
1127,-0.011602398
1128,-0.0022773312
1129,0.0010615577
1130,0.0048127817
1131,-0.0054605524
1132,-0.015846191
1133,-0.0024099606
1134,0.011494546
1135,-0.008899386
1136,-0.0023118905
1137,0.013454583
1138,-0.002785933
1139,0.0027609533
1140,0.00730766
1141,-0.0057012006
1142,0.0021585785
1143,-0.010467258
1144,-0.013876196
1145,-0.0033528495
1146,-0.0031771434
1147,-0.014002754
1148,0.014980095
1149,-0.0054391627
1150,0.01023012
1151,0.01835531
1152,0.0014905578
1153,0.007850935
1154,-0.004377698
1155,-0.0074710706
1156,-0.019473013
1157,0.0007791869
1158,-0.016010156
1159,0.0031159949
1160,0.0043503405
1161,-0.0068969945
1162,-0.0015622288
1163,-0.008210709
1164,3.751546e-05
1165,0.011796112
1166,0.0022924314
1167,-0.002661867
1168,-0.010280754
1169,-0.005482036
1170,-0.0040182434
1171,0.0059649353
1172,0.01116611
1173,-0.019952387
1174,0.013849039
1175,0.011210371
1176,0.0007483106
1177,0.00844348
1178,0.010188547
1179,-0.012409163
1180,-0.012200782
1181,0.010902005
1182,-0.012131618
1183,-0.009698263
1184,0.019830482
1185,-0.0056728297
1186,0.0030076962
1187,-0.015286702
1188,-0.0036025755
1189,-0.0030671512
1190,0.0030916294
1191,0.005044718
1192,0.0009852601
1193,-0.0014514886
1194,-0.0012055576
1195,-0.011457899
1196,-0.004696265
1197,0.009391274
1198,0.0058206087
1199,0.006303232
1200,0.010564948
1201,-0.004291711
1202,-0.0003619729
1203,-0.00720475
1204,0.006915284
1205,-0.005622599
1206,0.000110910005
1207,0.007474572
1208,0.0025303965
1209,-0.012384845
1210,-0.0017086536
1211,0.014693752
1212,-0.009228796
1213,0.016815938
1214,-0.00032145358
1215,-0.019448008
1216,-0.016841562
1217,0.012777999
1218,0.0067906063
1219,-0.00019761616
1220,-0.0010416714
1221,0.00042969207
1222,0.012337778
1223,-0.008386804
1224,-0.0059649358
1225,0.008713924
1226,0.016924798
1227,0.01622772
1228,-0.009699028
1229,-0.010739837
1230,-0.012680353
1231,-0.0030148658
1232,-0.018187983
1233,-0.009629379
1234,-0.0043811826
1235,0.01079016
1236,0.013757417
1237,-0.004189273
1238,-0.010354967
1239,-0.0093311155
1240,-0.00539311
1241,-0.010087363
1242,-0.0078874715
1243,0.008303215
1244,-0.0019499053
1245,-0.0021447032
1246,-0.0047727777
1247,0.019211793
1248,-0.016905753
1249,-3.2888051e-06
1250,0.00042310572
1251,-0.008263026
1252,-0.011479837
1253,-0.0011352504
1254,0.019096928
1255,0.010678669
1256,-0.0062952135
1257,-0.015001559
1258,-0.013667267
1259,0.0039929743
1260,0.007728765
1261,-0.006759342
1262,-0.010733302
1263,-0.008089249
1264,-0.00688803
1265,0.0014501731
1266,-0.002550503
1267,0.0031765227
1268,-0.003262476
1269,-0.00210139
1270,0.005283267
1271,0.006706136
1272,-0.017122356
1273,-0.019952808
1274,-0.008898556
1275,-0.013869019
1276,0.009944828
1277,-0.0028077746
1278,0.007594144
1279,-0.017581383
1280,-0.01614971
1281,0.0056128106
1282,-0.010438448
1283,-0.008047991
1284,0.008467787
1285,-0.0100055
1286,0.0054458654
1287,-0.014224476
1288,-0.0041033356
1289,-0.0026984375
1290,-0.0077329306
1291,-0.0029926284
1292,-0.0054718535
1293,0.000569984
1294,-0.0067148292
1295,-0.010380375
1296,0.003476234
1297,-0.008070847
1298,0.01409738
1299,-0.01532369
1300,0.0062851286
1301,0.013931284
1302,-0.0020585533
1303,-0.004332823
1304,0.0077328696
1305,0.013408578
1306,0.0015084873
1307,-0.0076746093
1308,-0.007915522
1309,-0.014659584
1310,-0.010918448
1311,-0.006671299
1312,0.008533907
1313,0.0011667848
1314,0.0009035652
1315,-0.01124395
1316,-0.010163013
1317,0.013792933
1318,-0.00011638024
1319,-0.010000787
1320,-0.0055085868
1321,-0.0044766795
1322,0.016100267
1323,0.012355139
1324,-0.007744075
1325,0.008164476
1326,0.0038769695
1327,-0.0035931442
1328,0.013931795
1329,0.019223122
1330,-0.0060600517
1331,-0.0068084653
1332,0.018275572
1333,0.0055256477
1334,-0.008917507
1335,0.012858946
1336,-0.0002812256
1337,0.01945049
1338,0.0005405407
1339,-0.011568483
1340,-0.00340495
1341,0.0061483914
1342,-0.009764484
1343,-0.014053715
1344,-0.005047732
1345,-0.0067361924
1346,-0.0029601445
1347,0.006978734
1348,-0.008235318
1349,-0.008636899
1350,0.008596366
1351,-0.002493821
1352,0.0038488468
1353,-0.017368717
1354,0.01089258
1355,-0.007993168
1356,-0.018054824
1357,0.016403696
1358,0.0034603504
1359,-0.002924001
1360,0.0028359734
1361,0.011464442
1362,-0.01331949
1363,-0.006644092
1364,-0.0019915232
1365,0.007260059
1366,-0.010013215
1367,0.006067542
1368,0.016132249
1369,0.011014186
1370,-0.003861551
1371,-0.0054725264
1372,0.0011613063
1373,-0.0005296628
1374,0.0042911074
1375,0.0032354235
1376,0.010436204
1377,-0.015017863
1378,0.003059332
1379,0.008968883
1380,-0.0056427345
1381,0.010500904
1382,0.008539357
1383,-0.008817475
1384,0.0056087608
1385,0.0015049917
1386,-0.0015699468
1387,-0.0021254234
1388,-0.011120398
1389,-0.0025002062
1390,-0.0107276235
1391,-0.0028985399
1392,-0.01635602
1393,-0.0061015934
1394,-0.00912536
1395,-0.00367038
1396,0.0017513124
1397,-0.0010094265
1398,0.012327612
1399,0.0026006438
1400,-0.016923556
1401,0.0064954897
1402,-0.0072917286
1403,-0.014597574
1404,0.011020963
1405,-0.0032296781
1406,-0.0062396037
1407,0.009724837
1408,7.2841955e-05
1409,-0.0025120308
1410,0.00024275984
1411,-0.01411004
1412,0.005880041
1413,0.010427511
1414,0.0058148336
1415,-0.009213819
1416,-0.013615851
1417,0.003059392
1418,-0.0055274726
1419,0.012368045
1420,0.007011363
1421,0.006275248
1422,-0.012012852
1423,-0.0028110922
1424,-0.0018990376
1425,0.0053532836
1426,0.012203082
1427,0.016076513
1428,-0.003565938
1429,0.00832437
1430,0.014046078
1431,-0.0011272654
1432,-0.011015072
1433,0.00549784
1434,-0.0055093127
1435,-0.0034698169
1436,-0.0057724635
1437,0.013351042
1438,-0.010795651
1439,0.002369772
1440,-0.0029095178
1441,0.00045486414
1442,0.00016665866
1443,-0.004222865
1444,0.0009572235
1445,0.007816761
1446,0.0036124622
1447,0.0018464797
1448,0.00022430898
1449,-0.011950278
1450,-0.009892538
1451,-0.007610347
1452,0.002384974
1453,-0.01732006
1454,-0.0067940997
1455,-0.0034463815
1456,-0.0007631108
1457,0.0014719699
1458,-0.007116523
1459,0.004049159
1460,-0.0013318516
1461,-0.005572485
1462,0.0088035315
1463,0.0130170295
1464,0.014320576
1465,-0.0015823778
1466,-0.0020807246
1467,-0.004591914
1468,-0.0029522404
1469,-0.008119007
1470,0.0027132279
1471,-0.00418045
1472,-0.0018145267
1473,0.0016997315
1474,0.005720623
1475,0.008928344
1476,-0.0063244007
1477,0.014038663
1478,-0.003544478
1479,-0.0026164996
1480,-0.01674883
1481,-0.00887865
1482,-0.009729608
1483,-0.004419875
1484,0.0066260337
1485,-0.013629323
1486,0.00064929854
1487,-0.0047538504
1488,-0.010069074
1489,0.0036973946
1490,-0.011975054
1491,-0.009468745
1492,-0.018689435
1493,-0.0012223249
1494,-0.010970103
1495,0.00029631928
1496,-0.016152676
1497,-0.010882425
1498,-0.00079479715
1499,0.0080427695
1500,-0.0084493775
1501,0.005723143
1502,-0.0070031267
1503,0.008060412
1504,-0.0043744952
1505,0.0005676168
1506,0.004269324
1507,-0.0041301646
1508,-0.0069392608
1509,0.006375764
1510,-0.0013194788
1511,0.011381674
1512,0.01068992
1513,-0.0033406087
1514,0.017596072
1515,-0.007972968
1516,0.01190832
1517,0.0008812271
1518,-0.016155105
1519,0.00041467807
1520,0.011158475
1521,0.017785268
1522,-0.0021435237
1523,-0.015445366
1524,0.011533465
1525,-0.001274315
1526,0.002784165
1527,0.0057750395
1528,0.012251384
1529,-0.0075563383
1530,-0.013056932
1531,0.0055297283
1532,0.0022955104
1533,-0.00983966
1534,-0.007126571
1535,0.0050719334
1536,-0.005125683
1537,-0.0032527281
1538,-0.0144557925
1539,0.008060505
1540,0.003979688
1541,-0.0033332412
1542,-0.0150402915
1543,-0.0068602143
1544,-0.008007064
1545,-0.008763101
1546,0.012851194
1547,0.0035617005
1548,-0.012449929
1549,0.0051956377
1550,-0.005379982
1551,-0.010717472
1552,0.010417283
1553,0.015072854
1554,0.003830251
1555,0.009376898
1556,0.008349156
1557,0.013065753
1558,0.004517343
1559,-0.0044231447
1560,0.010170136
1561,0.00529645
1562,-0.0134077985
1563,-0.010128366
1564,-0.009043523
1565,-0.014678161
1566,-0.0075186905
1567,0.016752012
1568,-0.018027848
1569,-0.009630448
1570,0.009097052
1571,0.0052028177
1572,0.014875418
1573,0.00765014
1574,-0.010281315
1575,0.017440356
1576,0.0031410505
1577,-0.01158144
1578,0.008509608
1579,0.0014242729
1580,-0.013549479
1581,-0.006152481
1582,0.008242825
1583,-0.013223721
1584,0.011329532
1585,-0.0009551267
1586,-0.016328473
1587,0.008879525
1588,-0.001995682
1589,-0.007234374
1590,-0.006469119
1591,0.008633569
1592,-0.013096405
1593,-0.01253556
1594,-0.0060839443
1595,0.0004888189
1596,0.0016524133
1597,-0.014930726
1598,0.011400189
1599,-0.0047446177
1600,-0.0019359402
1601,-0.008041296
1602,-0.0020558657
1603,-0.0014391496
1604,0.008594911
1605,0.009445946
1606,-0.0058416217
1607,-0.0042296723
1608,0.00017522743
1609,-0.0018378019
1610,0.010070674
1611,0.009742262
1612,0.0036791768
1613,-0.0031738435
1614,-0.008994596
1615,0.012506733
1616,-7.912914e-05
1617,-0.005632802
1618,0.015386412
1619,0.0020282671
1620,0.009854159
1621,-0.000111648216
1622,-0.005874306
1623,0.00027356128
1624,-0.0011469962
1625,0.011604507
1626,-0.0035518808
1627,0.0127856145
1628,-0.0068642306
1629,-0.0040388564
1630,0.005681028
1631,-0.0010069056
1632,-0.0025006055
1633,0.006770443
1634,0.0103170965
1635,-0.0010502305
1636,-0.013753748
1637,-0.007762148
1638,0.004532105
1639,-0.0031226857
1640,0.012861054
1641,0.0025497328
1642,-0.010202635
1643,-0.0023673724
1644,0.008836142
1645,-0.0059465007
1646,-0.007652248
1647,0.0032782187
1648,-0.010483754
1649,-0.010349173
1650,0.0021532958
1651,-0.0007605063
1652,-0.004250574
1653,0.0056477645
1654,-0.0053217667
1655,-0.011858874
1656,0.011734037
1657,0.0012652763
1658,-0.0056911544
1659,-0.0067930548
1660,0.0076670065
1661,-0.009292847
1662,-0.004967118
1663,0.0053864084
1664,-0.0017062613
1665,-0.0026532146
1666,-0.017213685
1667,0.0005907162
1668,0.015323917
1669,-0.004019614
1670,-0.0008742671
1671,-0.0032406931
1672,0.0129853245
1673,0.004998525
1674,-0.011337005
1675,0.011009571
1676,0.0031004867
1677,-0.0044200025
1678,0.007901179
1679,-0.0033387616
1680,-0.019472271
1681,0.0038318562
1682,-2.8422477e-05
1683,-0.004792914
1684,0.0036273813
1685,0.0075883847
1686,-0.006913013
1687,-0.012729054
1688,-0.0070995763
1689,0.005316506
1690,0.0008790317
1691,-0.0020045259
1692,0.0044996436
1693,0.006131875
1694,-0.0018514459
1695,0.0030492842
1696,-0.001003724
1697,-0.019257957
1698,-0.001232909
1699,0.00094184856
1700,-0.008505861
1701,-0.0040290724
1702,0.0013468806
1703,-0.0008439084
1704,-0.012587492
1705,-0.003555744
1706,-0.01773211
1707,-0.013128196
1708,-0.0073369574
1709,-0.0039497134
1710,-0.0048498553
1711,0.0033963418
1712,0.0033136937
1713,-0.0043748254
1714,-0.007900626
1715,0.013839799
1716,-0.009444606
1717,0.005066286
1718,0.0066311597
1719,0.011180597
1720,0.018096212
1721,-0.0039477455
1722,-0.0052027465
1723,-0.0068521667
1724,-0.010185952
1725,0.004712609
1726,-0.011110076
1727,-0.009982691
1728,0.0060495567
1729,-0.008320271
1730,-0.0024468254
1731,-0.0022227766
1732,-0.004515676
1733,0.008800934
1734,-0.009897637
1735,-0.012412741
1736,0.010039496
1737,-0.003919253
1738,-0.004064783
1739,0.015091296
1740,-0.011441773
1741,0.006423639
1742,-0.014795172
1743,-0.0049592545
1744,-0.01727941
1745,-0.00535447
1746,-0.00639937
1747,0.0010682275
1748,-0.00092282466
1749,-0.00076161686
1750,0.0066051907
1751,-0.006012129
1752,0.016844982
1753,0.0077453707
1754,0.008808299
1755,0.0018677018
1756,-0.0025222008
1757,0.0028415306
1758,-0.017269071
1759,0.0054845545
1760,-0.003983276
1761,-0.0033038557
1762,-0.005432245
1763,-0.0032669809
1764,0.0010714552
1765,-0.015695142
1766,-0.0055764704
1767,0.011954381
1768,0.01026496
1769,0.012221281
1770,-0.006705245
1771,-0.005698956
1772,-0.007167923
1773,0.002319191
1774,0.009169827
1775,-0.013413805
1776,-0.014212737
1777,-0.0039875354
1778,-0.017334713
1779,0.0116573395
1780,0.0031810845
1781,-0.0022259813
1782,0.0020681126
1783,-0.003723085
1784,-0.0036376647
1785,-0.0027521148
1786,0.0076352563
1787,-0.00844655
1788,0.008232046
1789,0.012002843
1790,0.013819014
1791,-0.011123669
1792,0.0040332656
1793,-0.0057154223
1794,-0.016201213
1795,-0.010032004
1796,-0.014331213
1797,-0.0025059022
1798,-0.00093585986
1799,-0.012071717
1800,-0.008382579
1801,-0.0059293965
1802,0.013197064
1803,0.009056921
1804,-0.012379278
1805,0.0075612287
1806,-0.0052797785
1807,0.0079637775
1808,0.013365551
1809,0.012724358
1810,0.013059192
1811,-0.0032561612
1812,0.0022883855
1813,-0.015798284
1814,-0.007888671
1815,-0.0057330877
1816,-0.016671477
1817,0.005978659
1818,0.014009712
1819,0.009585361
1820,0.0016688844
1821,0.008871546
1822,0.0032202636
1823,0.007533083
1824,0.015560784
1825,-0.0008089716
1826,0.0050918143
1827,-0.0061826995
1828,0.009757739
1829,-0.019296568
1830,-0.0144365495
1831,-0.00036450315
1832,0.00042764816
1833,0.004995434
1834,-0.013286745
1835,-0.016086876
1836,0.0013761547
1837,0.0017084432
1838,-0.00085906056
1839,0.0006437288
1840,-0.005080319
1841,-0.0038765974
1842,0.007391583
1843,0.007108698
1844,0.00034560062
1845,-0.014406803
1846,-0.00635822
1847,-0.006199143
1848,-0.004089561
1849,-0.0071632457
1850,0.007075508
1851,0.0028477472
1852,-0.013904903
1853,9.533375e-06
1854,0.00013975667
1855,-0.00034389237
1856,-0.000839076
1857,-0.010055795
1858,0.012905023
1859,0.00023824598
1860,-0.01951588
1861,-0.018458232
1862,-0.0018014963
1863,0.006194232
1864,0.012379348
1865,0.009686581
1866,0.017019574
1867,0.012879104
1868,0.0056800065
1869,-0.0053931777
1870,-0.0019012348
1871,0.0030527082
1872,-0.008988861
1873,0.005686817
1874,-0.0018711345
1875,0.018324068
1876,0.0030838952
1877,0.0052502374
1878,-0.0010296983
1879,-0.017510528
1880,0.010655467
1881,0.0051108263
1882,0.011174701
1883,-0.00054911216
1884,-0.007473968
1885,-0.00067700614
1886,0.010791691
1887,-0.010382337
1888,0.003822489
1889,-0.0020055305
1890,-0.001093718
1891,0.0011007516
1892,0.008513881
1893,0.0031474282
1894,-0.004598102
1895,-0.0006121994
1896,0.0050959266
1897,-0.01363125
1898,0.007792936
1899,0.0043605785
1900,0.0031262606
1901,-0.015298338
1902,0.0076739304
1903,0.005223417
1904,-0.0039987094
1905,-0.008091924
1906,0.0075731664
1907,-0.003118084
1908,0.007682813
1909,0.015320173
1910,-0.016811354
1911,0.00497734
1912,0.013701843
1913,0.0048053507
1914,0.0028532401
1915,-0.016291175
1916,-0.003374196
1917,-0.009736108
1918,-0.0013301389
1919,0.001144301
1920,-0.016795812
1921,-0.009666538
1922,0.0095309615
1923,-0.0011845995
1924,0.00396644
1925,-0.01291138
1926,-0.012045885
1927,-0.013130615
1928,-0.0009769563
1929,-0.016123112
1930,0.010967086
1931,0.009212807
1932,0.0005608421
1933,0.0008611602
1934,-0.007057422
1935,-0.0020298453
1936,0.013639261
1937,-0.0038624597
1938,0.0048545864
1939,-0.000671605
1940,-0.0002597114
1941,-0.0059710634
1942,0.0025400077
1943,4.284849e-05
1944,0.00010710371
1945,-0.007639177
1946,-0.004235469
1947,0.008243336
1948,0.014115505
1949,-0.0044295075
1950,0.008508131
1951,0.0038182465
1952,0.0003859275
1953,0.0019711896
1954,0.0058258045
1955,0.00027172267
1956,-0.000141433
1957,-0.0076669115
1958,-0.013734345
1959,-0.0054497193
1960,0.0011361175
1961,-0.008363129
1962,-0.011543638
1963,0.0042142677
1964,0.017326502
1965,-0.0056434358
1966,-0.001749921
1967,-0.01429842
1968,0.007614912
1969,0.0012995134
1970,0.015746802
1971,-0.008470978
1972,0.009412913
1973,0.016057378
1974,-0.0019097638
1975,0.00073818315
1976,0.00019965976
1977,-0.011517939
1978,0.01923843
1979,0.0029027355
1980,-0.0040402263
1981,-0.008167788
1982,-0.00023166863
1983,0.0064718253
1984,0.0070464294
1985,0.002432959
1986,-0.012056965
1987,-0.00092591275
1988,0.0042625526
1989,0.005466505
1990,0.004807383
1991,0.0062349997
1992,-0.00047641573
1993,-0.0028464922
1994,-0.0032034707
1995,0.0151302
1996,-0.0030186316
1997,0.00020298357
1998,0.009399734
1999,-0.001710779
2000,-0.013191451
2001,0.01221518
2002,-0.0036206995
2003,-0.0021709974
2004,0.00082606036
2005,0.0018146817
2006,-0.0049560303
2007,0.0049933423
2008,0.009321528
2009,-0.0059015104
2010,0.0071531814
2011,-0.001063089
2012,0.008313111
2013,-0.002953683
2014,0.010082399
2015,-0.006687188
2016,-0.0057219844
2017,0.0018814978
2018,0.013244545
2019,0.0090014795
2020,0.0041531655
2021,-0.010298099
2022,0.008081422
2023,-0.012654037
2024,0.0122374045
2025,-0.009301562
2026,0.009712629
2027,-0.00253993
2028,-0.008410168
2029,-0.0066810655
2030,-0.008522039
2031,-0.008657711
2032,0.0072146985
2033,0.007995158
2034,-0.0014964051
2035,0.01530953
2036,-0.003438145
2037,0.010534023
2038,-0.008275911
2039,0.0013137658
2040,0.002032149
2041,0.007877681
2042,0.0011056887
2043,0.0060935616
2044,0.0056380564
2045,-0.0031711725
2046,-0.00929403
2047,0.0059824684
2048,-0.0067007896
2049,-0.005171565
2050,0.0012529999
2051,-0.0015380287
2052,-0.0011351038
2053,0.0064553
2054,0.013241924
2055,-0.011659975
2056,0.0042796535
2057,0.01725487
2058,-0.012709316
2059,-0.0019624298
2060,-0.00070227653
2061,0.008648303
2062,0.014526955
2063,0.010973932
2064,-0.0048803934
2065,-0.008711932
2066,-0.015337083
2067,0.017164705
2068,0.009485651
2069,0.008016009
2070,-0.015253504
2071,-0.008483025
2072,-0.00083740754
2073,-0.0009585619
2074,0.0064067007
2075,-0.004556952
2076,-0.00046055985
2077,-0.0088994
2078,-0.002463696
2079,0.017804503
2080,-0.0027954744
2081,0.01567679
2082,0.002314055
2083,-0.0042974055
2084,0.01590124
2085,-0.003106402
2086,0.016045706
2087,-0.015179592
2088,0.00094554375
2089,0.011631866
2090,0.0044963136
2091,-0.0021975653
2092,-0.0042044036
2093,0.0077621476
2094,-0.0067182956
2095,0.0028317787
2096,0.0071815723
2097,0.001833675
2098,0.004749859
2099,-0.0040109395
2100,-0.004269549
2101,-0.0044520623
2102,-0.017845573
2103,-0.0011788423
2104,-0.019688107
2105,-0.0024116833
2106,0.010503369
2107,-0.014388248
2108,-0.016436746
2109,0.0065892898
2110,-0.0005982147
2111,-0.0025296786
2112,-0.01073536
2113,0.014708102
2114,0.00444771
2115,0.004963463
2116,-0.006502559
2117,0.01129931
2118,-0.01298095
2119,0.009829482
2120,-0.0047258423
2121,-0.0141575765
2122,0.0057619726
2123,0.004113251
2124,-0.0066538947
2125,-0.006007871
2126,-0.0016384192
2127,-0.00069797644
2128,-0.0018270477
2129,0.018965287
2130,-0.0029372338
2131,0.0013602359
2132,0.018430023
2133,0.0061040777
2134,0.0074538244
2135,0.004316041
2136,-0.00053416594
2137,0.0027212305
2138,-0.01629017
2139,-0.013236348
2140,0.00438444
2141,-0.005162379
2142,-0.0021550967
2143,0.001975744
2144,0.003898312
2145,-0.010683641
2146,0.010423251
2147,-0.014581031
2148,0.009563338
2149,0.01449758
2150,0.0009958494
2151,0.0045855665
2152,-5.1486004e-06
2153,-0.019714866
2154,0.01179401
2155,0.0027971354
2156,0.0034053186
2157,-0.0002139445
2158,-0.017977571
2159,-0.005299684
2160,-0.0006693224
2161,-0.00022755547
2162,0.00069379155
2163,-0.011475427
2164,0.006934405
2165,0.011868931
2166,0.0044360403
2167,-0.00019613495
2168,0.010178145
2169,-7.2980314e-05
2170,0.0006983555
2171,0.001952372
2172,0.00031519544
2173,0.00433732
2174,0.0150554245
2175,-0.011665676
2176,0.0046068337
2177,-0.001583592
2178,-0.0027164097
2179,-0.002809164
2180,-0.015333631
2181,0.0023947882
2182,-0.01088468
2183,-0.010524475
2184,-0.0057343533
2185,0.002886405
2186,-0.010993204
2187,0.00075210916
2188,-0.008105225
2189,0.00010997202
2190,-0.0046668733
2191,-0.010902021
2192,0.00156327
2193,-0.008522648
2194,0.009708815
2195,0.0075509907
2196,-0.0008688882
2197,0.018467316
2198,0.01186999
2199,-0.016602712
2200,-0.0014559639
2201,0.0025771456
2202,0.0004790088
2203,-0.0041745184
2204,0.003589981
2205,0.0034133855
2206,-0.0039935545
2207,-0.00026137207
2208,0.011140261
2209,0.00029027328
2210,-0.017118802
2211,0.0024424416
2212,-0.013851519
2213,0.0051053683
2214,-0.0019377766
2215,-0.01654265
2216,0.0016849443
2217,-0.018031182
2218,0.005237685
2219,0.007455526
2220,-0.015972722
2221,-0.0010519846
2222,-0.004668516
2223,0.015919045
2224,0.009272415
2225,0.015960563
2226,0.015318606
2227,-0.004301412
2228,0.002346044
2229,-0.00039633553
2230,-0.0003500838
2231,0.0046181153
2232,-0.0024761376
2233,-0.0041694166
2234,0.0038066169
2235,0.012131929
2236,0.018071555
2237,0.0051584705
2238,-0.0017426434
2239,0.01736088
2240,-0.005970206
2241,-0.00022869206
2242,0.001986182
2243,0.007203924
2244,-0.00885599
2245,-0.002757597
2246,-0.014263935
2247,-0.0063620238
2248,0.011931274
2249,0.004409566
2250,-0.00063223206
2251,0.0032644237
2252,0.0017056543
2253,0.012524939
2254,-0.009207312
2255,-0.012785135
2256,0.012782373
2257,-0.0052155214
2258,-0.0027534359
2259,-0.008413903
2260,-0.010996113
2261,-0.000525512
2262,-0.0119773345
2263,-0.003997992
2264,-0.010757427
2265,0.00572794
2266,0.006881215
2267,0.004346574
2268,0.0062864264
2269,-0.014573463
2270,0.010416307
2271,-0.012849752
2272,-0.013465366
2273,0.0055209436
2274,-0.007907432
2275,0.002212729
2276,-0.0046755592
2277,-0.007909849
2278,-0.0018085091
2279,0.0046446063
2280,-0.0014475442
2281,-0.001374996
2282,0.007560442
2283,-0.004997052
2284,0.009011308
2285,-0.011796847
2286,-0.0026855734
2287,0.0027643796
2288,-0.0062591913
2289,0.017275061
2290,0.017316787
2291,0.00070034846
2292,0.0006122136
2293,-0.00090951764
2294,0.006369648
2295,0.0037304203
2296,-0.0055778488
2297,0.0067775697
2298,-0.0026719577
2299,-0.00018387486
2300,0.0030212984
2301,0.009375727
2302,0.010713809
2303,-0.013656496
2304,-0.0046157897
2305,0.00997534
2306,-0.0066476413
2307,0.0056941016
2308,0.0033481426
2309,-0.0047667543
2310,-0.012048771
2311,-0.0043960833
2312,0.0039204755
2313,0.008728594
2314,-0.018155687
2315,0.0026876724
2316,-0.0087735085
2317,-0.0048709116
2318,0.0067954673
2319,0.010880805
2320,0.008563925
2321,-0.0018623921
2322,0.00045309306
2323,0.004399506
2324,0.0065619135
2325,0.013623597
2326,-0.01310081
2327,0.012193244
2328,-0.0068518426
2329,0.007634574
2330,-0.008092116
2331,-0.006963473
2332,-7.988407e-05
2333,-0.007574915
2334,-0.010042184
2335,0.0008972671
2336,0.008457751
2337,0.009981961
2338,-0.017484523
2339,0.00302101
2340,0.0070671076
2341,0.006814335
2342,0.019315243
2343,0.0031191767
2344,0.015539155
2345,0.0058500124
2346,0.011312991
2347,0.012887573
2348,-0.017106624
2349,-0.011149693
2350,0.011950651
2351,-0.00028150927
2352,-0.007322273
2353,-0.0045734984
2354,0.0052200644
2355,0.0034911819
2356,0.00021636284
2357,-0.010535388
2358,0.012185927
2359,-0.00029029456
2360,-0.0006889964
2361,-0.018383086
2362,0.010442923
2363,-0.007155507
2364,-0.001493826
2365,0.0053838976
2366,0.009530512
2367,-0.012876672
2368,0.00088222587
2369,0.009003974
2370,-0.01431829
2371,-0.004278003
2372,-0.0074384646
2373,0.005725238
2374,-0.011681952
2375,0.0071975966
2376,0.007786092
2377,0.01959485
2378,-0.009976505
2379,0.003117504
2380,0.0030500318
2381,-0.012649763
2382,0.0022383302
2383,0.004521821
2384,0.0024484438
2385,-0.0012564424
2386,0.011825802
2387,0.004451815
2388,0.009728969
2389,-0.009611825
2390,-0.005890601
2391,-0.008468302
2392,-0.0008922293
2393,0.014675504
2394,-0.0045857993
2395,-0.003250682
2396,0.014639824
2397,-0.0017951909
2398,-0.016866012
2399,-0.0013949777
2400,0.0020214154
2401,0.012549736
2402,0.0021789155
2403,0.0040730475
2404,-0.005873979
2405,-0.01130165
2406,-0.0013095981
2407,-0.011909908
2408,-0.006578334
2409,-0.0017281844
2410,-0.007153443
2411,-0.004918792
2412,-0.0073697786
2413,0.012366763
2414,-0.001190202
2415,-0.0025295564
2416,0.008174507
2417,0.015234691
2418,-0.002813422
2419,0.0007586927
2420,-0.01182161
2421,0.005471897
2422,-0.01161551
2423,-0.010408564
2424,-0.0023220025
2425,0.004497332
2426,0.0006393921
2427,-0.003579673
2428,0.0039141155
2429,0.009227044
2430,4.890776e-05
2431,-0.009608471
2432,0.0011269434
2433,-0.007541685
2434,0.01392294
2435,0.0028448184
2436,-0.006567676
2437,-0.006941045
2438,-0.009790664
2439,0.0073387977
2440,0.0035429487
2441,-0.0040435297
2442,-0.010159964
2443,-0.012293042
2444,-0.0063964273
2445,-0.0062211594
2446,-0.010290702
2447,-0.0033042433
2448,0.014767667
2449,-0.0128390305
2450,0.00615825
2451,0.0019136954
2452,0.006511281
2453,-0.002603668
2454,0.0006996206
2455,-0.014800551
2456,0.010995483
2457,-0.018054988
2458,-0.005835046
2459,-0.0063012303
2460,-0.007144737
2461,0.012884101
2462,-0.009691288
2463,-0.0059125973
2464,0.0054868334
2465,0.00021674336
2466,0.009540168
2467,0.006355978
2468,0.0055902502
2469,0.0062281867
2470,0.014189152
2471,-0.0045625693
2472,0.0066987565
2473,-0.009850827
2474,0.0012996963
2475,0.009418105
2476,-0.00795006
2477,0.009056957
2478,-0.0027388951
2479,-0.009130969
2480,0.0050588264
2481,-0.012881702
2482,-0.009636779
2483,0.00042380518
2484,-0.007076873
2485,-0.008757398
2486,0.0055072564
2487,0.012660904
2488,-0.002783264
2489,-0.01046717
2490,0.0017067498
2491,-0.0043632267
2492,-0.0012539465
2493,0.010200988
2494,0.0016911647
2495,0.011650999
2496,0.0137546
2497,-0.010974864
2498,0.0026682871
2499,-0.010148798
2500,-0.004027133
2501,0.0012256207
2502,-0.0064675626
2503,-0.009932441
2504,-0.011872364
2505,-0.0025201542
2506,-0.015862389
2507,0.0026388655
2508,-0.012345058
2509,0.008327202
2510,0.00034062832
2511,0.0021549552
2512,0.0059216884
2513,-0.018873733
2514,-0.005761733
2515,0.006018126
2516,0.0032807363
2517,-0.007936925
2518,-0.0041397302
2519,-0.00086069264
2520,0.015790494
2521,-0.003607415
2522,0.015392941
2523,0.011725674
2524,0.010173287
2525,-0.00044862082
2526,-0.005257352
2527,0.005867498
2528,0.005717605
2529,-0.003841676
2530,-0.013008207
2531,-0.00037330517
2532,0.012836925
2533,0.0048061335
2534,0.0002638175
2535,-0.009290291
2536,-0.016384043
2537,0.0030069016
2538,0.0063103857
2539,-0.0013041493
2540,-0.0068004504
2541,-0.018783862
2542,-0.015412774
2543,0.0078100255
2544,-0.006037675
2545,0.004491747
2546,0.004909891
2547,0.0113130715
2548,0.00043811597
2549,0.0072572115
2550,0.0027525623
2551,0.005809487
2552,0.0014020887
2553,-0.01121017
2554,-0.0016502558
2555,0.0011839886
2556,-0.0061523733
2557,0.005022256
2558,0.0025175516
2559,-0.007938197
2560,-0.0016513097
2561,-0.00027984442
2562,0.005569705
2563,0.001920628
2564,0.0041842707
2565,-0.000912323
2566,0.014157915
2567,0.0037686506
2568,-0.00926041
2569,0.010417661
2570,0.0013118024
2571,0.0015098298
2572,-0.002075432
2573,-0.0034222775
2574,-0.005143673
2575,-0.010338622
2576,-0.0070359916
2577,-0.0032936705
2578,-0.007511988
2579,-0.00044665212
2580,0.0048063793
2581,-0.014042907
2582,-0.007943737
2583,0.012768416
2584,0.008809346
2585,-0.00036738502
2586,-0.005573664
2587,-0.0005064346
2588,0.0039026337
2589,-0.0029182045
2590,-0.0012010008
2591,-0.015518475
2592,-0.006608357
2593,0.0010030876
2594,-0.01921712
2595,-0.00041429652
2596,0.0137066385
2597,-0.0062949383
2598,-0.0033232123
2599,0.0020619575
2600,-0.0012129274
2601,0.0015303282
2602,0.013903328
2603,0.0034487047
2604,0.005814714
2605,-2.379055e-06
2606,-0.0036956952
2607,0.019255668
2608,0.016096946
2609,0.002571383
2610,0.0017247655
2611,0.004313978
2612,0.00074110023
2613,-0.0049228794
2614,-0.00092007586
2615,-0.011194334
2616,0.01913123
2617,0.00537419
2618,0.0013402635
2619,0.0027528238
2620,0.0037168323
2621,0.002059298
2622,0.016586708
2623,0.004631647
2624,0.0018935847
2625,0.0032787875
2626,-0.0014247096
2627,-0.005294971
2628,-0.001174593
2629,0.013295888
2630,0.0033677898
2631,-0.003491443
2632,0.011800585
2633,0.0024192948
2634,0.009632989
2635,0.0035235216
2636,-0.016656611
2637,0.004810635
2638,-0.016439637
2639,-0.011013624
2640,0.00109606
2641,-0.015392674
2642,-0.017314976
2643,-0.019459814
2644,-0.00082722784
2645,-0.0007292218
2646,0.014730382
2647,0.0016814838
2648,0.0011625668
2649,0.007594803
2650,-0.0015586173
2651,0.013895393
2652,-0.0008498712
2653,0.011531056
2654,0.00783929
2655,0.015749479
2656,0.0031522594
2657,-0.010715148
2658,0.005173254
2659,-0.0048485957
2660,-0.0015015476
2661,-0.009069128
2662,-0.002680706
2663,-0.010681948
2664,0.019491956
2665,0.008308351
2666,0.0108310515
2667,0.0043548774
2668,-0.007679414
2669,0.008311787
2670,-0.0013445272
2671,0.0041445214
2672,0.009270831
2673,0.0055489927
2674,0.010117801
2675,-0.0030234943
2676,0.007800004
2677,0.0029297085
2678,0.0018459177
2679,-0.00110955
2680,-0.0025974077
2681,0.006460296
2682,0.017488914
2683,-0.0017677618
2684,0.0068486775
2685,0.0038287546
2686,-0.009969648
2687,0.013627049
2688,0.011905189
2689,0.0021713271
2690,0.0010303077
2691,-0.0035576955
2692,-0.017607732
2693,-0.012671701
2694,-0.005262151
2695,0.0054392186
2696,0.0011776988
2697,-0.003611422
2698,-0.0023807127
2699,-0.0014345781
2700,-0.008717095
2701,0.016157465
2702,0.007128989
2703,0.00040516863
2704,-0.011525946
2705,-0.00073836045
2706,0.0016949514
2707,0.006165413
2708,0.0072962395
2709,-0.0035870594
2710,-0.0045226486
2711,0.0075162356
2712,-0.0046935054
2713,-0.0017467652
2714,-0.0062934123
2715,0.00069110794
2716,-0.000880097
2717,-6.320851e-05
2718,-0.005140442
2719,0.0062804664
2720,0.0067927516
2721,0.014475011
2722,-0.019660536
2723,-0.0037761577
2724,0.001271011
2725,0.0015362629
2726,-0.016140262
2727,-0.0037632843
2728,-0.00011524277
2729,-0.011271377
2730,0.00699369
2731,0.0028645007
2732,0.0009487433
2733,0.0057201223
2734,0.0054053157
2735,0.0032287894
2736,-0.0050349296
2737,-0.007921954
2738,0.019298173
2739,0.01761466
2740,-0.018844297
2741,-0.015257265
2742,0.013344203
2743,0.0057191
2744,0.0029611601
2745,0.005789515
2746,-0.007850776
2747,0.0059495624
2748,-0.0012733695
2749,0.0027670874
2750,-0.008713075
2751,-0.014334168
2752,-0.0061475425
2753,0.0054866355
2754,0.017624296
2755,0.007404134
2756,-0.014743755
2757,0.013781469
2758,-0.0061406936
2759,-0.009195563
2760,0.0053094043
2761,-0.006816216
2762,-0.0011643714
2763,-0.0063512544
2764,-0.003955437
2765,-0.014800854
2766,0.008468252
2767,0.0010176551
2768,0.013772819
2769,-0.0036305343
2770,-0.0037264808
2771,-0.011984867
2772,0.0058954884
2773,0.00040678246
2774,-0.006049369
2775,-0.0035710626
2776,-0.007462756
2777,0.0087566255
2778,0.0040479135
2779,-0.008160921
2780,0.00047764933
2781,-0.0061769164
2782,-0.009518922
2783,0.009359799
2784,-0.0021416317
2785,0.005627876
2786,0.010981315
2787,5.9653295e-05
2788,0.017873336
2789,0.006993808
2790,0.0008781766
2791,-0.0030337574
2792,-0.0076836487
2793,-0.0002674143
2794,-0.0008707347
2795,-0.0015811691
2796,-0.013939379
2797,0.0053237425
2798,-0.0022720944
2799,0.0074803364
2800,0.009672845
2801,0.006820418
2802,0.0053779883
2803,-0.008502916
2804,0.00042648448
2805,-0.005409696
2806,-0.0062146997
2807,0.0093173385
2808,0.0065763285
2809,0.0048486986
2810,0.011109728
2811,-0.0057851234
2812,0.004243357
2813,0.012904252
2814,0.0067341537
2815,-0.018050138
2816,-0.011385401
2817,-0.009509872
2818,-0.009689817
2819,0.0040424597
2820,0.0020589137
2821,-0.015173931
2822,-0.010030809
2823,0.006049393
2824,0.008640344
2825,-0.01701272
2826,0.0022887734
2827,-0.012948276
2828,-0.0028720219
2829,-0.002919743
2830,0.01991462
2831,0.0057142572
2832,-0.0033567324
2833,0.007391541
2834,0.01319238
2835,-0.0016746783
2836,-0.00905479
2837,-0.0014104815
2838,0.0011678644
2839,-0.003226244
2840,0.0042079524
2841,-0.0066951425
2842,-0.0011528386
2843,0.0034746558
2844,-0.0007267053
2845,-0.005742743
2846,0.011543078
2847,-0.015324108
2848,-0.016776072
2849,0.01357362
2850,0.009596279
2851,-0.011692993
2852,0.016367054
2853,-0.0036850034
2854,-0.008362191
2855,-0.0063376143
2856,-0.010808707
2857,-0.0034598794
2858,0.009894971
2859,0.013638114
2860,0.0064294245
2861,0.0024832343
2862,0.004577481
2863,-0.0024728675
2864,-0.016043758
2865,0.0068515083
2866,0.015168406
2867,-0.0075250445
2868,-0.0016713614
2869,0.0024917673
2870,0.009316213
2871,-0.0051290537
2872,-0.0020834538
2873,-0.0031255
2874,0.006723257
2875,-0.01623153
2876,-0.004220096
2877,-0.0028137814
2878,-0.010713257
2879,-0.009633481
2880,-0.009844584
2881,0.0012031222
2882,-0.011325006
2883,-0.01453765
2884,0.007087466
2885,-0.0044346196
2886,-0.003914161
2887,0.0042057936
2888,0.01279733
2889,0.008248275
2890,-0.0072917663
2891,-0.010998526
2892,-0.0027945703
2893,-0.0023680863
2894,0.007468837
2895,0.006777402
2896,-0.0070196963
2897,0.0004198097
2898,-0.0010016041
2899,-0.0024918015
2900,0.003172186
2901,-0.0033488346
2902,-0.012361315
2903,0.006450551
2904,0.017053273
2905,-0.0007853543
2906,-0.010213035
2907,0.0067346795
2908,-0.0056129456
2909,-0.0072965543
2910,-0.0012044618
2911,-0.016776294
2912,0.008642132
2913,-0.0010320828
2914,-0.0113076735
2915,0.004078316
2916,0.007977743
2917,-0.0009020547
2918,0.0054098894
2919,-0.0028856408
2920,0.008480595
2921,0.013206814
2922,-0.003587934
2923,-0.0034522256
2924,-0.002578657
2925,0.0030644846
2926,-0.0005089854
2927,-0.0026800255
2928,0.012114619
2929,0.004344706
2930,0.008077528
2931,0.01628836
2932,0.0013189652
2933,0.00042809342
2934,-0.014287943
2935,-0.0023193348
2936,-0.0025033113
2937,-0.0118169915
2938,-0.014617044
2939,0.012155863
2940,0.0057114563
2941,-0.017188175
2942,-0.0037457307
2943,-0.017605215
2944,0.0039966353
2945,0.013831076
2946,-0.0028718282
2947,0.012349229
2948,0.010203518
2949,0.0042558974
2950,0.005562609
2951,-0.013017586
2952,0.00183564
2953,0.0037314107
2954,-0.005857306
2955,0.015493169
2956,-0.013217418
2957,0.011314836
2958,0.008492808
2959,-0.010844314
2960,-0.0020808566
2961,0.00024378023
2962,0.0076642083
2963,-0.005869538
2964,-0.012125364
2965,-0.010687251
2966,-0.0058933743
2967,0.004935098
2968,-0.0015855881
2969,-0.0015184843
2970,-0.0026715233
2971,0.008291273
2972,-0.0058617084
2973,0.008085844
2974,0.0042150905
2975,0.0061309272
2976,0.0135849975
2977,0.0018266472
2978,0.0010694056
2979,0.016495185
2980,0.014439168
2981,0.011181107
2982,0.00037890158
2983,-0.00841024
2984,0.0049138735
2985,-0.012398673
2986,-0.005380536
2987,0.0027538782
2988,-0.000285024
2989,0.008215203
2990,-0.006920971
2991,-0.017641202
2992,-0.0060866326
2993,-0.0063779615
2994,-0.0042114034
2995,0.00389593
2996,-0.0001237144
2997,0.019273393
2998,-0.0039969073
2999,0.011845666
3000,0.0013313285
3001,-0.008670759
3002,-0.014634347
3003,-0.015321303
3004,-0.007540585
3005,0.008430396
3006,-0.0012555976
3007,0.0003864161
3008,0.00562824
3009,0.018609283
3010,0.003757222
3011,-0.0025612535
3012,-0.00052847865
3013,0.001974878
3014,0.0016664981
3015,-0.011212041
3016,-0.00071011693
3017,0.011787562
3018,0.0019384911
3019,0.0029501189
3020,-0.0072583836
3021,-0.00027995906
3022,-0.0014185577
3023,0.005886643
3024,0.006174296
3025,0.015053281
3026,-0.004546318
3027,0.013120309
3028,-0.0016948904
3029,0.00036307913
3030,0.002656138
3031,0.014156213
3032,-0.0013890674
3033,-0.005388517
3034,0.017722683
3035,-0.008240009
3036,0.010075956
3037,0.0042417482
3038,0.0033496574
3039,-0.00014490531
3040,-0.011677724
3041,0.005014816
3042,0.0024292353
3043,-0.007906349
3044,0.01796373
3045,0.0131975515
3046,-0.0062522064
3047,-0.007752961
3048,0.0053873947
3049,-0.003826428
3050,-0.007016127
3051,0.0024768729
3052,0.0023040362
3053,-0.0025192196
3054,0.005847391
3055,-0.011203914
3056,0.007991499
3057,0.010153547
3058,0.018476292
3059,0.017750576
3060,-0.008993783
3061,0.011328583
3062,0.01582711
3063,-0.00848485
3064,0.013542366
3065,-1.9377147e-05
3066,-0.0021976714
3067,0.0011855365
3068,0.0076335743
3069,0.00044112958
3070,-0.0106968675
3071,0.002411522
3072,-0.0033946726
3073,-0.00654698
3074,0.015496722
3075,-0.010816528
3076,-0.011896976
3077,0.019918794
3078,-0.0073654633
3079,-0.0088637145
3080,0.012697749
3081,-9.825479e-05
3082,0.011570765
3083,-0.0039133457
3084,0.0064875237
3085,-0.016784102
3086,0.0018685502
3087,-0.005735081
3088,-0.01597363
3089,-0.00191971
3090,0.006764463
3091,-0.0014949549
3092,0.0075604073
3093,-0.0051261764
3094,0.0015457347
3095,0.008878844
3096,0.0060104285
3097,-0.010058919
3098,-0.0026712965
3099,0.0015418851
3100,-0.012240594
3101,0.01137972
3102,0.014827811
3103,0.0019434289
3104,-0.00958144
3105,0.0027080155
3106,0.013794573
3107,-0.010074877
3108,0.016281167
3109,0.010244107
3110,-0.00072518346
3111,-0.0052684373
3112,0.0011370314
3113,-0.011616404
3114,-0.005225443
3115,0.0121972775
3116,0.0068671256
3117,-0.0099802
3118,-0.0078077796
3119,-0.0071830577
3120,0.0072635054
3121,-0.0060720183
3122,-0.004278325
3123,0.0039116843
3124,-0.011376805
3125,0.0077795065
3126,-0.005013391
3127,0.011881111
3128,0.0029576353
3129,0.006809027
3130,-0.008487156
3131,-0.014305893
3132,0.007204137
3133,0.0040047416
3134,0.011279338
3135,0.0056034042
3136,0.00019911426
3137,0.008872588
3138,-1.41298115e-05
3139,-0.0025477584
3140,0.0029212264
3141,0.00522959
3142,-0.004103542
3143,-0.003201745
3144,-0.0050025457
3145,0.0054949243
3146,-0.016302703
3147,0.010067764
3148,-0.018189775
3149,0.00395694
3150,-0.005584694
3151,-0.0017260181
3152,0.013513215
3153,-0.0009956562
3154,-0.002680991
3155,-0.0019926995
3156,0.007262839
3157,-0.003951984
3158,0.0052856575
3159,0.0035108007
3160,0.008712885
3161,0.0067908675
3162,0.0030026268
3163,0.012648824
3164,0.0017096208
3165,-0.010614831
3166,-0.00034732439
3167,0.0062638377
3168,0.0013198922
3169,-0.0013606937
3170,0.0046822242
3171,0.000319398
3172,0.013935392
3173,0.018822877
3174,0.0042713485
3175,0.006953048
3176,0.0066753575
3177,-0.008116594
3178,0.019313313
3179,-0.009215893
3180,0.004082793
3181,-0.004188738
3182,0.005478757
3183,0.018023597
3184,0.01500651
3185,-0.0018901902
3186,0.00049189705
3187,-0.0021173789
3188,0.0037162688
3189,0.0065069506
3190,-0.008810998
3191,0.0034465515
3192,0.0070677404
3193,0.01680822
3194,-0.010743963
3195,-0.009974485
3196,-0.013120375
3197,0.0049721813
3198,0.0005942861
3199,-0.011320145
3200,-0.006587874
3201,0.0024198643
3202,0.00032871243
3203,-0.007033032
3204,-0.0034399438
3205,0.0049346196
3206,-0.006181518
3207,-0.0014952449
3208,-0.013901753
3209,-0.002211649
3210,-0.00084599096
3211,-0.019125314
3212,0.018275337
3213,0.013351343
3214,-0.0017529583
3215,0.0016419326
3216,0.0053334734
3217,-0.014640518
3218,0.007163412
3219,0.014195363
3220,0.001049429
3221,0.012990321
3222,0.0093860775
3223,0.017252015
3224,-0.001132308
3225,0.0030571376
3226,-0.019812107
3227,0.013090577
3228,0.00430645
3229,0.014970543
3230,0.0032889282
3231,-0.0019282174
3232,-0.0002472736
3233,0.010191704
3234,0.003174122
3235,-0.01468429
3236,-0.005537856
3237,-0.0085854065
3238,0.005960996
3239,0.000286575
3240,-0.009344514
3241,0.0047019515
3242,-0.0042636306
3243,0.0040482064
3244,-0.01130334
3245,0.0063455724
3246,0.013828663
3247,-0.0008269926
3248,-0.002240937
3249,0.007984868
3250,-0.0013229706
3251,0.008318945
3252,0.001814066
3253,0.00025634223
3254,0.009436288
3255,0.0073438273
3256,0.009434391
3257,-0.014836575
3258,-5.3117266e-05
3259,-0.00024642888
3260,0.00927139
3261,-0.009371091
3262,0.012558715
3263,0.009970179
3264,-0.008140858
3265,0.0111152325
3266,0.007852232
3267,0.0023724008
3268,0.0033921553
3269,0.0051515526
3270,-0.00022656196
3271,-0.006797395
3272,-0.0047590816
3273,-0.014842548
3274,-0.0068624113
3275,0.01744451
3276,-0.0066703623
3277,0.0005451396
3278,-0.012899243
3279,0.015939532
3280,-0.011851946
3281,0.007733388
3282,-0.0072532725
3283,0.018304272
3284,0.003559974
3285,0.010150293
3286,0.005076638
3287,0.008660844
3288,-0.004850828
3289,0.0075235036
3290,0.018120052
3291,0.0036873254
3292,0.007220614
3293,0.0026047905
3294,-0.002909983
3295,0.0011075272
3296,-0.002115282
3297,0.0010977183
3298,-0.015096724
3299,-0.0009376212
3300,-0.0056857187
3301,0.015085202
3302,0.003191508
3303,-0.0054598483
3304,-0.00085606496
3305,-0.0021817267
3306,-0.012685776
3307,-0.011331139
3308,-0.002313375
3309,-0.00513388
3310,-0.0009957292
3311,0.015429022
3312,-0.008358455
3313,-0.00047328338
3314,-0.009163537
3315,-0.012262114
3316,-0.00091486773
3317,-0.008524884
3318,-0.008447494
3319,-0.009940639
3320,-6.943264e-05
3321,0.008371308
3322,-0.0022507277
3323,-0.0019460062
3324,0.010418768
3325,-0.01731744
3326,-0.009919541
3327,-0.0038199471
3328,0.011804151
3329,-0.0036708661
3330,0.00322673
3331,0.006120551
3332,0.0032836436
3333,0.0021406263
3334,-0.012077563
3335,-0.010457593
3336,0.004802396
3337,0.0048208274
3338,-0.0044474252
3339,-0.011351751
3340,0.00303253
3341,-0.0045747682
3342,-0.0024370437
3343,-0.01052266
3344,0.008431172
3345,-0.009758603
3346,-0.0053978814
3347,0.009505785
3348,0.009990621
3349,-0.016784053
3350,-0.010168416
3351,-0.0055504106
3352,0.00040399274
3353,-0.010629068
3354,0.0045328382
3355,0.006780859
3356,-0.017031958
3357,0.010948822
3358,0.003932808
3359,-0.009206252
3360,0.008741093
3361,0.0043109856
3362,0.010889498
3363,-0.012836207
3364,-0.0033017443
3365,-0.0016264868
3366,0.002256217
3367,-0.010472646
3368,0.018210236
3369,0.011881
3370,0.0011732752
3371,-0.007572701
3372,-0.0059090583
3373,-0.0065368502
3374,0.0012403799
3375,-0.001773671
3376,0.0013876684
3377,-0.0060529984
3378,-0.010428614
3379,-0.005465195
3380,0.0037851722
3381,0.005857732
3382,-0.00022657971
3383,-0.014125813
3384,-0.008144683
3385,0.016139088
3386,0.015967239
3387,0.0070106676
3388,0.001223144
3389,0.0067982175
3390,-0.0038132141
3391,-0.0077393055
3392,-0.0031755941
3393,0.014184207
3394,-0.0068402956
3395,0.019773968
3396,0.0024898807
3397,0.0004466657
3398,-0.018230245
3399,-0.008727784
3400,0.0104960045
3401,4.8608585e-05
3402,-0.0072295005
3403,0.0033930135
3404,0.013070509
3405,-0.008197543
3406,0.004234464
3407,-0.0016397012
3408,0.001232826
3409,0.00041734564
3410,0.0009773672
3411,-0.0121331895
3412,0.014031374
3413,-0.009110218
3414,0.0020697634
3415,-0.00981023
3416,0.007296608
3417,0.0045692883
3418,0.00031949824
3419,-0.010307587
3420,-0.007658782
3421,0.0045586633
3422,-0.0034112958
3423,0.00036577095
3424,-0.007818254
3425,-0.015314107
3426,0.005980594
3427,0.0012094787
3428,-0.019829601
3429,0.003266609
3430,-0.0049353484
3431,0.007612942
3432,-0.015051915
3433,0.011578244
3434,0.0006197509
3435,0.0066795666
3436,-0.001193736
3437,-0.006006115
3438,0.0027848794
3439,0.0085653765
3440,0.011925623
3441,0.018370828
3442,0.009012529
3443,-0.00813375
3444,0.017685838
3445,-0.006273447
3446,0.0026563676
3447,-0.0001924662
3448,-0.0016585606
3449,0.011525514
3450,0.014363419
3451,-0.013520374
3452,0.016000366
3453,-0.00048518582
3454,-0.00812959
3455,-0.012420842
3456,-0.007773115
3457,0.009752908
3458,-0.010236553
3459,-0.0023604839
3460,-0.0063112215
3461,-0.013866834
3462,-0.017968694
3463,0.0016161329
3464,-0.016710984
3465,0.0027043214
3466,-0.0042224205
3467,-0.0016092118
3468,-0.014157438
3469,0.004094706
3470,0.012601003
3471,-0.010947172
3472,0.011419326
3473,0.0018138504
3474,-0.003675261
3475,-0.0031843525
3476,-0.010478412
3477,-0.009167051
3478,-0.008644823
3479,-0.0117322
3480,-0.0010078462
3481,0.004693125
3482,-0.016949462
3483,0.015710251
3484,-0.013397644
3485,-0.006992366
3486,0.0017193974
3487,0.005725846
3488,-0.0036668687
3489,-0.01069634
3490,0.0040336912
3491,-0.0010952947
3492,-0.0029587105
3493,0.0052997246
3494,0.009576963
3495,-0.013481545
3496,0.004062045
3497,-0.012258887
3498,-0.00082167744
3499,-0.004307949
3500,0.008158118
3501,0.015611437
3502,-0.008349377
3503,0.0077107092
3504,-0.010809912
3505,0.0036724466
3506,0.0056734798
3507,0.011059501
3508,-0.008528216
3509,-0.005785179
3510,-0.0022157673
3511,-0.0045055235
3512,0.01354173
3513,0.009816996
3514,0.0044785226
3515,-0.012304707
3516,-0.0015207396
3517,-0.0048972345
3518,-0.0042943438
3519,-0.017350545
3520,-0.0020621927
3521,-0.0050133094
3522,-0.012644838
3523,0.010875712
3524,0.0016007157
3525,-0.015984483
3526,-0.004305012
3527,0.007354776
3528,0.0030483247
3529,-0.002698579
3530,0.015937952
3531,-0.010033891
3532,0.019637074
3533,0.005665477
3534,-0.008860897
3535,-0.0049027367
3536,0.012591294
3537,0.008356683
3538,-0.015487411
3539,0.011270334
3540,0.0011697327
3541,-0.0037666399
3542,0.007336525
3543,0.00982569
3544,0.0080445735
3545,0.00089776923
3546,0.01345128
3547,-0.00842562
3548,-0.019187016
3549,0.0036579308
3550,0.0035568578
3551,0.01674525
3552,-0.001804931
3553,-0.005838296
3554,0.007096865
3555,0.004034879
3556,-0.012040266
3557,-0.013649911
3558,0.00090590795
3559,0.0017972877
3560,0.017898146
3561,-0.004784295
3562,-0.01065463
3563,-0.01883077
3564,-0.011741601
3565,0.00439871
3566,-0.0006434778
3567,-0.009094076
3568,0.0065618074
3569,-0.012582655
3570,0.01633859
3571,-0.013394939
3572,0.015045646
3573,0.011899625
3574,0.008310494
3575,0.01331026
3576,0.0018943865
3577,0.008015494
3578,0.0012316986
3579,0.011456249
3580,0.0042523025
3581,-0.006024606
3582,0.005362858
3583,-0.008326967
3584,-0.0041621113
3585,0.0058453926
3586,-0.0027394115
3587,-0.011575648
3588,-0.0016384539
3589,-0.007830028
3590,0.000912493
3591,-0.018772742
3592,0.005955754
3593,0.0065045403
3594,0.0047547263
3595,0.014736395
3596,0.014339474
3597,-0.0057580206
3598,-0.012733187
3599,0.014244035
3600,-0.002044414
3601,-0.005919804
3602,-0.012577181
3603,8.071848e-05
3604,0.00028337477
3605,-0.005269873
3606,-0.0016364543
3607,0.017548645
3608,0.006829428
3609,0.0122641595
3610,0.015155503
3611,0.006784906
3612,0.005753667
3613,-0.00811004
3614,-0.0016047212
3615,0.012884896
3616,-0.00021794619
3617,6.156191e-05
3618,0.012898347
3619,-0.003177714
3620,0.0065429946
3621,0.018615872
3622,-0.0024638553
3623,-0.01082457
3624,0.01362097
3625,0.016256284
3626,-0.004146028
3627,-0.01459806
3628,0.0018348749
3629,-0.005379248
3630,-0.007876736
3631,-0.0005635277
3632,0.0049572787
3633,0.012023855
3634,-0.003865876
3635,0.012351024
3636,0.0022865047
3637,0.0012820784
3638,0.012390537
3639,0.009487448
3640,-0.010557631
3641,-0.012750056
3642,0.0006541397
3643,0.0018554131
3644,0.007895616
3645,0.0069459686
3646,-0.017003726
3647,-0.004584484
3648,-0.008555406
3649,-0.0022674827
3650,0.0030563585
3651,-0.00046487805
3652,0.0069543337
3653,-0.0017394461
3654,0.003973109
3655,-0.009631846
3656,0.016540466
3657,-0.0010799594
3658,-0.019047778
3659,-0.002130415
3660,-0.0057157353
3661,-0.013573946
3662,0.011554775
3663,0.0040741987
3664,-0.0005793944
3665,-0.0019773936
3666,-8.488498e-05
3667,0.00330263
3668,-0.010205942
3669,-0.014053803
3670,0.0043019126
3671,0.002195317
3672,-0.0068322634
3673,-0.015469261
3674,-0.017159536
3675,-0.004270359
3676,-0.010077276
3677,0.014849421
3678,0.01769218
3679,-0.019206092
3680,0.0014559957
3681,-0.006229649
3682,-0.0058078743
3683,0.0023516358
3684,-0.0038993342
3685,-0.0026721212
3686,-0.012927183
3687,-0.0007631013
3688,-0.003065411
3689,-0.0012820829
3690,-0.016207151
3691,-0.01585978
3692,-0.008683477
3693,-0.008368093
3694,-0.0025286556
3695,0.0027732651
3696,-0.0064005232
3697,0.009645372
3698,-0.0020985757
3699,-0.012470171
3700,0.011007134
3701,-0.0057072574
3702,-0.0022239403
3703,0.0034155156
3704,-0.004416309
3705,-0.010197661
3706,0.0028917547
3707,0.00873705
3708,-2.6480047e-05
3709,0.012249027
3710,-0.0030472458
3711,-0.0062212306
3712,-0.0079469895
3713,-0.015269724
3714,0.00058030523
3715,0.010167763
3716,0.004413843
3717,0.0021113448
3718,0.0009780102
3719,-0.0021970829
3720,-0.0076031177
3721,-0.0024799667
3722,0.0056201112
3723,-0.013454419
3724,0.0024398717
3725,0.008887533
3726,-0.008682811
3727,0.0038305086
3728,-0.010671599
3729,0.0011577997
3730,-0.002772361
3731,0.007846682
3732,0.004691175
3733,0.002886465
3734,0.0072534685
3735,0.007359454
3736,-0.007400633
3737,-0.0030630212
3738,0.012730518
3739,0.0060162907
3740,0.0031099722
3741,-0.0009159433
3742,-0.001187654
3743,0.005438811
3744,0.0040574824
3745,-0.0070670345
3746,0.011231712
3747,0.015834644
3748,-0.013490852
3749,-0.013624821
3750,-0.00028173503
3751,0.009460106
3752,0.010534493
3753,-0.013794879
3754,0.0082372045
3755,-0.0021813277
3756,0.0055209417
3757,-0.0028803125
3758,0.0027729059
3759,-0.01678697
3760,-0.0044026757
3761,0.005904465
3762,-0.0058891457
3763,-0.013633503
3764,0.008245922
3765,-0.013562612
3766,-0.005488215
3767,-0.0032571177
3768,-0.0038680492
3769,-0.013822307
3770,-0.0053467033
3771,0.0022048575
3772,0.011751661
3773,0.00018486021
3774,-0.01510683
3775,0.000725214
3776,0.013699287
3777,0.0028475304
3778,-0.010397393
3779,-0.005830008
3780,-0.009084287
3781,-0.014891408
3782,0.0093747135
3783,-0.006228143
3784,0.0055148606
3785,0.008117548
3786,-0.008740412
3787,0.0058963858
3788,0.006699443
3789,-0.003432897
3790,-4.5076213e-05
3791,-0.017224543
3792,0.012031212
3793,0.0002686873
3794,0.0069050663
3795,-0.010968084
3796,0.0060264086
3797,0.002854301
3798,0.007632344
3799,0.0067810854
3800,0.008816557
3801,0.0037343984
3802,-0.0153749045
3803,-0.007229825
3804,0.0135194855
3805,-0.015577638
3806,-0.0010080135
3807,0.0018028704
3808,-0.0053966865
3809,0.0052941
3810,-0.0020639913
3811,-0.0014358357
3812,-0.012027025
3813,0.005140295
3814,0.00064401014
3815,0.012005915
3816,-0.00074792624
3817,-0.010808911
3818,-0.0179871
3819,0.012139018
3820,-0.0085941125
3821,0.009038096
3822,-0.009905246
3823,0.004971474
3824,-0.0038571262
3825,0.0059644985
3826,-0.01432054
3827,-0.0028002863
3828,0.008987075
3829,0.0051025115
3830,0.005425925
3831,-0.006527488
3832,0.005869411
3833,-0.004650621
3834,0.0011589208
3835,0.0016276669
3836,-0.013915492
3837,0.0073302584
3838,-0.007863115
3839,0.013509161
3840,0.009387285
3841,-0.009068659
3842,-0.0023348175
3843,-0.014019344
3844,-0.016535627
3845,0.0024331608
3846,-0.010385892
3847,0.0009408688
3848,0.006078997
3849,0.0043206546
3850,0.012023616
3851,-0.00014391197
3852,6.0450388e-05
3853,-0.002738634
3854,0.00703943
3855,0.0049613314
3856,0.01721774
3857,0.014077868
3858,0.006337013
3859,-0.0019057322
3860,-0.009432362
3861,-0.0027704646
3862,-0.0069223433
3863,-0.008054037
3864,0.010574498
3865,0.0077561224
3866,0.018167853
3867,-0.00051232544
3868,-0.0025958093
3869,0.008732772
3870,0.0012091568
3871,0.0031644085
3872,-0.0036189705
3873,0.010713173
3874,0.0077775763
3875,0.01045673
3876,0.01884648
3877,-0.0036534583
3878,-0.0058974097
3879,-0.00044149155
3880,4.7640326e-05
3881,0.003102393
3882,0.015955975
3883,-0.0059759174
3884,-0.010436605
3885,0.015956817
3886,-0.004274574
3887,-0.017323758
3888,-0.0036640074
3889,0.0007118586
3890,-0.005542112
3891,0.0012483245
3892,0.017711967
3893,0.006188117
3894,0.010553599
3895,-0.012101341
3896,0.018729256
3897,-0.005524964
3898,-0.0066681337
3899,0.015669053
3900,0.008870195
3901,0.0069551812
3902,0.003832996
3903,0.005354678
3904,-0.0066251736
3905,0.0044393153
3906,0.0050808084
3907,-0.007181466
3908,0.004936319
3909,0.0010778068
3910,0.014556423
3911,-0.0017545004
3912,-0.0026301565
3913,-0.004775419
3914,-0.0027330825
3915,0.001944117
3916,0.011634364
3917,0.010074554
3918,0.010505714
3919,-0.016980045
3920,-0.013831681
3921,0.005855742
3922,0.019983023
3923,0.0065627415
3924,-0.0019182885
3925,0.006809657
3926,-0.009299844
3927,0.012150612
3928,-0.008243067
3929,-0.0063192234
3930,-0.0028807707
3931,0.00071333617
3932,0.0017839227
3933,-0.00086734316
3934,0.016085098
3935,0.0006157709
3936,-0.012322575
3937,0.0007952122
3938,-0.017240021
3939,0.003744725
3940,-0.008213446
3941,-0.0011957231
3942,-0.012964923
3943,0.0061775455
3944,0.0066840723
3945,-0.004847962
3946,-0.011878192
3947,0.0006929958
3948,-0.014148433
3949,0.011948981
3950,-0.00043817118
3951,0.005399329
3952,-0.007054702
3953,0.0061699203
3954,-0.0025768876
3955,0.0042054937
3956,0.0065225437
3957,0.007810171
3958,0.0016573628
3959,0.009775459
3960,-0.0043660356
3961,0.0023772886
3962,0.0088701565
3963,0.0018166653
3964,0.0013327893
3965,0.0067078155
3966,-0.0009874321
3967,0.010783728
3968,0.0050729555
3969,-0.006480817
3970,-0.00046570605
3971,-0.0016284379
3972,0.0072600627
3973,-0.0046839467
3974,0.005841745
3975,-0.004433418
3976,0.012970421
3977,-0.018572481
3978,-0.016596917
3979,-0.0077813575
3980,0.000622828
3981,-0.0061571198
3982,-0.015974537
3983,-0.014481485
3984,-0.0009235306
3985,0.007095155
3986,0.014298279
3987,0.016032904
3988,0.0010235001
3989,0.009505785
3990,-0.0032011105
3991,-0.00057328976
3992,-0.0009140977
3993,0.011178877
3994,0.0010893235
3995,0.0035314956
3996,-0.008593473
3997,-0.013659373
3998,0.0048413286
3999,-0.004764314
4000,-0.0032213507
4001,-0.008257112
4002,0.0037567054
4003,0.0016155872
4004,-0.008310012
4005,0.010695279
4006,0.006932266
4007,0.0016782513
4008,-0.0016614766
4009,-0.0029626742
4010,-0.019579763
4011,0.0049726916
4012,0.014301903
4013,5.1955325e-05
4014,0.008812916
4015,0.003779728
4016,-0.0019678453
4017,0.011032204
4018,-0.0052778665
4019,0.013076567
4020,-0.0025764804
4021,-0.007544419
4022,-0.00041877956
4023,-0.0051134555
4024,-0.007265846
4025,0.004641403
4026,0.0022933506
4027,-0.0038196682
4028,0.0069713322
4029,-0.0052329064
4030,-0.005099382
4031,-0.00041745018
4032,0.0027768007
4033,0.008888546
4034,0.00022891293
4035,-0.008314992
4036,0.0066163624
4037,-0.0036701858
4038,0.0016953334
4039,-0.0007608466
4040,0.0029248015
4041,-0.00063464284
4042,0.008477269
4043,-0.003777728
4044,-0.01628184
4045,0.00051243167
4046,0.015436116
4047,-0.0010389654
4048,-0.00093049183
4049,0.0005529173
4050,-0.0036290442
4051,-0.011597263
4052,0.004991165
4053,0.0027890152
4054,-0.004579173
4055,-0.0035731085
4056,-0.0016462582
4057,0.013936068
4058,-0.0011938137
4059,0.004054553
4060,0.016299142
4061,-0.0012963129
4062,0.01616861
4063,-0.001993123
4064,-6.760093e-05
4065,0.006001931
4066,0.014797757
4067,-0.007896147
4068,0.0044066347
4069,0.004844741
4070,-0.0072173607
4071,-0.0077090836
4072,0.0042209085
4073,-0.017631471
4074,-0.010104763
4075,-0.001408115
4076,0.003463464
4077,-0.017135803
4078,-0.017456645
4079,-0.012296768
4080,0.004114591
4081,0.009006119
4082,0.0063449647
4083,-0.0012117192
4084,0.0070640324
4085,-0.009957276
4086,0.0018883967
4087,0.010140408
4088,-0.0017334495
4089,0.00917093
4090,-0.009846851
4091,0.009344956
4092,0.011983348
4093,-0.0022292396
4094,-0.006623959
4095,0.007195416
