Sno,Weight
0,0.10007335
1,0.04084192
2,-0.13196357
3,-0.18065047
4,-0.1824317
5,-0.023559086
6,-0.1251002
7,-0.26651886
8,0.0003868814
9,-0.013775764
10,-0.008388389
11,-0.032810852
12,-0.019289322
13,0.001751706
14,-0.06458581
15,-0.03390859
16,0.06253713
17,-0.011014742
18,-0.11038169
19,0.0050425087
20,-0.047305673
21,0.09646578
22,-0.024605185
23,-0.025751557
24,-0.03102735
25,-0.087791674
26,-0.0240786
27,-0.05404479
28,-0.11594157
29,0.120013036
30,0.0037263941
31,-0.017793637
32,-0.15369081
33,-0.072645955
34,-0.03983956
35,-0.17258157
36,-0.027749669
37,0.044325326
38,0.069727875
39,-0.0936335
40,-0.037474625
41,0.033185218
42,-0.0051572067
43,-0.020466398
44,-0.12679958
45,-0.035211366
46,-0.16618071
47,0.045551047
48,0.008743699
49,-0.00097146
50,-0.16025355
51,-0.0215617
52,-0.07889762
53,-0.008977882
54,-0.019861205
55,-0.1451024
56,-0.13214687
57,-0.12851247
58,-0.020761691
59,-0.15041752
60,-0.0199283
61,0.04093677
62,-0.017214749
63,-0.08864555
64,-0.033373047
65,0.033083476
66,-0.018031167
67,-0.24665406
68,0.0014675844
69,-0.01883551
70,-0.071316816
71,-0.09378228
72,0.0099647315
73,-0.03353297
74,-0.010956341
75,-0.039502446
76,-0.0045552715
77,-0.009110977
78,0.0024223034
79,-0.010775573
80,0.094832905
81,-0.041298002
82,-0.039311357
83,-0.04217425
84,-0.035304286
85,-0.029935759
86,-0.101478204
87,-0.06297635
88,-0.062749
89,0.12492885
90,-0.016462093
91,-0.019379018
92,-0.16688721
93,-0.026159102
94,-0.064127386
95,-0.18615805
96,0.009834058
97,-0.011662913
98,-0.047098592
99,0.0150591545
100,-0.04136188
101,-0.058191344
102,-0.087392375
103,-0.02246467
104,0.005522464
105,-0.048417155
106,-0.0077142967
107,-0.061211307
108,-0.051057603
109,0.12911195
110,0.015586234
111,-0.13067493
112,-0.004632768
113,-0.08425983
114,-0.20871095
115,-0.06507765
116,0.19252817
117,-0.10258164
118,-0.008505571
119,-0.020401577
120,-0.0042822156
121,0.016654726
122,-0.0076512843
123,-0.069659285
124,-0.042830978
125,-0.04542426
126,-0.201001
127,-0.019964145
128,0.022807293
129,-0.0075631584
130,-0.073067755
131,0.008927159
132,-0.0073649557
133,-0.03384388
134,-0.0050558583
135,-0.09198214
136,0.018287158
137,-0.023996746
138,0.010727843
139,-0.045100644
140,0.0067484537
141,-0.009404082
142,-0.024342224
143,-0.030203203
144,-0.06309229
145,-0.05036974
146,-0.063103706
147,-0.009955271
148,-0.07010016
149,-0.12915926
150,0.009817469
151,0.011162647
152,-0.09490919
153,-0.034319114
154,-0.0015559036
155,0.0054875147
156,0.001209864
157,-0.0052436986
158,0.011928985
159,-0.0029566565
160,0.016302222
161,-0.061777446
162,-0.086732015
163,-0.027744524
164,-0.041384067
165,-0.088419974
166,-0.089338124
167,-0.02166696
168,-0.01740276
169,-0.020012662
170,0.02806267
171,-0.13320808
172,0.012741955
173,-0.08100146
174,0.033051986
175,-0.064202726
176,-0.08663895
177,0.0054609
178,-0.04288407
179,0.009675812
180,-0.10593783
181,0.024340995
182,-0.07658084
183,0.049359437
184,-0.0007571719
185,-0.06966815
186,0.04898886
187,0.005733106
188,-0.015818007
189,-0.029621692
190,-0.03436466
191,0.035079602
192,-0.089306146
193,-0.07021047
194,-0.0016213348
195,-0.013635357
196,-0.017962929
197,-0.054324903
198,-0.038403604
199,0.022789918
200,0.009162975
201,-0.0047455686
202,0.0008133635
203,0.009143482
204,-0.023359876
205,-0.052270744
206,-0.024879156
207,0.062261965
208,-0.024293073
209,-0.056342416
210,-0.07145751
211,-0.026777213
212,-0.036785703
213,0.025536714
214,0.038781073
215,-0.14202997
216,-0.11262369
217,0.037940558
218,-0.055479467
219,0.04250476
220,-0.08480453
221,-0.08402435
222,-0.07528901
223,-0.030826189
224,2.1764865e-05
225,-0.010057403
226,-0.024626812
227,0.022595024
228,0.0061929505
229,0.011647187
230,-0.13114399
231,-0.040906664
232,-0.22590967
233,-0.08369608
234,0.02456021
235,-0.08481062
236,-0.069066994
237,-0.11109425
238,-0.004888394
239,0.03109513
240,-0.0036975415
241,-0.09663186
242,0.049906686
243,-0.025255062
244,-0.11635047
245,0.017261434
246,-0.00765084
247,-0.049218815
248,0.04383366
249,-0.041318778
250,-0.012960909
251,0.045651503
252,0.04354601
253,-0.046888214
254,0.009960117
255,-0.011633711
256,0.044707544
257,-0.0057345657
258,0.055957187
259,-0.13182323
260,-0.06102712
261,0.04319336
262,-0.050786726
263,0.06349444
264,0.02610822
265,0.016557874
266,0.00031769308
267,-0.2124401
268,-0.0986239
269,0.108104795
270,-0.023832098
271,0.029859241
272,0.031049442
273,-0.36072633
274,0.02960691
275,0.028463233
276,-0.12759548
277,0.015797669
278,0.05623219
279,-0.0112462705
280,-0.041530445
281,-0.032679986
282,0.03783177
283,-0.067951135
284,0.044757426
285,0.008132306
286,-0.015958393
287,0.013752017
288,-0.30088505
289,-0.16211702
290,0.0127957165
291,0.040616833
292,0.119854204
293,-0.024367863
294,0.08711885
295,-0.026787778
296,-0.0024719634
297,-0.0226808
298,0.026989302
299,0.01683117
300,0.072482534
301,-0.07757846
302,-0.13866873
303,0.015969478
304,-0.09118757
305,0.04422311
306,0.06885579
307,-0.0035356132
308,-0.083155744
309,0.012831377
310,0.0015316621
311,-0.108259305
312,0.065522894
313,-0.18208
314,-0.16469485
315,-0.029065507
316,0.07034173
317,-0.007895635
318,0.026733913
319,0.005384825
320,-0.08412808
321,0.015495236
322,0.012832002
323,0.043147746
324,0.0039102314
325,0.022670997
326,0.023186797
327,-0.32233065
328,-0.0003472111
329,-0.021240646
330,0.033614233
331,0.042571917
332,0.023953015
333,0.06271405
334,0.050334346
335,0.061570924
336,0.010809482
337,-0.0795756
338,0.028558463
339,0.0008985301
340,-0.19342025
341,0.01550872
342,-0.06420764
343,-0.023023974
344,-0.0753958
345,0.01646567
346,0.030470932
347,0.018729724
348,-0.098119155
349,0.06059454
350,-0.14028999
351,0.08639092
352,0.11359911
353,-0.018525932
354,-0.042988233
355,0.012740145
356,0.08505046
357,-0.027913315
358,-0.031213148
359,0.022308089
360,-0.015567187
361,0.01325183
362,0.11579866
363,0.025470793
364,-0.386995
365,-0.004986929
366,0.037658785
367,0.08083828
368,-0.020490566
369,0.049028184
370,-0.08711384
371,0.039314553
372,0.0976119
373,-0.01866217
374,-0.013197059
375,0.057260744
376,-0.16547145
377,0.044001196
378,0.022251723
379,-0.012926042
380,-0.20159249
381,-0.023076834
382,-0.054034475
383,0.001176769
384,-0.09066809
385,-0.09358825
386,0.026549488
387,-0.12355766
388,0.039729293
389,-0.048453312
390,-0.051869515
391,-0.004642328
392,-0.016942842
393,-0.029953461
394,0.00022337964
395,-0.03336363
396,-0.045074157
397,-0.03340175
398,0.008057351
399,-0.026495282
400,-0.0083418675
401,0.061750934
402,0.043465365
403,0.037063744
404,0.016110856
405,-0.021909773
406,-0.015134724
407,-0.06434631
408,-0.012777226
409,0.024228236
410,-0.043874897
411,-0.022292297
412,-0.023830745
413,-0.048209094
414,-0.05156912
415,-0.009305917
416,0.027772397
417,0.0018595946
418,0.07711957
419,0.019874984
420,-0.015914805
421,-0.018871628
422,-0.0056337826
423,-0.068213515
424,0.04884875
425,0.0159043
426,-0.02863253
427,-0.04127182
428,-0.012342913
429,-0.0120453425
430,0.017281469
431,-0.056722086
432,-0.00813998
433,-0.024056347
434,0.047228783
435,-0.003376192
436,-0.0043295063
437,-0.0036984193
438,0.07265884
439,0.01869644
440,-0.0082834475
441,0.02876094
442,-0.07599465
443,-0.006382313
444,-0.011542565
445,0.014078962
446,-0.034954496
447,-0.11121408
448,-0.025112102
449,0.018780574
450,0.001739627
451,-0.0064072316
452,-0.029435277
453,-0.0025485032
454,-0.015504961
455,0.044200923
456,-0.020884223
457,-0.040737938
458,0.0015909479
459,-0.011401337
460,-0.018457226
461,-0.029970247
462,0.047592923
463,-0.00475708
464,-0.077794045
465,-0.0056793215
466,-0.02002012
467,-0.009507877
468,0.04537689
469,-0.0071043493
470,-0.033841357
471,-0.033576734
472,-0.09375061
473,-0.05034928
474,0.03272771
475,-0.013511472
476,-0.005284019
477,0.022127075
478,0.01601531
479,-0.02303099
480,-0.006149701
481,-0.004777105
482,-0.047591917
483,0.04565329
484,-0.03449557
485,0.05662643
486,0.014930859
487,-0.016819814
488,-0.068438984
489,0.0002683385
490,-0.033004828
491,0.0055009555
492,0.024897004
493,-0.046437763
494,-0.0436269
495,0.03037958
496,0.027933022
497,0.019498317
498,-0.07019315
499,0.039641075
500,-0.06986091
501,-0.073322564
502,0.007207835
503,-0.01334177
504,-0.0044190357
505,-0.013320267
506,-0.020928634
507,-0.037730828
508,-0.015595889
509,0.006836509
510,0.033379987
511,-0.036102567
512,0.04399722
513,0.06696447
514,0.016194107
515,-0.120844245
516,-0.011683874
517,0.0054148925
518,-0.01714849
519,0.013323631
520,0.088539936
521,-0.01221008
522,0.013065936
523,-0.022208892
524,0.017282616
525,-0.032746628
526,0.02990682
527,0.05724187
528,0.0139672775
529,-0.054326843
530,0.0030328855
531,-0.014763571
532,-0.04714351
533,-0.1751303
534,-0.0148535445
535,0.012185951
536,0.010389018
537,-0.064396754
538,0.010329471
539,-0.0345055
540,-0.022132438
541,0.010900972
542,-0.019797709
543,-0.026611151
544,-0.032586884
545,0.05138158
546,0.055921856
547,-0.0011454304
548,-0.011543469
549,-0.020640612
550,0.03162831
551,-0.032771517
552,-0.12156134
553,-0.006296696
554,0.0027197783
555,0.11198191
556,0.07777155
557,-0.058326874
558,0.019771196
559,0.02659206
560,0.008018964
561,-0.024151817
562,0.03966857
563,0.0062479926
564,-0.044933986
565,0.0025569343
566,-0.07224595
567,0.020227592
568,0.041676708
569,0.05327884
570,-0.015025278
571,0.026283307
572,0.009827946
573,0.0043974267
574,0.040223174
575,-0.010586677
576,-0.032400522
577,0.078956105
578,-0.022069827
579,0.022030486
580,0.013905892
581,0.044428755
582,0.032440744
583,-0.089234665
584,-0.0096387705
585,-0.006952821
586,0.07707554
587,0.0049687894
588,0.017445963
589,0.030963922
590,-0.025419662
591,0.040816538
592,0.030836666
593,-0.03677845
594,-0.014827459
595,0.019506477
596,-0.035470415
597,0.08338067
598,0.058979012
599,-0.05064005
600,-0.056611937
601,0.027871707
602,0.07597976
603,0.07786241
604,-0.019708816
605,0.06366317
606,-0.06332258
607,-0.030154882
608,0.09211531
609,0.0019658334
610,0.018656718
611,-0.034681592
612,-0.04205905
613,0.041066248
614,-0.06062866
615,0.022525242
616,-0.024293866
617,-0.031904943
618,-0.02097425
619,0.036517516
620,-0.066320784
621,-0.06899943
622,0.008270176
623,0.08197165
624,-0.003067357
625,0.0489087
626,-0.051619798
627,0.10078881
628,0.090972826
629,-0.0024401958
630,-0.006197783
631,0.109083325
632,-0.029056739
633,0.08246287
634,-0.010074189
635,0.024654076
636,-0.019142214
637,0.080270976
638,0.016062086
639,0.004040654
640,-0.030457437
641,-0.027355457
642,0.038796358
643,0.019078985
644,-0.07888301
645,-0.017980583
646,0.010490758
647,-0.06559643
648,-0.0027160684
649,-0.09445474
650,1.9377347e-05
651,-0.081565425
652,-0.031153249
653,0.0040557142
654,-0.1403052
655,0.03887843
656,0.02015622
657,-0.11009622
658,-0.038586643
659,-0.059177257
660,-0.09484673
661,-0.027635694
662,-0.0017245475
663,-0.009107002
664,-0.057385802
665,0.015931588
666,0.0187595
667,-0.0063859997
668,-0.0078111705
669,-0.023456676
670,-0.03280092
671,-0.01727841
672,-0.08590384
673,-0.014617883
674,-0.07694538
675,-0.059326246
676,-0.00905232
677,0.053362522
678,-0.22416441
679,0.007795573
680,-0.0041844416
681,-0.02412269
682,0.02613777
683,-0.04498083
684,-0.013576121
685,-0.06952801
686,-0.088916495
687,-0.031236172
688,0.019500546
689,0.008130641
690,-0.05781391
691,-0.00732866
692,-0.059891593
693,-0.020460317
694,-0.07177082
695,-0.068281375
696,0.008203275
697,0.04374632
698,-0.1397449
699,0.008257357
700,-0.033016667
701,-0.085551895
702,-0.03701419
703,-0.0032637164
704,-0.09805302
705,0.010855126
706,0.018087273
707,-0.028051239
708,-0.008556963
709,-0.038768996
710,-0.03434232
711,-0.06900581
712,-0.008734232
713,0.00034596142
714,-0.01891922
715,0.010140736
716,-0.016157199
717,-0.020848954
718,-0.061983526
719,-0.013836022
720,0.041398704
721,-0.043271407
722,-0.022440419
723,-0.01445027
724,-0.059569336
725,-0.018437946
726,-0.008315742
727,-0.09183511
728,0.032701984
729,-0.05852663
730,0.026423689
731,-0.032621413
732,-0.04746957
733,-0.035499115
734,-0.12667872
735,-0.036392808
736,0.019372052
737,-0.008191798
738,0.0008980088
739,-0.021000413
740,0.011355691
741,-0.04165567
742,-0.07650976
743,0.033289768
744,0.06040934
745,-0.08321013
746,-0.052448288
747,-0.04832555
748,-0.09474412
749,-0.052110944
750,0.021338377
751,-0.013187065
752,-0.00854094
753,0.020605978
754,0.0021246264
755,-0.041712116
756,-0.017995412
757,-0.0060726227
758,-0.01404156
759,0.024423037
760,-0.13208088
761,-0.09723355
762,-0.017633421
763,0.017316848
764,-0.04672335
765,0.04458619
766,-0.072368816
767,-0.006060861
768,0.02189245
769,-0.0053116246
770,0.001956888
771,0.036037914
772,-0.04087705
773,-0.0282075
774,-0.03143193
775,-0.10022071
776,-0.04177104
777,-0.0015348408
778,-0.005860689
779,-0.13433342
780,-0.063232236
781,-0.021169387
782,-0.10928583
783,0.026143763
784,0.04171361
785,-0.014164683
786,0.012655687
787,-0.023767862
788,-0.057281457
789,-0.04406314
790,-0.09284658
791,0.014726026
792,-0.02521598
793,-0.01606309
794,0.02465941
795,-0.04697056
796,-0.0069542867
797,0.015943216
798,-0.061158616
799,-0.022462716
800,-0.042052656
801,-0.040837765
802,0.015572181
803,-0.028009655
804,-0.016710768
805,-0.013431332
806,-0.018234171
807,-0.08390608
808,-0.026537355
809,-0.003499233
810,-0.001996111
811,0.011031055
812,-0.07901308
813,-0.022122256
814,-0.037314467
815,0.01980469
816,-0.0395428
817,0.015952993
818,-0.022629302
819,-0.0068916734
820,-0.073368765
821,-0.029768152
822,0.017664015
823,-0.04782259
824,-0.0009828295
825,0.008973919
826,-0.039771233
827,-0.025607148
828,-0.09831738
829,-0.023837937
830,0.009458395
831,-0.097837016
832,-0.046834264
833,0.028658824
834,-0.033733126
835,-0.08872003
836,0.009486979
837,-0.056245126
838,0.0048452485
839,-0.0034539811
840,-0.0022941397
841,-0.016662072
842,-0.051642932
843,0.024722645
844,0.0014863738
845,-0.10631309
846,0.006698768
847,-0.09333672
848,-0.062090382
849,-0.029191451
850,-0.029589696
851,-0.022688046
852,-0.12679802
853,-0.06319892
854,-0.0075978865
855,-0.06312233
856,-0.015622958
857,-0.016049987
858,-0.0043827966
859,-0.0547975
860,-0.08265257
861,-0.0054031187
862,-0.09456231
863,-0.056471564
864,-0.047997456
865,-0.025695622
866,-0.01421348
867,-0.021596288
868,-0.056722675
869,-0.017670384
870,-0.048713002
871,0.008429167
872,-0.03999454
873,-0.06626625
874,-0.04445605
875,-0.03312526
876,-0.020470787
877,-0.027564941
878,-0.011229742
879,-0.035459865
880,-0.0011214045
881,0.044047926
882,-0.048263893
883,-0.035352815
884,-0.021694142
885,-0.10591541
886,0.00017223341
887,-0.063737154
888,-0.07400713
889,-0.050881155
890,-0.0031579682
891,0.0017905973
892,-0.07223752
893,-0.0013430779
894,-0.04790958
895,-0.053274624
896,0.0022112993
897,-0.06596762
898,-0.004422919
899,0.03380632
900,0.03492432
901,-0.04596396
902,0.009178577
903,-0.0018800517
904,-0.06542997
905,-0.049108867
906,0.008967926
907,-0.019830283
908,0.042681217
909,-0.04408117
910,-0.03660093
911,0.02311087
912,0.01536525
913,0.041615535
914,-0.0064437487
915,0.045903645
916,0.038451806
917,-0.011525731
918,-0.05840331
919,-0.06315475
920,-0.0074390094
921,0.027158044
922,-0.0070319637
923,-0.030691372
924,0.019188087
925,-0.0069089555
926,-0.03355201
927,-0.020304885
928,0.040604282
929,0.0060013956
930,0.0035698032
931,0.018756626
932,-0.037132658
933,-0.02090243
934,-0.034543235
935,-0.042035755
936,0.016866533
937,-0.00039814482
938,-0.011929237
939,0.006792417
940,-0.01587232
941,-0.008340515
942,0.026198259
943,-0.022438087
944,-0.026316985
945,-0.00862999
946,0.02928137
947,0.00663998
948,-0.024409054
949,-0.02355308
950,0.0299249
951,0.032384623
952,0.009202391
953,0.03884836
954,0.036034174
955,-0.028662024
956,-0.024996152
957,-0.023206623
958,-0.059992857
959,-0.023038192
960,-0.021971393
961,0.008440925
962,-0.02224792
963,-0.04000143
964,-0.024176223
965,-0.06615765
966,-0.021916151
967,0.06610908
968,-0.00958609
969,-0.032077
970,-0.06854911
971,-0.023042103
972,-0.021887729
973,-0.07739286
974,0.0070037493
975,-0.0943295
976,-0.06276691
977,-0.016452955
978,-0.010403415
979,0.025040668
980,-0.062199164
981,-0.08630569
982,0.011437528
983,-0.026786916
984,0.00023478725
985,-0.03182103
986,0.0009825261
987,-0.1067459
988,-0.023714807
989,-0.004606746
990,-0.009603087
991,-0.023699189
992,-0.027958645
993,-0.019162761
994,0.02384242
995,0.0012311705
996,-0.051598463
997,-0.00045608426
998,-0.031164125
999,0.0016252572
1000,0.005385719
1001,-0.018171407
1002,-0.0057203793
1003,-0.061207622
1004,0.045536265
1005,0.0010414226
1006,-0.051858015
1007,-0.03392798
1008,-0.017114412
1009,0.028949838
1010,0.0065020025
1011,-0.059164967
1012,-0.045343224
1013,-0.049810197
1014,0.0016473243
1015,-0.023074575
1016,0.0725353
1017,-0.060457002
1018,-0.012366186
1019,-0.008939027
1020,0.03892771
1021,-0.036775213
1022,0.019042993
1023,-0.038385585
1024,0.07087269
1025,-0.0005246502
1026,0.1505847
1027,-0.034581263
1028,-0.01202618
1029,-0.04338794
1030,0.105707
1031,-0.13505878
1032,-0.094411895
1033,-0.030204616
1034,-0.0034173569
1035,0.12334815
1036,0.020002417
1037,-0.0065883365
1038,0.02042964
1039,0.13975725
1040,0.11689028
1041,0.0136648
1042,-0.00946415
1043,-0.069084525
1044,0.018184694
1045,-0.008341656
1046,0.0057425406
1047,0.0006974342
1048,0.001575499
1049,0.07756095
1050,-0.013355133
1051,-0.056273777
1052,-0.056614377
1053,0.08105955
1054,0.0038305034
1055,-0.012027688
1056,0.034001965
1057,-0.035661664
1058,-0.0013358787
1059,-0.03304516
1060,-0.03515185
1061,-0.025863146
1062,-0.119116075
1063,0.12372177
1064,-0.14823207
1065,-0.017562743
1066,0.030981429
1067,-0.0055786083
1068,-0.07602472
1069,0.017184721
1070,0.027907144
1071,0.13245602
1072,0.044511456
1073,-0.06858888
1074,0.025562191
1075,0.0049462733
1076,-0.035200663
1077,-0.1656677
1078,-0.05857286
1079,0.02207304
1080,-0.010337022
1081,-0.0074636475
1082,0.067631274
1083,-0.063023105
1084,-0.07909947
1085,-0.071925126
1086,-0.009909122
1087,0.08800189
1088,-0.04916245
1089,0.112205744
1090,-0.040964246
1091,-0.03964924
1092,-0.012512241
1093,0.026533324
1094,-0.06962759
1095,0.040221635
1096,-0.017263452
1097,-0.016289163
1098,-0.087419435
1099,0.007869173
1100,0.00039325503
1101,0.012677334
1102,-0.034855448
1103,-0.1588262
1104,0.01747347
1105,-0.053978097
1106,-0.068852834
1107,-0.011817299
1108,0.12844977
1109,-0.09390992
1110,0.034562677
1111,0.02976021
1112,0.014499525
1113,-0.059314333
1114,0.054239023
1115,0.019793328
1116,0.11341038
1117,0.0043115816
1118,0.011248449
1119,-0.1843216
1120,-0.031858236
1121,-0.034457155
1122,0.03667457
1123,-0.19165581
1124,-0.05578733
1125,0.0073633124
1126,0.02928848
1127,0.116247594
1128,0.03262921
1129,-0.04709932
1130,-0.077266335
1131,-0.020755509
1132,0.030492142
1133,-0.031923916
1134,-0.011924232
1135,-0.044576317
1136,-0.09268828
1137,0.105717316
1138,0.11675745
1139,0.017688835
1140,0.023842435
1141,0.10852691
1142,-0.0052861436
1143,-0.099890515
1144,0.09064508
1145,-0.07308418
1146,-0.027926065
1147,0.0038455133
1148,0.06827086
1149,-0.0006571688
1150,-0.006340212
1151,-0.009968868
1152,-0.021120554
1153,0.015453577
1154,0.013206126
1155,-0.079102956
1156,-0.017308086
1157,-0.029071247
1158,-0.0398611
1159,0.07099346
1160,0.030547975
1161,0.028695486
1162,0.0068954183
1163,-0.05708241
1164,-0.047385108
1165,0.004733591
1166,0.04358939
1167,-0.012102191
1168,-0.00426779
1169,-0.01769954
1170,-0.026602713
1171,-0.060010266
1172,-0.085359484
1173,-0.022022126
1174,0.0367781
1175,-0.0008289929
1176,-0.06053535
1177,-0.02978184
1178,-0.023764884
1179,0.008476632
1180,-0.04720129
1181,-0.01043318
1182,0.009041288
1183,-0.03455962
1184,-0.028391885
1185,0.02340839
1186,-0.0018904351
1187,-0.121169455
1188,-0.0003946565
1189,0.044749398
1190,0.04347468
1191,-0.04047044
1192,0.009668468
1193,-5.6275938e-05
1194,-0.040800143
1195,-0.02502232
1196,0.0102452785
1197,-0.060936842
1198,-0.064022735
1199,-0.009478009
1200,-0.00091602706
1201,-0.017038912
1202,-0.03176708
1203,-0.0045396863
1204,0.011419906
1205,0.0013840613
1206,-0.024426026
1207,-0.014143509
1208,-0.071635045
1209,0.03971517
1210,-0.017104007
1211,-0.10214227
1212,0.004529948
1213,-0.023625726
1214,-0.016370209
1215,-0.026375065
1216,0.026758943
1217,0.041536864
1218,0.009638402
1219,-0.005296642
1220,-0.018713325
1221,-0.0007870852
1222,-0.0036898917
1223,-0.030344449
1224,0.006624928
1225,-0.019017415
1226,0.037058637
1227,0.02049981
1228,-0.019605387
1229,0.013964318
1230,0.029703783
1231,0.051913846
1232,-0.00267508
1233,-0.0053957086
1234,-0.09859689
1235,0.003137494
1236,-0.01171782
1237,0.011242999
1238,-0.008828672
1239,-0.035553474
1240,-0.018692853
1241,-0.026323259
1242,0.05604504
1243,-0.00037540085
1244,0.027013646
1245,0.059839983
1246,-0.008845625
1247,-0.018151361
1248,0.07396765
1249,-0.009587046
1250,-0.04863375
1251,-0.005839094
1252,-0.0012447236
1253,-0.005729211
1254,0.008749678
1255,-0.02198262
1256,-0.029184533
1257,-0.08282211
1258,-0.019096559
1259,-0.004829005
1260,-0.08219833
1261,-0.022599535
1262,0.0035766629
1263,0.040924046
1264,-0.00867302
1265,-0.0028831316
1266,-0.05703032
1267,-0.00075885805
1268,0.0016306298
1269,-0.02633553
1270,-0.004266525
1271,0.02418833
1272,-0.023799257
1273,-0.001005007
1274,-0.013775757
1275,-0.0139858825
1276,-0.026438773
1277,0.08769601
1278,-0.045334734
1279,0.0011766615
1280,0.042522367
1281,0.046867535
1282,-0.012082739
1283,-0.19717258
1284,-0.07423866
1285,0.07109268
1286,-0.015692953
1287,-0.005663957
1288,0.18042031
1289,0.0025804501
1290,0.0069048237
1291,-0.11993888
1292,0.03698447
1293,-0.009613536
1294,-0.01417279
1295,-0.13370936
1296,-0.06914516
1297,-0.0474708
1298,-0.07919188
1299,-0.036542352
1300,-0.09010613
1301,-0.11926801
1302,0.046355177
1303,-0.0021899682
1304,0.0036847757
1305,-0.04100032
1306,0.016467214
1307,0.0072089466
1308,0.026815977
1309,0.016580878
1310,0.0026496348
1311,-0.013119494
1312,-0.06227721
1313,-0.06661988
1314,-0.13209985
1315,0.019204369
1316,0.07506576
1317,-0.0065219193
1318,-0.020288212
1319,-0.07516676
1320,0.03607033
1321,-0.0365755
1322,-0.07228571
1323,-0.17757712
1324,0.028101306
1325,-0.056740526
1326,-0.06706145
1327,-0.043782942
1328,-0.047862936
1329,0.008068251
1330,-0.04875057
1331,0.001495517
1332,-0.18227176
1333,0.08828053
1334,-0.033385903
1335,-0.04392534
1336,0.033109967
1337,-0.08782531
1338,-0.05559504
1339,-0.009695367
1340,0.112571254
1341,-0.19746415
1342,0.039289992
1343,-0.001973572
1344,-0.19358535
1345,0.032364395
1346,-0.037905086
1347,-0.081959136
1348,0.0047212513
1349,0.0051989625
1350,-0.00214934
1351,-0.029537236
1352,0.0058505167
1353,0.02231463
1354,0.1625818
1355,0.055707514
1356,-0.01354471
1357,0.041841537
1358,-0.010606168
1359,0.23716432
1360,0.049385224
1361,-0.16164955
1362,0.025781406
1363,0.019370025
1364,-0.03881373
1365,0.13457291
1366,-0.09152563
1367,-0.06837309
1368,-0.082737684
1369,-0.12027126
1370,-0.07360079
1371,-0.035092138
1372,-0.08830505
1373,0.016809875
1374,-0.08476749
1375,-0.00137584
1376,0.1337812
1377,-0.0025843668
1378,0.056606133
1379,0.05628343
1380,0.088587604
1381,-0.04832476
1382,-0.14008102
1383,-0.060032796
1384,0.02830064
1385,-0.2983726
1386,0.059835978
1387,-0.24716781
1388,-0.049043816
1389,-0.11024802
1390,-0.019141627
1391,0.11385435
1392,-0.00836672
1393,-0.012173295
1394,-0.09954192
1395,0.014224917
1396,0.13730446
1397,-0.024995117
1398,-0.004650272
1399,0.12438092
1400,-0.05631738
1401,0.13347818
1402,-0.0051140115
1403,-0.12186377
1404,-0.041515168
1405,-0.023384197
1406,-0.05174863
1407,-0.00449242
1408,0.0049572308
1409,0.06076216
1410,-0.04661778
1411,-0.009172549
1412,-0.15737261
1413,-0.019741144
1414,-0.0020407918
1415,-0.14359407
1416,0.122992784
1417,0.0156484
1418,0.0077942326
1419,-0.041326888
1420,-0.0512342
1421,-0.04389481
1422,-0.034713577
1423,-0.0349662
1424,-0.0010799632
1425,-0.12173281
1426,-0.06792668
1427,0.016368862
1428,-0.06150316
1429,-0.23184544
1430,-0.0026594065
1431,0.006554881
1432,-0.012346729
1433,-0.041208576
1434,4.0963117e-05
1435,-0.041268095
1436,-0.020316068
1437,-0.010683745
1438,-0.0063928314
1439,0.009531151
1440,-0.14546363
1441,-0.0928983
1442,-0.078409754
1443,-0.02096292
1444,-0.029328307
1445,-0.19972593
1446,0.028381975
1447,-0.01972737
1448,-0.049918752
1449,0.043134168
1450,-0.028081277
1451,-0.104305446
1452,-0.007501678
1453,-0.0719602
1454,-0.026257254
1455,0.05324055
1456,0.016712729
1457,-0.038648516
1458,-0.17825331
1459,-0.0063130534
1460,-0.010001054
1461,0.048902106
1462,-0.057967097
1463,-0.1255924
1464,-0.022198146
1465,-0.066282116
1466,0.012744735
1467,-0.02002181
1468,-0.11495503
1469,0.07034861
1470,0.013034811
1471,0.019703828
1472,-0.009120174
1473,-0.0075570494
1474,-0.019898893
1475,-0.10882211
1476,0.01126253
1477,0.0065066684
1478,-0.031237934
1479,-0.0802369
1480,-0.007837705
1481,-0.009587282
1482,0.08544839
1483,-0.04553136
1484,-0.017156381
1485,-0.0010433472
1486,0.03751103
1487,0.0827804
1488,-0.040714413
1489,0.0264267
1490,0.013364275
1491,-0.005389992
1492,-0.07191781
1493,0.0906537
1494,-0.11474294
1495,-0.07834703
1496,-0.052204058
1497,0.11572415
1498,-0.03394949
1499,0.027823593
1500,-0.09906415
1501,-0.045596782
1502,-0.030774023
1503,-0.068649024
1504,0.08055783
1505,-0.021170799
1506,-0.0015347193
1507,-0.037167642
1508,-0.019436894
1509,0.009600287
1510,-0.113830574
1511,-0.043691818
1512,0.029983504
1513,-0.023976535
1514,-0.10042953
1515,-0.012153901
1516,-0.08707476
1517,-0.11383849
1518,-0.022036748
1519,0.030586515
1520,0.0070868097
1521,0.0048640664
1522,-0.00017650641
1523,0.056746732
1524,0.061494723
1525,-0.00022092127
1526,-0.0050925915
1527,0.036260758
1528,-0.008920512
1529,0.07376237
1530,-0.00026818374
1531,-0.067386486
1532,-0.0027292797
1533,0.017024418
1534,-0.15011398
1535,-0.0033824746
1536,-0.022625783
1537,0.015559765
1538,-0.16413526
1539,-0.13530879
1540,-0.035761215
1541,-0.0063447654
1542,0.059703555
1543,0.028972344
1544,0.02928063
1545,-0.022688417
1546,0.0015729942
1547,0.022643007
1548,0.014577826
1549,-0.018200105
1550,0.014036919
1551,-0.1356734
1552,-0.04324955
1553,0.015711976
1554,-0.17531012
1555,-0.05578724
1556,0.010054329
1557,0.07207023
1558,0.025937265
1559,-0.0093088085
1560,-0.010814637
1561,0.025905961
1562,-0.019953689
1563,-0.03246581
1564,-0.09331218
1565,-0.030438654
1566,-0.0005796126
1567,-0.05162241
1568,-0.024378154
1569,0.05465883
1570,-0.11833028
1571,-0.17272672
1572,-0.010665514
1573,0.15609935
1574,-0.1115129
1575,0.070880555
1576,0.07011944
1577,-0.015815303
1578,-0.11198213
1579,-0.008984019
1580,0.017769296
1581,0.014727542
1582,-0.08248813
1583,-0.034889746
1584,-0.035166662
1585,-0.03856802
1586,-0.14507112
1587,-0.007228066
1588,-0.012303908
1589,-0.015019702
1590,0.026034014
1591,-0.056509975
1592,-0.09602398
1593,-0.0055012745
1594,-0.031183802
1595,-0.15845267
1596,-0.02304216
1597,0.006710483
1598,0.016554153
1599,0.035846468
1600,-0.027214726
1601,-0.04551393
1602,-0.029863313
1603,-0.110098705
1604,0.006183697
1605,-0.017440788
1606,-0.07412134
1607,-0.026176315
1608,0.009471431
1609,-0.012722663
1610,-0.014620214
1611,-0.0042076944
1612,-0.031920884
1613,0.04248173
1614,-0.006922671
1615,-0.005625846
1616,0.03679228
1617,0.0035249162
1618,-0.095289186
1619,-0.009873502
1620,0.07283871
1621,0.010236219
1622,-0.018954271
1623,-0.07923297
1624,-0.061037328
1625,0.007300912
1626,-0.056875944
1627,-0.024555674
1628,0.0005429125
1629,-0.021192595
1630,0.051183477
1631,-0.041877396
1632,0.015376729
1633,-0.007845917
1634,-0.010184414
1635,0.03553754
1636,-0.07313129
1637,-0.034606054
1638,-0.0693491
1639,-0.0756699
1640,-0.07331926
1641,0.044828538
1642,-0.02229229
1643,0.0048407675
1644,-0.03806592
1645,0.12781107
1646,-0.027200367
1647,-0.051879916
1648,-0.025802284
1649,0.0020524526
1650,-0.024567349
1651,-0.06859271
1652,-0.04042368
1653,0.070281535
1654,-0.0060480097
1655,0.04675992
1656,-0.0053008585
1657,-0.00014691637
1658,-0.0031744854
1659,-0.0710775
1660,-0.030475495
1661,0.040499445
1662,-0.07454809
1663,-0.0011642473
1664,0.009550524
1665,0.0142872045
1666,0.011703889
1667,0.031771306
1668,-0.05682246
1669,0.0058462485
1670,-0.10016697
1671,-0.08253753
1672,-0.031861816
1673,0.0073908786
1674,-0.005777212
1675,-0.09212022
1676,-0.042370707
1677,0.008723583
1678,-0.053822804
1679,0.028663656
1680,0.032104526
1681,-0.03818284
1682,-0.029870521
1683,0.00037748783
1684,-0.016055837
1685,-0.07001607
1686,-0.016122466
1687,-0.029202906
1688,0.0017990186
1689,-0.07054214
1690,-0.016665965
1691,-0.05012111
1692,-0.05610035
1693,0.03533698
1694,-0.005020378
1695,-0.009032696
1696,-0.07049556
1697,-0.011138503
1698,-0.008183319
1699,-0.056036413
1700,-0.021862274
1701,-0.008708733
1702,-0.10182428
1703,-0.0767321
1704,-0.01571356
1705,0.017446427
1706,0.021304356
1707,0.035824955
1708,-0.0036095649
1709,-0.025120832
1710,-0.016318655
1711,0.011427062
1712,-0.013057206
1713,-0.052955933
1714,-0.052444436
1715,1.3087383e-05
1716,-0.04649639
1717,-0.040900916
1718,0.04096318
1719,-0.06165198
1720,-0.088522606
1721,0.028903214
1722,-0.03411232
1723,-0.08097718
1724,-0.07973178
1725,-0.072812825
1726,-0.0138103245
1727,-0.036061827
1728,-0.07467042
1729,0.042458598
1730,-0.04501476
1731,-0.013547509
1732,0.005652465
1733,-0.040320966
1734,-0.027180376
1735,-0.032887284
1736,0.0072071734
1737,-0.006422559
1738,-0.047289077
1739,-0.058259822
1740,-0.0030293823
1741,0.008291562
1742,-0.020204123
1743,-0.045851994
1744,0.030650025
1745,-0.02081847
1746,-0.03806003
1747,0.0024030928
1748,-0.09199728
1749,-0.018072098
1750,0.0036303408
1751,-0.06594077
1752,0.02068238
1753,-0.056765717
1754,0.019285914
1755,-0.00053580594
1756,-0.14751372
1757,-0.015645124
1758,-0.061192513
1759,-0.024231406
1760,-0.007989225
1761,-0.019420044
1762,-0.049824886
1763,-0.0047324
1764,-0.03607754
1765,-0.029136997
1766,-0.057842374
1767,0.018781323
1768,0.017091503
1769,-0.02555728
1770,-0.018220643
1771,-0.04662622
1772,-0.034901384
1773,-0.053097308
1774,-0.019515883
1775,-0.055801634
1776,-0.03610957
1777,0.033339456
1778,-0.047896937
1779,-0.01855324
1780,0.0077728154
1781,-0.060754765
1782,-0.008910488
1783,-0.07375501
1784,-0.051140614
1785,-0.039398927
1786,0.0026093186
1787,-0.025087731
1788,-0.02165844
1789,0.02385114
1790,-0.0887366
1791,0.0028529922
1792,-0.15635334
1793,-0.08894401
1794,-0.01865769
1795,0.027669048
1796,-0.04577456
1797,-0.03695692
1798,-0.07020236
1799,-0.077787414
1800,-0.06660816
1801,-0.049349163
1802,0.001600153
1803,-0.13437152
1804,0.031531822
1805,-0.030195469
1806,-0.055547014
1807,-0.078732215
1808,-0.025895491
1809,-0.08278422
1810,-0.015121089
1811,-0.06754721
1812,-0.13655832
1813,-0.1323326
1814,-0.01810339
1815,-0.030211395
1816,-0.104626134
1817,-0.03648206
1818,-0.0194988
1819,0.006613648
1820,-0.037428934
1821,-0.17830117
1822,-0.057364486
1823,-0.017281726
1824,-0.07989892
1825,-0.0048801904
1826,-0.037369944
1827,-0.011780676
1828,-0.014131847
1829,-0.04190372
1830,-0.057856638
1831,-0.07362786
1832,-0.03367713
1833,0.000694351
1834,-0.054270353
1835,0.004910932
1836,-0.017991483
1837,-0.100356296
1838,-0.06955736
1839,-0.1128269
1840,-0.01251709
1841,-0.01838606
1842,-0.009933022
1843,0.005595553
1844,-0.05021387
1845,-0.038693286
1846,0.038807075
1847,-0.07418658
1848,-0.012371913
1849,0.013452034
1850,-0.0343475
1851,-0.056182034
1852,-0.051314715
1853,-0.008325396
1854,0.00040293703
1855,-0.06636912
1856,-0.059894875
1857,0.03107413
1858,-0.01888122
1859,-0.057747267
1860,-0.01942841
1861,0.0012033457
1862,0.008886459
1863,-0.027646637
1864,-0.009245176
1865,0.0061476263
1866,-0.008574736
1867,-0.004870796
1868,-0.009664405
1869,0.0015128164
1870,-0.023597647
1871,-0.03971567
1872,-0.043392975
1873,-0.07060552
1874,0.039684296
1875,-0.022288699
1876,-0.04543425
1877,-0.046950508
1878,-0.044095322
1879,-0.12622155
1880,-0.064587146
1881,-0.027143944
1882,-0.046283204
1883,-0.13682924
1884,-0.13210395
1885,0.020072244
1886,-0.062498104
1887,-0.022828668
1888,-0.012481793
1889,-0.02037514
1890,-0.011734947
1891,-0.03864714
1892,-0.011984745
1893,-0.043972377
1894,-0.11732412
1895,-0.08136274
1896,-0.07163093
1897,-0.022838116
1898,-0.07223061
1899,-0.038028132
1900,-0.04721378
1901,-0.0864039
1902,0.010164875
1903,-0.022256717
1904,-0.009782385
1905,0.0067534926
1906,-0.008488457
1907,-0.08193964
1908,-0.006406387
1909,-0.015088678
1910,-0.008790379
1911,0.08203987
1912,-0.03472176
1913,-0.0011211028
1914,-0.010745411
1915,-0.020239541
1916,-0.017017508
1917,0.026325125
1918,-0.07720086
1919,-0.016936228
1920,0.018735358
1921,-0.009385213
1922,-0.004796608
1923,0.02607163
1924,-0.03152536
1925,-0.059832595
1926,-0.04563917
1927,-0.057478216
1928,-0.026627805
1929,0.01523415
1930,0.0010195276
1931,-0.13943297
1932,-0.091498785
1933,0.00792143
1934,-0.06280741
1935,0.004230353
1936,0.024296306
1937,-0.058419287
1938,0.011066005
1939,-0.05639831
1940,-0.07623073
1941,-0.029092245
1942,-0.020105792
1943,-0.00983713
1944,-0.10302557
1945,-0.07186403
1946,-0.011186681
1947,-0.008388698
1948,-0.0034067242
1949,-0.0056721647
1950,-0.047651593
1951,-0.07520294
1952,-0.057930898
1953,-0.017190015
1954,0.010961433
1955,-0.0017117164
1956,-0.018854149
1957,-0.057616193
1958,-0.0324592
1959,-0.027579576
1960,-0.021172531
1961,-0.032843944
1962,-0.017227672
1963,-0.006364346
1964,0.019294837
1965,-0.076045506
1966,-0.049539812
1967,-0.013212034
1968,-0.04842206
1969,-0.011351576
1970,-0.026634872
1971,-0.005384792
1972,-0.043081846
1973,-0.018656706
1974,0.029570349
1975,-0.048140243
1976,-0.031218458
1977,-0.0029411758
1978,-0.017685087
1979,-0.01739301
1980,-0.020579487
1981,-0.016356047
1982,-0.036288586
1983,-0.017820986
1984,-0.04928559
1985,0.008739626
1986,-0.028875306
1987,-0.033504494
1988,-0.009713628
1989,-0.0038263218
1990,-0.008508062
1991,0.0021862127
1992,-0.01147038
1993,0.00043965832
1994,-0.013830237
1995,0.014495555
1996,-0.033761527
1997,-0.009662214
1998,-0.024718557
1999,-0.03414496
2000,-0.002533534
2001,0.0038304222
2002,-0.029756816
2003,-0.023349024
2004,-0.1913556
2005,-0.025226962
2006,0.015145709
2007,-0.07815354
2008,-0.07042016
2009,-0.013505945
2010,0.0021258239
2011,0.008420338
2012,-0.107115716
2013,0.00065129634
2014,-0.021576656
2015,-0.031268008
2016,-0.011937724
2017,-0.0058677215
2018,-0.023883086
2019,0.011410343
2020,0.008359883
2021,-0.041229557
2022,-0.08229929
2023,0.0048992406
2024,-0.084079325
2025,-0.029522656
2026,0.010397215
2027,-0.015638385
2028,-0.09003996
2029,-0.04853433
2030,0.0119802
2031,-0.025809722
2032,0.008697501
2033,0.030309767
2034,-0.006678717
2035,-0.017199457
2036,-0.03801509
2037,-0.02326565
2038,0.0015342538
2039,0.04053877
2040,-0.047422558
2041,-0.019419437
2042,-0.024444003
2043,-0.016725373
2044,-0.12813511
2045,0.0022815603
2046,-0.07217214
2047,-0.024250854
2048,-0.016238151
2049,-0.055576675
2050,-0.11801177
2051,-0.09146555
2052,0.02664549
2053,0.0013394898
2054,-0.08271002
2055,0.020412128
2056,0.041060556
2057,0.003662689
2058,-0.0059897397
2059,-0.06515418
2060,-0.031268023
2061,-0.05019067
2062,0.08330751
2063,-0.10229386
2064,-0.049507283
2065,0.050437093
2066,-0.039522335
2067,-0.041509647
2068,0.018469138
2069,0.11508418
2070,0.10280254
2071,-0.012512232
2072,-0.076142296
2073,-0.022944005
2074,-0.01897807
2075,-0.015039376
2076,-0.03664981
2077,0.0074922396
2078,0.10044934
2079,-0.0077490113
2080,0.018199483
2081,0.07449058
2082,-0.035594974
2083,-0.00026754872
2084,0.043459952
2085,0.06475379
2086,0.08025981
2087,-0.08060598
2088,0.05490997
2089,-0.010166626
2090,-0.10485264
2091,-0.051212937
2092,-0.05904328
2093,-0.06435783
2094,0.033328194
2095,0.018494893
2096,-0.022745127
2097,-0.026608288
2098,-0.0777537
2099,-0.0035128775
2100,0.004812283
2101,0.18857536
2102,0.0357982
2103,-0.017934548
2104,-0.059346966
2105,0.03871009
2106,-0.017672637
2107,-0.025795473
2108,-0.021802885
2109,0.095719084
2110,-0.0025232641
2111,-0.070833206
2112,-0.014794951
2113,-0.059388068
2114,-0.040885895
2115,-0.05065175
2116,-0.011641593
2117,0.028761137
2118,-0.06334649
2119,0.033896267
2120,-0.0066342074
2121,-0.012711296
2122,0.04705001
2123,-0.051480222
2124,0.0003638531
2125,0.055517416
2126,0.07541667
2127,0.073261626
2128,0.027510067
2129,-0.01890408
2130,-0.038111646
2131,0.003373439
2132,-0.11073283
2133,0.058351256
2134,-0.0173059
2135,0.012140269
2136,-0.063771084
2137,0.12318405
2138,-0.052860666
2139,0.055718534
2140,-0.062992655
2141,-0.11340695
2142,0.056016635
2143,0.020199941
2144,0.026517969
2145,-0.007520432
2146,-0.04375769
2147,0.022652462
2148,0.014262185
2149,0.049538318
2150,-0.007189768
2151,-0.09647896
2152,-0.08550997
2153,0.04534951
2154,-0.00034344805
2155,0.058492806
2156,-0.006708785
2157,0.10044739
2158,-0.018914966
2159,0.0514435
2160,-0.026384344
2161,-0.1347193
2162,-0.05490511
2163,0.008100779
2164,-0.072626516
2165,-0.08248828
2166,0.004820879
2167,0.025014812
2168,-0.025286905
2169,0.028092856
2170,-0.003851758
2171,-0.116157606
2172,0.010408589
2173,0.049926814
2174,-0.01353867
2175,-0.010524303
2176,-0.0078646485
2177,-0.0127606625
2178,0.017778968
2179,0.0024341985
2180,-0.08451726
2181,-0.027060112
2182,-0.055582765
2183,-0.08371162
2184,-0.029229742
2185,0.013096721
2186,0.008402003
2187,-0.12638745
2188,0.013843427
2189,0.013424138
2190,-0.07763199
2191,0.039762087
2192,0.028292459
2193,-0.07622784
2194,0.0050513307
2195,-0.027181227
2196,-0.04620698
2197,-0.09660884
2198,-0.075890265
2199,-0.042422265
2200,-0.066968545
2201,-0.06298271
2202,-0.0047984393
2203,-0.026207179
2204,-0.04041282
2205,0.040546056
2206,-0.059861794
2207,-0.05858667
2208,-0.08324475
2209,-0.09492924
2210,0.006531657
2211,-0.024300205
2212,-0.026847899
2213,-0.0243022
2214,-0.021920415
2215,-0.03353172
2216,-0.025184836
2217,-0.025490783
2218,0.0037030475
2219,0.0012477933
2220,-0.008499709
2221,-0.07145705
2222,-0.02361883
2223,0.02889941
2224,-0.017886536
2225,-0.009759956
2226,0.0052726106
2227,-0.009316909
2228,0.0030340226
2229,-0.018624378
2230,-0.051114783
2231,-0.036276426
2232,-0.037355725
2233,-0.090342164
2234,-0.043238018
2235,-0.013908302
2236,-0.04548749
2237,0.014227194
2238,-0.0077465987
2239,-0.01440631
2240,-0.007987353
2241,0.054499716
2242,0.0022514327
2243,-0.03592218
2244,-0.0074707586
2245,-0.0050277305
2246,-0.034651928
2247,-0.04535193
2248,-0.0093788095
2249,-0.013667987
2250,-0.024118057
2251,-0.012263617
2252,-0.0020742114
2253,-0.0023166612
2254,0.007656948
2255,-0.037813548
2256,-0.01806558
2257,0.015304645
2258,-0.05225938
2259,-0.020745298
2260,-0.06129938
2261,-0.01003145
2262,-0.037041314
2263,-0.068366155
2264,0.02965208
2265,-0.027845835
2266,-0.0213449
2267,-0.09718706
2268,-0.088667564
2269,0.034804456
2270,-0.0452787
2271,-0.035305556
2272,-0.019292757
2273,-0.0061399234
2274,-0.015396946
2275,-0.008166234
2276,-0.037995644
2277,-0.0356431
2278,-0.0756724
2279,0.021461206
2280,0.045874804
2281,-0.0676213
2282,0.0006262766
2283,-0.024712319
2284,-0.036996357
2285,-0.04095984
2286,0.0048794686
2287,-0.025959963
2288,-0.015383848
2289,0.039985538
2290,-0.077303216
2291,-0.08553056
2292,-0.04647894
2293,-0.0227189
2294,0.0030610738
2295,0.0214627
2296,-0.065169595
2297,-0.018792342
2298,-0.0038446176
2299,-0.040730674
2300,-0.04319832
2301,-0.014050716
2302,-0.04326096
2303,-0.007259106
2304,-0.022891112
2305,0.008091916
2306,-0.064536236
2307,-0.14518271
2308,0.0142532615
2309,-0.024862519
2310,-0.08180984
2311,0.01633587
2312,0.063963346
2313,0.0028985722
2314,-0.0027299093
2315,0.041601054
2316,-0.0067754565
2317,0.00900634
2318,0.05641054
2319,0.004544301
2320,-0.041680973
2321,0.05242249
2322,-0.031678744
2323,0.019377789
2324,0.10846916
2325,0.033495177
2326,-0.012187265
2327,-0.019706078
2328,0.012553028
2329,0.012845387
2330,0.010582922
2331,-0.0012181398
2332,0.016634908
2333,-0.0029735817
2334,-0.0007480443
2335,-0.014142096
2336,0.042148966
2337,0.09246785
2338,-0.020047346
2339,0.001729693
2340,0.0060685226
2341,0.025634544
2342,-0.068552315
2343,-0.110705
2344,0.12088764
2345,-0.01767498
2346,0.050764076
2347,0.020813713
2348,0.010515232
2349,0.0365214
2350,0.023236144
2351,-0.053150583
2352,0.05598671
2353,0.011167203
2354,-0.021665424
2355,0.0065155276
2356,0.015029461
2357,0.06396566
2358,0.07568912
2359,0.03335586
2360,-0.0021395213
2361,0.07315811
2362,0.040186763
2363,-0.017244028
2364,0.0054265996
2365,0.008654347
2366,0.008357231
2367,-0.056237783
2368,0.023436679
2369,-0.022285778
2370,0.016051294
2371,0.016037237
2372,-0.0048316005
2373,-0.0090941675
2374,0.005092983
2375,0.056824647
2376,-0.0035964588
2377,-0.024869798
2378,0.026872955
2379,-0.0026679414
2380,0.0149996765
2381,0.00020137033
2382,0.05313729
2383,0.039787356
2384,0.022885816
2385,0.02400213
2386,-0.04489774
2387,-0.037026267
2388,-0.06723575
2389,0.053830698
2390,0.102066755
2391,-0.08318495
2392,0.038721927
2393,0.004139059
2394,-0.14330843
2395,-0.0043024863
2396,0.022936234
2397,0.0066576335
2398,0.06881619
2399,0.011441121
2400,0.024424797
2401,-0.015860358
2402,0.03727555
2403,0.14460345
2404,0.044310506
2405,0.055733968
2406,-0.06422009
2407,-0.0096477065
2408,-0.014364064
2409,0.09493393
2410,0.0020230226
2411,0.037250597
2412,0.08527422
2413,0.039697833
2414,0.015575012
2415,0.011063164
2416,0.022302864
2417,-0.06871849
2418,0.058475684
2419,-0.048908204
2420,0.018195644
2421,-0.07322071
2422,-0.015664047
2423,-0.0048439857
2424,0.04279861
2425,0.012136498
2426,0.0069886865
2427,-0.008797854
2428,0.011249203
2429,-0.078452654
2430,0.01217139
2431,-0.011366661
2432,-0.20934103
2433,-0.07510748
2434,-0.019149179
2435,0.05865957
2436,-0.07652262
2437,0.005960532
2438,-0.054863594
2439,0.06860665
2440,0.0814252
2441,-0.01860528
2442,0.005599674
2443,-0.03707751
2444,-0.005515359
2445,-0.0209669
2446,-0.11841592
2447,-0.018827138
2448,-0.011687426
2449,-0.061374158
2450,-0.03044695
2451,-0.048122574
2452,-0.08294157
2453,-0.054580707
2454,-0.07772688
2455,-0.012382499
2456,0.054836072
2457,-0.05629584
2458,-0.010033819
2459,-0.024198031
2460,-0.010353916
2461,-0.16778748
2462,-0.13849798
2463,0.053413764
2464,-0.05762652
2465,-0.12941198
2466,-0.026205039
2467,-0.047588605
2468,0.073853225
2469,-0.09433556
2470,-0.009113924
2471,-0.04262344
2472,0.016401343
2473,-0.02684552
2474,-0.012870118
2475,0.1105593
2476,0.009035723
2477,0.06989564
2478,-0.03594768
2479,-0.10615086
2480,-0.12858474
2481,-0.02679597
2482,0.015446052
2483,-0.0009185074
2484,-0.0034543066
2485,-0.014891653
2486,-0.02475574
2487,-0.066142194
2488,-0.08711438
2489,-0.061153598
2490,-0.061396547
2491,-0.050026778
2492,0.11788968
2493,-0.01790037
2494,-0.006719485
2495,-0.010674531
2496,0.027364464
2497,0.042639866
2498,0.013135536
2499,0.06412247
2500,-0.016948467
2501,0.06415709
2502,-0.03208471
2503,0.00047139468
2504,-0.010294942
2505,-0.029555265
2506,0.11395631
2507,-0.01865353
2508,-0.0042847996
2509,0.07104962
2510,0.07012992
2511,0.11883278
2512,-0.09004676
2513,0.0031422847
2514,-0.073866166
2515,0.005851227
2516,-0.013204521
2517,0.09168099
2518,-0.1664065
2519,-0.045097537
2520,-0.04161261
2521,0.0027508908
2522,-0.02967878
2523,-0.03544856
2524,-0.06857097
2525,0.07078462
2526,-0.07061283
2527,0.10267504
2528,-0.11125481
2529,-0.012016712
2530,0.06432155
2531,-0.03382246
2532,0.023806043
2533,0.043196514
2534,-0.04988764
2535,-0.05619253
2536,-0.13863257
2537,-0.1453663
2538,0.083640926
2539,-0.0028159209
2540,0.0029006219
2541,-0.013450051
2542,-0.019593082
2543,0.14246546
2544,0.032506436
2545,0.027604125
2546,-0.060721148
2547,-0.035911083
2548,0.103708744
2549,0.043074377
2550,-0.0019070108
2551,0.06860302
2552,-0.010469647
2553,0.10234368
2554,0.007552476
2555,-0.02494381
2556,-0.16860218
2557,-0.1421482
2558,-0.094511
2559,-0.0057805525
2560,0.021039948
2561,-0.07061379
2562,0.04936069
2563,-0.07905182
2564,0.016338924
2565,-0.0051825033
2566,0.052337546
2567,-0.03204788
2568,-0.061605114
2569,-0.00011301459
2570,0.004037971
2571,0.017396789
2572,-0.019427156
2573,-0.00870852
2574,-0.0030581749
2575,0.08096748
2576,0.060157817
2577,0.018268252
2578,-0.06639995
2579,-0.017722838
2580,-0.025632184
2581,-0.056501694
2582,0.0058220997
2583,-0.06047707
2584,-0.029549306
2585,0.045349248
2586,0.019100597
2587,-0.10057432
2588,-0.12099452
2589,0.03287138
2590,-0.013324985
2591,0.0033960114
2592,-0.0004969156
2593,-0.0067845234
2594,-0.0731759
2595,-0.06439976
2596,-0.048910107
2597,0.032705095
2598,-0.059578642
2599,0.032071225
2600,-0.0009150535
2601,-0.008490065
2602,0.01045486
2603,0.009560247
2604,-0.01371799
2605,-0.0376488
2606,-0.013813899
2607,0.060587946
2608,0.03667197
2609,-0.085310124
2610,-0.022774672
2611,-0.01648746
2612,0.0021532904
2613,-0.09688635
2614,0.008946719
2615,-0.013924776
2616,-0.034218498
2617,0.01890555
2618,0.0043045804
2619,-0.07579274
2620,-0.019330652
2621,0.0021273936
2622,-0.040444084
2623,0.02107609
2624,-0.002663053
2625,0.05329609
2626,-0.10227828
2627,-0.0042162132
2628,-0.0075879795
2629,-0.0153414495
2630,-0.09331911
2631,-0.04046266
2632,-0.017323976
2633,-0.04922217
2634,-0.067623764
2635,-0.08326705
2636,-0.04112787
2637,-0.02964477
2638,0.004310576
2639,-0.059069425
2640,0.0021246697
2641,-0.028819753
2642,-0.09026343
2643,0.008521416
2644,0.031245738
2645,-0.06259743
2646,0.009007271
2647,-0.034131955
2648,-0.010136439
2649,-0.015247085
2650,-0.01685372
2651,-0.05064258
2652,-0.0067200684
2653,-0.05097398
2654,-0.0053789825
2655,0.0014088792
2656,0.0034654792
2657,-0.0210497
2658,-0.0142633
2659,-0.008825676
2660,-0.107355006
2661,-0.00571262
2662,-0.058605034
2663,0.05893543
2664,0.057409707
2665,-0.029075434
2666,-0.02776008
2667,-0.06290533
2668,0.013569937
2669,-0.0634369
2670,0.008963098
2671,-0.03715794
2672,-0.041742943
2673,0.05941405
2674,0.017927784
2675,-0.047661077
2676,0.015507839
2677,0.039720763
2678,-0.0017357972
2679,-0.027205262
2680,-0.0039799856
2681,-0.07227053
2682,-0.01185497
2683,-0.023962233
2684,0.010335482
2685,0.025867335
2686,-0.027693948
2687,-0.0066257226
2688,0.021096343
2689,-0.020563234
2690,-0.0065858075
2691,0.048624974
2692,-0.0048944796
2693,-0.01584171
2694,-0.0022048382
2695,0.013292581
2696,-0.0068287654
2697,0.00568847
2698,0.008976014
2699,-0.081735514
2700,-0.0070075346
2701,-0.0047098547
2702,-0.12022095
2703,-0.011693291
2704,0.06652176
2705,-0.050445076
2706,-0.11111837
2707,-0.056416396
2708,-0.0699091
2709,-0.033345755
2710,-0.0715153
2711,-0.02166332
2712,0.0051888237
2713,0.02377581
2714,-0.0060891416
2715,0.016936505
2716,0.007220462
2717,0.051302183
2718,-0.034363993
2719,-0.044072423
2720,0.015871515
2721,-0.079957806
2722,-0.11027708
2723,-0.034485314
2724,-0.029134743
2725,-0.027673371
2726,0.024066383
2727,-0.011613228
2728,-0.119227596
2729,-0.03573583
2730,-0.011874233
2731,-0.060820766
2732,-0.026273986
2733,-0.03323296
2734,-0.040895887
2735,0.07284253
2736,-0.010990788
2737,0.004237924
2738,-0.19897209
2739,0.017128734
2740,0.023947904
2741,-0.020116124
2742,-0.049215034
2743,-0.014744418
2744,-0.037021108
2745,-0.15232722
2746,0.011741893
2747,-0.04206047
2748,-0.07719619
2749,0.03384762
2750,0.004582442
2751,0.022246353
2752,0.016042303
2753,0.055437963
2754,-0.011309168
2755,0.025343983
2756,-0.0017060626
2757,-0.1406788
2758,0.032937992
2759,0.011249878
2760,0.0027413997
2761,0.018668113
2762,-0.0036384952
2763,0.005067237
2764,-0.019395977
2765,-0.081116766
2766,0.0694813
2767,-0.015753057
2768,-0.010116797
2769,0.030485302
2770,0.058591638
2771,-0.020722995
2772,-0.0890692
2773,0.0025778534
2774,-0.08214256
2775,-0.08295016
2776,0.06285775
2777,0.034899816
2778,-0.054025106
2779,-0.047361914
2780,-0.11773223
2781,-0.04263661
2782,-0.051130895
2783,0.07432003
2784,-0.009643649
2785,-0.021672336
2786,-0.042572673
2787,-0.167908
2788,0.012429844
2789,-0.042663313
2790,-0.040585678
2791,0.03448016
2792,0.08096828
2793,0.0029457647
2794,-0.105838515
2795,-0.021357648
2796,-0.087828554
2797,-0.038862105
2798,-0.001053553
2799,-0.05541292
2800,-0.01168481
2801,0.030340135
2802,-0.018715609
2803,-0.022787808
2804,0.05702576
2805,-0.023590269
2806,0.0011140121
2807,0.060689498
2808,-0.0022077383
2809,0.042218406
2810,-0.010804377
2811,0.043324415
2812,-0.025238223
2813,-0.008212826
2814,-0.011084777
2815,-0.004051449
2816,0.004841058
2817,0.04310834
2818,-0.05228039
2819,-0.2355075
2820,-0.06114585
2821,-0.03706628
2822,0.01965908
2823,-0.042830415
2824,0.13575275
2825,0.010007705
2826,0.012258229
2827,-0.026425414
2828,-0.01789763
2829,0.034482043
2830,0.020221388
2831,-0.06030252
2832,-0.07967947
2833,-0.052532725
2834,-0.051997814
2835,0.013220064
2836,-0.013112663
2837,-0.021323882
2838,0.03236689
2839,-0.0022440613
2840,0.02930445
2841,0.027498698
2842,-0.036847115
2843,-0.04279215
2844,-0.065817654
2845,0.016030723
2846,0.019110186
2847,0.011547353
2848,-0.01627236
2849,-0.045862995
2850,-0.057736088
2851,-0.099675134
2852,-0.035307895
2853,-0.12514634
2854,-0.070930555
2855,-0.037858173
2856,0.009628138
2857,0.042811096
2858,0.03369866
2859,-0.075715825
2860,-0.02139881
2861,0.018551666
2862,-0.057829857
2863,-0.04841929
2864,-0.04544078
2865,-0.04619712
2866,-0.06284838
2867,-0.0011580718
2868,-0.079084486
2869,0.06989586
2870,-0.048024073
2871,-0.064877406
2872,-0.08769911
2873,-0.05850704
2874,0.0113163935
2875,-0.05882642
2876,0.016529785
2877,-0.19339676
2878,-0.046840116
2879,-0.04018745
2880,-0.08181509
2881,-0.1129565
2882,0.054052543
2883,-0.08600276
2884,-0.0101401275
2885,0.024012918
2886,-0.09416558
2887,-0.03179479
2888,0.0049989047
2889,-0.04035728
2890,0.08670607
2891,-0.041449107
2892,-0.046211485
2893,0.025637228
2894,-0.008650126
2895,0.16049646
2896,0.014469393
2897,-0.049518254
2898,-0.07063533
2899,0.010805272
2900,-0.034803312
2901,0.109896034
2902,0.0298901
2903,-0.04291735
2904,-0.09747382
2905,0.011313829
2906,-0.025679445
2907,0.085889846
2908,-0.013537437
2909,-0.041383307
2910,-0.03979777
2911,-0.020105934
2912,0.10850635
2913,0.008061452
2914,-0.047230925
2915,0.022143032
2916,-0.00856058
2917,0.005350305
2918,-0.07177306
2919,-0.047636766
2920,-0.21456397
2921,-0.09630706
2922,0.03461
2923,-0.042627968
2924,-0.062247872
2925,-0.049916055
2926,0.017524509
2927,0.0829467
2928,-0.02236491
2929,-0.08331067
2930,0.005660081
2931,0.04711026
2932,-0.09203579
2933,-0.043693334
2934,-0.007601844
2935,-0.072232604
2936,-0.012222107
2937,0.09032042
2938,-0.04368762
2939,-0.04757137
2940,-0.019560484
2941,-0.07714511
2942,-0.11132414
2943,0.006423447
2944,0.03173512
2945,0.012908177
2946,0.049619883
2947,-0.035108823
2948,-0.035013955
2949,-0.0029363364
2950,0.017039495
2951,-0.06795928
2952,-0.049076237
2953,-0.028461983
2954,0.016181089
2955,0.008285746
2956,-0.007035335
2957,0.0027535725
2958,-0.041104395
2959,0.031861044
2960,0.054775655
2961,-0.049409527
2962,-0.031707086
2963,0.016574094
2964,-0.017244518
2965,-0.06681226
2966,-0.013193736
2967,0.0037208933
2968,-0.157418
2969,0.01727058
2970,-0.009708196
2971,-0.053874295
2972,-0.0869556
2973,0.044622425
2974,0.0082761645
2975,-0.027970888
2976,-0.13069007
2977,5.7477417e-05
2978,-0.033238906
2979,-0.02044685
2980,0.0024627494
2981,-0.15000494
2982,-0.065814175
2983,-0.0027479797
2984,-0.044659488
2985,0.0011198457
2986,-0.03274423
2987,-0.015414918
2988,-0.026095059
2989,-0.13614744
2990,-0.033389676
2991,0.0726821
2992,0.007869434
2993,-0.012605798
2994,0.011772678
2995,-0.00739378
2996,-0.006366339
2997,-0.06824158
2998,0.012162227
2999,-0.025753507
3000,-0.007916627
3001,0.046733145
3002,0.036716986
3003,-0.041877005
3004,-0.10332854
3005,-0.14667985
3006,0.014132557
3007,0.03248727
3008,-0.016644876
3009,0.066475615
3010,-0.08230726
3011,-0.076426364
3012,-0.015816256
3013,0.01783623
3014,-0.045585938
3015,-0.12958944
3016,-0.011979656
3017,0.0031646222
3018,-0.009295956
3019,-0.023390552
3020,0.008556169
3021,0.02334772
3022,-0.04379688
3023,-0.044858217
3024,-0.043742843
3025,-0.043948963
3026,-0.02820998
3027,-0.011794165
3028,-0.009463484
3029,-0.027896743
3030,0.03067742
3031,-0.0072238552
3032,-0.033955738
3033,-0.06636668
3034,-0.009510749
3035,-0.083041504
3036,-0.08406555
3037,-0.0075693005
3038,-0.021786623
3039,-0.069372274
3040,0.016913649
3041,-0.020102866
3042,-0.06732102
3043,-0.04516702
3044,-0.079590656
3045,-0.10329634
3046,0.0033270263
3047,0.026788559
3048,-0.0153286345
3049,-0.059023533
3050,-0.10881142
3051,-0.013535052
3052,-0.040031478
3053,-0.03651656
3054,-0.025487745
3055,-0.04830697
3056,-0.07656057
3057,0.05945175
3058,0.05906982
3059,-0.017877737
3060,-0.001769479
3061,0.01797572
3062,-0.007695387
3063,-0.07571993
3064,0.023109654
3065,-0.018935997
3066,0.009906548
3067,-0.10008595
3068,-0.015650192
3069,0.017694494
3070,-0.06060659
3071,-0.0008580056
3072,0.016445166
3073,-0.0129603455
3074,0.01082533
3075,-0.04294067
3076,-0.18127936
3077,-0.020367406
3078,0.074426234
3079,-0.0632022
3080,0.05084035
3081,0.00093430956
3082,-0.000909699
3083,0.046868484
3084,-0.0071624443
3085,0.002984928
3086,0.0014177639
3087,0.0067855846
3088,0.014662959
3089,-0.13557488
3090,-0.086107254
3091,-0.03858655
3092,0.0500131
3093,0.020080246
3094,0.05093813
3095,-0.037688665
3096,0.043004476
3097,-0.00566372
3098,-0.042593412
3099,-0.01157604
3100,-0.07074104
3101,0.044968795
3102,0.06959968
3103,0.0074560605
3104,-0.03727488
3105,0.04637205
3106,-0.028393544
3107,-0.12337076
3108,-0.017423648
3109,0.03578677
3110,-0.15341938
3111,0.06143398
3112,0.024585113
3113,0.010128493
3114,-0.0058369585
3115,-0.0044656484
3116,-0.02144164
3117,0.02531637
3118,-0.09970401
3119,0.024441352
3120,0.034027945
3121,-0.033968404
3122,-0.09513516
3123,-0.00888523
3124,-0.07877038
3125,0.04973922
3126,0.021119215
3127,-0.13998602
3128,-0.043331884
3129,0.011746681
3130,-0.043440696
3131,-0.07315214
3132,-0.032586563
3133,0.076155886
3134,-0.023399815
3135,0.0043816003
3136,-0.0648202
3137,0.014820772
3138,0.009909403
3139,-0.013682028
3140,-0.018893538
3141,0.069342144
3142,-0.042435832
3143,-0.09495961
3144,0.0053469273
3145,-0.005688993
3146,0.019284647
3147,-0.035044692
3148,-0.0093785245
3149,0.061050348
3150,-0.012755283
3151,0.0680436
3152,0.074715406
3153,-0.07013198
3154,-0.016742261
3155,0.0059301937
3156,0.045979984
3157,0.04273188
3158,0.037816714
3159,-0.02933331
3160,0.09108007
3161,0.02474207
3162,-0.03450464
3163,0.02198891
3164,0.0046933363
3165,-0.1122019
3166,-0.042076934
3167,-0.0028250492
3168,0.027908966
3169,-0.025853485
3170,-0.03345372
3171,-0.015200285
3172,-0.009078005
3173,0.05208428
3174,-0.07190382
3175,0.01079089
3176,0.064393155
3177,0.054267816
3178,-0.023175651
3179,0.07582054
3180,0.03870495
3181,0.041070383
3182,0.016199192
3183,0.03197117
3184,-0.024976917
3185,0.004558475
3186,0.038593862
3187,0.010031985
3188,-0.033799283
3189,0.05803953
3190,0.006531163
3191,-0.13416092
3192,-0.06562079
3193,0.012153513
3194,-0.022590753
3195,0.015501341
3196,-0.048134994
3197,0.058761686
3198,-0.13194323
3199,-0.022956235
3200,-0.039900646
3201,0.14483026
3202,-0.09478824
3203,-0.10743329
3204,0.012675496
3205,-0.008691134
3206,0.0054603196
3207,-0.21695448
3208,0.13426791
3209,0.11983953
3210,-0.0071838577
3211,-0.02456698
3212,0.0302027
3213,-0.008967285
3214,0.010284552
3215,-0.18311588
3216,-0.09234349
3217,-0.011854991
3218,0.22401772
3219,-0.05934478
3220,-0.014195813
3221,0.30915576
3222,0.24571417
3223,0.0142901745
3224,-0.029024936
3225,-0.016872695
3226,-0.03402458
3227,0.20888403
3228,0.16717151
3229,-0.16318125
3230,-0.0016371408
3231,0.05183597
3232,-0.09288601
3233,-0.13698786
3234,0.26018307
3235,0.120787136
3236,-0.067583054
3237,-0.045550235
3238,-0.03273608
3239,0.01876621
3240,-0.05423476
3241,0.042259287
3242,-0.032292984
3243,-0.17538828
3244,-0.008964184
3245,-0.024668498
3246,0.072842956
3247,-0.16382241
3248,0.03629708
3249,0.1233569
3250,0.030521795
3251,-0.012992936
3252,-0.06160187
3253,0.024908308
3254,-0.0470632
3255,0.041091546
3256,0.05591364
3257,-0.0891774
3258,0.06689196
3259,0.21794826
3260,-0.16574109
3261,0.1246033
3262,-0.0091417935
3263,0.073009446
3264,-0.05861564
3265,-0.10074452
3266,0.18240967
3267,-0.18976061
3268,-0.010427071
3269,0.025524741
3270,0.19472383
3271,-0.07819709
3272,-0.0057253824
3273,-0.014533394
3274,0.1334727
3275,-0.05851269
3276,-0.017839752
3277,0.0548701
3278,-0.027267253
3279,0.09430438
3280,0.12067741
3281,-0.069256626
3282,0.20629549
3283,0.09851981
3284,-0.016096119
3285,0.1459609
3286,-0.12564619
3287,-0.020940986
3288,0.038858023
3289,0.07198489
3290,0.06597197
3291,0.13450319
3292,-0.05308088
3293,0.12125771
3294,-0.0011618821
3295,-0.10435046
3296,0.060432043
3297,-0.01774929
3298,0.08475384
3299,0.003137934
3300,0.17354457
3301,0.20589292
3302,-0.0019101782
3303,-0.11871159
3304,0.055676173
3305,0.027287928
3306,-0.10742383
3307,0.09808283
3308,-0.12017089
3309,-0.07278146
3310,0.015868677
3311,0.1523168
3312,0.16083679
3313,-0.1509918
3314,0.03649966
3315,0.097297214
3316,-0.1623369
3317,0.004361306
3318,0.0013490301
3319,0.08122791
3320,0.0761316
3321,0.11331949
3322,-0.021373931
3323,-0.056926496
3324,-0.003793972
3325,0.07716224
3326,0.03876138
3327,-0.017147625
3328,0.023647621
3329,-0.02150955
3330,0.03712822
3331,-0.03654689
3332,-0.015970062
3333,0.008474567
3334,-0.006019537
3335,0.1115227
3336,0.044565
3337,-0.0035174754
3338,-0.0079625845
3339,-0.01810424
3340,-0.00729753
3341,0.03673364
3342,0.01984713
3343,0.056595962
3344,0.0808058
3345,0.04252725
3346,-0.08110598
3347,-0.025748758
3348,0.029152019
3349,0.014553303
3350,0.023348542
3351,-0.0044160113
3352,0.100240864
3353,-0.025932446
3354,-0.0024200997
3355,-0.051103134
3356,-0.029127736
3357,0.11415726
3358,0.04262721
3359,-0.013246773
3360,0.06436954
3361,0.19666694
3362,-0.11804002
3363,-0.031158477
3364,-0.011752119
3365,0.025834626
3366,0.124320686
3367,0.0075863632
3368,0.08120865
3369,-0.029679295
3370,-0.0039571184
3371,-0.0301132
3372,0.015569756
3373,0.06678124
3374,0.005725578
3375,0.14106329
3376,0.026756044
3377,-0.044702046
3378,-0.104348116
3379,-0.013082252
3380,-0.112901
3381,0.063961394
3382,0.06803234
3383,0.008006544
3384,0.025754295
3385,-0.012971772
3386,0.031445716
3387,-0.022899972
3388,0.027033275
3389,0.025794176
3390,0.04898375
3391,0.006619856
3392,-0.07098809
3393,0.08526938
3394,-0.064020894
3395,-0.13268368
3396,0.0020753269
3397,0.040751256
3398,0.025448147
3399,-0.022590049
3400,-0.013802816
3401,-0.00704806
3402,0.027369171
3403,0.0008736199
3404,0.018003872
3405,0.05107084
3406,0.07004876
3407,0.118063614
3408,0.026392905
3409,-0.08079387
3410,-0.024067497
3411,-0.01840202
3412,0.012662146
3413,-0.00340749
3414,-0.04776276
3415,-0.006754928
3416,0.064287804
3417,0.020921022
3418,-0.00651246
3419,0.026783729
3420,0.00082423305
3421,-0.026190637
3422,0.038219903
3423,-0.046087228
3424,0.04292914
3425,-0.009406062
3426,0.0012464477
3427,0.06904977
3428,-0.027505292
3429,0.035914935
3430,-0.014549508
3431,0.05516609
3432,0.07044777
3433,0.06816927
3434,0.093162514
3435,-0.0124713555
3436,0.05665919
3437,0.037490714
3438,-0.0088454485
3439,0.025409613
3440,-0.03455818
3441,0.04815141
3442,-0.028344318
3443,-0.005750836
3444,0.06810679
3445,0.0031770135
3446,-0.008836368
3447,0.0046277917
3448,0.014039896
3449,0.010499865
3450,-0.0024685278
3451,-0.010743441
3452,-0.0035731897
3453,0.002624658
3454,-0.012066339
3455,0.0096906135
3456,-0.0022019565
3457,-0.079771034
3458,0.016209492
3459,0.036732204
3460,-0.10613663
3461,-0.039958984
3462,0.026620965
3463,-0.08953375
3464,-0.08604684
3465,-0.036379598
3466,-0.0017495243
3467,0.015547865
3468,-0.004186061
3469,-0.057335336
3470,-0.13574919
3471,0.03185524
3472,0.015037794
3473,-0.06297416
3474,-0.06816248
3475,-0.005181221
3476,-0.07000994
3477,-0.072428316
3478,-0.07331687
3479,-0.039820902
3480,-0.08062303
3481,0.059478607
3482,-0.022686956
3483,-0.003180759
3484,-0.054983944
3485,0.03117439
3486,-0.09317121
3487,-0.02206864
3488,-0.10729247
3489,-0.02528135
3490,-0.09551127
3491,-0.1188448
3492,-0.009945889
3493,0.041696943
3494,-0.11351068
3495,0.04888752
3496,-0.106200956
3497,-0.012571943
3498,-0.031466633
3499,-0.02155665
3500,-0.11950218
3501,-0.11445489
3502,-0.077293105
3503,-0.0011810276
3504,0.016086934
3505,-0.06378577
3506,-0.07787114
3507,-0.013666079
3508,-0.07813457
3509,-0.11229099
3510,-0.0023004224
3511,-0.10525113
3512,-0.035471592
3513,-0.011446636
3514,-0.019561764
3515,-0.08229449
3516,-0.092539616
3517,-0.073940285
3518,-0.030206745
3519,0.027465453
3520,-0.036714643
3521,0.024575684
3522,-0.06385523
3523,-0.06485976
3524,-0.024159042
3525,-0.098072276
3526,-0.05642199
3527,-0.04580093
3528,-0.022005593
3529,-0.031131858
3530,-0.07258352
3531,-0.08011651
3532,-0.029123774
3533,-0.07244917
3534,-0.010726979
3535,-0.073079824
3536,-0.006112119
3537,-0.05361623
3538,-0.056976832
3539,-0.006620649
3540,0.042096384
3541,-0.07414654
3542,0.017906183
3543,-0.091180585
3544,-0.028691694
3545,-0.042726655
3546,-0.043405328
3547,-0.10798825
3548,-0.058578625
3549,-0.08455869
3550,-0.110082194
3551,-0.008102723
3552,-0.0055460115
3553,-0.008338799
3554,-0.008231766
3555,-0.12211943
3556,-0.00020138062
3557,-0.049032107
3558,-0.08514385
3559,0.018688552
3560,0.021432787
3561,-0.07256237
3562,-0.08419478
3563,-0.061010394
3564,-0.004636633
3565,-0.03369712
3566,0.007946014
3567,-0.07082354
3568,-0.036039986
3569,0.022001848
3570,0.043994598
3571,-0.060712673
3572,-0.039087508
3573,0.027449034
3574,-0.0074575017
3575,-0.07033081
3576,-0.033067606
3577,-0.05368976
3578,-0.022622315
3579,0.020808367
3580,-0.02730157
3581,0.022113454
3582,-0.12685218
3583,0.0053383233
3584,-0.021721894
3585,-0.0022572614
3586,0.033537745
3587,0.03646389
3588,0.034855068
3589,-0.0020057233
3590,-0.05581673
3591,-0.031660147
3592,0.0068722013
3593,0.026314925
3594,-0.016025105
3595,-0.037395846
3596,-0.072164096
3597,0.0026550966
3598,-0.007679357
3599,0.013989498
3600,0.011545604
3601,0.031576212
3602,0.03254907
3603,-0.027116826
3604,-0.026023464
3605,-0.010431935
3606,-0.034914065
3607,0.0014487294
3608,0.055522077
3609,-0.050329283
3610,-0.017597975
3611,0.04162382
3612,0.04436359
3613,-0.011476363
3614,0.007576027
3615,-0.01516992
3616,0.02114202
3617,-0.057589907
3618,0.021313012
3619,-0.007744871
3620,0.0076062214
3621,-0.0017475628
3622,0.046629988
3623,-0.07681016
3624,0.0012160325
3625,-0.013721552
3626,0.012350679
3627,0.063577145
3628,-0.086945556
3629,0.014450927
3630,-0.022877136
3631,-0.043786418
3632,-0.012242114
3633,-0.009241391
3634,0.024751699
3635,-0.007963515
3636,-0.036748286
3637,-0.01429967
3638,-0.042687375
3639,0.010248808
3640,-0.04284086
3641,-0.015297004
3642,0.027510645
3643,0.017248448
3644,0.015339239
3645,-0.0048679854
3646,-0.009609211
3647,-0.04613886
3648,-0.04476925
3649,0.029295012
3650,0.026216745
3651,-0.021696774
3652,-0.0011860618
3653,0.021220624
3654,0.050059438
3655,0.06123661
3656,0.0073053413
3657,-0.025338657
3658,-0.014345426
3659,-0.02897918
3660,-0.013790002
3661,0.0041949395
3662,0.00024523612
3663,0.0068003116
3664,-0.038689002
3665,-0.03035742
3666,0.046162978
3667,0.041040782
3668,-0.17302912
3669,-0.005922791
3670,0.0033531296
3671,-0.08410721
3672,-0.035283845
3673,0.050718576
3674,0.0060912217
3675,-0.0055016903
3676,0.021562116
3677,0.052194647
3678,0.050826434
3679,-0.01821994
3680,0.012385395
3681,-0.032346014
3682,-0.009093761
3683,0.008163262
3684,0.047347236
3685,-0.03722465
3686,-0.10720682
3687,0.0009164921
3688,-0.004368749
3689,-0.009081886
3690,0.005721035
3691,0.008356694
3692,0.001135153
3693,-0.046828516
3694,-0.01572169
3695,0.01145985
3696,0.03165544
3697,0.030605335
3698,-0.012215908
3699,-0.008313653
3700,0.017716449
3701,-0.062255103
3702,-0.009839226
3703,0.0077913566
3704,0.033133004
3705,0.047092278
3706,-0.013448218
3707,0.00431623
3708,0.010830862
3709,-0.016826453
3710,0.02403737
3711,0.0043330463
3712,-0.18483062
3713,-0.050091416
3714,-0.022179635
3715,-0.0263787
3716,0.026222076
3717,0.0015620766
3718,0.0006958865
3719,0.014400101
3720,0.08534667
3721,-0.014573112
3722,0.0016693589
3723,0.06308061
3724,-0.017521547
3725,0.053133227
3726,-0.03276096
3727,-0.0736139
3728,-0.064895846
3729,0.0035811218
3730,0.006269806
3731,-0.0310185
3732,-0.0059265094
3733,-0.0118671805
3734,-0.051069636
3735,-0.026157012
3736,0.009313582
3737,0.07404744
3738,-0.010415652
3739,0.006051257
3740,0.0050275116
3741,-0.217225
3742,-0.10691022
3743,-0.058513906
3744,0.0166671
3745,-0.009398837
3746,0.018533288
3747,-0.0043862537
3748,0.003435705
3749,-0.07815881
3750,0.10157844
3751,-0.008008243
3752,0.039601427
3753,-0.018762639
3754,0.032055702
3755,-0.027840067
3756,-0.03064438
3757,0.0095119
3758,0.0043497686
3759,-0.1668262
3760,0.04783656
3761,-0.025118692
3762,0.043722957
3763,-0.002044438
3764,-0.1449457
3765,0.07087471
3766,-0.06819853
3767,0.009400262
3768,0.021006878
3769,0.014247036
3770,0.012274936
3771,-0.010064412
3772,0.018943993
3773,0.045638714
3774,-0.02981846
3775,0.060728513
3776,-0.18618955
3777,-0.034617927
3778,-0.015257794
3779,0.023522941
3780,0.00824169
3781,0.04836289
3782,0.049726095
3783,-0.0006918393
3784,-0.008767938
3785,-0.047381833
3786,0.1274734
3787,0.023707481
3788,-0.0074355174
3789,-0.00029995284
3790,0.06562929
3791,0.13622926
3792,-0.12568027
3793,-0.1259711
3794,0.027526848
3795,0.01498867
3796,-0.017403148
3797,0.0926513
3798,-0.032335322
3799,-0.026349455
3800,-0.020780114
3801,0.12656814
3802,0.04897214
3803,-0.032789495
3804,0.06585826
3805,0.07594637
3806,-0.014782565
3807,-0.014342028
3808,0.11142474
3809,-0.0009786212
3810,-0.03325585
3811,-0.008935539
3812,0.04153006
3813,0.05729594
3814,-0.04222364
3815,-0.046679527
3816,-0.012368251
3817,-0.00944822
3818,0.014881496
3819,0.103048235
3820,0.05843417
3821,-0.066754535
3822,-0.006287825
3823,0.13111849
3824,-0.00826551
3825,0.005404423
3826,0.03465153
3827,0.07137403
3828,0.0031524769
3829,0.018091835
3830,-0.011427045
3831,0.06616177
3832,0.02552915
3833,0.14362255
3834,-0.01342992
3835,-0.02121351
3836,-0.021154644
3837,-0.06260438
3838,0.025485862
3839,0.008195767
3840,0.011201916
3841,-0.005147785
3842,0.014817146
3843,-0.0061817127
3844,-0.030845128
3845,0.010845578
3846,-0.05090331
3847,-0.01369895
3848,0.07565208
3849,-0.057049446
3850,0.008221225
3851,-0.030591294
3852,-0.042299826
3853,-0.032111503
3854,0.013974198
3855,0.024727926
3856,0.027741522
3857,0.05163752
3858,0.00134559
3859,-0.015190424
3860,-0.085507706
3861,0.057985414
3862,0.04936364
3863,0.026427945
3864,-0.03334604
3865,-0.039035544
3866,-0.019172773
3867,-0.012979908
3868,-0.051557932
3869,-0.014970654
3870,-0.027921213
3871,-0.010376768
3872,0.0025069832
3873,0.017127357
3874,0.02873951
3875,-0.058218986
3876,0.024724906
3877,-0.00022909557
3878,-0.07638038
3879,-0.028444713
3880,-0.05537479
3881,-0.012551005
3882,0.0021058468
3883,0.023387328
3884,-0.07705703
3885,-0.022115499
3886,0.030983556
3887,0.007808645
3888,0.008295243
3889,-0.02687696
3890,0.034655724
3891,-0.0011694081
3892,-0.08656349
3893,-0.021077381
3894,-0.10021131
3895,0.026937447
3896,-0.10622798
3897,0.06389903
3898,0.05003322
3899,-0.01978966
3900,0.0077600866
3901,-0.017617134
3902,-0.025865035
3903,-0.012566178
3904,-0.08860775
3905,0.012677892
3906,0.028139485
3907,-0.0012700591
3908,-0.02256172
3909,0.02737372
3910,-0.07861802
3911,0.015169769
3912,-0.011846905
3913,-0.018291932
3914,0.012842169
3915,-0.07688802
3916,-0.041950457
3917,0.04047273
3918,-0.0015873393
3919,0.04485182
3920,0.02216248
3921,-0.06699784
3922,-0.032913465
3923,-0.0067065028
3924,-0.16926864
3925,0.03501028
3926,0.04434213
3927,-0.039128397
3928,-0.078222685
3929,0.0050350144
3930,-0.013728622
3931,0.07815925
3932,-0.07996311
3933,0.0121928705
3934,-0.040032204
3935,-0.012492816
3936,0.09774283
3937,-0.028474284
3938,0.014785211
3939,-0.051541638
3940,0.018592255
3941,-0.024328042
3942,-0.0080397595
3943,0.0238736
3944,-0.027594803
3945,-0.058373373
3946,0.0016656965
3947,-0.036588315
3948,0.044109043
3949,0.079677366
3950,0.0044838022
3951,0.029695204
3952,-0.018325288
3953,0.020995699
3954,0.00485403
3955,0.03539736
3956,0.09082457
3957,-0.035308626
3958,0.003587705
3959,0.0009700565
3960,0.023604298
3961,0.02584542
3962,-0.011158936
3963,-0.0526976
3964,0.03346713
3965,-0.032270513
3966,-0.021293133
3967,-0.010137962
3968,0.03311831
3969,-0.027040422
3970,0.026516816
3971,-0.086546354
3972,-0.0021348502
3973,-0.044984933
3974,0.015681839
3975,-0.058499187
3976,-0.049357567
3977,8.038017e-05
3978,-0.004484008
3979,0.0313786
3980,0.030288365
3981,-0.08936739
3982,-0.033270188
3983,0.0014546867
3984,0.0149259865
3985,-0.0066480967
3986,0.032889362
3987,0.0026960087
3988,-0.0080657685
3989,-8.3900144e-05
3990,-0.118593425
3991,-0.009672699
3992,-0.06186993
3993,0.0027502258
3994,0.0052086683
3995,-0.04602378
3996,-0.03950968
3997,0.008686137
3998,-0.06555357
3999,-0.031907097
4000,-0.0033745903
4001,0.023754412
4002,0.004217943
4003,-0.012567953
4004,-0.054197364
4005,-0.09489061
4006,0.002755513
4007,-0.019436164
4008,0.0045105717
4009,0.02013184
4010,-0.036846723
4011,-0.024773045
4012,-0.045644034
4013,-0.045154795
4014,-0.00777995
4015,0.025112052
4016,-0.011593797
4017,-0.012880794
4018,0.04552653
4019,-0.0069133504
4020,-0.039584056
4021,-0.0038999699
4022,0.014262724
4023,-0.015732061
4024,-0.016484281
4025,0.007553203
4026,0.059901062
4027,-0.07360146
4028,-0.014639099
4029,-0.011438108
4030,-0.022754425
4031,0.02884447
4032,-0.045195743
4033,0.02843199
4034,-0.018043574
4035,-0.048117675
4036,-0.0052910377
4037,0.0010981604
4038,-0.043418538
4039,-0.017609607
4040,-0.0028885033
4041,-0.015886392
4042,-0.00036502077
4043,-0.004916663
4044,-0.012633573
4045,-0.1846313
4046,-0.01147612
4047,-0.029979896
4048,-0.093689516
4049,-0.041155685
4050,-0.042777885
4051,0.024598721
4052,-0.062080044
4053,-0.017858878
4054,0.03235907
4055,-0.027856898
4056,-0.032560904
4057,-0.007186973
4058,0.0753314
4059,0.06104729
4060,-0.0758233
4061,0.0026324913
4062,-0.017700782
4063,-0.067856774
4064,-0.06969967
4065,-0.010402118
4066,-0.058733486
4067,-0.014583566
4068,-0.06572718
4069,-0.023702646
4070,-0.05319283
4071,0.019333674
4072,0.0388061
4073,0.04122659
4074,0.009296975
4075,0.012878476
4076,0.0008865447
4077,0.025819318
4078,-0.009445819
4079,0.010256173
4080,0.019179609
4081,0.045408912
4082,0.06080267
4083,0.07120931
4084,-0.02334044
4085,0.009301586
4086,-0.009836506
4087,-0.038198285
4088,0.030332735
4089,-0.024555527
4090,-0.01347147
4091,-0.05816296
4092,0.031836085
4093,0.023255197
4094,0.010505865
4095,-0.031764235
4096,-0.04094792
4097,0.05835633
4098,0.007878274
4099,-0.11933581
4100,0.0031480552
4101,-0.023992108
4102,-0.07195222
4103,-0.009491635
4104,0.18750854
4105,-0.09577637
4106,-0.007032248
4107,-0.093464695
4108,0.026156984
4109,-0.037291616
4110,0.08497359
4111,-0.017972553
4112,-0.007879479
4113,-0.027807957
4114,0.09453923
4115,-0.06359846
4116,-0.016999133
4117,0.12409273
4118,0.20135282
4119,0.11902498
4120,0.067022145
4121,-0.079956725
4122,-0.026648657
4123,-0.0006816165
4124,-0.03361391
4125,0.006286483
4126,0.15590969
4127,0.020345978
4128,0.028548712
4129,-0.04125653
4130,0.1068055
4131,-0.08117074
4132,0.043729343
4133,0.12287401
4134,-0.19906123
4135,-0.083377786
4136,-0.01276467
4137,0.008305677
4138,-0.04589807
4139,0.07214134
4140,-0.048496388
4141,0.05878434
4142,-0.008662158
4143,0.05986899
4144,-0.04972017
4145,-0.039401013
4146,-0.06087702
4147,-0.013379225
4148,-0.06794221
4149,0.020221803
4150,-0.18565418
4151,0.0066050133
4152,-0.07332103
4153,-0.08322304
4154,-0.0040670205
4155,-0.05690898
4156,0.0019260946
4157,0.09751299
4158,-0.021877373
4159,-0.043341212
4160,-0.054221727
4161,0.044041306
4162,0.057789188
4163,-0.04514854
4164,0.004386446
4165,0.12408964
4166,-0.118230715
4167,0.0083627505
4168,0.0043409737
4169,-0.037537616
4170,0.18574353
4171,-0.051343862
4172,-0.01010444
4173,0.12317033
4174,-0.04174805
4175,0.09885265
4176,0.16846782
4177,-0.06558706
4178,-0.06939293
4179,-0.021235567
4180,-0.026400484
4181,0.20993714
4182,-0.05828906
4183,-0.032020215
4184,-0.12394241
4185,0.05989389
4186,0.067193806
4187,0.15539433
4188,-0.08497117
4189,0.030515455
4190,0.027151916
4191,0.029476888
4192,0.1468406
4193,0.020313563
4194,-0.04021478
4195,-0.040518574
4196,0.0072758966
4197,0.10508394
4198,-0.044487532
4199,-0.012089686
4200,0.023506874
4201,-0.06741924
4202,-0.01338211
4203,0.11215395
4204,-0.012123587
4205,0.11139624
4206,-0.010905361
4207,0.0887637
4208,-0.0117384875
4209,0.043967135
4210,-0.08160673
4211,0.10779731
4212,0.07036113
4213,-0.048448738
4214,-0.011196527
4215,0.06771203
4216,-0.022998618
4217,0.19736329
4218,-0.0028860471
4219,-0.012755959
4220,0.002355467
4221,-0.07512507
4222,0.0097594
4223,-0.0039975024
4224,-0.087896496
4225,0.04181054
4226,-0.30086145
4227,-0.124885246
4228,0.008712551
4229,0.044997033
4230,-0.04303652
4231,-0.059247516
4232,0.104564846
4233,-0.006010515
4234,0.00202826
4235,-0.04797292
4236,-0.03642941
4237,0.03463593
4238,-0.017586205
4239,-0.2114245
4240,-0.13598661
4241,-0.026935324
4242,-0.021341272
4243,0.00680128
4244,0.04056127
4245,-0.20836492
4246,-0.005833771
4247,-0.0046633226
4248,0.03126189
4249,0.009618463
4250,-0.014238124
4251,-0.031954013
4252,-0.020506503
4253,-0.17282696
4254,-0.005190051
4255,-0.0027398332
4256,-0.0131072225
4257,-0.05307526
4258,-0.07945746
4259,-0.034455676
4260,0.022601377
4261,-0.16418698
4262,-0.014209785
4263,-0.011074602
4264,-0.007644476
4265,0.047352955
4266,-0.02609193
4267,-0.035636887
4268,-0.101240054
4269,0.0055981753
4270,-0.038696278
4271,-0.25306386
4272,-0.08729593
4273,-0.03845032
4274,-0.055181406
4275,-0.0046834517
4276,-0.04319631
4277,0.067143515
4278,-0.022541784
4279,-0.026129229
4280,-0.05412516
4281,-0.105465345
4282,-0.033041317
4283,-0.06924574
4284,-0.011729091
4285,0.09662284
4286,-0.0113123115
4287,0.0061769523
4288,-0.03988636
4289,-0.16601306
4290,-0.010513973
4291,-0.061858356
4292,-0.010807969
4293,-0.035638716
4294,-0.039375424
4295,-0.02736109
4296,-0.0010015932
4297,0.0014437366
4298,0.08635194
4299,-0.03310491
4300,-0.0003811878
4301,0.0040211896
4302,0.010124795
4303,0.104480915
4304,0.0033852211
4305,0.010630215
4306,-0.017859822
4307,-0.0040581007
4308,-0.046227172
4309,0.08900085
4310,-0.08304648
4311,-0.023160916
4312,-0.014395539
4313,0.085465506
4314,0.025803184
4315,0.07781679
4316,-0.049463205
4317,-0.0806344
4318,-0.01755376
4319,-0.0044579194
4320,0.032858144
4321,0.0066238865
4322,0.044792056
4323,-0.001964353
4324,-0.020582352
4325,0.099072345
4326,-0.060756452
4327,-0.16481099
4328,-0.071048886
4329,0.096793145
4330,-0.014226144
4331,0.12420021
4332,-0.046216633
4333,-0.13448575
4334,0.023962727
4335,0.1040647
4336,0.010707356
4337,-0.21980132
4338,-0.105836526
4339,0.115140244
4340,-0.10006471
4341,-0.0031037356
4342,-0.011155951
4343,-0.15458822
4344,-0.030763894
4345,0.07186217
4346,-0.004301758
4347,-0.011724784
4348,-0.03595793
4349,-0.081680514
4350,-0.07333215
4351,-0.010843553
4352,-0.13088235
4353,-0.033318974
4354,-0.13408482
4355,0.054220926
4356,-0.08369912
4357,0.005340545
4358,0.027508734
4359,0.04222842
4360,0.026236054
4361,-0.013444081
4362,-0.01540429
4363,-0.14578922
4364,-0.013022816
4365,-0.035331987
4366,-0.29659152
4367,-0.12791137
4368,-0.07371214
4369,-0.116147816
4370,-0.10995423
4371,0.030699588
4372,-0.18247712
4373,0.028283395
4374,-0.292692
4375,-0.045023825
4376,0.06406895
4377,-0.036162622
4378,-0.0063187676
4379,-0.024013119
4380,-0.013543718
4381,-0.06791145
4382,-0.14928181
4383,0.041046318
4384,-0.11735342
4385,-0.11403001
4386,-0.06301985
4387,-0.16584267
4388,0.044318806
4389,0.008764495
4390,0.03614749
4391,0.009633055
4392,-0.038876265
4393,-0.023684787
4394,0.006822422
4395,-0.17671907
4396,-0.045898892
4397,0.022546846
4398,-0.2783791
4399,-0.025841748
4400,-0.09648999
4401,-0.0008421968
4402,-0.098620035
4403,0.0065121828
4404,-0.0015753771
4405,-0.007068775
4406,-0.05105412
4407,-0.13486692
4408,-0.017205983
4409,-0.2131172
4410,-0.09485986
4411,-0.14574619
4412,0.023307523
4413,-0.00036782722
4414,-0.016133644
4415,-0.040227007
4416,-0.016500037
4417,-0.07396006
4418,-0.057671648
4419,0.07647423
4420,-0.0074979104
4421,-0.22650039
4422,-0.011522222
4423,-0.14585157
4424,-0.019268377
4425,-0.016646843
4426,0.052426163
4427,-0.019898927
4428,-0.015412081
4429,-0.22167806
4430,0.019405663
4431,0.02426138
4432,-0.022672214
4433,-0.025443248
4434,-0.026492264
4435,-0.03617716
4436,0.0025917867
4437,0.01140526
4438,-0.22663662
4439,-0.06126581
4440,-0.094015576
4441,0.038306933
4442,-0.0176443
4443,-0.16803399
4444,-0.12459591
4445,0.005728915
4446,-0.18023308
4447,0.12914924
4448,-0.048709568
4449,0.01060231
4450,-0.01921238
4451,-0.01181502
4452,0.058841463
4453,-2.0052685e-05
4454,-0.07940305
4455,-0.110914834
4456,-0.070475616
4457,-0.02614531
4458,0.057491858
4459,-0.027431363
4460,-0.17006041
4461,0.05617275
4462,-0.02910013
4463,0.018515144
4464,-0.0251534
4465,-0.057694547
4466,-0.22478862
4467,-0.06811053
4468,0.069090076
4469,-0.023419889
4470,0.0011459424
4471,-0.0032649671
4472,-0.14846396
4473,0.03522733
4474,-0.017046936
4475,0.06504644
4476,-0.09676226
4477,0.0066436664
4478,-0.07438956
4479,-0.0053162714
4480,0.019351263
4481,-0.162876
4482,0.036856983
4483,0.013938082
4484,-0.023163686
4485,-0.049240023
4486,0.12305695
4487,-0.008815827
4488,0.24345791
4489,-0.017472396
4490,-0.011198158
4491,0.10874223
4492,-0.047132954
4493,-0.03676374
4494,0.08166686
4495,0.0091134645
4496,-0.0010408764
4497,0.0065233787
4498,0.026233522
4499,-0.06543428
4500,0.10486384
4501,0.0943287
4502,0.06965088
4503,0.043786034
4504,0.07351498
4505,0.0616311
4506,-0.052579727
4507,-0.00601473
4508,-0.0690076
4509,-0.010287624
4510,0.10536771
4511,0.020456811
4512,0.016923597
4513,0.12047914
4514,0.073373765
4515,-0.041498855
4516,0.017086623
4517,0.06331589
4518,-0.0053384337
4519,0.11239459
4520,0.02281883
4521,-0.10437818
4522,-0.01444681
4523,-0.011775674
4524,-0.02594083
4525,0.06922514
4526,-0.030059107
4527,0.051972754
4528,0.06252178
4529,-0.057162195
4530,-0.018787647
4531,-0.0014776265
4532,0.07889426
4533,0.19903257
4534,-0.040219765
4535,-0.02509912
4536,-0.093538314
4537,0.09466839
4538,0.07540295
4539,-0.032892518
4540,0.0113179665
4541,0.07731648
4542,-0.032078747
4543,0.051469386
4544,0.06622823
4545,0.030766759
4546,0.018772408
4547,0.013000427
4548,-0.016616885
4549,0.10682995
4550,-0.13988893
4551,0.08226229
4552,-0.0057312544
4553,-0.048786502
4554,0.20312919
4555,-0.0877211
4556,-0.022698741
4557,0.10114868
4558,-0.07832022
4559,0.15574251
4560,0.07360809
4561,0.049446244
4562,-0.14837593
4563,0.013528077
4564,0.09437684
4565,0.2418206
4566,0.08399237
4567,-0.013922511
4568,-0.09589269
4569,0.15929748
4570,0.025819175
4571,0.10663324
4572,0.12510705
4573,0.01936653
4574,0.047057223
4575,-0.002392847
4576,0.13674365
4577,-0.041486744
4578,-0.046444695
4579,-0.06275985
4580,-0.008756374
4581,0.090051614
4582,-0.020530561
4583,-0.016938157
4584,-0.058887675
4585,0.09134933
4586,0.012488398
4587,0.17402539
4588,0.09527611
4589,0.11954892
4590,-0.0038836228
4591,0.15773878
4592,-0.015637448
4593,0.029312072
4594,0.10728393
4595,-0.017233446
4596,0.032662798
4597,0.07742407
4598,-0.008077795
4599,0.022027368
4600,0.0842425
4601,0.18985297
4602,-0.021131689
4603,0.045934923
4604,0.056618147
4605,-0.24198152
4606,-0.016609447
4607,-0.008242597
4608,0.028143268
4609,0.049303826
4610,0.0007900062
4611,-0.052398164
4612,-0.11732039
4613,-0.04350289
4614,0.13541538
4615,-0.09000675
4616,0.023930266
4617,-0.006808964
4618,0.00085257203
4619,0.1224715
4620,-0.008185234
4621,-0.03474787
4622,-0.017091662
4623,-0.008194664
4624,-0.0021126692
4625,-0.061767697
4626,-0.046620306
4627,-0.022944583
4628,-0.009040334
4629,0.029987972
4630,-0.0004694144
4631,0.04627247
4632,0.024913466
4633,0.06545467
4634,0.0030225455
4635,-0.016618134
4636,-0.026101302
4637,-0.0275901
4638,0.049754735
4639,-0.027734604
4640,-0.07183123
4641,0.013080523
4642,-0.021474177
4643,-0.14114892
4644,0.06993465
4645,0.046949983
4646,0.053479712
4647,0.1323287
4648,0.012691153
4649,-0.048157845
4650,-0.012895653
4651,-0.3104886
4652,-0.03312677
4653,0.011491947
4654,-0.12710325
4655,-0.016796682
4656,-0.030914487
4657,-0.037760917
4658,-0.12831287
4659,-0.0057810424
4660,-0.030277077
4661,0.10596776
4662,-0.056798857
4663,-0.085521676
4664,-0.062446427
4665,-0.11861191
4666,-0.013461838
4667,-0.08717371
4668,0.02717037
4669,0.078787185
4670,-0.04162118
4671,0.08200329
4672,-0.03249954
4673,-0.020101268
4674,-0.04006818
4675,-0.1759472
4676,-0.011056302
4677,0.02870589
4678,-0.11181234
4679,-0.033559028
4680,0.0062003178
4681,-0.025278041
4682,-0.016228769
4683,-0.013806681
4684,-0.018865684
4685,0.02065191
4686,-0.03619966
4687,0.038525376
4688,0.06272346
4689,-0.039382175
4690,-0.07327183
4691,-0.004743639
4692,0.13930838
4693,-0.027695185
4694,-0.009875791
4695,-0.029733375
4696,-0.0806894
4697,0.15029848
4698,0.007585575
4699,0.0030716276
4700,0.07440406
4701,-0.023589386
4702,-0.044699583
4703,-0.061905045
4704,0.0475281
4705,-0.036802467
4706,-0.027562007
4707,-0.014532094
4708,0.0015907682
4709,0.061385214
4710,-0.03451535
4711,0.010211259
4712,-0.03231517
4713,-0.02759249
4714,-0.0061594234
4715,-0.054828435
4716,-0.033896334
4717,0.12972733
4718,0.004967055
4719,0.025403539
4720,-0.009827943
4721,-0.037289783
4722,0.082841136
4723,-0.041924614
4724,0.04823522
4725,0.08748036
4726,0.004223376
4727,-0.082349926
4728,-0.008928022
4729,0.020380815
4730,0.001267173
4731,-0.024258418
4732,-0.023476655
4733,-0.025862232
4734,-0.087490775
4735,-0.0049124053
4736,-0.071228504
4737,-0.071581736
4738,-0.023508739
4739,-0.09755054
4740,0.02549686
4741,-0.049393542
4742,0.008919372
4743,-0.030630866
4744,-0.00037021245
4745,0.013907169
4746,-0.00084364833
4747,-0.104852036
4748,0.0004954755
4749,0.008559191
4750,0.009727573
4751,-0.08978226
4752,-0.061787363
4753,0.0046230066
4754,0.02294302
4755,-0.0704853
4756,0.012871978
4757,-0.037692335
4758,0.009783634
4759,0.022092143
4760,-0.045782235
4761,-0.008872321
4762,0.0013324149
4763,-0.024563145
4764,-0.038408417
4765,-0.121551536
4766,-0.07100465
4767,-0.014089702
4768,0.033989422
4769,-0.0035133443
4770,0.046624877
4771,0.055174287
4772,-0.027921645
4773,-0.033414472
4774,0.023342073
4775,-0.08176985
4776,0.04150271
4777,-0.004576867
4778,-0.0013027975
4779,-0.115004525
4780,-0.094668016
4781,-0.035119805
4782,0.034218065
4783,-0.14173019
4784,0.0028729246
4785,0.009542554
4786,0.05278919
4787,0.00837807
4788,-0.023550697
4789,0.06291163
4790,0.028523054
4791,0.04384382
4792,-0.049358483
4793,-0.04269822
4794,-0.018307425
4795,-0.07941863
4796,0.03420779
4797,0.069449745
4798,-0.038178712
4799,-0.022028271
4800,-0.03446676
4801,-0.04784757
4802,0.0040466324
4803,-0.06860852
4804,-0.016148183
4805,0.010165652
4806,-0.018147314
4807,-0.011301012
4808,0.003925052
4809,-0.028036842
4810,0.02738473
4811,-0.03239792
4812,-0.04095397
4813,-0.014701124
4814,0.040541638
4815,0.02250081
4816,0.012088815
4817,-0.019058332
4818,-0.056736484
4819,-0.0047591208
4820,-0.085778356
4821,0.010715066
4822,-0.007301741
4823,-0.012714263
4824,-0.044955846
4825,0.06778124
4826,0.013431339
4827,-0.030646395
4828,-0.013506055
4829,0.002053518
4830,0.008311897
4831,-0.052357007
4832,-0.028003596
4833,-0.00618748
4834,-0.00910907
4835,0.04838764
4836,-0.03818857
4837,0.023627887
4838,-0.022590542
4839,-0.08020557
4840,0.00259052
4841,0.018967133
4842,0.008672169
4843,0.028077854
4844,0.016904468
4845,-0.08670923
4846,0.022904387
4847,0.038066
4848,0.003634684
4849,-0.013356967
4850,-0.08202236
4851,0.02850258
4852,-0.15075862
4853,-0.064395435
4854,-0.016318908
4855,-0.015537617
4856,0.0036204497
4857,0.02284603
4858,-0.014414574
4859,-0.008460379
4860,-0.009324506
4861,0.014938007
4862,0.04178466
4863,-0.026023349
4864,0.027875273
4865,0.023235153
4866,0.016960349
4867,-0.09373266
4868,-0.07170191
4869,-0.0098526
4870,-0.07672524
4871,-0.0052183513
4872,-0.01976424
4873,0.0108292475
4874,-0.015914824
4875,-0.07057324
4876,-0.06426121
4877,0.021457046
4878,-0.07600828
4879,0.016112752
4880,0.0367985
4881,0.012049171
4882,0.011930851
4883,0.00869665
4884,0.0062981816
4885,-0.07312393
4886,0.004835278
4887,-0.029876623
4888,0.017707633
4889,-0.04077535
4890,-0.05830857
4891,-0.011495082
4892,-0.05857927
4893,0.02511276
4894,-0.04375639
4895,-0.004111071
4896,-0.021905366
4897,0.024008013
4898,0.052615263
4899,-0.014282283
4900,-0.0032844916
4901,-0.14144683
4902,-0.0358264
4903,-0.08686733
4904,-0.022925304
4905,0.005531179
4906,0.043939285
4907,0.044421643
4908,-0.04835853
4909,-0.016787652
4910,-0.031397015
4911,0.016935298
4912,0.026523435
4913,-0.047302462
4914,0.022497557
4915,-0.0060670567
4916,-0.0551931
4917,0.0058854963
4918,0.06505989
4919,-0.054642886
4920,-0.01457667
4921,0.024703456
4922,-0.051020876
4923,-0.06439442
4924,0.009709495
4925,0.04276486
4926,-0.051108215
4927,-0.00759808
4928,-0.097898185
4929,0.038157582
4930,0.011308363
4931,0.019821271
4932,-0.017317073
4933,0.053626154
4934,0.0027698942
4935,0.016023086
4936,-0.017974416
4937,-0.034651753
4938,-0.029907493
4939,-0.008981424
4940,-0.060820833
4941,0.0024731946
4942,0.036372
4943,-0.008200283
4944,0.005755523
4945,-0.026930362
4946,-0.02677833
4947,-0.010332059
4948,-0.112286195
4949,-0.03239708
4950,0.038368426
4951,-0.04557297
4952,-0.030766608
4953,0.016362458
4954,0.030536573
4955,0.04603326
4956,0.050119486
4957,-0.013990571
4958,-0.063391946
4959,0.02101798
4960,-0.0008004987
4961,-0.0072339196
4962,-0.09887311
4963,-0.020296268
4964,0.027136024
4965,0.05567789
4966,-0.053323995
4967,0.027166672
4968,0.008360085
4969,0.036685478
4970,0.017398547
4971,0.04233869
4972,-0.009656007
4973,-0.0506299
4974,-0.0037126543
4975,-0.023579529
4976,-0.045360446
4977,0.04804482
4978,0.006155313
4979,0.084935434
4980,0.050964788
4981,-0.06054704
4982,0.0019300614
4983,-0.008968744
4984,-0.010143492
4985,-0.024607828
4986,-0.045952726
4987,-0.046465732
4988,-0.033569317
4989,0.02080164
4990,-0.06697511
4991,-0.018972905
4992,-0.09000749
4993,-0.011946474
4994,-0.042454854
4995,-0.20719773
4996,-0.10211484
4997,-0.021025341
4998,0.06418963
4999,0.0041072797
5000,0.038433988
5001,0.001788359
5002,-0.012636753
5003,0.07550303
5004,0.013964227
5005,-0.017312171
5006,0.0617187
5007,-0.09600475
5008,-0.11717552
5009,0.04075222
5010,-0.13325761
5011,-0.03806353
5012,-0.007993695
5013,0.10062875
5014,0.043253537
5015,-0.02438542
5016,0.024283437
5017,-0.037829727
5018,-0.0055576456
5019,-0.04047784
5020,-0.05862379
5021,-0.092806295
5022,0.04695646
5023,-0.006469589
5024,-0.024035923
5025,0.014739945
5026,-0.10812215
5027,-0.092931025
5028,0.04320676
5029,0.066593915
5030,0.016668074
5031,0.09362564
5032,0.03943322
5033,0.058151837
5034,-0.056138035
5035,-0.04791978
5036,-0.03102878
5037,0.0231249
5038,-0.055189285
5039,-0.07794753
5040,-0.0062052216
5041,-0.0525316
5042,-0.11096624
5043,-5.6906843e-05
5044,-0.05539298
5045,0.08054014
5046,0.025656642
5047,-0.042753533
5048,-0.08487324
5049,0.10795282
5050,0.061231807
5051,-0.031253215
5052,0.097192846
5053,0.015452213
5054,-0.0020305398
5055,0.0381848
5056,-0.014787024
5057,-0.044183347
5058,-0.015137431
5059,0.02502186
5060,-0.014135638
5061,0.044506844
5062,-0.09301077
5063,0.017453944
5064,-0.0055352133
5065,-0.022019364
5066,0.06917266
5067,-0.050956186
5068,-0.0055194744
5069,0.06135853
5070,-0.029660273
5071,0.14617258
5072,0.077360064
5073,-0.054569434
5074,-0.07173464
5075,-0.00055491505
5076,0.055425063
5077,0.056790967
5078,-0.059849378
5079,-0.05418696
5080,-0.10890341
5081,0.011828535
5082,-0.011790754
5083,0.019871583
5084,-0.029419554
5085,-0.052331865
5086,0.041599575
5087,0.053198002
5088,0.15139632
5089,-0.009900981
5090,0.049013898
5091,0.057201102
5092,0.007202341
5093,-0.014065673
5094,-0.031790372
5095,-0.0750886
5096,-0.012922656
5097,-0.021857578
5098,0.10654022
5099,-0.018659873
5100,0.01891955
5101,0.12379139
5102,-0.016899263
5103,0.090726465
5104,-0.033109266
5105,-0.08649693
5106,0.033379074
5107,-0.053485513
5108,0.15296783
5109,0.06952528
5110,-0.0016827888
5111,-0.000370443
5112,0.06741815
5113,0.028883647
5114,0.0043648123
5115,-0.037014186
5116,0.067800224
5117,6.457501e-05
5118,-0.07316089
5119,-0.00879796
5120,0.039038192
5121,0.004038957
5122,0.010625635
5123,-0.050455194
5124,-0.07938739
5125,-0.04089882
5126,-0.026230723
5127,-0.13509938
5128,0.13722444
5129,-0.0017452772
5130,-0.005011477
5131,-0.16690059
5132,-0.020146562
5133,0.01685278
5134,0.029058386
5135,0.037934836
5136,0.032472067
5137,-0.12270516
5138,0.04391777
5139,-0.0055160546
5140,-0.101029575
5141,0.07650096
5142,0.1282899
5143,0.040610917
5144,-0.22459625
5145,-0.0013905246
5146,-0.02417647
5147,-0.01473237
5148,0.0030374208
5149,0.0062818443
5150,0.06251155
5151,-0.043715287
5152,-0.1272582
5153,-0.28656206
5154,0.039112918
5155,0.007910331
5156,0.05836641
5157,-0.040985692
5158,0.08965005
5159,0.0008363856
5160,-0.10423883
5161,0.0028991026
5162,-0.031866446
5163,0.06786397
5164,0.08501616
5165,-0.31017604
5166,0.0029428124
5167,0.074418284
5168,-0.06384343
5169,0.03454938
5170,0.008761282
5171,-0.0017030262
5172,-0.193772
5173,0.09874882
5174,-0.02203558
5175,-0.038925245
5176,-0.0057655494
5177,-0.103769965
5178,-0.06317471
5179,-0.00094207516
5180,-0.20918542
5181,0.058160268
5182,0.013696888
5183,0.004404274
5184,-0.25086462
5185,0.04632643
5186,0.044477023
5187,-0.2571796
5188,0.0034195108
5189,0.12272381
5190,0.031455565
5191,-0.16891661
5192,0.01990422
5193,-0.024649844
5194,0.12038364
5195,0.004803582
5196,-0.0032100193
5197,0.1616365
5198,0.05696837
5199,0.18793777
5200,0.06369459
5201,-0.21876627
5202,-0.04742226
5203,0.0019101391
5204,-0.19794767
5205,0.087657824
5206,-0.20070468
5207,-0.013510239
5208,-0.027627667
5209,0.039939765
5210,0.021602934
5211,0.038688783
5212,-0.14452675
5213,0.06799293
5214,0.025417348
5215,-0.20714684
5216,-0.05537646
5217,-0.009649269
5218,-0.046076674
5219,-0.016103568
5220,8.011546e-05
5221,-0.0045239944
5222,-0.034736488
5223,0.0072123283
5224,0.018615132
5225,0.001804083
5226,-0.15663457
5227,0.038567718
5228,-0.24579151
5229,0.09594834
5230,0.007597693
5231,0.09968219
5232,0.010673052
5233,0.027018897
5234,-0.022992842
5235,0.02703848
5236,0.12621962
5237,-0.020924816
5238,0.016679442
5239,0.08061303
5240,-0.030810872
5241,0.08263971
5242,0.0096474495
5243,-0.1987596
5244,-0.05024523
5245,-0.050763596
5246,-0.07903947
5247,0.0038218445
5248,0.037544295
5249,-0.008901921
5250,-0.018634949
5251,-0.17288396
5252,-0.0067670895
5253,-0.07346869
5254,-0.0003133766
5255,-0.0022267646
5256,0.02548583
5257,-0.009687584
5258,0.0068300143
5259,0.018256733
5260,0.009415382
5261,0.0014441538
5262,0.019589126
5263,-0.039101835
5264,0.0035141537
5265,0.020712687
5266,-0.09303238
5267,-0.004337476
5268,0.026305847
5269,0.0037047428
5270,0.00069130317
5271,0.060327854
5272,0.0034052045
5273,0.012446203
5274,-0.041450627
5275,-0.027248336
5276,-0.045039862
5277,0.052735165
5278,-0.056080744
5279,-0.032354835
5280,0.015910769
5281,0.04090618
5282,-0.09514936
5283,-7.752757e-05
5284,-0.057527687
5285,-0.017160717
5286,-0.05780811
5287,-0.069362305
5288,0.08632274
5289,-0.0024927636
5290,-0.015088766
5291,-0.0058503905
5292,0.007709661
5293,-0.031904127
5294,0.022213425
5295,0.07923571
5296,0.041548792
5297,-0.03030708
5298,-0.096241
5299,-0.015241455
5300,-0.0055687716
5301,0.15279531
5302,0.058831017
5303,0.00056049955
5304,-0.05492976
5305,0.029145993
5306,0.030923512
5307,-0.08408148
5308,0.011985157
5309,0.012757725
5310,-0.045450713
5311,0.013362536
5312,-0.01727704
5313,0.036606397
5314,0.02014375
5315,-0.052955072
5316,-0.012699598
5317,-0.016396564
5318,-0.053693555
5319,-0.0032965802
5320,0.0023746772
5321,-0.045791205
5322,-0.02936106
5323,0.009630011
5324,-0.04852524
5325,0.005973981
5326,-0.014884481
5327,0.030358491
5328,0.014106649
5329,-0.016094986
5330,-0.08368922
5331,-0.0029535303
5332,-0.030552372
5333,-0.011793916
5334,0.010302108
5335,-0.06841463
5336,-0.056627553
5337,-0.020432888
5338,-0.060408913
5339,-0.03317024
5340,-0.028251538
5341,-0.051425237
5342,0.024524948
5343,-0.022462284
5344,-0.009186806
5345,-0.0151362475
5346,-0.027101496
5347,0.09732631
5348,-0.06395371
5349,-0.04650902
5350,-0.07595468
5351,-0.021726765
5352,-0.00080623507
5353,0.019105783
5354,-0.0019715931
5355,-0.04806935
5356,0.017771732
5357,-0.05060026
5358,0.0044560423
5359,-0.008899012
5360,-0.037032347
5361,-0.043999404
5362,-0.013402449
5363,-0.0036563284
5364,-0.0069488785
5365,-0.022551581
5366,-0.0021315145
5367,0.014747427
5368,0.018821545
5369,-0.015187058
5370,-0.03331795
5371,-0.0425267
5372,0.03634964
5373,0.01069449
5374,-0.01909248
5375,-0.034222916
5376,-0.0070936996
5377,0.032289777
5378,-0.062188886
5379,0.024731522
5380,-0.048392724
5381,0.017636554
5382,-0.07083004
5383,-0.010851121
5384,0.062458243
5385,-0.007928382
5386,-0.0013109281
5387,-0.14202508
5388,-0.014225526
5389,0.02050216
5390,-0.0153550375
5391,-0.05143222
5392,-0.010502073
5393,-0.08511838
5394,-0.074214794
5395,0.003701482
5396,-0.0016519714
5397,-0.18714306
5398,-0.017090593
5399,-0.0018480289
5400,-0.21113123
5401,-0.061835058
5402,-0.00525718
5403,-0.0042881477
5404,0.00463396
5405,-0.013145688
5406,-0.016228503
5407,-4.7236797e-05
5408,-0.039797004
5409,-0.063139185
5410,-0.0318093
5411,-0.069033325
5412,0.039742984
5413,-0.22787152
5414,-0.023910485
5415,-0.046664122
5416,0.022160651
5417,-0.0023584263
5418,-0.004665841
5419,-0.13127355
5420,0.00084099936
5421,-0.19963874
5422,-0.055427205
5423,0.033002634
5424,-0.04887367
5425,-0.036981504
5426,-0.17217901
5427,-0.008991612
5428,0.026877264
5429,0.072836995
5430,-0.014340556
5431,-0.055318054
5432,-0.061164692
5433,-0.10896549
5434,-0.09415929
5435,-0.06931894
5436,-0.0023140581
5437,0.06542312
5438,-0.043204688
5439,-0.009459907
5440,0.0034161927
5441,-0.032127257
5442,-0.0034284503
5443,-0.009679247
5444,0.01639699
5445,-0.023557637
5446,-0.069903895
5447,-0.032480534
5448,-0.003471306
5449,-0.01244435
5450,0.06024698
5451,-0.029139565
5452,-0.029480865
5453,-0.0039048651
5454,0.072636575
5455,0.08456137
5456,-0.028252434
5457,0.03287746
5458,-0.03643621
5459,-0.0068820505
5460,-0.091295056
5461,0.061584774
5462,-0.065687455
5463,-0.07809487
5464,-0.06839975
5465,0.076590866
5466,-0.0143297985
5467,0.07843969
5468,-0.07427929
5469,-0.04334936
5470,-0.013230919
5471,0.022780463
5472,0.034545906
5473,-0.008609725
5474,-0.018543733
5475,-0.0067332303
5476,0.062552646
5477,-0.006519535
5478,-0.12390747
5479,-0.044153914
5480,0.02713879
5481,0.03830003
5482,0.0042036246
5483,0.009620637
5484,-0.045857802
5485,-0.05538875
5486,0.0017792776
5487,0.017514998
5488,-0.035383113
5489,0.01004715
5490,-0.05304044
5491,0.098460175
5492,0.09717206
5493,-0.009585747
5494,-0.0074764965
5495,0.026773337
5496,-0.116432324
5497,0.028544253
5498,-0.017791476
5499,-0.04033797
5500,-0.060451135
5501,-0.028926343
5502,-0.054778643
5503,-0.0018458032
5504,0.032442972
5505,0.024261469
5506,0.015516008
5507,-0.14490181
5508,-0.05496577
5509,-0.036084123
5510,-0.092155375
5511,-0.012039225
5512,0.013720831
5513,0.010887621
5514,-0.00051003974
5515,-0.102211714
5516,-0.03655613
5517,0.021247987
5518,0.0038377582
5519,0.012374192
5520,0.010514313
5521,-0.07632374
5522,0.035009734
5523,-0.023222124
5524,-0.025272949
5525,-0.31261927
5526,0.006514804
5527,0.03407658
5528,-0.15233666
5529,-0.11822798
5530,0.0026789508
5531,0.007262765
5532,-0.034340147
5533,0.018086607
5534,-0.0753477
5535,-0.0151592
5536,-0.06968994
5537,0.014886884
5538,0.062240794
5539,-0.014120067
5540,-0.03033938
5541,-0.09338921
5542,0.0071872068
5543,-0.081946254
5544,-0.033826057
5545,-0.031906076
5546,-0.007865312
5547,0.03138534
5548,0.0028349962
5549,-0.14818308
5550,-0.051198956
5551,0.016940193
5552,-0.01614124
5553,-0.013393631
5554,0.001987391
5555,-0.015585195
5556,-0.025653275
5557,0.0015639969
5558,0.030613316
5559,-0.053037565
5560,0.001176553
5561,0.027779697
5562,-0.030328978
5563,0.033845805
5564,-0.03956069
5565,0.029206185
5566,-0.005446961
5567,-0.030738946
5568,-0.021853589
5569,0.03282258
5570,-0.010087338
5571,-0.06876007
5572,-0.0008067967
5573,0.027836641
5574,0.019571228
5575,-0.054162808
5576,0.002094594
5577,-0.03192011
5578,0.019488513
5579,-0.02495797
5580,-0.014905481
5581,-0.00401567
5582,-0.004444312
5583,0.008086425
5584,-0.014158347
5585,-0.00638645
5586,-0.019195031
5587,0.0016701497
5588,-0.05751247
5589,0.029486038
5590,0.042153437
5591,-0.052039392
5592,-0.05518416
5593,0.015265401
5594,0.08473724
5595,0.017721754
5596,-0.06352286
5597,0.030428158
5598,-0.0022548838
5599,-0.11291629
5600,-0.011043745
5601,-0.0017381589
5602,0.006012842
5603,-0.003842344
5604,-0.00026205234
5605,0.009464012
5606,-0.07803843
5607,0.020119244
5608,0.014776143
5609,0.008878358
5610,-0.020236727
5611,0.05594759
5612,-0.05296776
5613,-0.08239109
5614,0.0019737782
5615,0.027635142
5616,-0.017220747
5617,0.045559406
5618,6.613947e-05
5619,0.03599198
5620,0.04157855
5621,-0.073936224
5622,0.0051810713
5623,0.051017158
5624,-0.028986212
5625,0.022421297
5626,0.008977942
5627,-0.06082856
5628,-0.10035619
5629,0.037962202
5630,-0.030051302
5631,0.00013279199
5632,-0.026306292
5633,-0.022410655
5634,0.0030622284
5635,0.039335553
5636,-0.034148168
5637,-0.041102882
5638,-0.09604961
5639,0.012586219
5640,-0.07656598
5641,0.014986398
5642,0.014455877
5643,-0.07714968
5644,-0.04240195
5645,-0.04500824
5646,-0.027010458
5647,-0.007145239
5648,0.051626302
5649,-0.008443745
5650,-0.059615184
5651,-0.034557648
5652,-0.0040322007
5653,-0.015499951
5654,-0.03347006
5655,-0.015609246
5656,-0.08666819
5657,-0.04488774
5658,-0.032584846
5659,-0.005773792
5660,-0.054729473
5661,0.007976518
5662,-0.027331734
5663,-0.012640736
5664,-0.023209598
5665,0.026851865
5666,-0.025717609
5667,-0.112383425
5668,-0.00963223
5669,0.01790995
5670,-0.12478886
5671,-0.08244621
5672,-0.043353643
5673,-0.007988663
5674,-0.044451617
5675,0.016506026
5676,-0.03374947
5677,-0.07881148
5678,-0.081667826
5679,0.03382702
5680,0.0071578054
5681,-0.036601666
5682,-0.036866825
5683,-0.01797
5684,-0.016581258
5685,-0.055206586
5686,0.016467204
5687,-0.060217932
5688,-0.10969428
5689,0.038204137
5690,-0.020898065
5691,-0.113167845
5692,-0.052429013
5693,0.03387086
5694,-0.026839593
5695,-0.036689587
5696,-0.029197346
5697,0.036593705
5698,-0.031833682
5699,-0.027106792
5700,0.003752566
5701,-0.060280517
5702,-0.093776256
5703,-0.013359351
5704,-0.008681636
5705,-0.012896545
5706,-0.04280478
5707,-0.08147039
5708,-0.026067669
5709,-0.03298872
5710,-0.008097486
5711,-0.05653857
5712,-0.0054190336
5713,-0.022134561
5714,-0.060001552
5715,-0.012817533
5716,-0.11011932
5717,-0.060388353
5718,-0.013135522
5719,-0.063292935
5720,0.03772206
5721,-0.04830704
5722,-0.015582804
5723,-0.04414607
5724,-0.114705004
5725,-0.04001079
5726,-0.031961173
5727,0.021392526
5728,0.0029384554
5729,-0.010563813
5730,-0.01753561
5731,-0.10936196
5732,0.0084891515
5733,-0.030413799
5734,-0.06347078
5735,-0.004555454
5736,0.046357784
5737,0.006665212
5738,-0.010596983
5739,-0.029982207
5740,-0.019862425
5741,-0.039398685
5742,-0.028185727
5743,-0.06748283
5744,-0.0444089
5745,0.018334098
5746,-0.024252418
5747,-0.044286136
5748,-2.438861e-06
5749,-0.069503106
5750,0.0034989736
5751,-0.029322904
5752,-0.04314835
5753,-0.056722086
5754,-0.0069981553
5755,0.019215943
5756,-0.020604536
5757,0.019105285
5758,-0.06163628
5759,-0.009191053
5760,0.009455937
5761,-0.04178419
5762,-0.0033067768
5763,0.035561293
5764,-0.056098036
5765,-0.040716004
5766,0.026682902
5767,-0.102209054
5768,-0.045944564
5769,-0.062167037
5770,0.007855944
5771,-0.14622599
5772,-0.027559517
5773,0.013765821
5774,-0.09213519
5775,0.0072281123
5776,0.038230017
5777,-0.15266758
5778,-0.017506734
5779,-0.076538324
5780,-0.10898529
5781,-0.030370599
5782,-0.06401066
5783,-0.047951736
5784,0.02588886
5785,0.003441985
5786,-0.011714568
5787,-0.00798985
5788,-0.021667162
5789,-0.024394535
5790,-0.056858107
5791,0.03089763
5792,-0.07840684
5793,-0.27132362
5794,-0.029650066
5795,-0.06424737
5796,-0.017716546
5797,-0.08628752
5798,0.003028613
5799,-0.021633685
5800,-0.036991198
5801,0.021308705
5802,0.031111302
5803,-0.04390045
5804,-0.09310762
5805,-0.011986017
5806,-0.094286315
5807,-0.003102263
5808,-0.114357494
5809,0.0033420937
5810,-0.033849683
5811,0.005450808
5812,-0.042402256
5813,-0.017610889
5814,0.011098142
5815,-0.06810796
5816,-0.066240795
5817,-0.11508717
5818,-0.09369425
5819,-0.07479681
5820,0.0010463885
5821,-0.0090757655
5822,-0.035267815
