Sno,Weight
0,0.023278404
1,0.036447085
2,-0.02372586
3,0.007563765
4,-0.036704972
5,0.04642125
6,0.041504398
7,0.02506291
8,0.059767917
9,0.0113689285
10,-0.060407635
11,-0.005293678
12,-0.0043550394
13,-0.014214406
14,-0.00037185973
15,0.006341749
16,-0.016344521
17,0.02013743
18,-0.06784453
19,-0.028927466
20,0.047616582
21,-0.058741227
22,0.053845007
23,0.0033667432
24,0.0042397697
25,0.02549368
26,-0.006391485
27,0.031006236
28,-0.054872822
29,-0.05234409
30,0.010462906
31,0.016864492
32,-0.053000256
33,-0.0010520414
34,0.039177738
35,-0.031457536
36,0.030437479
37,0.03145924
38,-0.07588795
39,-0.028180901
40,-0.009697088
41,0.020002868
42,-0.017266026
43,0.010547266
44,-0.014732227
45,0.07161942
46,0.022650285
47,-0.011306785
48,-0.030989714
49,-0.055257324
50,0.00017405247
51,-0.06328985
52,0.030921943
53,0.030742493
54,-0.013978443
55,-0.0572073
56,0.013114576
57,-0.00050494494
58,0.020641703
59,0.037137844
60,-0.055413887
61,-0.046208616
62,-0.013671151
63,0.041682344
64,-0.032570105
65,0.023875985
66,0.014536724
67,0.013296115
68,0.043597396
69,-0.044019736
70,-0.08573733
71,-0.032031365
72,-0.06857972
73,-0.0023499597
74,0.02961739
75,-0.029108888
76,-0.0053534596
77,0.047054466
78,0.01881442
79,0.02246131
80,-0.032699987
81,-0.056560352
82,0.012203973
83,0.030213144
84,0.018608373
85,0.038450506
86,0.044915505
87,-0.074379325
88,0.013233039
89,0.017992837
90,0.021180682
91,-0.049261577
92,-0.0034974532
93,0.014767859
94,0.039256923
95,-0.0119985705
96,0.023825157
97,0.0144526595
98,0.032741446
99,0.041133266
100,0.022263873
101,-0.025886996
102,0.029779807
103,0.04011195
104,-0.046463773
105,-0.011559437
106,0.02637761
107,-0.008120522
108,0.0061820815
109,-0.02309333
110,0.024857681
111,0.039621104
112,-0.051994245
113,0.015958846
114,-0.05263749
115,0.008010284
116,-0.058334958
117,0.03849965
118,0.047730923
119,0.040820457
120,0.026624896
121,0.015798107
122,-0.0041967127
123,-0.05265258
124,0.019245928
125,0.021150341
126,0.007548347
127,0.05184307
128,0.037137307
129,0.01147856
130,-0.02461497
131,0.060369916
132,-0.044956993
133,-0.051646784
134,0.04929052
135,0.042042058
136,-0.046790417
137,-0.066484235
138,-0.0703738
139,0.04354546
140,0.038524546
141,0.048771687
142,0.056625813
143,0.035591472
144,0.042717382
145,0.029799547
146,0.017664768
147,-0.07085044
148,0.040229533
149,0.04381076
150,-0.0555698
151,0.037537795
152,0.070689715
153,0.05798459
154,-0.005292382
155,0.05259192
156,0.050333835
157,0.046200186
158,0.06052553
159,0.0056318585
160,-0.07418109
161,0.052688938
162,-0.023706676
163,-0.06430993
164,0.019206913
165,0.041446596
166,0.087105386
167,-0.06511498
168,-0.06387672
169,0.039109588
170,0.025034003
171,0.03686958
172,0.03412055
173,-0.05434557
174,0.020543478
175,-0.060206596
176,0.053434566
177,-0.08615163
178,0.06997968
179,-0.057860468
180,0.05096361
181,0.042442463
182,0.031430203
183,0.06884267
184,0.012342259
185,-0.022956695
186,0.038213022
187,0.04132188
188,-0.06300346
189,0.019956142
190,0.048599083
191,0.03132787
192,0.015611899
193,0.009641378
194,0.04659644
195,-0.09823556
196,-0.023533411
197,-0.060662113
198,0.059581943
199,0.052631367
200,-0.074557096
201,0.047678445
202,0.037259605
203,-0.05191219
204,0.02712441
205,-0.061806854
206,0.015631096
207,0.03860376
208,0.02326304
209,0.10616451
210,-0.037160892
211,0.01310215
212,0.055485956
213,0.01689623
214,-0.046210688
215,0.0678628
216,0.05235761
217,0.010494534
218,0.029091526
219,0.06257064
220,-0.0049715657
221,0.027662694
222,0.04459003
223,-0.008479027
224,0.032670025
225,0.047727264
226,-0.0855288
227,0.040835187
228,0.033466034
229,0.06850692
230,0.039550316
231,0.016910974
232,-0.04640477
233,0.060378227
234,-0.06651027
235,-0.057740897
236,-0.07061741
237,0.0393066
238,-0.026144959
239,0.0088001415
240,-0.045873445
241,0.04329893
242,-0.06792172
243,-0.0731706
244,-0.05351417
245,0.009490797
246,0.013709868
247,0.1109927
248,0.0016793361
249,0.025462782
250,0.021483047
251,0.049485832
252,0.05352974
253,0.043865528
254,0.044775885
255,0.027181169
256,0.04066637
257,-0.0879796
258,-0.07495506
259,0.028337635
260,0.082001194
261,0.018189754
262,0.02688675
263,0.017841555
264,-0.046605453
265,0.044809673
266,0.07541593
267,0.06529994
268,0.04692404
269,0.041611243
270,0.028928678
271,0.030332597
272,0.043409396
273,0.03789241
274,0.05053504
275,-0.070857
276,0.042055644
277,0.014253592
278,0.074014395
279,0.04021859
280,0.017260488
281,-0.00057394727
282,-0.0012494578
283,0.034616888
284,-0.024120873
285,-0.050828967
286,-0.062060464
287,-0.0040264027
288,0.069625415
289,-0.0044177677
290,-0.03698251
291,-0.064347886
292,-0.01921976
293,-0.03456325
294,0.020593245
295,-0.07170674
296,-0.063415624
297,0.045476425
298,0.042858265
299,0.036815614
300,0.037880074
301,-0.054373622
302,0.034589052
303,-0.060597394
304,0.021933049
305,0.13110845
306,-0.070613526
307,0.05953762
308,0.040007852
309,0.020310124
310,0.030630069
311,-0.05686661
312,0.036306623
313,0.026940672
314,0.06135779
315,0.023227358
316,0.07649749
317,-0.0154019045
318,-0.023672182
319,0.025448846
320,-0.042333666
321,0.038515136
322,-0.053236242
323,0.02405494
324,-0.0065638535
325,0.04989072
326,-0.046138298
327,0.013425779
328,0.09277538
329,0.04357929
330,-0.02647897
331,-0.052155346
332,0.043956574
333,-0.06196118
334,0.031984158
335,0.005560073
336,0.054533295
337,-0.034138463
338,0.028268872
339,0.036750693
340,0.032701526
341,0.013248759
342,-0.046455048
343,-0.07458674
344,0.021240503
345,-0.08926417
346,0.03627037
347,0.020935424
348,0.01795623
349,0.0035250017
350,0.032578774
351,-0.0087492345
352,-0.03138198
353,-0.018970067
354,-0.085285135
355,0.005223165
356,0.013072356
357,-0.054374535
358,-0.009447526
359,-0.018765204
360,-0.0043626814
361,0.027379803
362,-0.06710564
363,0.048925817
364,0.12921466
365,0.028654775
366,0.05984939
367,0.010688292
368,0.058634296
369,0.046831906
370,0.08248658
371,-0.066353865
372,0.0056931307
373,0.054452073
374,-0.037362363
375,-0.025973598
376,0.040553905
377,0.0560426
378,0.028130015
379,-0.006878694
380,-0.09882546
381,-0.017077824
382,-0.056986924
383,0.039706204
384,-0.04772034
385,-0.08256894
386,-0.074943475
387,0.021060476
388,0.053255178
389,-0.021891998
390,-0.040230267
391,0.03422668
392,-0.023052793
393,0.019598564
394,-0.054109596
395,-0.053929865
396,0.010872893
397,-0.014460308
398,-0.008404924
399,0.007846312
400,-0.0046305424
401,-0.04503795
402,0.078542
403,0.08318872
404,-0.032786284
405,-0.008521601
406,-0.054801993
407,-0.02651962
408,-0.037865154
409,-0.05491082
410,-0.0048090825
411,-0.038108584
412,0.027500652
413,0.03403607
414,-0.062093053
415,0.014165556
416,-0.074061915
417,-0.0501178
418,-0.07071002
419,0.060031395
420,-0.043063167
421,-0.0148517145
422,-0.04841316
423,-0.07177992
424,0.07665106
425,0.023152921
426,-0.0456834
427,0.0151061
428,0.002624436
429,-0.0543206
430,-0.003099944
431,0.07731816
432,0.018577171
433,0.03356988
434,-0.07062448
435,0.0476123
436,-0.0292148
437,0.05082671
438,-0.04942207
439,-0.05688069
440,0.050393634
441,-0.04420311
442,0.066484146
443,-0.02744641
444,-0.063181385
445,-0.0063817957
446,0.0036257445
447,-0.047505043
448,-0.07531852
449,-0.05356483
450,0.014815816
451,0.042944506
452,-0.046563435
453,0.07444017
454,0.015205751
455,-0.005175792
456,-0.07473337
457,0.013132202
458,0.028342461
459,0.07678367
460,0.065877035
461,-0.06188209
462,0.0112189725
463,-0.03364654
464,0.0070198546
465,-0.010206547
466,0.029788813
467,-0.048981998
468,-0.0043872404
469,0.02199565
470,0.003453826
471,-0.074435495
472,0.015011427
473,0.11052487
474,-0.0022965546
475,0.022146538
476,0.07389138
477,-0.0049463254
478,-0.047699045
479,-0.007112184
480,-0.031155964
481,0.0061189164
482,-0.08542806
483,-0.0595111
484,-0.0034101696
485,0.05464546
486,0.00664364
487,-0.031181507
488,-0.020449834
489,-0.010897994
490,0.05561722
491,0.038169093
492,0.038906224
493,0.031775504
494,-0.01184662
495,0.05618177
496,0.036463045
497,0.0028765902
498,0.0847899
499,0.06538063
500,-0.002343995
501,0.0237233
502,0.020318028
503,-0.07993876
504,0.032706387
505,-0.047973644
506,-0.0057723974
507,0.008021538
508,-0.054979958
509,-0.036374338
510,-0.0052873767
511,-0.064246565
512,-0.048126232
513,-0.039771494
514,0.08703353
515,0.028162714
516,-0.0447405
517,-0.024678623
518,0.0069287647
519,0.035779316
520,-0.047011532
521,-0.06619343
522,0.08584877
523,-0.053881545
524,-0.055273034
525,-0.035947416
526,-0.039804094
527,-0.041590825
528,0.006977664
529,-0.025548872
530,0.07639683
531,-0.07094469
532,-0.021911543
533,-0.043566525
534,-0.0006403017
535,-0.042946324
536,-0.03752631
537,-0.07141745
538,-0.009389043
539,-0.041271433
540,0.043197036
541,0.052863173
542,0.05225742
543,0.051092185
544,0.031365044
545,-0.049977347
546,0.015437278
547,0.066075556
548,0.008195625
549,-0.009806892
550,0.023908181
551,0.07006791
552,-0.063749515
553,0.0014980129
554,0.05979198
555,-0.03341589
556,-0.0018867445
557,-0.054498553
558,-0.003956577
559,-0.0602167
560,-0.05770332
561,0.044073235
562,-0.06424228
563,0.056291677
564,-0.028942244
565,-0.060944416
566,0.07034437
567,0.045209993
568,-0.013124347
569,0.009613624
570,-0.022725571
571,-0.03298288
572,0.035471447
573,-0.065021105
574,-0.035940573
575,-0.047428776
576,-0.07173701
577,-0.0049365694
578,-6.6201406e-05
579,0.106677264
580,-0.023868885
581,0.057561956
582,-0.07668718
583,-0.03233546
584,-0.07474513
585,0.03607246
586,-0.07660823
587,-0.05188999
588,-0.04150378
589,-0.01316699
590,-0.037943833
591,-0.05021824
592,0.0015388154
593,0.013894751
594,-0.009375702
595,-0.029380923
596,-0.0002698203
597,-0.084506944
598,0.009391926
599,-0.074588455
600,-0.04021216
601,-0.019831562
602,0.008493913
603,-0.049646262
604,0.006774121
605,-0.049147934
606,-0.047783922
607,-0.014039739
608,-0.003900383
609,-0.019856676
610,-0.085303575
611,-0.059753086
612,0.008440612
613,-0.0545075
614,-0.008015032
615,-0.022953246
616,-0.040168904
617,-0.038814664
618,-0.066763125
619,0.02751218
620,-0.02473034
621,-0.04500439
622,0.0744502
623,-0.061136514
624,0.038172606
625,0.007028315
626,-0.06814249
627,0.07751711
628,-0.023465805
629,-0.048916396
630,0.04174132
631,-0.10905707
632,0.03124496
633,-0.048235856
634,-0.031496864
635,0.033845745
636,0.005276794
637,-0.023433665
638,0.06525756
639,0.032864574
640,-0.047724653
641,-0.053248655
642,-0.0749213
643,0.047720823
644,-0.04487378
645,-0.040222462
646,-0.013530232
647,0.004850407
648,-0.04003301
649,-0.06650155
650,-0.05310036
651,-0.053980336
652,-0.028202435
653,-0.0082306545
654,-0.0393647
655,-0.03972567
656,-0.041232854
657,-0.044382613
658,0.063124
659,0.09394581
660,-0.011303124
661,-0.04116046
662,-0.007741687
663,-0.04087991
664,-0.03806008
665,-0.07119769
666,-0.005800622
667,-0.0409702
668,-0.032316327
669,-0.051273316
670,0.02055121
671,-0.0898997
672,0.049608804
673,0.03520247
674,-0.07053567
675,0.05890935
676,-0.043373473
677,0.0002690261
678,0.029696671
679,0.054394063
680,-0.063934796
681,-0.017882429
682,-0.024131043
683,-0.0335062
684,-0.0355737
685,-0.054405797
686,-0.03579199
687,-0.060366735
688,-0.091335945
689,0.039719798
690,0.059699684
691,0.06843317
692,-0.02958681
693,0.079211675
694,0.049016327
695,-0.057010744
696,0.0313914
697,-0.036736295
698,-0.0026183901
699,-0.0436397
700,0.016801706
701,-0.0788949
702,-0.0359671
703,-0.047619157
704,0.06896693
705,-0.04922258
706,-0.053038124
707,-0.074063264
708,-0.017442515
709,0.014475673
710,-0.02737617
711,0.03362437
712,0.057882853
713,0.044054452
714,-0.07074295
715,-0.05234788
716,-0.041249286
717,-0.03665694
718,-0.038014803
719,-0.04982393
720,0.07406612
721,0.014917795
722,-0.03719524
723,-0.028423538
724,0.022928627
725,-0.013989586
726,-0.04648834
727,-0.053303525
728,-0.03253839
729,-0.0014359964
730,0.022691576
731,-0.049298074
732,-0.024861952
733,-0.04915163
734,-0.047676224
735,-0.015078917
736,-0.030506937
737,-0.04717344
738,0.04816692
739,-0.059792336
740,0.010378373
741,-0.054503463
742,-0.01141256
743,-0.03280737
744,-0.00081028097
745,-0.012151412
746,-0.06674534
747,-0.0571549
748,-0.097950205
749,-0.044889707
750,-0.024690783
751,-0.039709616
752,-0.04348707
753,-0.011271125
754,-0.068365395
755,-0.07329675
756,-0.010903616
757,0.01251287
758,0.056516126
759,-0.0064704935
760,0.039832365
761,-0.048040356
762,-0.033771932
763,-0.004951729
764,-0.042318385
765,0.03571293
766,-0.024533536
767,-0.007776827
768,-0.0358242
769,-0.06650047
770,-0.02439709
771,-0.017475583
772,-0.04485167
773,-0.051662628
774,0.018983062
775,-0.03714438
776,-0.021598049
777,-0.06645565
778,0.005535863
779,-0.053930268
780,-0.05509271
781,-0.036035948
782,0.012697871
783,-0.039506823
784,-0.04232048
785,-0.0111090625
786,0.02127684
787,-0.070819676
788,-0.05037
789,-0.058817606
790,-0.054983817
791,-0.042419754
792,-0.038278345
793,-0.04275397
794,-0.0035086072
795,-0.040438812
796,-0.054082293
797,-0.05090269
798,-0.061959762
799,-0.03548427
800,-0.07415421
801,-0.049103867
802,-0.07044282
803,-0.06438854
804,-0.04264591
805,0.028760007
806,0.0022228195
807,-0.07169438
808,-0.0638304
809,-0.043796916
810,-0.050223697
811,-0.032609478
812,-0.03634807
813,-0.054505173
814,-0.038889024
815,-0.06036572
816,0.08298202
817,-0.0082372185
818,-0.07085127
819,-0.063316256
820,-0.029647874
821,0.045980494
822,0.014594109
823,-0.021421948
824,0.012947164
825,-0.035116304
826,-0.018657677
827,-0.05104666
828,-0.06323865
829,-0.037549455
830,-0.03702109
831,-0.017388696
832,-0.075366996
833,-0.040004022
834,-0.05321409
835,-0.046655953
836,-0.011679827
837,-0.0067443885
838,0.10776548
839,-0.030830089
840,-0.016900733
841,0.03180352
842,-0.076513626
843,-0.052168295
844,-0.041017327
845,-0.061753333
846,-0.037853975
847,-0.05036158
848,0.0009249109
849,0.021590514
850,-0.037097394
851,-0.04999086
852,0.020336218
853,0.064719364
854,-0.046021875
855,0.014589103
856,-0.019645128
857,-0.016017059
858,0.022699535
859,-0.04922644
860,-0.048720594
861,-0.015546473
862,-0.04776714
863,-0.0032649834
864,-0.030751772
865,-0.050721433
866,-0.08141438
867,-0.060286805
868,-0.07022757
869,-0.054643564
870,-0.0062789647
871,-0.042192366
872,-0.004414288
873,-0.0390618
874,-0.06664815
875,-0.057844505
876,0.0022809766
877,-0.04412978
878,-0.088232
879,-0.08331003
880,-0.051803563
881,0.0317192
882,-0.06817907
883,-0.040935747
884,0.000111634
885,0.05067152
886,-0.0064080753
887,-0.08849186
888,-0.048845887
889,-0.04813439
890,-0.031431805
891,0.03627389
892,-0.062028352
893,-0.03925622
894,0.06555698
895,-0.005936178
896,-0.047318574
897,-0.048940968
898,-0.075167134
899,-0.048563674
900,-0.015006415
901,-0.033031486
902,0.008768447
903,0.0024679808
904,-0.045579273
905,-0.06614044
906,-0.012247929
907,-0.053943846
908,-0.055678908
909,-0.035807263
910,-0.039202586
911,-0.041511822
912,-0.04267237
913,0.041255753
914,0.0054344833
915,-0.070854485
916,-0.050933994
917,-0.058486424
918,-0.055700224
919,-0.042918038
920,-0.03811961
921,-0.032776173
922,-0.0023167743
923,-0.040305592
924,-0.009583747
925,-0.016869297
926,-0.062138535
927,0.043908846
928,-0.073952526
929,-0.050076697
930,-0.047335465
931,-0.06412395
932,-0.042647004
933,0.015518753
934,-0.0036743116
935,-0.071478635
936,-0.063677005
937,-0.04433829
938,-0.045330707
939,-0.032521006
940,-0.035691436
941,-0.05437578
942,-0.04053583
943,-0.011014132
944,-0.09722263
945,-0.034283936
946,-0.07086002
947,-0.06369689
948,-0.029023807
949,-0.07048909
950,0.08962435
951,0.07209233
952,-0.04104554
953,-0.0105899945
954,-0.047212716
955,-0.04474632
956,-0.02109791
957,0.16727674
958,-0.035966564
959,-0.046951253
960,-0.07551785
961,-0.04796587
962,-0.052956596
963,-0.036393385
964,-0.013041427
965,-0.050282214
966,-0.04150382
967,-0.032076973
968,-0.019607486
969,0.0789248
970,-0.043391723
971,-0.051951
972,-0.04143193
973,-0.061915338
974,-0.0378016
975,-0.011254338
976,-0.03506939
977,-0.026926203
978,-0.03686512
979,-0.019901477
980,-0.0012496655
981,-0.06639882
982,-0.045900673
983,-0.04389634
984,-0.039849784
985,0.04109084
986,-0.044203583
987,-0.049185347
988,-0.022571655
989,-0.04873834
990,-0.04712201
991,5.0360977e-05
992,-0.025549578
993,-0.010830739
994,-0.030870112
995,-0.059423365
996,-0.03767123
997,-0.054800473
998,-0.0056320815
999,-0.034206465
1000,0.006503869
1001,-0.038665086
1002,0.0038465406
1003,-0.057557043
1004,0.040764384
1005,-0.04469767
1006,-0.061683197
1007,0.00144458
1008,-0.018130371
1009,-0.009850837
1010,-0.03666569
1011,-0.030984746
1012,0.11380276
1013,0.04023018
1014,-0.12464378
1015,0.058227655
1016,-0.04865079
1017,-0.04803685
1018,-0.031379767
1019,-0.0063952296
1020,-0.033520993
1021,-0.040814623
1022,0.0058256797
1023,0.02351646
1024,-0.047454175
1025,-0.013928179
1026,-0.041906707
1027,-0.04730155
1028,-0.0043065315
1029,0.058197185
1030,0.012016337
1031,0.013959759
1032,-0.037929446
1033,-0.06608208
1034,-0.00036919385
1035,-0.054010358
1036,-0.055736665
1037,-0.03513975
1038,-0.039412346
1039,-0.04157417
1040,-0.042617768
1041,-0.0047287573
1042,-0.06602807
1043,-0.0443902
1044,-0.050827447
1045,-0.003425403
1046,-0.05474362
1047,-0.042872008
1048,-0.031183625
1049,-0.0712792
1050,-0.014936875
1051,-0.041340224
1052,-0.027569946
1053,-0.026517365
1054,-0.0621065
1055,-0.009121104
1056,-0.07158845
1057,-0.05013066
1058,-0.02334138
1059,-0.06427662
1060,-0.04153768
1061,-0.003425128
1062,-0.05118326
1063,-0.07162071
1064,-0.038159408
1065,-0.043163005
1066,-0.032368973
1067,-0.030976364
1068,-0.035054494
1069,-0.054446056
1070,-0.041422475
1071,-0.04362721
1072,-0.06427574
1073,-0.019385923
1074,-0.070453286
1075,-0.06317544
1076,-0.032421943
1077,-0.087046
1078,0.047127713
1079,-0.0231744
1080,-0.043055538
1081,-0.032708235
1082,-0.047831725
1083,-0.03283599
1084,0.016384114
1085,-0.07385907
1086,-0.03646
1087,-0.04718264
1088,-0.019758446
1089,-0.006467011
1090,-0.05322812
1091,0.022281725
1092,-0.035299834
1093,-0.047724
1094,-0.042752903
1095,0.03810936
1096,0.0005406229
1097,0.016518587
1098,-0.008133171
1099,-0.05198543
1100,-0.041576996
1101,-0.06178151
1102,-0.035789177
1103,0.007236657
1104,-0.02683283
1105,-0.056756604
1106,-0.037268925
1107,-0.009938406
1108,-0.05531202
1109,-0.095412984
1110,-0.046004165
1111,0.07891803
1112,-0.013625302
1113,-0.026350876
1114,-0.04314513
1115,-0.049199387
1116,-0.04837411
1117,-0.050007734
1118,-0.04779942
1119,0.0020990556
1120,-0.030672442
1121,-0.05146107
1122,-0.037362583
1123,-0.060401227
1124,-0.053255334
1125,-0.054438572
1126,0.060362726
1127,-0.021479268
1128,0.07385308
1129,-0.039071724
1130,-0.048588883
1131,-0.05741237
1132,-0.04618502
1133,-0.045041755
1134,-0.022571603
1135,-0.020093057
1136,-0.029665306
1137,-0.05194346
1138,-0.068105824
1139,-0.05675535
1140,-0.036634486
1141,-0.037753023
1142,-0.08343477
1143,-0.03585035
1144,-0.040529612
1145,-0.048097827
1146,-0.0007598717
1147,0.014897421
1148,0.097233504
1149,-0.040664095
1150,-0.05666766
1151,-0.034964897
1152,-0.047432646
1153,-0.03201605
1154,-0.010994153
1155,0.024162829
1156,0.01539512
1157,0.05433598
1158,-0.06024276
1159,0.008773565
1160,-0.031136708
1161,-0.04868697
1162,-0.010194482
1163,-0.05400846
1164,-0.054743994
1165,-0.026800973
1166,-0.016563738
1167,-0.0025412103
1168,-0.041492876
1169,0.019072764
1170,-0.06271361
1171,7.055728e-05
1172,-0.046402853
1173,0.015769288
1174,-0.055107415
1175,-0.04227728
1176,-0.03798959
1177,-0.06632267
1178,-0.014476281
1179,-0.040069863
1180,-0.029395273
1181,-0.035338253
1182,-0.047830563
1183,-0.030565128
1184,-0.03895253
1185,-0.04725538
1186,-0.014694834
1187,-0.04468199
1188,-0.031583034
1189,-0.040295176
1190,-0.014294051
1191,-0.021567948
1192,-0.015374427
1193,-0.030723168
1194,-0.038625013
1195,-0.0075911796
1196,-0.034982
1197,-0.054280158
1198,-0.031419124
1199,-0.025617348
1200,-0.05291352
1201,0.01057037
1202,-0.03636616
1203,-0.040866353
1204,-0.029058691
1205,-0.039428804
1206,-0.0043145716
1207,-0.011283733
1208,-0.00060722005
1209,0.0067878137
1210,-0.0475579
1211,-0.008379216
1212,-0.009979296
1213,-0.00028595247
1214,-0.03664356
1215,0.0060821944
1216,-0.02639223
1217,0.024138372
1218,-0.053230107
1219,0.017017908
1220,-0.027341485
1221,-0.05159915
1222,-0.03416793
1223,0.055733465
1224,-0.0053576366
1225,0.0057283314
1226,0.028074643
1227,0.061900638
1228,-0.040213652
1229,-0.048478123
1230,0.014415806
1231,0.014262763
1232,0.059391458
1233,-0.04439118
1234,-0.03415607
1235,-0.03173314
1236,0.007698805
1237,0.012788103
1238,-0.03359137
1239,0.0043147583
1240,-0.024056254
1241,0.027908841
1242,-0.04391659
1243,-0.04911838
1244,-0.04311244
1245,-0.048646573
1246,-0.047688592
1247,-0.0013468097
1248,-0.0308035
1249,-0.029876802
1250,-0.02718657
1251,-0.013117021
1252,0.016416848
1253,-0.022033842
1254,0.058709282
1255,-0.010096192
1256,0.07601267
1257,-0.03865472
1258,-0.037238162
1259,-0.05703447
1260,0.02549167
1261,-0.044341948
1262,0.0076236767
1263,-0.044033173
1264,-0.050814487
1265,-0.052126624
1266,-0.051681362
1267,-0.02251401
1268,0.016080553
1269,-0.0395786
1270,-0.022466397
1271,0.06109115
1272,-0.034752853
1273,-0.025470907
1274,0.05309814
1275,-0.0031022136
1276,0.04451084
1277,-0.013933502
1278,-0.012744438
1279,0.004006365
1280,0.0344643
1281,0.017623153
1282,-0.020388456
1283,0.044780117
1284,0.00019291675
1285,-0.0023262585
1286,0.006123626
1287,0.02088672
1288,-0.02811724
1289,-0.030934975
1290,0.007841951
1291,-0.02613878
1292,-0.023955455
1293,0.009908311
1294,0.017441707
1295,0.052392237
1296,0.0077983374
1297,-0.010635196
1298,0.0009816699
1299,0.0027183297
1300,-0.0435982
1301,0.012037215
1302,-0.011877691
1303,-0.040785097
1304,-0.019079259
1305,-0.015069131
1306,-0.0036453172
1307,-0.037805412
1308,0.0015137125
1309,-0.0031780272
1310,-0.030571794
1311,-0.027565358
1312,-0.016204875
1313,-0.021971146
1314,0.00580523
1315,-0.0096397195
1316,-0.0057208133
1317,0.043693848
1318,-0.00925144
1319,-0.0067252005
1320,0.018018004
1321,0.024225
1322,-0.033844266
1323,-0.0034910024
1324,-0.030797461
1325,-0.041614525
1326,0.00632708
1327,-0.019383723
1328,-0.032403763
1329,0.01911521
1330,-0.002873969
1331,-0.031095816
1332,-0.027503304
1333,-0.016346501
1334,0.04539056
1335,-0.00058582803
1336,0.024203721
1337,-0.013876986
1338,-0.0037864835
1339,-0.017042
1340,-0.003892284
1341,0.0013097653
1342,-0.032198437
1343,-0.020123065
1344,-0.014769208
1345,0.013708217
1346,-0.022972347
1347,0.029986896
1348,-0.03935741
1349,0.01415679
1350,-0.020693347
1351,0.045201432
1352,-0.0025228444
1353,0.037966274
1354,0.0647109
1355,0.021628596
1356,-0.040481403
1357,-0.0274386
1358,0.02135159
1359,0.0063031735
1360,0.07064881
1361,0.005288034
1362,0.006557306
1363,-0.00451095
1364,0.026489947
1365,-0.0031794922
1366,-0.02788525
1367,0.009067364
1368,-0.025738819
1369,0.059903163
1370,-0.023836901
1371,-0.04476031
1372,0.01619552
1373,-0.036101557
1374,-0.020640984
1375,-0.018068818
1376,0.046478685
1377,0.050347228
1378,-0.026856204
1379,-0.03280276
1380,0.022121893
1381,-0.03304639
1382,0.05522694
1383,-0.01085872
1384,0.0843083
1385,-0.026482962
1386,0.007916525
1387,-0.031378545
1388,0.028695257
1389,-0.031399615
1390,0.010804821
1391,-0.026462067
1392,-0.0137334205
1393,-0.05079489
1394,-0.039537642
1395,-0.02337919
1396,-0.004821722
1397,-0.016723061
1398,-0.017319473
1399,0.014674006
1400,0.017664159
1401,-0.037122842
1402,0.033184152
1403,-0.007826871
1404,0.030300606
1405,0.0346469
1406,0.0042106607
1407,0.040953565
1408,-0.005506502
1409,0.006169604
1410,0.006104868
1411,0.0028979569
1412,0.016656475
1413,-0.00925327
1414,0.017783558
1415,0.013329528
1416,-0.0056905025
1417,0.008733675
1418,0.0043719797
1419,0.0069550904
1420,0.011789422
1421,0.009379431
1422,0.020214949
1423,-0.0043570017
1424,0.0072456407
1425,-0.008036622
1426,0.012263744
1427,-0.0004895013
1428,0.007681444
1429,-0.010425379
1430,-0.009380063
1431,-0.0058482867
1432,-0.006305218
1433,-0.017015945
1434,0.0097488575
1435,0.00032956884
1436,-0.0029204988
1437,0.00080877804
1438,-0.011478178
1439,0.008530503
1440,0.001172708
1441,-0.0054378123
1442,-0.009828017
1443,-0.012590664
1444,0.008823065
1445,0.005838776
1446,-0.013010873
1447,-0.0014924493
1448,0.016877597
1449,-0.0006485434
1450,-0.0047760145
1451,-0.0028774375
1452,-0.020308701
1453,-0.005653253
1454,-0.00411394
1455,0.005456016
1456,-0.0109035745
1457,0.018314965
1458,-0.007794048
1459,0.0050189495
1460,0.005146811
1461,0.009486991
1462,-0.0049007293
1463,0.0007457189
1464,-0.0019432434
1465,0.0063989055
1466,0.007633802
1467,-0.013864055
1468,-0.014494325
1469,-0.0042115436
1470,0.0058009545
1471,-0.013376213
1472,0.0036371374
1473,0.009868723
1474,0.013283967
1475,0.0054236446
1476,-0.0106089115
1477,-0.004546311
1478,-0.0044032913
1479,-0.002138316
1480,-0.0045326618
1481,0.004075562
1482,0.008226802
1483,0.014430088
1484,-0.011066735
1485,0.0009250495
1486,0.014838732
1487,-0.016333241
1488,-0.00077324064
1489,-0.012817349
1490,0.00045535117
1491,-0.0118912235
1492,-0.018146627
1493,-0.0077392
1494,0.00808433
1495,0.011478948
1496,0.0038043072
1497,0.0071253167
1498,-0.009177856
1499,-0.01547751
1500,-0.007379271
1501,-0.0036773235
1502,0.00011441739
1503,-0.0043171
1504,-0.007822405
1505,0.0044501442
1506,0.017011428
1507,0.00015910802
1508,0.009360514
1509,-0.013490129
1510,-0.00389202
1511,-0.003571079
1512,-0.0143436445
1513,-0.013907124
1514,0.003958506
1515,-0.007456113
1516,-0.008741782
1517,0.010489795
1518,-0.009256966
1519,0.0044719568
1520,0.009645898
1521,0.011533814
1522,-0.001044327
1523,-0.004674842
1524,0.001132306
1525,-0.01611211
1526,0.0058442634
1527,-0.009521283
1528,-0.00991237
1529,0.012762393
1530,-0.0064120735
1531,-0.0014554504
1532,-0.005301721
1533,-0.0020079177
1534,0.006327421
1535,0.0007293849
1536,0.0024687587
1537,0.018575694
1538,-0.004119448
1539,0.0005692575
1540,0.0010169197
1541,-0.013116936
1542,-0.009790985
1543,0.002065453
1544,-0.0031387052
1545,-0.014469987
1546,0.011276782
1547,0.0053000185
1548,-0.0012765569
1549,-0.001851167
1550,0.0038433757
1551,-0.006745962
1552,0.0042966236
1553,-0.0055972408
1554,0.008820674
1555,-0.0017432249
1556,-0.0049981307
1557,-0.0013953092
1558,-0.007945614
1559,0.013245026
1560,-0.013637592
1561,-0.017342916
1562,0.008065573
1563,0.0051979125
1564,-0.009912604
1565,-0.002020619
1566,-0.01148633
1567,-0.019723797
1568,-0.010195474
1569,-6.851517e-05
1570,-0.0032327191
1571,0.005252325
1572,-0.011367883
1573,-0.011656133
1574,-0.00069133367
1575,0.007848203
1576,-0.004131996
1577,0.01196308
1578,-0.003432278
1579,0.013740532
1580,0.0029354207
1581,0.00011138543
1582,-0.012066045
1583,-0.0053442935
1584,-0.011876584
1585,-0.011599244
1586,0.0033525447
1587,0.008488778
1588,0.011124641
1589,0.0059277867
1590,0.0055174497
1591,-0.013465411
1592,0.005675846
1593,0.001115805
1594,0.0073911534
1595,0.0103863655
1596,0.003990979
1597,-0.00034372776
1598,-0.01065181
1599,-0.009409212
1600,-0.014641554
1601,-0.009243812
1602,0.010922432
1603,-0.019047465
1604,-0.0034083216
1605,-0.019919498
1606,-0.001759848
1607,0.010447669
1608,-0.0055241887
1609,0.009047472
1610,-0.007832803
1611,-0.018269368
1612,-0.003277632
1613,-0.002627263
1614,-0.012729443
1615,0.004157997
1616,0.005192968
1617,0.014709746
1618,0.017018896
1619,-0.016633606
1620,0.002142829
1621,0.00066255464
1622,-0.011595954
1623,0.0023225928
1624,0.010970599
1625,-0.0104657505
1626,-0.012820371
1627,-0.002454723
1628,0.006684374
1629,-0.00471358
1630,-0.011115687
1631,-0.002739479
1632,0.0022997344
1633,-0.005157401
1634,0.003946451
1635,0.012208199
1636,-0.008072947
1637,-0.0059737475
1638,0.0058077592
1639,5.1166986e-05
1640,0.008078383
1641,0.011425101
1642,0.005361823
1643,-0.00041726275
1644,-0.008388787
1645,-0.001426592
1646,-0.008716052
1647,0.002392822
1648,-0.005801184
1649,-0.0065979827
1650,0.0005787059
1651,-0.008520424
1652,-0.0052785072
1653,-0.0003012525
1654,-0.013097655
1655,0.0076061855
1656,0.009482028
1657,0.0021453358
1658,0.003688068
1659,0.009345977
1660,-0.010242835
1661,-0.00394863
1662,-0.013521341
1663,0.012751102
1664,-0.005029549
1665,-0.004055184
1666,-0.010090276
1667,-0.0021555158
1668,0.013936389
1669,0.0024521754
1670,0.00861653
1671,0.003128577
1672,-0.0014462606
1673,-0.00896559
1674,0.010023397
1675,0.00018000041
1676,0.0024967548
1677,-0.0045568533
1678,-0.007684633
1679,0.0048070615
1680,-0.0033890968
1681,5.960245e-05
1682,-0.014069135
1683,0.0012415313
1684,0.010385654
1685,0.016739363
1686,-0.015082117
1687,-0.0025413467
1688,-0.0026649898
1689,0.006809126
1690,0.0027719578
1691,-0.003445276
1692,-0.00020795199
1693,0.011317441
1694,-0.010323717
1695,0.0037228563
1696,0.012574538
1697,-0.00072764617
1698,-0.001706772
1699,-0.0034497024
1700,0.0008546104
1701,-0.007825077
1702,-0.018137453
1703,-0.0003056274
1704,0.008123756
1705,-0.0034567798
1706,-0.011478228
1707,-0.0076430957
1708,-0.0013719348
1709,-0.00036318868
1710,-0.0074548083
1711,-0.009617816
1712,-0.002312064
1713,-0.0023731499
1714,-0.018183308
1715,0.006302438
1716,-0.0068186186
1717,-0.009525397
1718,-0.003921227
1719,-0.003515571
1720,0.015674543
1721,0.004105341
1722,0.008174567
1723,-0.0036461162
1724,0.0069793006
1725,-0.0037213655
1726,0.007206558
1727,0.019521317
1728,-0.0061911163
1729,-0.007420487
1730,-0.009106527
1731,0.016040228
1732,-0.004241155
1733,0.019455727
1734,-0.0010036437
1735,0.0024275766
1736,-0.009711212
1737,-0.0007750392
1738,0.0019073174
1739,0.0010482039
1740,-0.0052898936
1741,-0.014806601
1742,-0.00543885
1743,-0.0013466654
1744,-0.0025711001
1745,-0.0017842756
1746,0.009215935
1747,0.014026331
1748,0.011279277
1749,0.011794344
1750,0.000651404
1751,-0.010562694
1752,-0.0013632393
1753,0.0021261952
1754,-0.0007801352
1755,0.005896684
1756,0.00042268157
1757,0.005809688
1758,0.0044725365
1759,-0.012500609
1760,0.011468296
1761,0.013020351
1762,0.016511736
1763,0.009368377
1764,0.017540948
1765,0.006226034
1766,0.004361156
1767,0.008959894
1768,0.015813326
1769,0.0088877445
1770,-0.0020487127
1771,-0.004383551
1772,-0.004687903
1773,0.006962236
1774,0.0059605693
1775,0.009397251
1776,0.011111117
1777,-0.004320744
1778,0.0013625756
1779,-0.009221098
1780,0.008794274
1781,-0.0035024015
1782,-0.00025050502
1783,0.008185825
1784,-0.00448453
1785,0.014609041
1786,-0.01436156
1787,-0.0017421002
1788,-0.0002896105
1789,-0.011840843
1790,-0.0011754725
1791,0.010516125
1792,-0.015992913
1793,0.0011951299
1794,-0.00757429
1795,-0.0010464499
1796,-0.0024817712
1797,-0.00092455087
1798,-0.0054155947
1799,0.012584891
1800,-0.003254086
1801,0.014701518
1802,0.008455068
1803,0.010492673
1804,-0.007079214
1805,0.009581084
1806,0.01926145
1807,0.010975369
1808,-0.015118117
1809,-0.012727957
1810,0.010885938
1811,0.00046181804
1812,-0.0022029376
1813,3.234968e-05
1814,0.0023014487
1815,-0.008292052
1816,-0.016815633
1817,-0.004923938
1818,0.010699127
1819,-0.003078612
1820,0.013163908
1821,0.01557409
1822,0.007302229
1823,0.0027628273
1824,-0.016980238
1825,-0.0015624971
1826,-0.005937372
1827,-0.0038073559
1828,-0.0033905576
1829,0.015263642
1830,0.013622303
1831,-0.005063481
1832,0.005478367
1833,-0.012415103
1834,0.00096437946
1835,0.008415322
1836,0.004412495
1837,-0.0043148226
1838,0.0049689095
1839,-0.0027020758
1840,0.013111426
1841,0.014858741
1842,-0.014047772
1843,0.009162696
1844,0.006800309
1845,0.007095465
1846,-0.0028937154
1847,-0.007020844
1848,0.003437553
1849,0.004220586
1850,-0.011435812
1851,0.014599989
1852,0.0020776277
1853,0.005194438
1854,-0.0059402683
1855,-0.0047142077
1856,0.0071935295
1857,0.006799396
1858,0.0016216141
1859,-0.0055319737
1860,0.010108554
1861,-0.014418395
1862,0.011084617
1863,-0.0045968173
1864,0.003490306
1865,0.012514745
1866,0.004542044
1867,-0.0057357578
1868,-0.009584264
1869,-0.0056563327
1870,-0.0015613849
1871,-0.0011400171
1872,0.007947695
1873,-0.01606659
1874,0.008632397
1875,-0.0068506883
1876,-0.0066733323
1877,-0.0068249246
1878,-0.0049698963
1879,-0.001027568
1880,-0.0019418041
1881,-0.0045506367
1882,-0.0064433045
1883,0.0024117173
1884,-0.009280687
1885,-0.004153751
1886,0.0001742158
1887,0.011079189
1888,-0.0075636427
1889,0.007841157
1890,-0.0059097144
1891,0.002872856
1892,0.0005910904
1893,0.0051254947
1894,-0.0002782472
1895,0.004419865
1896,0.00078474614
1897,0.00065516506
1898,0.006812824
1899,-0.0035080074
1900,-0.00768847
1901,-0.0198941
1902,0.0026563362
1903,0.012108169
1904,0.0034443352
1905,-0.0060723154
1906,-0.0056463173
1907,0.010014739
1908,-0.00033013418
1909,0.008392003
1910,-0.003850669
1911,0.0064027016
1912,0.009097912
1913,-0.0015430504
1914,-0.004835897
1915,-0.0062667094
1916,-0.011734281
1917,-0.010023228
1918,-0.011128417
1919,-0.008789914
1920,-0.0047677686
1921,-0.009141139
1922,0.003551007
1923,0.005642467
1924,-0.010090444
1925,-0.006938072
1926,0.0072030877
1927,0.009215137
1928,0.015430436
1929,0.004087767
1930,0.015079818
1931,-0.0030230056
1932,-0.0053018313
1933,0.009152816
1934,-0.0029868307
1935,0.0036717933
1936,0.016355773
1937,-0.0057805036
1938,-0.009497828
1939,-0.0044478294
1940,0.004785109
1941,-0.005571577
1942,0.0061583915
1943,0.0012166578
1944,-0.0046015643
1945,-0.009054563
1946,-0.00785436
1947,0.0070651453
1948,-0.013490181
1949,0.013274172
1950,-0.0033547026
1951,0.012893534
1952,0.0006557123
1953,0.013289243
1954,-0.01189744
1955,-0.0015454824
1956,-0.00036589926
1957,-0.00040972338
1958,0.007860762
1959,-0.0070032445
1960,-0.005045136
1961,-0.005889087
1962,0.015141413
1963,-0.00933575
1964,-0.0061968705
1965,0.005621052
1966,0.0068809744
1967,0.015617071
1968,0.008894975
1969,-0.016876059
1970,-2.0115713e-05
1971,-0.0006668533
1972,-0.014115582
1973,-0.0026541566
1974,0.0077976827
1975,0.016396167
1976,0.0017912847
1977,0.015198012
1978,-0.001054622
1979,-0.0029569704
1980,0.0016768805
1981,-0.0053905593
1982,-0.006853366
1983,0.012870381
1984,-0.0038482663
1985,-0.0073136836
1986,0.008110201
1987,0.0022481426
1988,-0.0036620745
1989,-0.002081636
1990,-0.009752617
1991,0.0005338834
1992,-0.0036191414
1993,0.007819249
1994,0.0041872547
1995,-0.0026228845
1996,0.0019573167
1997,0.0020840552
1998,-0.0056709233
1999,-0.007354386
2000,-0.0049796496
2001,0.009684515
2002,0.004940082
2003,0.009252576
2004,0.007199275
2005,0.011299457
2006,0.00908991
2007,-0.002416654
2008,-0.0044116
2009,0.00047656792
2010,0.0010878855
2011,-0.013927805
2012,-0.00025352926
2013,0.007867554
2014,-0.001914299
2015,-0.0036312656
2016,0.0023149643
2017,0.015022811
2018,0.014666268
2019,0.0043446827
2020,-0.012982259
2021,-0.00063754333
2022,0.0011731806
2023,0.004501097
2024,-0.0054807262
2025,-0.008137251
2026,-0.0006053453
2027,0.012264697
2028,-0.0018660962
2029,0.011984642
2030,-0.004643871
2031,-0.013335334
2032,0.0010745246
2033,-0.0010451467
2034,0.010538744
2035,-0.00037908374
2036,0.0008650587
2037,0.0077875033
2038,0.005110682
2039,0.007305471
2040,0.0033921632
2041,-0.003515766
2042,0.00070042745
2043,0.00020805947
2044,-0.005416924
2045,-0.004001092
2046,0.008120975
2047,-0.011325403
2048,0.02369172
2049,0.000711981
2050,-0.04775361
2051,-0.06082168
2052,0.04393169
2053,0.051074624
2054,0.02313878
2055,0.003449595
2056,-0.061443694
2057,-0.045654397
2058,0.06960289
2059,-0.022461256
2060,-0.0152664315
2061,-0.049561903
2062,-0.0011714958
2063,0.015206084
2064,-0.046102077
2065,0.037518494
2066,-0.079286635
2067,0.020976117
2068,0.014339506
2069,0.057910107
2070,-0.074988045
2071,-0.041067116
2072,-0.07167585
2073,-0.058803253
2074,-0.0027795495
2075,-0.0038538678
2076,0.05375918
2077,0.048246928
2078,-0.04717568
2079,0.015047553
2080,0.05214936
2081,-0.053501066
2082,-0.04041271
2083,-0.06658308
2084,-0.026227938
2085,0.018171381
2086,-0.08781466
2087,-0.0135547295
2088,0.0021427418
2089,-0.002417779
2090,-0.02684101
2091,0.02968604
2092,-0.038882148
2093,-0.073033065
2094,0.02316707
2095,0.004146485
2096,-0.03443523
2097,-0.13204104
2098,-0.013399457
2099,-0.067017294
2100,0.02811629
2101,0.0021643788
2102,-0.035831247
2103,0.044915926
2104,-0.0009902463
2105,-0.01567035
2106,-0.007289119
2107,0.04996328
2108,0.061897397
2109,0.0010463529
2110,-0.047921397
2111,0.04347502
2112,-0.032843586
2113,0.037895586
2114,-0.047519617
2115,-0.08388186
2116,0.046357572
2117,-0.06848678
2118,0.03918959
2119,0.023550458
2120,0.073707245
2121,-0.034432687
2122,0.025110623
2123,0.009876416
2124,-0.028361388
2125,-0.048067354
2126,-0.044937465
2127,0.049341295
2128,-0.0747956
2129,-0.106828295
2130,-0.018253127
2131,0.01865732
2132,-0.014598741
2133,0.00528713
2134,-0.04639527
2135,0.044923767
2136,0.023224205
2137,-0.110752575
2138,0.0320128
2139,-0.046996582
2140,-0.01065926
2141,0.016200833
2142,-0.045520328
2143,-0.008041149
2144,0.029538356
2145,-0.022211751
2146,-0.043396622
2147,0.004863926
2148,0.012292505
2149,-0.02598772
2150,0.04551312
2151,0.014520615
2152,-0.05078885
2153,-0.061298236
2154,-0.053727932
2155,-0.05001184
2156,-0.12993322
2157,-0.018122628
2158,0.008826115
2159,0.034809086
2160,0.044879742
2161,0.029103441
2162,-0.08738484
2163,-0.037085727
2164,0.057137404
2165,0.03053905
2166,0.03438876
2167,-0.09867957
2168,0.010049773
2169,-0.026000312
2170,0.026193492
2171,0.05231777
2172,-0.07472822
2173,0.01659571
2174,0.00877871
2175,0.0066281715
2176,0.042559814
2177,0.076845184
2178,-0.08851691
2179,0.036677912
2180,-0.08306527
2181,-0.028879676
2182,0.02539412
2183,0.025408434
2184,0.019269796
2185,-0.027009685
2186,-0.086673096
2187,0.052920025
2188,0.0524464
2189,0.01827564
2190,0.02651226
2191,0.035926968
2192,0.038881436
2193,0.040462364
2194,0.053187255
2195,-0.09485314
2196,0.0419206
2197,0.015317692
2198,-0.07496137
2199,0.039211832
2200,0.028689917
2201,0.051804677
2202,-0.002778167
2203,0.036612045
2204,0.023628712
2205,0.037526418
2206,0.06085434
2207,0.009065983
2208,-0.07066736
2209,0.044303525
2210,-0.040079113
2211,-0.066679604
2212,0.03935665
2213,0.053980466
2214,-0.087549105
2215,-0.07065185
2216,-0.080809854
2217,0.040492553
2218,0.023644514
2219,0.020731919
2220,0.028164998
2221,0.05305291
2222,0.030587979
2223,-0.0791926
2224,0.015117755
2225,0.085448794
2226,0.06907074
2227,-0.06880179
2228,0.0159148
2229,0.039873194
2230,0.048402302
2231,0.039385952
2232,0.03693122
2233,-0.008146015
2234,0.043187954
2235,0.025675166
2236,-0.07264479
2237,-0.019719332
2238,0.019330945
2239,0.043918524
2240,-0.05124924
2241,0.046914477
2242,0.05251295
2243,0.0976209
2244,-0.0037044205
2245,0.05122777
2246,0.02663775
2247,-0.022586564
2248,-0.09390072
2249,0.060612082
2250,0.04944256
2251,-0.046961408
2252,0.038730435
2253,0.018622167
2254,0.034854483
2255,0.019299844
2256,0.05333609
2257,-0.10685284
2258,-0.032222122
2259,0.044049673
2260,0.0476845
2261,0.032405492
2262,-0.0061153863
2263,0.071113594
2264,0.007320196
2265,0.03767898
2266,0.019634005
2267,0.027664887
2268,0.04302818
2269,0.04226453
2270,0.037371755
2271,-0.009606224
2272,0.008614727
2273,0.044633366
2274,0.026231572
2275,0.05704255
2276,0.027440147
2277,0.05388683
2278,0.009091412
2279,0.013017401
2280,0.04585013
2281,0.021854414
2282,-0.05713162
2283,-0.05018096
2284,0.07436134
2285,0.042655442
2286,0.02306978
2287,0.024129236
2288,-0.059819125
2289,0.04988576
2290,-0.08723506
2291,-0.08018487
2292,0.0013099544
2293,0.042693485
2294,0.021655627
2295,-0.11120238
2296,0.014861572
2297,0.047088534
2298,0.023913894
2299,-0.050225887
2300,-0.056638017
2301,0.035810012
2302,0.053840954
2303,0.04812677
2304,0.041175023
2305,-0.03730162
2306,-0.0885189
2307,0.039633382
2308,0.020267488
2309,0.017964782
2310,0.017863957
2311,0.050647493
2312,0.018678436
2313,0.06534989
2314,0.04007693
2315,0.049267706
2316,0.02620327
2317,0.018364942
2318,0.007281664
2319,0.0010293644
2320,0.01551033
2321,0.022498233
2322,0.05867811
2323,-0.09446929
2324,0.033692967
2325,0.012574704
2326,0.053897582
2327,0.01977119
2328,0.026173333
2329,0.0695147
2330,-0.008228655
2331,0.034554478
2332,-0.051436976
2333,-0.04650436
2334,-0.062213745
2335,-0.05260258
2336,0.07057359
2337,0.03836395
2338,-0.010803884
2339,-0.060297098
2340,0.026847946
2341,0.036459133
2342,-0.016938945
2343,-0.06741584
2344,-0.08032364
2345,0.027150113
2346,0.024416013
2347,0.01323882
2348,0.018481573
2349,0.033032518
2350,0.02816156
2351,-0.07856906
2352,0.05716818
2353,-0.13212565
2354,-0.07123312
2355,-0.06101579
2356,0.019322753
2357,0.028633887
2358,0.011714028
2359,-0.06930628
2360,0.015586124
2361,-0.009663668
2362,0.018042024
2363,0.02571932
2364,0.051275253
2365,0.011873484
2366,0.029181004
2367,0.044891246
2368,-0.02132649
2369,-0.012569742
2370,-0.047577012
2371,0.015057944
2372,0.006712087
2373,0.059354443
2374,-0.061903015
2375,0.029343236
2376,0.041283485
2377,0.033738133
2378,-0.008886974
2379,-0.07784479
2380,0.03296016
2381,0.011539664
2382,0.0017238578
2383,0.0213384
2384,0.031370398
2385,0.056067966
2386,0.024305033
2387,0.00808725
2388,0.054753304
2389,-0.021676926
2390,-0.017782459
2391,-0.0712556
2392,0.036414005
2393,0.08859956
2394,0.041985
2395,0.0475419
2396,-0.0109743215
2397,0.033270624
2398,0.046644863
2399,-0.01712286
2400,-0.004199065
2401,0.023991441
2402,-0.04873441
2403,0.049556892
2404,0.013866499
2405,-0.06986307
2406,-0.06113962
2407,0.0048017274
2408,0.044018056
2409,0.03773704
2410,-0.057537146
2411,0.05590272
2412,-0.1304016
2413,0.0283574
2414,-0.0071759275
2415,-0.057550404
2416,0.028040988
2417,0.032974735
2418,0.06661851
2419,-0.08280456
2420,-0.0026317546
2421,0.02193577
2422,0.029552728
2423,0.005107581
2424,0.015316384
2425,0.043323074
2426,-0.016592143
2427,0.017464392
2428,0.09904888
2429,0.027079789
2430,-0.045812685
2431,0.044208564
2432,-0.042394977
2433,-0.037320115
2434,-0.08826351
2435,0.04294357
2436,0.034036204
2437,0.02763274
2438,0.039897807
2439,0.041148636
2440,0.021105539
2441,0.052821577
2442,-0.0864122
2443,-0.06693903
2444,-0.0046200454
2445,0.033299543
2446,0.038139354
2447,-0.008667485
2448,-0.01684697
2449,-0.038838957
2450,0.010741443
2451,0.046034425
2452,0.032595973
2453,-0.026485596
2454,-0.0753382
2455,0.02572788
2456,0.035398588
2457,-0.03398226
2458,-0.0025738548
2459,0.020143872
2460,0.023130475
2461,0.023491275
2462,-0.061779115
2463,-0.020360922
2464,-0.070729785
2465,-0.020111296
2466,-0.009356878
2467,0.041984405
2468,-0.034779545
2469,0.014491357
2470,0.074512206
2471,-0.07032239
2472,0.061425835
2473,0.02007488
2474,-0.046423744
2475,0.0240296
2476,0.023663217
2477,0.006768633
2478,0.008988789
2479,0.05898361
2480,0.01949655
2481,0.04028809
2482,-0.07130437
2483,0.056035466
2484,0.026672347
2485,0.021879645
2486,0.052479222
2487,-0.069651455
2488,0.044247594
2489,0.029494891
2490,-0.046009794
2491,0.013120953
2492,-0.07780617
2493,-0.0014432437
2494,0.009827374
2495,-0.044112716
2496,-0.01694367
2497,-0.039723527
2498,0.034509648
2499,-0.014803098
2500,0.02206671
2501,-0.047626432
2502,0.033563733
2503,-0.017438797
2504,-0.0940716
2505,0.029062135
2506,-0.027748875
2507,0.050247602
2508,0.022353573
2509,-0.007014432
2510,0.03507227
2511,0.029196307
2512,-0.0249876
2513,0.047380447
2514,0.030074958
2515,-0.037537403
2516,0.038922258
2517,0.028887311
2518,0.025306484
2519,-0.07084225
2520,0.021545777
2521,-0.11108365
2522,0.0010327908
2523,0.048078734
2524,0.0017977624
2525,0.008966406
2526,-0.04582292
2527,-0.008706423
2528,0.02988149
2529,0.019828197
2530,-0.045582503
2531,-0.013465104
2532,-0.00533557
2533,0.024030732
2534,0.0060030357
2535,0.02516392
2536,0.00020496515
2537,-0.03384733
2538,0.06562927
2539,0.037365627
2540,-0.03692925
2541,0.020257792
2542,0.0224597
2543,-0.0429656
2544,0.04955352
2545,0.031124635
2546,0.049969234
2547,0.04245527
2548,-0.006176354
2549,0.018558728
2550,-0.045438312
2551,0.037472934
2552,-7.9101745e-05
2553,-0.057296515
2554,-0.034261245
2555,-0.050357033
2556,0.00056123897
2557,-0.006295854
2558,0.027960181
2559,0.06275203
2560,-0.04228978
2561,-0.029690314
2562,0.07382988
2563,-0.00014855442
2564,-0.08296952
2565,-0.055869415
2566,-0.00359919
2567,-0.03450229
2568,0.04382087
2569,-0.045708574
2570,0.050478984
2571,-0.06683389
2572,-0.009326859
2573,0.012636904
2574,-0.029880995
2575,-0.042169828
2576,0.0116459755
2577,0.025077434
2578,0.0409719
2579,-0.09452357
2580,-0.0075811916
2581,-0.03258862
2582,0.03426677
2583,-0.041236836
2584,0.0029362692
2585,-0.0263679
2586,-0.0010079426
2587,0.015569914
2588,0.023622582
2589,0.041354872
2590,0.042234123
2591,-0.04837598
2592,0.043575943
2593,-0.01760035
2594,0.069787726
2595,0.060989156
2596,0.029909283
2597,-0.006366756
2598,0.07374747
2599,0.06800279
2600,-0.080425285
2601,-0.0007047274
2602,0.04999982
2603,-0.040418085
2604,0.017135222
2605,0.052515727
2606,0.0011045861
2607,-0.079306155
2608,-0.033568326
2609,0.055023737
2610,-0.071261466
2611,0.05957892
2612,-0.0094008455
2613,0.0670747
2614,-0.06269898
2615,0.055144574
2616,0.0148471715
2617,-0.016560175
2618,0.023931963
2619,-0.042708624
2620,0.026260639
2621,-0.008483605
2622,-0.016127028
2623,-0.028601706
2624,-0.07151629
2625,0.034660023
2626,0.03742013
2627,-0.104166366
2628,0.0024953338
2629,-0.07680066
2630,-0.042455755
2631,-0.007351073
2632,-0.09409631
2633,0.019828137
2634,-0.021229481
2635,-0.077905186
2636,-0.068511195
2637,0.05308297
2638,-0.036222246
2639,-0.041026805
2640,-0.02316476
2641,0.04246988
2642,0.029681405
2643,0.016588759
2644,0.010856575
2645,0.08964335
2646,0.04411249
2647,-0.057606317
2648,-0.021722624
2649,0.044877674
2650,-0.0036844115
2651,-0.027597379
2652,-0.008559888
2653,-0.023691423
2654,-0.04538775
2655,-0.0028102826
2656,-0.034404323
2657,-0.044914443
2658,-0.04868756
2659,-0.020280419
2660,-0.01064186
2661,-0.06949599
2662,-0.008542349
2663,-0.040892735
2664,-0.008617379
2665,0.0088852085
2666,-0.027769053
2667,0.04195427
2668,0.03632209
2669,-0.04017756
2670,-0.070440345
2671,0.061447326
2672,0.04234344
2673,-0.005612835
2674,-0.08752868
2675,0.07178825
2676,-0.01694712
2677,0.048874076
2678,-0.039750732
2679,0.10981183
2680,-0.0033310032
2681,-0.05730067
2682,0.009017377
2683,0.0037518675
2684,0.006666881
2685,0.018996274
2686,-0.01705686
2687,-0.012590193
2688,0.027967347
2689,-0.037494548
2690,-0.088505134
2691,-0.036735315
2692,-0.083153546
2693,-0.028190771
2694,0.015679263
2695,0.002013695
2696,0.012608924
2697,0.0014585833
2698,-0.08670882
2699,-0.045975104
2700,0.008970133
2701,0.008231689
2702,-0.012497142
2703,0.016765421
2704,0.0048840954
2705,-0.039881214
2706,0.04622577
2707,0.070326395
2708,0.0017727443
2709,-0.035153646
2710,0.013388452
2711,-0.007937238
2712,-0.008310103
2713,-0.028351083
2714,-0.002616062
2715,-0.010752683
2716,-0.051471803
2717,-0.053760726
2718,0.03432711
2719,0.089660875
2720,-0.0087667825
2721,0.03733603
2722,-0.040484037
2723,0.02999635
2724,-0.034190305
2725,-0.0058262413
2726,-0.02695786
2727,0.06455908
2728,-0.08084655
2729,-0.013518561
2730,-0.06126807
2731,-0.040266283
2732,-0.007069891
2733,0.03477175
2734,0.035273492
2735,-0.07947411
2736,-0.024359459
2737,0.040119153
2738,0.05848252
2739,0.04960845
2740,-0.0046048355
2741,-0.06941963
2742,-0.040553633
2743,-0.04665453
2744,-0.042562027
2745,-0.0086412
2746,0.046467576
2747,-0.0454006
2748,0.005192075
2749,-0.010557932
2750,0.0032945136
2751,-0.04236801
2752,0.07486781
2753,-0.024989499
2754,-0.017450787
2755,0.06951687
2756,0.007457035
2757,-0.07585208
2758,-0.044261564
2759,-0.027728904
2760,0.047965553
2761,0.016515194
2762,0.029420706
2763,-0.0148999
2764,-0.0672428
2765,0.061224993
2766,-0.043652408
2767,-0.039986916
2768,-0.01271289
2769,0.028969275
2770,-0.032169137
2771,0.022414189
2772,-0.0010445856
2773,0.017653095
2774,0.04260784
2775,-0.0349987
2776,0.028172089
2777,0.018153047
2778,-0.023023352
2779,-0.024524357
2780,-0.005323884
2781,-0.029658984
2782,-0.04564169
2783,-0.0023482465
2784,-0.025494277
2785,-0.015420189
2786,0.08497342
2787,0.00537757
2788,-0.011233357
2789,-0.06984844
2790,-0.014544724
2791,-0.03656679
2792,-0.019992588
2793,0.009984789
2794,-0.057116486
2795,-0.050186206
2796,0.0976961
2797,-0.008832421
2798,0.0056933076
2799,0.040097434
2800,-0.059923086
2801,0.01789488
2802,-0.08727008
2803,-0.08327397
2804,-0.0061468235
2805,-0.011720655
2806,-0.05714117
2807,0.0070210914
2808,0.03741805
2809,-0.05727896
2810,-0.031930484
2811,-0.011588642
2812,0.07569282
2813,0.006606337
2814,-0.06636231
2815,0.0059932205
2816,0.010515712
2817,-0.018657759
2818,-0.035340443
2819,0.014401192
2820,-0.060738068
2821,0.01481565
2822,-0.02260853
2823,0.037700567
2824,0.005622449
2825,-0.022096993
2826,-0.077913664
2827,-0.022048457
2828,-0.049940597
2829,-0.049966294
2830,-0.014440863
2831,-0.036598556
2832,-0.0076376116
2833,-0.028869847
2834,0.005220667
2835,-0.09475453
2836,0.0006478592
2837,-0.04643542
2838,-0.004751295
2839,-0.040843494
2840,0.014403562
2841,-0.019237533
2842,-0.0039837123
2843,-0.015487777
2844,-0.051509935
2845,-0.047215957
2846,-0.053473335
2847,0.035263427
2848,-0.05061872
2849,-0.024578817
2850,0.014592031
2851,-0.06669034
2852,-0.031848855
2853,-0.030568874
2854,-0.02965544
2855,-0.070373885
2856,-0.08073089
2857,-0.006081716
2858,-0.061292168
2859,-0.039829936
2860,-0.012000658
2861,0.048513375
2862,-0.0014782227
2863,-0.039168764
2864,0.09686136
2865,0.028815497
2866,-0.06224923
2867,-0.06424281
2868,0.0006368352
2869,-0.044162687
2870,-0.007814867
2871,-0.034905642
2872,-0.014897989
2873,-0.039026048
2874,0.018590624
2875,-0.012634636
2876,-0.039295606
2877,-0.035675406
2878,-0.0054823016
2879,-0.0035765152
2880,-0.071367405
2881,0.01320002
2882,-0.033485025
2883,0.046987455
2884,0.014719446
2885,-0.014199212
2886,0.095526084
2887,-0.045889825
2888,-0.05962045
2889,-0.016709192
2890,0.075399935
2891,-0.03524024
2892,-0.042590838
2893,0.0076420014
2894,-0.0374188
2895,-0.04069368
2896,-0.003392265
2897,-0.020058453
2898,-0.032435335
2899,0.021262122
2900,-0.020666191
2901,-0.06360574
2902,-0.011301272
2903,-0.031228583
2904,0.0029362694
2905,0.015500393
2906,-0.02408184
2907,-0.036723945
2908,0.043116923
2909,-0.019482363
2910,0.0054413266
2911,-0.012896042
2912,0.022981495
2913,-0.00476501
2914,0.04272699
2915,-0.026209814
2916,0.06961166
2917,-0.06967785
2918,0.0055271713
2919,-0.0043589943
2920,-0.0042892476
2921,-0.015607602
2922,-0.057506926
2923,-0.049928844
2924,-0.0004342128
2925,-0.041467447
2926,0.08766105
2927,0.08259574
2928,-0.0120924795
2929,-0.02955934
2930,-0.08723056
2931,-0.0827014
2932,-0.009152262
2933,-0.04074737
2934,0.0053504817
2935,0.08931624
2936,0.048165973
2937,-0.057412535
2938,-0.027281974
2939,-0.031035526
2940,0.05405741
2941,-0.03597762
2942,-0.066789195
2943,0.0059204446
2944,0.032058887
2945,-0.03731575
2946,-0.046679508
2947,0.034643825
2948,-0.0568583
2949,-0.013919176
2950,-0.026242232
2951,-0.0043400186
2952,0.01977308
2953,-0.045507435
2954,-0.08641153
2955,-0.014278723
2956,-0.050098967
2957,0.0042700423
2958,-0.031071013
2959,-0.03760761
2960,-0.04612512
2961,-0.040825546
2962,-0.02368924
2963,-0.09485168
2964,0.010172219
2965,-0.044884965
2966,-0.0009717323
2967,-0.040996592
2968,-0.005149696
2969,-0.025960293
2970,-0.009109361
2971,0.017345991
2972,-0.049209855
2973,-0.03746851
2974,-0.05307577
2975,-0.052636433
2976,-0.07073819
2977,-0.0007709012
2978,-0.01725484
2979,-0.06663389
2980,-0.024592536
2981,-0.029832996
2982,0.0036772788
2983,-0.0704451
2984,-0.08040145
2985,0.010822452
2986,-0.06300876
2987,-0.040456824
2988,-0.004002939
2989,0.043534182
2990,-0.008507515
2991,-0.031782553
2992,-0.083767585
2993,0.031168053
2994,-0.062270887
2995,-0.06906254
2996,0.0079743825
2997,0.06947127
2998,-0.09038056
2999,0.019253455
3000,-0.04529655
3001,-0.016250804
3002,0.010714238
3003,0.028621724
3004,-0.03684169
3005,0.09209939
3006,-0.0066276966
3007,0.026243102
3008,-0.071253665
3009,-0.03917782
3010,-0.016746543
3011,0.035825066
3012,0.00783495
3013,-0.013411369
3014,-0.07212809
3015,0.028505633
3016,-0.06007514
3017,-0.08118038
3018,0.011286798
3019,-0.018109698
3020,-0.0698818
3021,0.008618584
3022,-0.043695327
3023,-0.030217104
3024,-0.0029980177
3025,-0.015251961
3026,-0.032184035
3027,-0.033811104
3028,-0.0052477466
3029,0.062200274
3030,-0.021595348
3031,0.0057284296
3032,-0.027588023
3033,-0.043577272
3034,-0.039620884
3035,-0.023309194
3036,-0.010858738
3037,-0.031353697
3038,-0.045407295
3039,-0.008593258
3040,0.028995367
3041,0.010943561
3042,0.01470828
3043,-0.010684607
3044,-0.030194992
3045,-0.058076322
3046,-0.0015500454
3047,0.0075039035
3048,0.006775367
3049,-0.029235575
3050,-0.03404285
3051,-0.050094478
3052,-0.0438271
3053,-0.00081742526
3054,0.061606828
3055,-0.013239974
3056,-0.05953334
3057,0.0108017605
3058,-0.02348505
3059,-0.06868264
3060,-0.10408127
3061,-0.04454363
3062,0.1243532
3063,-0.057641
3064,-0.04098851
3065,-0.030479329
3066,-0.029407535
3067,-0.041054036
3068,0.037757307
3069,-0.024942463
3070,-0.06817591
3071,-0.034149542
3072,0.018616863
3073,-0.017043892
3074,-0.049807265
3075,-0.061178125
3076,-0.08308034
3077,0.03824422
3078,-0.012786885
3079,-0.046855923
3080,-0.014613488
3081,-0.021518696
3082,-0.08668093
3083,-0.06681102
3084,-0.0506031
3085,-0.041876078
3086,-0.02353972
3087,-0.015774671
3088,-0.046053555
3089,-0.014986905
3090,-0.012781286
3091,-0.09452939
3092,-0.01947129
3093,-0.04539183
3094,-0.0049704732
3095,-0.04054365
3096,0.008991973
3097,-0.011766144
3098,-0.0024664404
3099,-0.035123445
3100,-0.04782239
3101,-0.053766
3102,-0.055406287
3103,-0.03834083
3104,-0.070666075
3105,0.015606592
3106,-0.040418547
3107,-0.06659939
3108,-0.030820273
3109,-0.00036800653
3110,-0.023726068
3111,-0.07035732
3112,-0.020522777
3113,-0.0046028965
3114,-0.06165081
3115,-0.030170662
3116,-0.039958805
3117,0.010388839
3118,-0.03652157
3119,-0.079453506
3120,-0.04570242
3121,0.019359186
3122,-0.0637487
3123,-0.06891895
3124,-0.03653969
3125,0.08656123
3126,-0.04825197
3127,-0.04765748
3128,-0.0520958
3129,0.026842603
3130,-0.014957985
3131,0.020679357
3132,-0.035613906
3133,-0.101373374
3134,-0.004230002
3135,-0.0047630947
3136,-0.037900124
3137,-0.019740775
3138,-0.017838603
3139,-0.022327
3140,0.0017373402
3141,-0.033193886
3142,-0.10383042
3143,-0.038221728
3144,-0.0584292
3145,-0.017821174
3146,-0.008793105
3147,-0.07789062
3148,-0.061370526
3149,-0.02552541
3150,0.026161203
3151,-0.012144065
3152,-0.024744926
3153,-0.014249203
3154,-0.032232605
3155,-0.03735448
3156,-0.00391812
3157,0.094983205
3158,-0.046400566
3159,0.07383687
3160,-0.0327032
3161,0.025607906
3162,-0.039698508
3163,-0.022539396
3164,-0.056947958
3165,-0.033889774
3166,-0.04573919
3167,-0.016101478
3168,0.0021963217
3169,-0.012916865
3170,-0.007051824
3171,0.022538459
3172,-0.043876015
3173,-0.060010713
3174,-0.061414167
3175,-0.012835483
3176,-0.074036494
3177,-0.024413297
3178,-0.028222712
3179,-0.03991378
3180,0.045812745
3181,0.022823919
3182,0.022510171
3183,-0.015562113
3184,-0.041056387
3185,-0.047780283
3186,-0.036037583
3187,-0.083321646
3188,0.035821613
3189,-0.0140825035
3190,0.08324833
3191,0.035648588
3192,-0.041194256
3193,-0.0219345
3194,-0.041812982
3195,-0.049889322
3196,-0.09778604
3197,-0.035312638
3198,0.0049341847
3199,0.033583965
3200,-0.006826434
3201,0.029402293
3202,-0.03211132
3203,-0.04794399
3204,-0.05803501
3205,-0.023426635
3206,0.10840751
3207,0.028295416
3208,0.014970508
3209,-0.019949652
3210,-0.05985346
3211,-0.0070193107
3212,-0.034502417
3213,-0.04407516
3214,-0.04600667
3215,0.041282926
3216,-0.01700031
3217,0.029195605
3218,-0.03847754
3219,-0.059973557
3220,-0.04950499
3221,-0.046525624
3222,-0.03217202
3223,-0.026273806
3224,-0.020100182
3225,-0.030254629
3226,-0.009570626
3227,-0.054652568
3228,-0.051879056
3229,-0.05373862
3230,-0.054026246
3231,-0.023450635
3232,-0.031575806
3233,-0.019163264
3234,-0.026627287
3235,-0.06670494
3236,-0.0054594404
3237,-0.044623494
3238,-0.03157335
3239,-0.07044997
3240,-0.042391602
3241,-0.047364436
3242,-0.04908602
3243,-0.03954513
3244,-0.03910138
3245,-0.022138592
3246,-0.0070232274
3247,-0.06557531
3248,-0.0475416
3249,-0.0004924125
3250,-0.021247756
3251,-0.017959272
3252,-0.055049714
3253,0.04130809
3254,0.16967657
3255,-0.03361576
3256,-0.020988101
3257,0.04297815
3258,0.0018078478
3259,0.014722842
3260,-0.03561636
3261,-0.023858238
3262,-0.005218505
3263,0.01786658
3264,-0.026223326
3265,-0.028671138
3266,-0.017600229
3267,0.050022926
3268,-0.011678019
3269,-0.023060773
3270,-0.041036543
3271,-0.055977453
3272,-0.053040404
3273,0.03750761
3274,-0.03798019
3275,-0.029090941
3276,-0.017928962
3277,-0.01022032
3278,0.019597547
3279,0.03385683
3280,-0.06446176
3281,-0.027239233
3282,-0.0321897
3283,-0.037364878
3284,-0.056778323
3285,0.053041976
3286,-0.019787656
3287,0.02400187
3288,-0.03126239
3289,-0.032633428
3290,-0.039565
3291,-0.034692455
3292,-0.05925202
3293,-0.032722767
3294,-0.014927315
3295,-0.004926538
3296,-0.03476649
3297,-0.029137323
3298,-0.04792461
3299,0.042333752
3300,-0.010821738
3301,-0.04441902
3302,-0.016841684
3303,0.01181828
3304,-0.0095953075
3305,-0.026415844
3306,-0.041462168
3307,-0.04999095
3308,0.011022641
3309,-0.041998234
3310,-0.03105981
3311,-0.0416044
3312,-0.039965972
3313,-0.047699038
3314,-0.066362515
3315,-0.07988989
3316,-0.0057645603
3317,0.043567907
3318,0.07628222
3319,0.0052715866
3320,-0.024730124
3321,-0.024795594
3322,-0.019620474
3323,-0.05020201
3324,-0.026999168
3325,-0.04633993
3326,0.05276897
3327,0.04934758
3328,-0.005120405
3329,0.03411699
3330,-0.027335493
3331,0.019557716
3332,-0.036067527
3333,-0.010479152
3334,-0.008856796
3335,0.050130103
3336,0.0061861784
3337,-0.020381385
3338,-0.04634528
3339,0.008246641
3340,-0.048265614
3341,-0.049774446
3342,-0.057786815
3343,0.008165342
3344,-0.046283927
3345,-0.0076327305
3346,-0.05147214
3347,-0.060480792
3348,-0.048652187
3349,0.010757994
3350,-0.03206295
3351,-0.028521964
3352,-0.042558923
3353,-0.007972867
3354,-0.00028490275
3355,-0.04308813
3356,-0.051055234
3357,-0.053799912
3358,-0.06181723
3359,-0.02105143
3360,-0.036827207
3361,-0.031629883
3362,-0.040168058
3363,-0.066519044
3364,-0.014104618
3365,-0.029244468
3366,-0.036140025
3367,-0.05809958
3368,-0.03671918
3369,-0.047459155
3370,-0.04612498
3371,-0.010350614
3372,-0.039105646
3373,-0.030753944
3374,-0.0253939
3375,-0.048832085
3376,-0.026972575
3377,-0.0031837556
3378,-0.036651567
3379,-0.048313424
3380,-0.03418189
3381,0.06232606
3382,0.1196584
3383,-0.042415977
3384,-0.03174001
3385,0.022092585
3386,-0.0083045475
3387,0.02641197
3388,-0.03962524
3389,-0.0056238514
3390,-0.026336351
3391,0.034854878
3392,-0.02687571
3393,-0.011898259
3394,-0.031587984
3395,-0.0019396596
3396,0.031959012
3397,-0.038971756
3398,-0.023992777
3399,-0.048018306
3400,-0.04609564
3401,0.069950946
3402,-0.014158399
3403,-0.05235234
3404,-0.027362017
3405,-0.032896694
3406,-0.006858522
3407,0.02312268
3408,-0.0711178
3409,-0.02748115
3410,-0.032398544
3411,-0.013479157
3412,0.014756972
3413,0.038449265
3414,-0.023947943
3415,0.020522514
3416,-0.04875349
3417,-0.036099132
3418,0.032469146
3419,-0.024625158
3420,-0.05871635
3421,-0.029541068
3422,-0.027772652
3423,-0.011085864
3424,-0.024043556
3425,-0.027278803
3426,-0.046817914
3427,0.008885026
3428,-0.029252676
3429,-0.035616037
3430,-0.0023323735
3431,0.014491747
3432,-0.0029332605
3433,-0.041196723
3434,-0.03412144
3435,-0.050063435
3436,0.02511884
3437,-0.024398329
3438,-0.014515707
3439,-0.026671985
3440,-0.04131233
3441,-0.04761451
3442,-0.03186793
3443,-0.070251435
3444,0.022011776
3445,0.06390261
3446,0.0392898
3447,-0.026159598
3448,-0.009268163
3449,-0.026051084
3450,0.015118037
3451,-0.049794447
3452,-0.000931275
3453,0.00712174
3454,0.036282312
3455,0.059848495
3456,-0.0024108684
3457,-0.011538326
3458,-0.0021552846
3459,0.003741324
3460,-0.011557177
3461,0.0029743349
3462,0.009483039
3463,0.011547958
3464,0.012654787
3465,0.00860734
3466,-0.010915721
3467,0.006907758
3468,-0.010736004
3469,0.004761032
3470,-0.006846276
3471,-0.009743942
3472,0.013163803
3473,-0.0099660205
3474,0.010356037
3475,-0.018073365
3476,-0.0021574432
3477,-0.014138982
3478,0.0043312744
3479,-0.009361614
3480,0.006615626
3481,-0.009705399
3482,0.0028608225
3483,-0.0049360977
3484,-0.010656139
3485,-0.008112673
3486,-0.0038344155
3487,0.007886311
3488,-0.019301636
3489,0.0041710967
3490,-0.011321714
3491,0.007220833
3492,0.006047844
3493,0.019926414
3494,-0.0014730593
3495,-0.013728544
3496,-0.009353179
3497,-0.0006766352
3498,-0.006409211
3499,0.00249578
3500,-0.008253634
3501,0.013379514
3502,-0.009529411
3503,0.011440306
3504,0.0046830396
3505,0.010510518
3506,0.0018151094
3507,0.0042313733
3508,-0.004322139
3509,0.014514575
3510,0.009164461
3511,0.006190395
3512,0.011995416
3513,-0.0022332878
3514,-0.0147242965
3515,0.016952496
3516,0.0028813998
3517,-0.01970048
3518,0.006727913
3519,0.0069983304
3520,0.002184655
3521,0.0021506152
3522,-0.0067330743
3523,0.0036087832
3524,-0.010195204
3525,0.012242601
3526,-0.011771123
3527,0.012865435
3528,-0.004652879
3529,-0.0028217875
3530,-0.000384482
3531,0.0013415314
3532,0.008428506
3533,-0.015410638
3534,0.010730879
3535,-0.0004915979
3536,-0.009037149
3537,0.0055612195
3538,0.00023109367
3539,0.0030250596
3540,0.0029721106
3541,0.0062640803
3542,-0.018443888
3543,0.009622858
3544,-0.0053066434
3545,-0.0125950435
3546,-0.0037629162
3547,0.01084714
3548,0.007339956
3549,-0.007977461
3550,-0.008996444
3551,-0.0136452
3552,0.010341209
3553,0.0019230805
3554,0.00046547005
3555,0.007340106
3556,0.017933829
3557,-0.0014719205
3558,-0.01064287
3559,0.013443467
3560,0.011567118
3561,-0.00017420576
3562,-0.0024750698
3563,-0.0036082608
3564,0.0021854923
3565,0.0005881006
3566,0.00582406
3567,-0.011843979
3568,0.0042545246
3569,-0.0030858475
3570,0.022725655
3571,0.0023969766
3572,0.008074204
3573,0.0066274763
3574,0.01212094
3575,0.029219247
3576,0.011560709
3577,0.001597957
3578,0.00090442714
3579,0.0070234514
3580,0.015515687
3581,0.010046722
3582,-0.0076036295
3583,0.0012820242
3584,0.005686187
3585,-0.012586271
3586,-0.0030232999
3587,0.0006672751
3588,0.010860424
3589,-0.002787076
3590,0.0035485458
3591,0.009364195
3592,0.0015904882
3593,-0.0108611025
3594,-0.007065478
3595,0.006163183
3596,0.008048412
3597,-0.018864706
3598,-0.0036507584
3599,-0.008777249
3600,0.011904096
3601,0.01731127
3602,0.011670186
3603,0.00026346694
3604,-0.0057773325
3605,0.00713463
3606,0.013514329
3607,-0.015786558
3608,0.0015143935
3609,0.0033096385
3610,0.015528213
3611,0.006834144
3612,-0.0060277227
3613,0.007586142
3614,0.0028950018
3615,-0.009214023
3616,-0.011851377
3617,-0.0061296583
3618,-0.00950743
3619,0.0027807578
3620,0.015065752
3621,0.001407326
3622,-0.007699989
3623,-0.003816525
3624,0.0046733404
3625,-0.008109659
3626,0.012762808
3627,0.005994067
3628,0.008714881
3629,0.0117356405
3630,0.011652915
3631,-0.009467341
3632,-0.0054889056
3633,0.00565404
3634,-0.017150307
3635,0.0049012313
3636,0.015122897
3637,-0.016188065
3638,0.0005238881
3639,-0.0021569647
3640,0.0073359213
3641,-0.009314674
3642,0.0017105524
3643,-0.0011312421
3644,-0.014078468
3645,0.0020890085
3646,-0.019601282
3647,-0.011078928
3648,0.0011444981
3649,-0.016400408
3650,-0.00069968886
3651,0.0031747785
3652,-0.017786123
3653,0.01237123
3654,-0.009415923
3655,0.004967447
3656,-0.0055255718
3657,-0.0090530105
3658,-0.008065059
3659,-0.012965413
3660,0.0038931142
3661,-0.003040262
3662,0.0065054405
3663,-0.0006694404
3664,-0.019859688
3665,-0.011778825
3666,-0.0048633795
3667,0.016819404
3668,0.004102592
3669,-0.01360027
3670,0.0069832616
3671,0.007956025
3672,-0.0021505463
3673,0.012471358
3674,-0.007702515
3675,-0.0016626328
3676,0.0049109566
3677,-0.0031919547
3678,0.0018712322
3679,0.016033847
3680,-0.00586228
3681,0.0013976509
3682,0.0047001364
3683,-0.0040823417
3684,0.005514202
3685,6.756956e-05
3686,-0.01919484
3687,-0.01947805
3688,-0.0024940374
3689,0.006410495
3690,0.002552236
3691,0.007818104
3692,-0.0025708424
3693,0.012771283
3694,-0.011751639
3695,-0.0027312667
3696,-0.0061726063
3697,0.00707633
3698,0.008393932
3699,-0.005346456
3700,-0.0017870506
3701,0.009409144
3702,0.009047757
3703,0.008916243
3704,0.0049809064
3705,0.013193749
3706,0.0144334575
3707,-0.0040786765
3708,0.009960981
3709,0.010316682
3710,0.015345948
3711,-0.005263764
3712,-0.011881659
3713,-0.0043497244
3714,-0.010156483
3715,-0.0027318255
3716,0.016516123
3717,-0.005452334
3718,0.010896565
3719,0.005348396
3720,-0.0013386913
3721,0.0070536816
3722,0.0002814963
3723,0.0023785387
3724,-0.012533424
3725,-0.012253259
3726,-0.005692132
3727,-0.0004912175
3728,-0.008470257
3729,-0.013784933
3730,0.019536125
3731,0.014593944
3732,0.0034258957
3733,-0.00450346
3734,-0.014605916
3735,-0.00018237153
3736,0.0019598312
3737,-0.0035665943
3738,-0.005517853
3739,0.006727377
3740,0.0022355553
3741,0.0074047446
3742,0.013659
3743,-0.002230526
3744,0.016021842
3745,-0.010134658
3746,-0.0023695906
3747,0.0022864796
3748,-0.004170822
3749,-0.006883166
3750,-0.014735054
3751,-0.0017375262
3752,0.0042700674
3753,0.0024933638
3754,1.9676378e-05
3755,-0.0029007243
3756,-0.00821968
3757,0.014213191
3758,0.018325197
3759,0.00036252904
3760,0.0032391294
3761,0.009953497
3762,-0.0069539747
3763,-0.003502884
3764,-0.0070466916
3765,-0.0029574668
3766,0.0028285556
3767,-0.0026308515
3768,-0.005393589
3769,-0.014747645
3770,-0.0032760503
3771,0.013094963
3772,-0.0037975528
3773,0.002429172
3774,-0.0011547672
3775,-0.01823057
3776,0.0012388877
3777,0.0063926843
3778,-0.005804297
3779,0.016676778
3780,-0.002464874
3781,-0.0059346217
3782,-0.005856471
3783,-0.0027559223
3784,0.008872029
3785,-0.005180392
3786,-0.0067193764
3787,0.0021548916
3788,-0.0108250305
3789,0.012308982
3790,-0.0030112397
3791,0.0056683063
3792,0.0047612353
3793,-0.013165821
3794,0.0044208495
3795,-0.0037814218
3796,0.009770887
3797,-0.01042562
3798,-0.0012386431
3799,-0.008545395
3800,0.00690912
3801,-0.009363831
3802,-0.0014631686
3803,0.0043578777
3804,-0.0009782567
3805,0.012807795
3806,0.011424727
3807,-0.0007807205
3808,0.0024242091
3809,-0.006106326
3810,-0.005695007
3811,0.0071381126
3812,0.013920931
3813,-0.0092803575
3814,0.007038379
3815,0.013293381
3816,0.014560799
3817,-0.0011206518
3818,-0.0029997341
3819,-0.01696189
3820,0.0029338112
3821,0.013174625
3822,-0.007640982
3823,-0.011666154
3824,-0.018768255
3825,-0.010418944
3826,-0.0037613586
3827,0.009204045
3828,0.0042987145
3829,0.00082481257
3830,0.0010693868
3831,0.014364448
3832,0.0023375023
3833,0.000731021
3834,0.009877574
3835,0.005690194
3836,0.0022825988
3837,0.012366233
3838,0.00044882172
3839,-0.0080723055
3840,0.017963689
3841,-0.001985938
3842,0.010197107
3843,0.0136344815
3844,-0.0051186155
3845,0.004742173
3846,-0.005592864
3847,-0.009910053
3848,-0.0019185491
3849,-0.008640698
3850,-0.019497164
3851,-0.0073611513
3852,-0.016654376
3853,-0.011054599
3854,-0.00058231544
3855,-0.004944848
3856,0.00053221016
3857,0.011289903
3858,-0.005588954
3859,-0.010880544
3860,-0.0070392895
3861,0.0030633693
3862,-0.0012321874
3863,0.0109097
3864,-0.0074186497
3865,-0.015603577
3866,0.011233394
3867,-0.0013695103
3868,-0.0004944859
3869,-0.011454602
3870,0.004931249
3871,0.0029478339
3872,-0.011376758
3873,-0.0058768806
3874,-0.0037653255
3875,0.0011704718
3876,-0.009613311
3877,-0.0060802135
3878,0.012088325
3879,-0.0025621164
3880,-0.00071242347
3881,-0.009131817
3882,-0.009970515
3883,-0.014341447
3884,0.0046254224
3885,0.010209719
3886,-0.0009913816
3887,0.017158896
3888,-0.0051869694
3889,-0.014602246
3890,-0.0038010362
3891,0.01203935
3892,-0.0042928252
3893,-0.012745495
3894,0.007208267
3895,0.0064344537
3896,0.0029002144
3897,0.0019740504
3898,0.003403388
3899,0.0019354646
3900,0.009832678
3901,-0.00038769995
3902,-0.00031422736
3903,0.0076448866
3904,-0.0017602755
3905,0.0039487854
3906,-0.0011370125
3907,0.011964146
3908,-0.0018629663
3909,-0.01806102
3910,0.019585393
3911,0.0017885659
3912,0.0056235497
3913,-0.014461252
3914,0.0030934694
3915,-0.003744122
3916,-0.010348847
3917,-0.0041959165
3918,-0.010857135
3919,-0.004903066
3920,-0.015710508
3921,0.0099412175
3922,-0.0010484443
3923,-0.0021799456
3924,0.00058987126
3925,0.00057530805
3926,0.0063301944
3927,-0.0062239743
3928,-0.008245867
3929,-0.013585208
3930,-0.0056122863
3931,0.01273579
3932,-0.0040299636
3933,0.0021099718
3934,0.014733128
3935,-0.003570827
3936,-0.007933851
3937,0.001270114
3938,0.008568273
3939,-0.009364362
3940,-0.0030459168
3941,-0.015913064
3942,-0.013708814
3943,-0.001993095
3944,0.012071822
3945,-0.00930017
3946,0.002037889
3947,0.011110894
3948,-0.0013924035
3949,-0.016260602
3950,-0.003255357
3951,-0.0036768697
3952,0.00256899
3953,0.0046649817
3954,-0.013913676
3955,0.0044326945
3956,-0.0016373122
3957,-0.011871849
3958,-0.013130667
3959,0.010009001
3960,0.011431952
3961,-0.010888223
3962,-0.0016570906
3963,0.0041603553
3964,4.907375e-05
3965,-0.010170086
3966,-0.0065163393
3967,0.0016004412
3968,0.0004831679
3969,0.002126514
3970,0.0032526478
3971,-0.0076743737
3972,-0.008032104
3973,-0.01627887
3974,0.011115451
3975,0.011729287
3976,0.0073542534
3977,0.003034493
3978,-0.0046439427
3979,-0.0011240036
3980,0.0006800039
3981,0.009359715
3982,-0.00012933677
3983,-0.016482653
3984,0.0041448707
3985,-0.01840995
3986,-0.0055436403
3987,0.004747575
3988,-0.010560935
3989,0.0023625323
3990,0.0015260569
3991,-0.010675886
3992,0.00027379775
3993,0.014731455
3994,0.0065823323
3995,0.009083773
3996,0.0050488226
3997,0.000193139
3998,1.5913743e-05
3999,0.012189467
4000,0.0046365485
4001,-0.0062588905
4002,0.0009997996
4003,0.00028500945
4004,-0.012701858
4005,0.011213958
4006,0.008121035
4007,0.0025581347
4008,-0.0018578249
4009,0.014012893
4010,0.0029443891
4011,0.0075332057
4012,0.0037970634
4013,-0.010819704
4014,0.0032009184
4015,0.00911208
4016,0.014378279
4017,-0.009115419
4018,-0.008497509
4019,-0.00047921797
4020,0.0042279265
4021,0.005132539
4022,-0.007862656
4023,0.002464969
4024,-4.7164776e-05
4025,0.004228513
4026,0.003562472
4027,-0.0062017166
4028,-0.007317313
4029,-0.0040186765
4030,0.0020693159
4031,0.010168067
4032,-0.0027940094
4033,0.012191428
4034,-0.007908152
4035,-0.01487972
4036,0.0091884965
4037,0.009866614
4038,0.01102732
4039,-0.008114976
4040,-0.0031320902
4041,-0.010352274
4042,0.018266708
4043,-0.001956711
4044,-0.00517808
4045,0.00040446583
4046,-0.010425858
4047,-0.0109846415
4048,0.0035408759
4049,0.008318416
4050,0.0019431774
4051,0.0027952616
4052,-0.00032379324
4053,-0.0041551096
4054,-0.004018714
4055,0.007676562
4056,0.00091044925
4057,-0.00640133
4058,0.016808834
4059,-0.010907183
4060,0.008122079
4061,-0.005915299
4062,0.015389742
4063,0.017578276
4064,0.015472566
4065,-0.00308571
4066,-0.011386264
4067,0.007639619
4068,-0.00053202175
4069,-0.004002013
4070,-0.0077957287
4071,0.0050457804
4072,0.004218462
4073,-0.0038958741
4074,0.0108186565
4075,-0.014977285
4076,-0.0050034905
4077,0.010469788
4078,0.0056184763
4079,0.008665723
4080,0.013376385
4081,-0.004026432
4082,-0.0035226224
4083,0.00016432824
4084,0.0016357374
4085,0.003545365
4086,0.008436141
4087,-0.014476774
4088,0.0040824465
4089,-0.0064690686
4090,0.00021880101
4091,-0.013363834
4092,0.003590825
4093,-0.015565013
4094,-0.0008258062
4095,-0.0066453908
