Sno,Weight
0,-0.066225745
1,0.0137539115
2,-0.048589144
3,0.009070256
4,-0.064837106
5,0.039443783
6,0.028535744
7,0.027569858
8,-0.09559635
9,-0.00074208213
10,-0.0023101757
11,-0.0012977786
12,0.06702821
13,0.01446577
14,0.033683155
15,0.021493562
16,-0.000108813634
17,-0.0047031404
18,0.048124034
19,0.0067917756
20,-0.026126055
21,0.06086211
22,0.017924517
23,0.034529284
24,0.0020860834
25,-0.036559228
26,-0.032490056
27,0.04889482
28,0.01871434
29,-0.041118275
30,0.0138647305
31,0.006433309
32,0.045175646
33,-0.052201293
34,0.0069585834
35,-0.065359406
36,-0.056684323
37,-0.051490534
38,0.010214385
39,-0.05101928
40,0.0075463597
41,-0.0017297204
42,0.030419393
43,-0.009701304
44,0.03532168
45,0.030368755
46,0.052343797
47,-0.039104972
48,0.017357858
49,-0.015638396
50,-0.013662744
51,0.012236536
52,-0.04420236
53,0.030567372
54,0.020374363
55,-0.010172641
56,-0.06946639
57,-0.04537636
58,0.035500932
59,-0.048872743
60,-0.059535142
61,0.057865605
62,-0.021329785
63,-0.079468906
64,-0.052047554
65,-0.03017147
66,-0.0072451965
67,0.03615021
68,0.07933396
69,0.011183045
70,-0.029222034
71,0.037027415
72,-0.06411554
73,0.014512486
74,0.03769434
75,0.012212774
76,-0.016866082
77,0.029477485
78,0.019739816
79,0.016324524
80,-0.05695358
81,-0.05489031
82,0.046836723
83,-0.002358568
84,-0.019139895
85,0.028341927
86,-0.01705114
87,-0.010870513
88,0.030079555
89,0.04060242
90,-0.09689907
91,-0.00047325055
92,-0.055306662
93,-0.032040484
94,0.061071064
95,-0.021689057
96,0.02151584
97,-0.029402003
98,-0.03371885
99,-0.0049632327
100,0.025149351
101,-0.09109694
102,0.0597875
103,-0.007798729
104,0.06304995
105,0.05588902
106,-0.048696708
107,0.03475012
108,0.050404157
109,-0.0022427875
110,0.045766734
111,0.043798197
112,-0.0774239
113,0.034688693
114,0.018522324
115,0.048033107
116,-0.0034772218
117,0.03068378
118,0.041009247
119,-0.008276689
120,0.029989365
121,0.04072581
122,0.010975489
123,-0.037872784
124,-0.030718584
125,0.0100243045
126,0.029455882
127,0.036768943
128,0.033887338
129,0.05438048
130,0.046557825
131,0.05796215
132,0.024262248
133,0.02363881
134,0.023703773
135,0.034764934
136,-0.09604997
137,0.01044605
138,0.079312444
139,-0.06392062
140,-0.078235425
141,0.03299547
142,0.029532896
143,0.027551586
144,-0.073337674
145,0.03825152
146,0.015187792
147,-0.015355135
148,0.010391335
149,-0.06310213
150,0.051280867
151,0.033180725
152,-0.08086152
153,-0.09301917
154,-0.06725011
155,0.012541433
156,0.037337065
157,0.037015997
158,-0.006112652
159,0.04163769
160,-0.005572042
161,-0.069370694
162,-0.017819136
163,-0.06533762
164,-0.02163507
165,0.037470732
166,0.019500712
167,0.07018675
168,-0.073961526
169,0.06844288
170,-0.08989263
171,0.03957589
172,0.0033178437
173,0.035797004
174,0.0019502188
175,0.04935157
176,0.04135887
177,0.073158614
178,-0.009781509
179,0.03329318
180,0.053803958
181,0.047899246
182,0.019903148
183,0.041962694
184,0.02808606
185,0.06963127
186,0.04275539
187,-0.021361126
188,0.023509443
189,-0.07298007
190,-0.06009283
191,0.054568212
192,0.026154902
193,-0.062436786
194,0.031699363
195,0.037007447
196,-0.066583574
197,0.05644712
198,0.04297777
199,0.01701474
200,-0.06406725
201,0.04414278
202,0.009667279
203,0.030946005
204,0.00014470896
205,0.0033980221
206,0.07511927
207,0.009228513
208,0.009345512
209,-0.021663621
210,0.04016404
211,-0.020481516
212,0.06181692
213,0.007004295
214,0.050674174
215,0.037122957
216,0.00924967
217,0.027946558
218,-0.09712889
219,0.048986565
220,0.031961266
221,0.057616502
222,0.027217422
223,0.083141096
224,0.014548201
225,0.033613898
226,-0.077110805
227,-0.030856794
228,0.058866676
229,0.100692004
230,-0.05821611
231,0.03042299
232,0.056805134
233,0.043529287
234,-0.048702244
235,0.028948111
236,0.018375969
237,0.035728157
238,0.04928031
239,0.008609988
240,0.062162716
241,0.042099897
242,-0.050711837
243,-0.039776064
244,0.049527768
245,0.028065464
246,-0.02795624
247,0.060029197
248,-0.038279407
249,-0.08479071
250,0.02844892
251,-0.03902082
252,0.03501642
253,0.053698096
254,0.021381253
255,0.02570487
256,0.030824514
257,-0.047641654
258,0.030605925
259,0.029410653
260,0.04739853
261,-0.01246262
262,0.036511354
263,0.0051350407
264,0.12872496
265,0.054998044
266,-0.08083401
267,0.06868648
268,-0.06483033
269,0.01378732
270,-0.0057381513
271,0.020336175
272,0.06791387
273,0.048155453
274,-0.0529807
275,0.026410459
276,0.017109154
277,0.023904081
278,-0.06477107
279,-0.095988795
280,-0.08062385
281,-0.09268746
282,0.063655235
283,-0.04002991
284,0.033328455
285,0.06533987
286,0.021919332
287,0.03136783
288,-0.04506236
289,-0.0697033
290,0.050172616
291,-0.05450029
292,-0.02456622
293,0.062981784
294,0.039387845
295,-0.050918937
296,0.076382935
297,-0.0743911
298,0.038545176
299,0.044207238
300,-0.016124211
301,0.027662138
302,-0.022006277
303,0.065280885
304,-0.009051647
305,-0.052260943
306,0.046804897
307,0.029100947
308,0.06582156
309,0.037169073
310,0.045571864
311,0.060173184
312,0.032463066
313,0.04668743
314,0.04000219
315,0.034542404
316,0.045661524
317,0.025364682
318,0.07687925
319,0.06618164
320,0.031854566
321,0.06290937
322,-0.0007622215
323,0.0050953235
324,-0.060626753
325,-0.07555413
326,-0.00948404
327,0.024700595
328,-0.064125255
329,0.015131985
330,0.016433453
331,8.78991e-06
332,-0.033572845
333,0.00672464
334,-0.08638427
335,0.034923527
336,-0.0010886954
337,0.06634326
338,-0.03921525
339,0.044475697
340,0.0074017793
341,0.019628972
342,-0.0007375692
343,-0.041446786
344,0.030940397
345,0.011607093
346,0.018328954
347,0.034826245
348,0.039350457
349,0.025290797
350,-0.0024506277
351,-0.062338334
352,0.023348005
353,0.046678893
354,-0.07728983
355,0.04076009
356,-0.028546963
357,-0.03690057
358,-0.06636276
359,0.03564819
360,0.054558408
361,-0.019513026
362,0.034946516
363,-0.051794022
364,0.03558486
365,0.06509619
366,-0.035806466
367,0.019740883
368,0.043817844
369,0.03512794
370,-0.043402184
371,-0.05142704
372,0.060102273
373,0.051877007
374,0.018629318
375,0.027849386
376,0.008697802
377,0.03201791
378,0.045309428
379,0.08824488
380,0.05964101
381,-0.06541694
382,0.009428899
383,0.030090353
384,0.034172542
385,0.044806667
386,0.021381287
387,-0.05322027
388,0.038285654
389,-0.0297392
390,0.015870161
391,0.0112211425
392,0.01044845
393,-0.042967133
394,-0.080810696
395,0.04038213
396,-0.061489344
397,0.017307093
398,-0.042828627
399,0.0033946782
400,-0.07290709
401,0.06509271
402,0.0295797
403,-0.04054726
404,0.035976917
405,0.060391754
406,0.03810358
407,0.003564978
408,0.041539058
409,0.059206
410,0.047374044
411,-0.025298405
412,0.03851831
413,-0.059069406
414,0.004188111
415,0.019055597
416,-0.068194084
417,0.07411586
418,0.01261046
419,-0.06537909
420,-0.023072338
421,-0.051612217
422,0.028584061
423,-0.051062107
424,0.031178001
425,-0.074511655
426,0.011610752
427,0.041748714
428,0.013499902
429,0.034513954
430,0.026977321
431,-0.04810575
432,0.01085427
433,0.04991243
434,0.05691802
435,-0.049790047
436,0.08790842
437,0.008090303
438,0.012227267
439,-0.0566293
440,0.038105585
441,0.069731556
442,0.028726662
443,0.072207496
444,0.06090836
445,0.029507762
446,-0.058363322
447,0.081995755
448,0.051554427
449,0.043883685
450,-0.061227895
451,0.006820328
452,-0.06684093
453,-0.0754877
454,0.022111153
455,-0.02579287
456,0.06781979
457,0.054115362
458,0.025034713
459,0.027862385
460,-0.070742704
461,-0.054075196
462,-0.08652327
463,-0.042813852
464,0.0048083817
465,-0.027470505
466,-0.0044102673
467,0.05730138
468,0.010273796
469,0.03211387
470,-0.00448569
471,0.044050593
472,-0.12158055
473,-0.026898673
474,0.09245571
475,-0.060046956
476,0.040010873
477,0.031461067
478,-0.057034157
479,-0.06291855
480,-0.015614977
481,-0.029053396
482,0.085981086
483,0.056434393
484,-0.03102248
485,0.025069507
486,-0.09414489
487,-0.01964154
488,-0.069920115
489,-0.052984156
490,0.045046613
491,0.015529992
492,-0.03981549
493,-0.05194207
494,0.00900983
495,-0.039635453
496,0.07876997
497,0.0012401836
498,-0.031730585
499,-0.052693713
500,-0.052983336
501,0.021077594
502,-0.009963923
503,0.017076027
504,0.058990166
505,-0.08074494
506,-0.003939862
507,-0.03727363
508,-0.05980382
509,0.027162874
510,-0.014093314
511,0.010106896
512,0.045687325
513,-0.032243498
514,-0.048557483
515,0.0097978525
516,-0.03870869
517,-0.04424403
518,0.018912977
519,0.0153489625
520,0.04650061
521,-0.034356765
522,-0.08069324
523,-0.06390024
524,-0.024865916
525,-0.027757159
526,-0.04251597
527,-0.026742972
528,0.03655421
529,-0.052148275
530,0.023414712
531,-0.040678207
532,0.015964512
533,-0.04320313
534,-0.068510756
535,0.018149199
536,0.063346274
537,-0.060221393
538,0.057019647
539,0.06692594
540,-0.030511923
541,-0.058944304
542,-0.04903802
543,-0.033142425
544,-0.06795758
545,-0.06949911
546,0.004785493
547,0.08573708
548,0.078255
549,-0.051480286
550,-0.04790454
551,0.06053485
552,-0.07394125
553,-0.07448822
554,-0.089464076
555,-0.050353773
556,-0.034762498
557,-0.043669395
558,-0.03869503
559,-0.04753048
560,0.029640708
561,-0.052612133
562,-0.015361636
563,0.014587631
564,0.032481674
565,-0.02947254
566,0.014013244
567,-0.056826305
568,0.01670601
569,-0.10413656
570,-0.040901907
571,0.066133976
572,0.04860821
573,0.025270019
574,0.04308175
575,0.06255512
576,-0.052116264
577,0.046758167
578,0.039238125
579,-0.0063070687
580,-0.06733556
581,0.04523873
582,0.025512641
583,-0.0013547249
584,-0.06410642
585,-8.079339e-05
586,-0.01498379
587,0.010303336
588,-0.070721634
589,-0.04815177
590,-0.06830225
591,-0.021945424
592,0.056276757
593,0.04698863
594,0.05368057
595,-0.051716827
596,0.014894457
597,-0.048954334
598,0.0234187
599,0.06734731
600,0.0143299615
601,-0.04331479
602,0.034014687
603,0.021314604
604,-0.028105155
605,0.05068856
606,-0.057272714
607,-0.06230432
608,-0.033033047
609,-0.028966594
610,-0.076915786
611,-0.034947146
612,0.0230331
613,0.0370226
614,-0.062509134
615,0.017447937
616,-0.087309375
617,-0.053232092
618,0.052096985
619,0.019221487
620,-0.055460393
621,-0.051708814
622,-0.03500905
623,-0.0072176885
624,0.06457637
625,-0.05599982
626,-0.04852194
627,-0.04065323
628,-0.052688375
629,0.013510753
630,0.05875751
631,-0.0039989376
632,0.041014664
633,0.027126048
634,-0.005782372
635,-0.039089497
636,-0.059874967
637,0.025789777
638,0.03319926
639,0.0046567162
640,0.059297033
641,-0.037880104
642,0.03983608
643,0.010210427
644,-0.064972736
645,-0.0443879
646,-0.018197551
647,-0.0022812467
648,0.05276862
649,-0.0038366085
650,-0.06421154
651,-0.06359768
652,-0.05102543
653,-0.032706436
654,-0.03446358
655,0.005206842
656,-0.030385673
657,-0.04751102
658,-0.036038876
659,-0.040451642
660,-0.079031944
661,-0.029526202
662,-0.068320505
663,0.04533823
664,-0.08036183
665,-0.092950925
666,-0.067233294
667,-0.08041571
668,-0.031037478
669,-0.05895886
670,0.022690112
671,-0.053873412
672,0.053949203
673,-0.06865295
674,0.0023591507
675,0.08497695
676,0.07512881
677,-0.051688343
678,-0.04827162
679,-0.05067481
680,0.03991682
681,-0.062790595
682,-0.08988283
683,-0.05017053
684,-0.026969938
685,0.00076591625
686,-0.03712515
687,-0.035877965
688,-0.04650092
689,-0.052440222
690,-0.056569483
691,-0.05295779
692,-0.04007768
693,-0.030161811
694,-0.0312769
695,-0.0568965
696,-0.029140245
697,0.03053457
698,-0.038644508
699,-0.048800986
700,-0.05907771
701,-0.044363853
702,-0.025441112
703,0.042277247
704,0.051998068
705,-0.019888874
706,-0.061262462
707,-0.0031717236
708,-0.041091125
709,-0.075343385
710,-0.054769047
711,0.002003578
712,0.08723071
713,-0.0031578597
714,-0.015335329
715,-0.043059528
716,0.06200414
717,-0.04555266
718,-0.01831142
719,-0.04081406
720,0.022452151
721,0.017508924
722,0.009500039
723,0.04303107
724,-0.031330545
725,0.04333878
726,-0.040279146
727,-0.030418498
728,0.018348308
729,-0.0037801906
730,-0.0011587958
731,0.042266175
732,0.043708853
733,0.0074349754
734,-0.0570858
735,-0.062350888
736,0.01711866
737,-0.029166616
738,-0.061056305
739,-0.035000738
740,-0.03089087
741,-0.090928964
742,-0.005934622
743,-0.008022559
744,-0.060894817
745,-0.0035514706
746,-0.048879445
747,-0.05088815
748,-0.05506278
749,-0.026839342
750,-0.015252145
751,-0.040938124
752,0.033332117
753,-0.05585549
754,-0.09574841
755,-0.038505524
756,-0.052178655
757,0.024128327
758,-0.008411956
759,-0.025089644
760,-0.031291652
761,-0.08521019
762,0.033176012
763,-0.037135538
764,0.037434116
765,-0.05191784
766,0.0053352625
767,-0.005595456
768,0.04728356
769,-0.0467464
770,-0.0064730626
771,-0.053170968
772,-0.027649295
773,-0.04411938
774,-0.004695087
775,-0.04397394
776,-0.0129471645
777,-0.042507112
778,-0.04266728
779,-0.0060646464
780,-0.036227956
781,-0.0046511944
782,-0.016288778
783,0.03658595
784,-0.03738812
785,-0.029167626
786,-0.03964435
787,-0.041079886
788,-0.095147274
789,-0.007819555
790,-0.067109354
791,0.054715402
792,-0.08072432
793,0.09810159
794,-0.024452167
795,-0.0843681
796,0.035734076
797,-0.058779467
798,-0.037245937
799,-0.050590646
800,-0.06793392
801,-0.010329438
802,0.009192735
803,-0.06529324
804,0.05324026
805,-0.028528946
806,-0.048152868
807,-0.0081559615
808,-0.050337873
809,-0.060773425
810,-0.06271939
811,-0.028238537
812,-0.04224691
813,-0.042132247
814,-0.038009346
815,-0.048304453
816,-0.046117276
817,-0.034071717
818,-0.007372541
819,0.062303513
820,-0.010085254
821,-0.03496464
822,-0.02157513
823,-0.056982487
824,0.052499108
825,-0.05108676
826,-0.0033376203
827,-0.04754482
828,-0.059193462
829,-0.047738407
830,-0.011052694
831,0.025319833
832,-0.051264778
833,-0.055569865
834,-0.061070018
835,-0.0051494045
836,-0.03729929
837,-0.07560166
838,-0.054821745
839,-0.017489644
840,-0.06428379
841,-0.047053248
842,-0.01063197
843,-0.043139346
844,-0.070526175
845,-0.054231916
846,-0.0506264
847,-0.038934436
848,0.012895903
849,-0.01986109
850,0.009858821
851,-0.04828467
852,-0.053590983
853,-0.040954374
854,-0.04005743
855,-0.041529406
856,-0.02438872
857,-0.043318074
858,0.027824914
859,0.008633315
860,-0.027886206
861,0.0107618775
862,-0.027701486
863,-0.03975918
864,-0.044349458
865,-0.029366145
866,-0.077265754
867,-0.028101893
868,-0.059047464
869,-0.091024816
870,0.0106624495
871,-0.0030678378
872,-0.0049468125
873,0.010071503
874,-0.048801865
875,-0.05080955
876,-0.033205703
877,-0.02563128
878,-0.0071745845
879,-0.039620515
880,-0.0011087009
881,-0.055988137
882,-0.0484523
883,-0.031893104
884,-0.012969045
885,0.012512643
886,0.09167372
887,-0.020731486
888,-0.03787559
889,-0.08435088
890,-0.018935025
891,-0.04578285
892,-0.014287658
893,-0.047042906
894,0.021092745
895,-0.002482571
896,0.038507793
897,-0.04706287
898,-0.04910999
899,-0.053474776
900,-0.011397588
901,-0.044450298
902,-0.031268157
903,0.04772261
904,0.008002677
905,-0.043193366
906,-0.041342296
907,-0.063486055
908,-0.07452129
909,-0.03435227
910,-0.025380006
911,-0.0499844
912,-0.029558938
913,-0.031015024
914,-0.035391096
915,-0.040460955
916,0.070079654
917,-0.01909652
918,-0.050203923
919,-0.094249696
920,-0.069785565
921,-0.04499415
922,-0.058595214
923,0.003694445
924,-0.028964063
925,-0.05823435
926,-0.049021985
927,0.016678452
928,-0.037040398
929,-0.06931294
930,0.013228122
931,-0.0651922
932,-0.031662166
933,-0.035161115
934,-0.048186503
935,-0.016290797
936,-0.04965774
937,-0.057571348
938,-0.07307961
939,-0.050560914
940,-0.04229699
941,-0.041942365
942,-0.03486823
943,-0.047760107
944,-0.046590433
945,-0.05303599
946,-0.048896417
947,-0.00996223
948,-0.09664682
949,-0.033941224
950,-0.01761618
951,-0.056764804
952,0.050448142
953,0.023389092
954,-0.01671103
955,-0.048992936
956,-0.05916523
957,-0.04347924
958,-0.015476277
959,-0.053669263
960,-0.051469743
961,-0.0532252
962,-0.06043196
963,-0.0034773136
964,-0.038850114
965,-0.07543536
966,-0.055384908
967,-0.027628876
968,-0.06413461
969,0.09331111
970,-0.021314945
971,-0.04321186
972,-0.070593864
973,-0.054417893
974,-0.01126706
975,-0.04065165
976,0.07541937
977,-0.007987704
978,0.019303426
979,-0.051343646
980,-0.053683054
981,-0.0006431099
982,-0.040249772
983,-0.041372724
984,-0.023089629
985,-0.029668339
986,-0.003053725
987,-0.049433023
988,0.03098348
989,-0.04908006
990,-0.056936033
991,-0.015841126
992,-0.044447
993,-0.029146014
994,-0.025054052
995,-0.026797837
996,-0.058895964
997,-0.06733891
998,-0.03938822
999,-0.031381745
1000,0.00060314965
1001,-0.005538616
1002,-0.048539355
1003,-0.05165408
1004,-0.055209495
1005,-0.051718645
1006,-0.028053287
1007,-0.03070486
1008,-0.0399408
1009,-0.03451607
1010,0.09694501
1011,-0.05211167
1012,-0.05258546
1013,0.010100798
1014,-0.0069711413
1015,-0.045756977
1016,-0.010435007
1017,-0.08434851
1018,-0.04769086
1019,-0.026717555
1020,-0.031394612
1021,-0.040365316
1022,-0.04965563
1023,-0.013001663
1024,0.061876472
1025,0.024259716
1026,-0.04767948
1027,-0.05302353
1028,-0.033929475
1029,-0.04411215
1030,0.00958025
1031,-0.04684556
1032,0.059423942
1033,-0.043290377
1034,-0.046616044
1035,-0.016755704
1036,-0.0031339363
1037,-0.034396447
1038,-0.042483028
1039,-0.031429965
1040,-0.055168685
1041,-0.042914532
1042,-0.052924287
1043,-0.04155155
1044,-0.0045086797
1045,-0.06173887
1046,-0.030820308
1047,0.02444218
1048,-0.0811857
1049,-0.044444274
1050,-0.067003034
1051,0.016765472
1052,-0.023308551
1053,-0.058836147
1054,-0.049361654
1055,-0.054010008
1056,-0.053757545
1057,-0.06746091
1058,-0.054499734
1059,-0.06528615
1060,-0.029329624
1061,-0.051687397
1062,-0.047352474
1063,0.010813903
1064,-0.047377147
1065,0.053595506
1066,-0.04045338
1067,-0.05059457
1068,-0.009901789
1069,-0.044358477
1070,-0.016458753
1071,-0.04810992
1072,-0.0347081
1073,-0.035808142
1074,-0.010621343
1075,-0.0574947
1076,0.031060023
1077,-0.039556514
1078,0.0023355247
1079,-0.05690471
1080,0.03100979
1081,-0.039800297
1082,0.008075161
1083,-0.047280453
1084,-0.059389252
1085,-0.030457305
1086,-0.058512677
1087,0.037756927
1088,-0.05180699
1089,-0.04453084
1090,-0.06110895
1091,0.04408509
1092,-0.05123298
1093,-0.07511677
1094,-0.054174125
1095,-0.040639646
1096,-0.054203786
1097,-0.047468
1098,-0.012899848
1099,-0.04320771
1100,-0.017007964
1101,-0.030258728
1102,-0.04616977
1103,-0.04223997
1104,0.014127885
1105,-0.0061603626
1106,0.015499079
1107,-0.047074437
1108,-0.053599022
1109,-0.04256403
1110,-0.04004714
1111,-0.040944796
1112,0.015188103
1113,0.012037413
1114,0.0094228815
1115,-0.06050782
1116,-0.006630688
1117,-0.05837259
1118,-0.057237577
1119,0.07385056
1120,-0.044319164
1121,-0.029117042
1122,0.025958668
1123,-0.030226942
1124,-0.041801255
1125,-0.063900806
1126,-0.0824684
1127,-0.03499603
1128,-0.030278359
1129,-0.0064896094
1130,-0.04881037
1131,-0.05097708
1132,-0.055354778
1133,-0.05187012
1134,-0.029256798
1135,-0.041940566
1136,-0.042125598
1137,-0.05583448
1138,-0.024790669
1139,-0.035322405
1140,-0.052645627
1141,-0.03572982
1142,-0.1154326
1143,-0.045734007
1144,0.063862085
1145,-0.08447981
1146,-0.05023099
1147,0.060585454
1148,-0.059436254
1149,-0.062769726
1150,-0.019671652
1151,0.008774444
1152,0.029348256
1153,-0.006637888
1154,-0.048817936
1155,-0.05339913
1156,-0.04363442
1157,0.051436905
1158,-0.041088354
1159,-0.031105008
1160,0.0079465965
1161,-0.038919315
1162,0.011731446
1163,-0.008875606
1164,-0.05387618
1165,-0.029462421
1166,-0.042703036
1167,-0.0232756
1168,-0.020751495
1169,-0.029910011
1170,-0.043869097
1171,-0.040997364
1172,0.0024931065
1173,-0.0018628805
1174,-0.014935752
1175,0.042855643
1176,-0.06611757
1177,-0.03146424
1178,-0.067249395
1179,-0.027228119
1180,-0.010670741
1181,-0.058922578
1182,-0.03959065
1183,-0.0023718781
1184,-0.015954163
1185,0.018518537
1186,-0.050933152
1187,-0.037697356
1188,-0.0077883373
1189,-0.051449437
1190,-0.04811346
1191,-0.018355964
1192,-0.047525093
1193,-0.014480104
1194,-0.034219004
1195,-0.050327864
1196,-0.040403575
1197,-0.04137379
1198,-0.036996882
1199,-0.04671245
1200,-0.046043474
1201,-0.035013076
1202,0.0021715816
1203,-0.052941848
1204,0.04690458
1205,0.019207567
1206,-0.03794404
1207,-0.04782779
1208,-0.030729776
1209,0.037608523
1210,-0.03974233
1211,-0.03847926
1212,-0.059383605
1213,-0.034380574
1214,-0.020734837
1215,-0.0036864395
1216,-0.051055726
1217,-0.04831047
1218,-0.043940745
1219,-0.010363052
1220,0.09522754
1221,-0.041168123
1222,-0.051287875
1223,-0.038278107
1224,-0.064143136
1225,0.0036062694
1226,-0.025806408
1227,-0.04337611
1228,-0.0154268015
1229,-0.029425375
1230,0.022607155
1231,-0.039955363
1232,0.005433933
1233,-0.016504316
1234,-0.0060891206
1235,-0.016281055
1236,-0.053347982
1237,-0.04929413
1238,-0.040234655
1239,-0.027532965
1240,0.011839314
1241,-0.043500915
1242,0.014815036
1243,-0.060218684
1244,-0.037019987
1245,0.019583521
1246,-0.043407887
1247,-0.037924282
1248,-0.04378692
1249,-0.02890222
1250,0.009301472
1251,0.0013099668
1252,0.0020407168
1253,-0.09068642
1254,-0.06540678
1255,0.044668738
1256,-0.0038998278
1257,-0.009559246
1258,-0.048592903
1259,-0.05102184
1260,-0.045366142
1261,-0.051483393
1262,0.027719403
1263,-0.027121687
1264,-0.039575472
1265,-0.04707849
1266,-0.008605296
1267,-0.036332797
1268,-0.05302973
1269,-0.040641304
1270,0.03165556
1271,-0.048250485
1272,0.0678526
1273,-0.03373267
1274,-0.046499696
1275,0.0042372127
1276,-0.030270182
1277,-0.056025762
1278,-0.05014807
1279,-0.022173705
1280,0.0052618724
1281,0.0281146
1282,-0.031152848
1283,-0.05300454
1284,-0.030690053
1285,0.025737371
1286,-0.02761063
1287,-0.009988721
1288,-0.004511317
1289,-0.03961841
1290,-0.004015459
1291,-0.02304509
1292,-0.039469074
1293,-0.028984442
1294,-0.04112862
1295,-0.011012215
1296,-0.019118106
1297,0.037119847
1298,-0.033992503
1299,-0.021887256
1300,-0.019182157
1301,-0.008238158
1302,-0.009755641
1303,0.00082038797
1304,-0.03878759
1305,-0.021649973
1306,-0.030613856
1307,-0.01273539
1308,-0.035511028
1309,-0.019352697
1310,-0.007486386
1311,-0.0044168564
1312,-0.026726376
1313,-0.017850118
1314,-0.00844289
1315,-0.035016805
1316,-0.019653354
1317,-0.029156594
1318,-0.04747586
1319,-0.02358206
1320,-0.054275617
1321,-0.02770396
1322,-0.021221522
1323,-0.039133154
1324,-0.0142153315
1325,-0.0071719484
1326,0.006969027
1327,-0.03872572
1328,-0.034890983
1329,-0.027827054
1330,-0.0117739
1331,-0.041063916
1332,0.03609887
1333,0.01572229
1334,0.023863347
1335,-0.041117236
1336,-0.026550584
1337,0.02185726
1338,0.003867262
1339,-0.047541548
1340,-0.05941083
1341,-0.050925948
1342,-0.01675383
1343,0.0008753465
1344,-0.020366427
1345,-0.051074408
1346,-0.024269292
1347,0.028988693
1348,0.06546996
1349,-0.043585364
1350,-0.04969597
1351,-0.011853448
1352,-0.028090881
1353,-0.023998803
1354,-0.008973305
1355,-0.026485916
1356,-0.029352605
1357,-0.018313672
1358,-0.00263788
1359,-0.018638939
1360,0.009727078
1361,-0.014465748
1362,0.004667026
1363,0.0019698192
1364,-0.053141378
1365,-0.023672326
1366,-0.039250758
1367,-0.037207454
1368,0.010136516
1369,0.00084532297
1370,0.021674318
1371,-0.038202286
1372,0.0049013807
1373,-0.005596018
1374,-0.035538964
1375,-0.035425864
1376,-0.028439062
1377,-0.028811714
1378,-0.010140279
1379,0.0020112838
1380,0.017271077
1381,-0.05998724
1382,-0.045598414
1383,0.042637758
1384,0.0201103
1385,-0.010991781
1386,-0.04879848
1387,-0.050660916
1388,-0.014407082
1389,-0.03755287
1390,0.03578004
1391,0.029050982
1392,-0.041407853
1393,-0.03706071
1394,-0.022626711
1395,0.0021228893
1396,-0.040329818
1397,-0.0073875943
1398,0.0145541895
1399,0.02977987
1400,0.004758779
1401,-0.0010666976
1402,-0.017585536
1403,0.0014669294
1404,-0.032511406
1405,-0.043448552
1406,-0.026908021
1407,-0.0021619988
1408,-0.004531439
1409,0.004943137
1410,0.0019752514
1411,0.0024248743
1412,-0.0023309474
1413,0.0029570726
1414,-0.002724081
1415,-0.008192979
1416,-0.017625133
1417,0.018542081
1418,-0.00839853
1419,0.0067914845
1420,0.003919854
1421,0.014420006
1422,-0.013285525
1423,0.0010940502
1424,-0.010182815
1425,0.01145595
1426,0.0074074883
1427,0.0077008647
1428,-0.0004028412
1429,-0.0027424437
1430,-0.01744231
1431,0.02290903
1432,-0.017826263
1433,-0.019157413
1434,-0.0037375202
1435,-0.0031290676
1436,-0.006823426
1437,-0.012765947
1438,0.0059623504
1439,-0.0036379462
1440,0.002159638
1441,0.010343408
1442,0.0018240758
1443,0.0048710993
1444,-0.0023479026
1445,-0.002059817
1446,-0.010937642
1447,0.006214047
1448,0.008453926
1449,0.009434684
1450,-0.0017261871
1451,-0.0037658245
1452,0.0035601817
1453,0.003967645
1454,0.011925454
1455,-0.014132451
1456,-0.0042699203
1457,0.010053412
1458,-0.009428195
1459,0.010846962
1460,-0.004750148
1461,0.00696292
1462,0.019087765
1463,-0.0019880545
1464,0.014955048
1465,0.022913657
1466,0.0053298357
1467,-0.018435812
1468,0.009771069
1469,-0.01453077
1470,0.00516285
1471,0.018391043
1472,-0.022644581
1473,-0.013090159
1474,-0.004081792
1475,0.01611648
1476,0.010250944
1477,0.0049072583
1478,0.007166476
1479,0.008616064
1480,-0.0070930286
1481,0.01367951
1482,-0.0039505945
1483,-0.0017102412
1484,-0.0070108236
1485,-0.011358559
1486,0.009021805
1487,0.0071527464
1488,0.0037076594
1489,0.0012357568
1490,0.01628489
1491,0.0008417886
1492,0.009848061
1493,0.004229874
1494,-0.013054783
1495,-0.0035381224
1496,-0.0011564989
1497,-0.013495062
1498,0.015837248
1499,0.0028350845
1500,0.011600576
1501,-0.01572378
1502,-0.00409521
1503,0.0014629207
1504,-0.0025701588
1505,-0.0014417769
1506,-0.007222217
1507,-0.004555719
1508,0.013441934
1509,-0.0055676005
1510,-0.011605882
1511,-0.00464493
1512,-0.0041012554
1513,-0.010852678
1514,-0.004243028
1515,-0.009147149
1516,-0.004902867
1517,-0.0109959105
1518,-0.012741547
1519,-0.0021613776
1520,0.01654994
1521,-0.010958366
1522,-0.0038893633
1523,0.021542193
1524,-0.0099751
1525,0.02079369
1526,0.019630767
1527,-0.008922336
1528,0.0038241663
1529,-0.01269267
1530,0.02104291
1531,0.00026222813
1532,0.0044244817
1533,0.0018227117
1534,0.016081747
1535,-2.124827e-06
1536,-0.009835643
1537,-0.0044668047
1538,0.011711953
1539,-0.00025867956
1540,0.0030231115
1541,-0.00040002383
1542,0.013379497
1543,0.0058915443
1544,-0.008576569
1545,-0.0067307153
1546,-0.0058719693
1547,0.010543216
1548,0.008686583
1549,0.006077194
1550,-0.006071236
1551,-0.0043650097
1552,-0.007236877
1553,0.012038807
1554,0.0077972542
1555,-0.01947957
1556,-0.004949699
1557,-0.00864306
1558,0.0146466745
1559,0.0017536269
1560,-0.00036838226
1561,-0.008512445
1562,0.013646301
1563,0.0038371857
1564,-0.007640298
1565,-0.004448108
1566,-0.0164904
1567,-0.004545216
1568,0.008569997
1569,-0.006255242
1570,0.017958695
1571,-0.014819551
1572,0.008773923
1573,0.016631199
1574,0.0050657294
1575,0.0026257026
1576,-0.009043187
1577,0.009267438
1578,0.010806751
1579,0.009307818
1580,-0.0015929556
1581,-0.0049973074
1582,0.0023713508
1583,0.0010543348
1584,0.0036801891
1585,0.011115153
1586,-0.018690897
1587,-0.011521904
1588,-0.0049469
1589,-0.007950288
1590,-0.0044844956
1591,0.0076527935
1592,-0.008473909
1593,0.0019410377
1594,-0.0018868925
1595,0.0019504852
1596,-0.0054383413
1597,0.0047862106
1598,-0.016754592
1599,-0.0040259976
1600,-0.0050678304
1601,0.0046125976
1602,-0.00782541
1603,-0.00065634534
1604,-0.005447356
1605,-0.0015222607
1606,0.015604158
1607,0.0056757187
1608,0.012798119
1609,-0.009331187
1610,-0.013718871
1611,0.005598715
1612,-0.013505378
1613,-0.00088366744
1614,-0.0036958568
1615,0.009824264
1616,-0.01954093
1617,0.013813087
1618,-0.012213992
1619,-0.0064304853
1620,-0.0023514293
1621,0.0012269001
1622,-0.0009232927
1623,0.0024331228
1624,-0.0106368195
1625,-0.0034105591
1626,0.013497706
1627,-0.007928457
1628,0.014168812
1629,0.01766488
1630,0.009976338
1631,0.014832175
1632,-0.00848605
1633,-0.011629315
1634,0.0012011041
1635,0.009068419
1636,0.013917289
1637,0.010352354
1638,-0.016356476
1639,-0.0055410895
1640,0.0006877238
1641,0.0017031942
1642,0.0025511035
1643,0.004045856
1644,-0.0051120603
1645,-0.009096292
1646,-0.013403778
1647,-0.0017685643
1648,0.01140759
1649,-0.0019998567
1650,0.014263406
1651,0.006677775
1652,0.01767686
1653,-0.0076920586
1654,0.0019513569
1655,-0.015258431
1656,0.0045367773
1657,-0.011253447
1658,-0.0008077599
1659,0.0017918868
1660,0.0003763914
1661,0.010882762
1662,-0.0047535296
1663,0.00697337
1664,-0.003207542
1665,0.009141021
1666,0.0047623385
1667,-0.0059625655
1668,-0.010149323
1669,0.0052936147
1670,0.0042255186
1671,0.012698505
1672,0.00938727
1673,0.017494205
1674,2.4760413e-05
1675,0.00065674895
1676,-0.0070348345
1677,-0.013248008
1678,-0.015555004
1679,0.0030416697
1680,0.013570507
1681,-0.019843932
1682,-0.009757423
1683,-0.013339611
1684,0.016155297
1685,-0.013094489
1686,0.0032725467
1687,0.019946562
1688,-0.0022182278
1689,0.002495186
1690,0.0013407076
1691,-0.013116881
1692,-0.004678322
1693,0.004992648
1694,-0.011428696
1695,-0.0015479727
1696,0.016636562
1697,-0.002408968
1698,-0.01532183
1699,0.0021579796
1700,-0.0009434474
1701,0.0010256815
1702,0.0065842345
1703,-0.009134303
1704,-0.000960585
1705,-0.010621927
1706,-0.004326317
1707,-0.0044786325
1708,-0.017625382
1709,-0.0051996056
1710,0.0014709458
1711,0.008547605
1712,0.017414978
1713,-0.00031072987
1714,0.013413677
1715,0.00045592862
1716,-0.0043187873
1717,-0.010242224
1718,0.0007564911
1719,0.010308753
1720,0.0015833008
1721,0.002692685
1722,-0.00029715084
1723,0.005886886
1724,-0.011949443
1725,0.007078881
1726,-0.007355166
1727,0.0050619156
1728,-0.0011287705
1729,-0.013232121
1730,-0.018686298
1731,0.00051034987
1732,0.0024577207
1733,-0.008185912
1734,-0.0016490727
1735,-0.011042761
1736,-0.0037623825
1737,-0.006557381
1738,-0.008685129
1739,0.013493417
1740,-0.0044542723
1741,0.000812628
1742,0.0062887394
1743,-0.009665138
1744,0.0073638353
1745,-0.0072296127
1746,-0.012640377
1747,-0.0017811934
1748,-0.0032876718
1749,-0.0059249406
1750,0.015587961
1751,0.004061635
1752,0.017246377
1753,0.0067654406
1754,-0.0018220023
1755,0.0117459595
1756,-0.015563895
1757,-0.0019378493
1758,-0.009850823
1759,0.011139359
1760,0.00578326
1761,-0.005260926
1762,-0.002321893
1763,-0.0025316307
1764,-0.00055144355
1765,0.00089708617
1766,-0.009348307
1767,-0.0083402945
1768,-0.0026828113
1769,0.007964493
1770,0.006551558
1771,0.009382613
1772,0.009501647
1773,-0.016692633
1774,-0.011618618
1775,-0.0039165183
1776,-0.0071821758
1777,-0.004845196
1778,0.0011673332
1779,0.0034590708
1780,-0.010501072
1781,-0.00027553475
1782,-0.0036464918
1783,-0.005975986
1784,0.0123217
1785,-0.006202106
1786,0.005962743
1787,0.005723624
1788,-0.0072328993
1789,-0.0072234916
1790,-0.006633734
1791,-0.005014698
1792,-0.006958966
1793,-0.009712677
1794,0.0012379582
1795,0.0043017645
1796,-0.007966712
1797,-0.010799205
1798,-0.011828433
1799,0.009072228
1800,0.015898881
1801,-0.0025467046
1802,-0.006149007
1803,0.0076385466
1804,-0.0034281202
1805,-0.011142713
1806,0.013393624
1807,-0.004922501
1808,-0.01231576
1809,0.007229774
1810,-0.005139441
1811,-0.0062038735
1812,-0.018737925
1813,0.0016410216
1814,0.0021159702
1815,-0.0068649626
1816,-0.013153604
1817,-3.0106105e-05
1818,-0.008299321
1819,-0.009873065
1820,-0.003522294
1821,-0.0058408785
1822,-0.0011969936
1823,0.005564573
1824,0.0037951788
1825,-0.0049695345
1826,-0.0033483708
1827,-0.0016147555
1828,0.0015501041
1829,0.019223252
1830,0.0017849205
1831,0.002214202
1832,0.005339154
1833,0.0029745668
1834,0.017910773
1835,0.0035312115
1836,0.004283185
1837,0.008339537
1838,-0.013547077
1839,-0.00050306425
1840,0.002374384
1841,-0.0016957687
1842,-0.0035870897
1843,0.0054876
1844,0.008663827
1845,0.00075552484
1846,0.01572299
1847,0.007625599
1848,0.014448551
1849,0.0126970885
1850,0.018068165
1851,-0.00047641448
1852,0.0018525975
1853,-0.0010570644
1854,0.0058785463
1855,0.010115963
1856,0.006478966
1857,0.00046762783
1858,-0.0007358036
1859,-0.006654155
1860,0.005801597
1861,-0.0056594396
1862,0.00636537
1863,0.0106922425
1864,0.0073194616
1865,0.00022388232
1866,0.014556212
1867,0.00055057084
1868,0.009357395
1869,0.0013434573
1870,0.0092528
1871,0.00563147
1872,-0.0018081974
1873,-0.0032010595
1874,0.0032952789
1875,4.9866478e-05
1876,0.0040248586
1877,-0.008862252
1878,-0.010884262
1879,-0.012308959
1880,-0.000513794
1881,0.0054789623
1882,-0.008707914
1883,0.010543201
1884,-0.004154111
1885,-0.002144625
1886,-0.002571107
1887,0.0013419637
1888,-0.007954625
1889,0.009350434
1890,-0.005934413
1891,0.0028112906
1892,0.005931863
1893,-0.0066315252
1894,-0.004570464
1895,0.0001686004
1896,-0.0048313383
1897,-0.0021969115
1898,-0.0054834397
1899,0.0012158727
1900,-0.00063259096
1901,0.008577773
1902,-0.01347455
1903,-0.014255466
1904,0.0070967213
1905,0.004312364
1906,-0.0023958005
1907,-0.010973237
1908,0.0027906036
1909,-0.0019749145
1910,-0.00502408
1911,-0.012934827
1912,0.002035551
1913,-0.004550941
1914,-0.0034560927
1915,-0.016335031
1916,-0.003676785
1917,0.011652978
1918,-0.0021054377
1919,0.0042924006
1920,-0.0038309516
1921,0.013522082
1922,0.008070486
1923,0.0053014373
1924,-0.010076717
1925,0.01927342
1926,0.005886845
1927,0.0019696257
1928,0.012732214
1929,0.004852517
1930,0.006820118
1931,-0.00011641025
1932,0.009974424
1933,-0.0043414757
1934,-0.0079440065
1935,0.0077875946
1936,0.0015847501
1937,-0.012877064
1938,-0.00010964597
1939,-0.008458745
1940,0.011507294
1941,-0.01831615
1942,0.008591947
1943,-0.0063110036
1944,-0.00206645
1945,0.0014632703
1946,0.010109092
1947,0.011080241
1948,-0.007076023
1949,0.00800427
1950,0.01894993
1951,-0.0019045058
1952,0.006621391
1953,-0.009954115
1954,-0.0057587926
1955,0.0077202907
1956,-0.0009501289
1957,-0.007826503
1958,-0.0037519955
1959,-0.0044430043
1960,0.017523995
1961,-0.0033848754
1962,-0.008812145
1963,-0.011961328
1964,0.0027378374
1965,-0.011509857
1966,0.01583394
1967,0.0070850174
1968,0.0089984
1969,-0.007857436
1970,-0.0069079273
1971,0.006230278
1972,0.007950564
1973,-0.0015923084
1974,0.0025057169
1975,0.008410991
1976,0.019436242
1977,0.0027502703
1978,-0.003146337
1979,-0.016086109
1980,-0.010765356
1981,-0.0014305651
1982,0.0020687592
1983,0.012163038
1984,0.005148633
1985,-0.01460594
1986,0.0038557819
1987,0.002603362
1988,0.0014477042
1989,0.011237404
1990,-0.0064049033
1991,-0.0043519437
1992,0.015790204
1993,-0.010995545
1994,-0.007053305
1995,-0.0062091583
1996,0.009597437
1997,0.0015812103
1998,-0.011380657
1999,0.0062011615
2000,-0.00902534
2001,0.010098214
2002,0.010172125
2003,0.011660568
2004,-0.008042853
2005,0.004906419
2006,-0.0012132056
2007,0.008691187
2008,0.011522213
2009,-0.01469256
2010,0.008156906
2011,-0.0010512188
2012,-0.0048104743
2013,-0.006720478
2014,0.011609708
2015,0.0145659335
2016,0.0024456382
2017,0.00064097886
2018,-0.010349998
2019,0.004094557
2020,-0.0023250165
2021,0.018299779
2022,0.011791663
2023,-0.011570958
2024,0.0040299036
2025,0.0020509835
2026,0.009179399
2027,0.010574824
2028,-0.006713112
2029,-0.007362438
2030,-0.015528339
2031,-0.0048605357
2032,-0.005196082
2033,0.0028000926
2034,0.012196196
2035,-0.017191747
2036,0.0051316884
2037,0.013062782
2038,0.0048128283
2039,-0.00792032
2040,0.005247393
2041,0.010961829
2042,0.005571615
2043,0.0073946067
2044,-0.0088952985
2045,-0.010780979
2046,0.018971391
2047,0.0037234144
2048,0.06552799
2049,0.02298229
2050,-0.008978086
2051,-0.010698334
2052,-0.027248854
2053,0.008360791
2054,0.032369096
2055,0.0324457
2056,-0.100500606
2057,-0.011711907
2058,0.00045122285
2059,0.021207625
2060,-0.06807826
2061,0.012572503
2062,0.033107072
2063,0.025598655
2064,-0.01945633
2065,0.026060224
2066,-0.049474627
2067,0.009757485
2068,-0.035531282
2069,0.039882094
2070,-0.036350626
2071,-0.05308832
2072,-0.064938635
2073,0.0062918123
2074,0.0068609472
2075,0.024787223
2076,0.034226056
2077,0.01765325
2078,-0.010635887
2079,-0.020251542
2080,-0.054726407
2081,0.033065945
2082,0.0786778
2083,-0.035221066
2084,0.054229822
2085,0.045100633
2086,-0.043865826
2087,0.04994248
2088,-0.009958402
2089,0.0007193583
2090,-0.007011278
2091,-0.02400143
2092,0.013384617
2093,0.0377768
2094,0.016681971
2095,0.027895652
2096,0.0006379667
2097,0.014975067
2098,-0.00722527
2099,0.03719209
2100,-0.014683754
2101,0.027971517
2102,0.0031203798
2103,0.015315573
2104,0.06908317
2105,-0.06996421
2106,0.038128663
2107,-0.07319171
2108,-0.0631496
2109,-0.059756476
2110,0.005680192
2111,-0.08258136
2112,-0.05283276
2113,0.00848529
2114,0.014791794
2115,0.045640208
2116,-0.07922684
2117,-0.0130462535
2118,-0.050964776
2119,0.036411595
2120,0.030931698
2121,0.011577972
2122,0.04144992
2123,-0.041942753
2124,-0.033198714
2125,-0.022104502
2126,0.004692782
2127,0.017998645
2128,0.056219593
2129,0.05235532
2130,-0.04935588
2131,0.026336504
2132,-0.016006209
2133,0.041213762
2134,-0.051062934
2135,0.011741988
2136,-0.013878989
2137,0.0427535
2138,0.014739052
2139,-0.018909184
2140,0.054536913
2141,-0.006517169
2142,-0.061992638
2143,0.020020394
2144,0.033544492
2145,0.02823976
2146,0.0024876136
2147,0.018250711
2148,0.026594806
2149,-0.10087509
2150,-0.061699864
2151,0.016631436
2152,-0.059271935
2153,0.052454747
2154,-0.02436651
2155,-0.0008272889
2156,-0.051132936
2157,0.0006994269
2158,0.032753963
2159,0.03733678
2160,-0.079330176
2161,-0.04642541
2162,0.03822417
2163,0.018837309
2164,0.0010154587
2165,0.012937177
2166,0.012603667
2167,0.007720295
2168,0.04093549
2169,-0.00024054755
2170,0.029240847
2171,0.03547859
2172,0.02941343
2173,0.0034329756
2174,0.025944896
2175,0.048755463
2176,-0.050259035
2177,0.043790914
2178,0.044842657
2179,0.052454785
2180,0.062492296
2181,0.02887764
2182,0.05240973
2183,0.04357818
2184,0.0940035
2185,0.042035446
2186,0.07975615
2187,-0.07114856
2188,0.019049775
2189,0.027187217
2190,0.018067086
2191,0.04413692
2192,-0.07017861
2193,0.028417265
2194,0.051788878
2195,-0.00734928
2196,-0.017965414
2197,-0.06229038
2198,0.05506731
2199,-0.047153775
2200,-0.059432138
2201,-0.09871891
2202,-0.06548064
2203,0.0021324377
2204,0.04743062
2205,0.03973612
2206,0.036490593
2207,0.011801481
2208,-0.054945864
2209,-0.076527566
2210,-0.014895232
2211,-0.08647882
2212,-0.07894686
2213,0.04685324
2214,0.04428616
2215,0.05004737
2216,-0.07800338
2217,0.07284003
2218,-0.042312816
2219,0.04500208
2220,-0.006123496
2221,0.036605563
2222,-0.0028768654
2223,0.0455158
2224,0.027802322
2225,0.051122602
2226,0.01151542
2227,0.054787915
2228,0.025336029
2229,0.038343824
2230,0.053199064
2231,0.045369633
2232,0.020686254
2233,-0.012766596
2234,0.036851693
2235,0.04236905
2236,0.052947372
2237,-0.031360433
2238,-0.07824001
2239,0.078642115
2240,0.05116896
2241,-0.06407528
2242,-0.033154976
2243,0.044377208
2244,-0.07954436
2245,0.07421552
2246,0.008138895
2247,0.030868068
2248,-0.08794971
2249,0.04637511
2250,0.027970644
2251,0.006454543
2252,-0.022827823
2253,0.05292884
2254,0.085311785
2255,0.026082672
2256,-0.05953351
2257,-0.06769611
2258,0.032197583
2259,0.02345778
2260,0.008316664
2261,0.0293038
2262,0.0114573175
2263,0.028657436
2264,0.00027240178
2265,0.03904477
2266,0.09606332
2267,0.0595826
2268,0.024942175
2269,0.030752707
2270,0.03819822
2271,0.060513854
2272,0.038128637
2273,0.027069464
2274,-0.016174369
2275,-0.0036811507
2276,0.033545353
2277,-0.10102087
2278,0.020035129
2279,-0.004389142
2280,-0.063745625
2281,0.010893655
2282,0.03398594
2283,0.04760432
2284,0.054095343
2285,0.050399937
2286,0.039125904
2287,0.028641487
2288,0.05615706
2289,0.04557775
2290,-0.041577753
2291,-0.04869928
2292,0.048642986
2293,0.027469248
2294,0.028016157
2295,0.035098396
2296,-0.068293534
2297,-0.041962102
2298,0.045127824
2299,-0.08976478
2300,0.057352647
2301,0.061636426
2302,0.034352425
2303,0.04441523
2304,-0.048224084
2305,-0.05888409
2306,0.04270076
2307,0.047287095
2308,0.02643955
2309,0.0053953375
2310,0.028921012
2311,0.0328152
2312,-0.1262257
2313,-0.015492261
2314,-0.08065502
2315,0.062450476
2316,0.02199998
2317,-0.015213805
2318,0.040278163
2319,0.009780029
2320,0.0714003
2321,-0.0063849706
2322,-0.03122761
2323,0.03581038
2324,0.017216245
2325,0.0544114
2326,-0.052639548
2327,0.09560949
2328,-0.06489172
2329,-0.09838482
2330,0.06600997
2331,0.03252826
2332,0.0052969055
2333,0.056931242
2334,0.011373701
2335,0.052926164
2336,-0.047170546
2337,-0.07680987
2338,-0.0059002517
2339,-0.08656376
2340,-0.07730566
2341,0.049984235
2342,0.04525971
2343,-0.071031936
2344,0.07284671
2345,-0.069852464
2346,0.088460945
2347,0.049015243
2348,0.03783863
2349,0.031766437
2350,-0.040618405
2351,0.035418026
2352,0.019718742
2353,-0.073755786
2354,0.005620826
2355,0.008335439
2356,0.028830003
2357,0.015626946
2358,0.0052324818
2359,0.054162048
2360,-0.012915937
2361,0.029957242
2362,0.022966895
2363,0.021043194
2364,0.02019496
2365,0.07165287
2366,0.056973998
2367,0.072028145
2368,0.032296155
2369,0.05877639
2370,0.016302055
2371,0.009352708
2372,0.06493438
2373,-0.058557052
2374,0.03118579
2375,0.013673379
2376,-0.08785069
2377,0.038939882
2378,0.011252207
2379,0.029920874
2380,-0.06285135
2381,0.045073703
2382,-0.07975638
2383,0.029805657
2384,-0.057588033
2385,0.017162368
2386,0.052132186
2387,-0.00691565
2388,0.049940743
2389,0.008322855
2390,0.0134550985
2391,-0.06921443
2392,0.0009116893
2393,0.020923804
2394,-0.01887108
2395,0.04067423
2396,0.019224947
2397,0.05811792
2398,0.05599484
2399,-0.083914064
2400,-0.007506715
2401,0.019929249
2402,-0.08812689
2403,0.0062601557
2404,-0.060065962
2405,0.07863663
2406,0.037583914
2407,-0.0066289096
2408,-0.063860916
2409,0.009121823
2410,0.014630931
2411,-0.03936136
2412,0.03857953
2413,0.033200767
2414,-0.050258372
2415,0.037397873
2416,0.07703593
2417,0.055011164
2418,-0.018980803
2419,0.019337358
2420,0.05122497
2421,0.051452443
2422,0.038801026
2423,0.048046295
2424,0.020147616
2425,0.08080166
2426,0.026761245
2427,0.036921006
2428,0.025692472
2429,-0.056454666
2430,0.04908504
2431,0.030404398
2432,-0.06253426
2433,0.033554852
2434,0.035030782
2435,-0.05872214
2436,0.048861645
2437,-0.019525427
2438,0.013547469
2439,0.00032776326
2440,0.020805104
2441,-0.05697425
2442,-0.08099579
2443,0.040501937
2444,0.0017124817
2445,0.019173967
2446,-0.03465892
2447,0.019586988
2448,-0.07003516
2449,-0.065917425
2450,0.032234475
2451,-0.030616222
2452,-0.020105144
2453,0.030815074
2454,0.06767344
2455,0.076236635
2456,0.07204696
2457,0.033993825
2458,0.021951325
2459,0.0044797827
2460,-0.043637943
2461,-0.066817775
2462,-0.002899014
2463,0.031605683
2464,-0.05475012
2465,0.06424365
2466,-0.04708496
2467,-0.08652238
2468,-0.07881103
2469,-0.038832307
2470,0.029032703
2471,-0.071309336
2472,0.030074507
2473,-0.07027938
2474,0.063992634
2475,0.01831656
2476,-0.002427697
2477,0.022798331
2478,0.006800096
2479,-0.06729951
2480,0.0180073
2481,0.028800817
2482,0.054732297
2483,-0.03764576
2484,0.06277376
2485,-0.011061739
2486,0.027956754
2487,-0.038475364
2488,0.0071525313
2489,0.05447114
2490,-0.0037604638
2491,0.029668994
2492,0.05678469
2493,0.041528355
2494,-0.07828336
2495,0.06277252
2496,0.04016413
2497,0.050273515
2498,0.060026634
2499,0.00148739
2500,0.05981316
2501,-0.058477525
2502,0.047755543
2503,-0.011874067
2504,0.060795367
2505,-0.047038544
2506,-0.0036011518
2507,0.039713934
2508,-0.06271216
2509,-0.030884095
2510,-0.07936406
2511,-0.04499339
2512,-0.026298381
2513,-0.06775426
2514,0.035643738
2515,-0.04620934
2516,0.052297838
2517,-0.020561786
2518,0.03284836
2519,0.039838012
2520,0.12127664
2521,-0.00913758
2522,-0.09304293
2523,-0.049241275
2524,0.016464578
2525,0.030857593
2526,-0.024926003
2527,-0.08394901
2528,-0.033830468
2529,-0.035325326
2530,0.07664501
2531,-0.057129025
2532,0.030263606
2533,0.08558505
2534,-0.01575447
2535,0.06199975
2536,0.092277676
2537,-0.0065837153
2538,0.045033768
2539,0.04958182
2540,-0.051357184
2541,-0.066355646
2542,0.03441206
2543,-0.023717584
2544,0.058701985
2545,0.03352897
2546,-0.017837226
2547,0.046682525
2548,-0.06291449
2549,0.039345503
2550,0.040498815
2551,-0.010840464
2552,0.035264857
2553,-0.04209018
2554,0.014109745
2555,-0.08901609
2556,-0.06466572
2557,0.03581011
2558,0.009469467
2559,0.011695769
2560,-0.062705554
2561,-0.058038726
2562,-0.05284198
2563,-0.011907786
2564,-0.051049702
2565,-0.0031657885
2566,-0.020410769
2567,-0.013683854
2568,0.06584852
2569,0.027448483
2570,-0.08081364
2571,-0.07093142
2572,0.07157686
2573,0.026604228
2574,-0.038852014
2575,-0.03732479
2576,0.036861528
2577,0.04915673
2578,0.02097128
2579,-0.032896146
2580,0.013633532
2581,-0.03489014
2582,-0.051867053
2583,-0.01838991
2584,0.07800406
2585,-0.09841964
2586,0.056954596
2587,-0.06805485
2588,-0.044272527
2589,-0.06671919
2590,-0.029050512
2591,-0.03748774
2592,-0.054622743
2593,-0.035626322
2594,-0.048839197
2595,0.06393957
2596,0.020291405
2597,-0.065450944
2598,-0.047771838
2599,0.030463398
2600,-0.07792916
2601,-0.06949844
2602,-0.042717014
2603,-0.04671523
2604,0.031227052
2605,-0.039572176
2606,0.033102006
2607,-0.06734945
2608,0.026489822
2609,-0.073742665
2610,-0.013673307
2611,-0.015950747
2612,0.0047809794
2613,0.010884146
2614,-0.0027064653
2615,-0.065518886
2616,0.021422833
2617,0.10415609
2618,-0.045778934
2619,0.045103233
2620,0.058140192
2621,0.027788017
2622,0.019475445
2623,0.040852424
2624,-0.053118978
2625,0.015889212
2626,-0.03969333
2627,-0.006003472
2628,0.035653487
2629,0.06546398
2630,0.04400663
2631,0.0062303655
2632,-0.08793645
2633,0.008281524
2634,-0.03844369
2635,0.04088783
2636,-0.06289665
2637,-0.020488381
2638,-0.066554196
2639,-0.0013911511
2640,-0.011194831
2641,0.018563956
2642,-0.054018237
2643,0.050315037
2644,0.026897945
2645,0.04826709
2646,0.036063638
2647,-0.011333893
2648,-0.02300157
2649,-0.0071943
2650,0.0009498063
2651,-0.014235102
2652,-0.04754561
2653,-0.052898653
2654,-0.05958308
2655,-0.08390399
2656,-0.033867758
2657,-0.05407315
2658,-0.08797927
2659,0.034052
2660,0.014699608
2661,0.08972961
2662,0.0028030972
2663,-0.017506193
2664,0.060007963
2665,0.0025458494
2666,0.047997218
2667,0.038436566
2668,-0.050984878
2669,-0.06670686
2670,-0.0101744905
2671,0.01152762
2672,0.0592999
2673,-0.030841185
2674,-0.043753777
2675,0.02826973
2676,-0.06442884
2677,0.0320081
2678,-0.059809398
2679,0.006322261
2680,-0.002147724
2681,0.08358829
2682,0.009113482
2683,-0.090077564
2684,-0.0645986
2685,0.026278323
2686,-0.03410786
2687,-0.0067208274
2688,-0.062824816
2689,-0.047386676
2690,0.0046998514
2691,-0.015736902
2692,-0.048666403
2693,0.042018995
2694,-0.02277001
2695,-0.01589625
2696,0.046146337
2697,0.033202518
2698,-0.05237314
2699,-0.07101813
2700,0.023349758
2701,-0.039540358
2702,-0.034425873
2703,-0.03733933
2704,-0.04565526
2705,-0.06595795
2706,-0.04532698
2707,-0.032256912
2708,0.094317086
2709,0.006606669
2710,-0.04189144
2711,-0.05707813
2712,-0.019241238
2713,-0.09836343
2714,-0.059043936
2715,0.084387414
2716,-0.03636328
2717,-0.06689671
2718,0.027280826
2719,-0.044384897
2720,0.06749357
2721,-0.06284213
2722,-0.028976213
2723,0.053806882
2724,0.020990476
2725,-0.05345205
2726,-0.04778883
2727,-0.0713335
2728,0.044078775
2729,-0.061473522
2730,-0.04265327
2731,-0.04678438
2732,0.022388373
2733,-0.012137067
2734,0.017545825
2735,-0.06706323
2736,-0.03636605
2737,-0.073822565
2738,-0.033266835
2739,-0.031472348
2740,0.04339477
2741,0.026549835
2742,-0.016077684
2743,-0.06623502
2744,-0.05365941
2745,0.00224493
2746,-0.04361039
2747,-0.073197335
2748,-0.050699193
2749,-0.030137608
2750,-0.043630846
2751,0.052015204
2752,0.047912564
2753,-0.048066244
2754,-0.03708595
2755,-0.0061253477
2756,0.035083245
2757,-0.058667317
2758,-0.030628625
2759,0.0029350845
2760,0.061564177
2761,-0.003867712
2762,-0.03826617
2763,-0.011389943
2764,0.06952843
2765,-0.0037077297
2766,-0.040417627
2767,-0.0084121665
2768,-0.061749928
2769,-0.048498835
2770,-0.055140108
2771,-0.059557028
2772,-0.015518321
2773,-0.042691655
2774,-0.02484853
2775,-0.06908806
2776,-0.016032064
2777,-0.0050937263
2778,-0.027639473
2779,-0.010996163
2780,0.02586762
2781,-0.009425594
2782,-0.025456248
2783,-0.083862305
2784,-0.033819187
2785,-0.05375673
2786,-0.08802849
2787,-0.05696346
2788,-0.023712432
2789,-0.02711708
2790,0.055778522
2791,-0.019991422
2792,-0.044039387
2793,-0.011690086
2794,-0.053101093
2795,-0.03655237
2796,-0.03658754
2797,-0.033836335
2798,-0.011775163
2799,-0.008867143
2800,0.030044567
2801,-0.009139936
2802,-0.07338647
2803,0.02983458
2804,-0.05150263
2805,-0.017846184
2806,-0.029552132
2807,0.017719056
2808,0.037689667
2809,-0.042079672
2810,-0.008814633
2811,-0.06669675
2812,0.014173472
2813,-0.05482185
2814,-0.034863025
2815,-0.012683515
2816,-0.06257432
2817,-0.043687582
2818,-0.0484756
2819,-0.03434039
2820,-0.01915024
2821,-0.052138653
2822,-0.038993295
2823,-0.048156794
2824,0.020828586
2825,0.0033436157
2826,-0.029526217
2827,-0.030792626
2828,0.0240631
2829,0.002207969
2830,-0.03563709
2831,-0.0347918
2832,-0.038311534
2833,-0.021104224
2834,-0.04946008
2835,-0.028706009
2836,0.08664255
2837,0.01901074
2838,-0.008977498
2839,-0.056701906
2840,-0.06482437
2841,0.09210986
2842,-0.015149307
2843,-0.037052426
2844,0.029893197
2845,-0.066695176
2846,-0.028082022
2847,-0.009010768
2848,-0.054608233
2849,-0.076508306
2850,-0.051396348
2851,-0.08636422
2852,-0.078736514
2853,-0.06610875
2854,-0.009214574
2855,-0.013614812
2856,-0.040817484
2857,-0.05675935
2858,-0.011360796
2859,-0.047194228
2860,0.027154483
2861,-0.04135615
2862,0.016061187
2863,-0.047607504
2864,-0.033963203
2865,-0.052707374
2866,-0.024249729
2867,0.048585497
2868,0.00944888
2869,0.015960779
2870,0.016609915
2871,-0.0646327
2872,-0.053617124
2873,0.04984726
2874,0.0067969332
2875,-0.073198825
2876,-0.0631108
2877,-0.03817464
2878,-0.002377985
2879,0.005735697
2880,-0.052943498
2881,-0.0483748
2882,-0.030398639
2883,0.0023540151
2884,0.033169057
2885,-0.04570698
2886,-0.027792133
2887,-0.0045766025
2888,-0.05490745
2889,0.035000235
2890,-0.003682993
2891,0.015165588
2892,-0.06275659
2893,-0.00014815835
2894,-0.03712519
2895,-0.042206828
2896,-0.07584839
2897,-0.067717224
2898,-0.01036302
2899,-0.0592037
2900,-0.0037214288
2901,-0.04411469
2902,-0.025390854
2903,-0.054199714
2904,-0.021050902
2905,-0.0012215027
2906,-0.034048196
2907,0.048280444
2908,-0.047354307
2909,-0.011376065
2910,-0.023594666
2911,-0.07662079
2912,-0.034429345
2913,-0.026092041
2914,-0.08669379
2915,-0.05646705
2916,0.029591769
2917,-0.038397066
2918,0.093619965
2919,0.0019417317
2920,-0.016289793
2921,-0.0014866929
2922,-0.053376045
2923,-0.03783868
2924,-0.044229914
2925,-0.06628928
2926,0.0050081657
2927,-0.004881307
2928,-0.07979693
2929,-0.0019120243
2930,-0.09752223
2931,0.03505229
2932,-0.012407476
2933,-0.023752917
2934,-0.09309198
2935,-0.018625073
2936,0.030222867
2937,-0.016802529
2938,-0.03123789
2939,-0.055655845
2940,-0.034194898
2941,-0.03596862
2942,-0.034909796
2943,-0.010227931
2944,-0.062881894
2945,-0.058624916
2946,-0.05217154
2947,-0.058686066
2948,-0.012810623
2949,-0.030534161
2950,-0.03367902
2951,-0.048052825
2952,-0.011941631
2953,-0.011950801
2954,-0.040695313
2955,-0.004927581
2956,0.0210623
2957,-0.035202045
2958,-0.034324873
2959,-0.03310088
2960,-0.07043167
2961,-0.010619765
2962,-0.049086206
2963,-0.03234761
2964,-0.07027853
2965,0.007534094
2966,-0.052407403
2967,0.09099033
2968,-0.0357095
2969,-0.07429107
2970,-0.06549618
2971,-0.06912168
2972,-0.049803756
2973,-0.06685692
2974,-0.02826737
2975,-0.044524178
2976,-0.0058737556
2977,-0.07657976
2978,-0.051451955
2979,-0.086753786
2980,-0.0786432
2981,-0.065639965
2982,-0.018726513
2983,-0.038457144
2984,-0.046819877
2985,-0.061502393
2986,-0.04264338
2987,-0.04722141
2988,6.2341394e-05
2989,-0.04315336
2990,0.015319035
2991,-0.06711259
2992,-0.036655672
2993,-0.042996854
2994,-0.05426661
2995,-0.063712925
2996,0.09574777
2997,0.033319257
2998,-0.0152859865
2999,-0.06573357
3000,-0.052311797
3001,-0.0238026
3002,0.004664166
3003,-0.07327062
3004,-0.063094534
3005,0.011775044
3006,-0.03860188
3007,0.0047185333
3008,-0.052544206
3009,-0.06443682
3010,-0.04302569
3011,-0.044516485
3012,0.0362106
3013,-0.05839974
3014,-0.04505077
3015,-0.03838918
3016,-0.08773868
3017,-0.09373343
3018,-0.0066232067
3019,-0.035805836
3020,-0.06290335
3021,-0.0049891393
3022,0.034329675
3023,-0.03162971
3024,-0.010526802
3025,-0.007983939
3026,-0.019124202
3027,-0.0594087
3028,-0.024737105
3029,-0.042136304
3030,-0.051046588
3031,-0.057172395
3032,0.023771757
3033,-0.02275765
3034,-0.029948946
3035,-0.04924292
3036,-0.047437783
3037,-0.05820463
3038,-0.062193163
3039,-0.06819206
3040,-0.034060135
3041,-0.05412042
3042,-0.021379692
3043,-0.038350895
3044,0.058223806
3045,-0.03944012
3046,0.025436698
3047,0.0029684352
3048,-0.0006790059
3049,-0.012732937
3050,-0.05335786
3051,-0.03650208
3052,-0.05105458
3053,-0.030606024
3054,0.00673474
3055,-0.00047564553
3056,-0.0057347
3057,-0.023714302
3058,0.095449716
3059,0.029612616
3060,-0.0189263
3061,-0.010742596
3062,0.005787982
3063,-0.047413092
3064,0.011901417
3065,-0.017637199
3066,-0.046581183
3067,-0.04997312
3068,-0.06452725
3069,-0.056847822
3070,-0.029970009
3071,-0.037785348
3072,-0.06222223
3073,-0.023845669
3074,-0.052474357
3075,-0.058573525
3076,-0.012217627
3077,-0.0026943837
3078,-0.039360687
3079,-0.012127676
3080,0.0550146
3081,-0.050377574
3082,0.015340789
3083,-0.009008318
3084,0.0821689
3085,-0.03966626
3086,-0.0109143825
3087,-0.037414946
3088,-0.026797896
3089,-0.0013814308
3090,-0.014323593
3091,-0.02978057
3092,0.006066594
3093,-0.00068739767
3094,-0.052100003
3095,-0.023438036
3096,-0.064781055
3097,-0.0660516
3098,-0.045271438
3099,-0.020478409
3100,-0.050379675
3101,-0.03590251
3102,-0.029114796
3103,0.027083315
3104,-0.019908886
3105,-0.014028035
3106,-0.051259693
3107,-0.08655857
3108,-0.059317052
3109,-0.035711363
3110,-0.021629907
3111,-0.07102168
3112,-0.04736247
3113,0.055657506
3114,-0.04205486
3115,-0.047290374
3116,-0.03538569
3117,-0.038483754
3118,0.014512761
3119,-0.06693066
3120,-0.048987687
3121,-0.07373213
3122,-0.051935345
3123,-0.06341362
3124,-0.02608158
3125,-0.0126826465
3126,-0.0061272765
3127,-0.06434282
3128,-0.053524226
3129,0.033505294
3130,-0.045832235
3131,-0.07306128
3132,-0.06278539
3133,-0.019812373
3134,0.0036771584
3135,-0.042338498
3136,-0.052803848
3137,-0.06443398
3138,-0.042518865
3139,-0.044333395
3140,-0.038672734
3141,-0.039272755
3142,-0.04825303
3143,-0.03873464
3144,-0.08772705
3145,0.0406827
3146,-0.038258553
3147,-0.037123434
3148,-0.03552245
3149,-0.031399716
3150,0.040543254
3151,-0.04209446
3152,-0.074714966
3153,0.014684185
3154,-0.013374708
3155,-0.059312075
3156,0.008211574
3157,-0.028548922
3158,-0.05087721
3159,-0.026486075
3160,-0.016180767
3161,-0.0035509255
3162,-0.064226426
3163,-0.04947433
3164,-0.047594618
3165,-0.0035752668
3166,-0.06185352
3167,0.034556795
3168,-0.03220416
3169,-0.028253593
3170,0.020493224
3171,-0.00877924
3172,0.025430597
3173,-0.076481886
3174,-0.011527785
3175,0.035254102
3176,0.0022703249
3177,-0.00050297886
3178,-0.053299487
3179,-0.036361396
3180,-0.011592661
3181,-0.066625506
3182,0.029563723
3183,0.005827656
3184,-0.038529128
3185,-0.0049154954
3186,-0.032733906
3187,-0.048113007
3188,-0.049862504
3189,0.0368719
3190,0.11512702
3191,-0.0038722106
3192,-0.062284518
3193,-0.01628384
3194,-0.044295765
3195,0.04414199
3196,-0.06292422
3197,-0.055899587
3198,-0.03521033
3199,-0.037672352
3200,-0.036497287
3201,0.0063492567
3202,-0.026015006
3203,-0.058538403
3204,-0.049068753
3205,-0.05257526
3206,-0.039641716
3207,0.029534623
3208,0.021807121
3209,-0.056340724
3210,-0.014314087
3211,-0.008831805
3212,0.029799579
3213,-0.035271388
3214,0.008570001
3215,-0.030581346
3216,-0.02652082
3217,-0.006833007
3218,-0.03311129
3219,-0.031944953
3220,0.028076733
3221,-0.004883101
3222,-0.03809963
3223,0.059451334
3224,-0.03913697
3225,-0.0489634
3226,-0.058636058
3227,-0.019993227
3228,-0.04510312
3229,-0.026078757
3230,-0.028034402
3231,-0.03759378
3232,-0.025953572
3233,-0.022243658
3234,-0.036077037
3235,-0.07694479
3236,-0.061735753
3237,-0.026720112
3238,-0.03264522
3239,-0.028529078
3240,-0.031774577
3241,-0.04671516
3242,-0.013292732
3243,-0.04625729
3244,-0.01443172
3245,-0.04025495
3246,0.03374846
3247,-0.035218406
3248,-0.04994712
3249,-0.018312179
3250,-0.030669764
3251,-0.054509487
3252,0.038585514
3253,-0.021270076
3254,-0.007897479
3255,-0.025103284
3256,-0.03134383
3257,0.022309292
3258,-0.043628797
3259,-0.06470784
3260,-0.06295631
3261,-0.018029233
3262,-0.012597419
3263,0.015817838
3264,-0.052777518
3265,-0.05041368
3266,-0.04240615
3267,-0.0052913604
3268,-0.09641166
3269,-0.014489392
3270,-0.024371661
3271,-0.023736075
3272,-0.063026085
3273,0.027033746
3274,-0.018871354
3275,-0.03550439
3276,-0.02130123
3277,0.013554748
3278,-0.02286466
3279,0.0059004338
3280,-0.005617587
3281,-0.013817124
3282,-0.042611606
3283,-0.057953384
3284,-0.030610394
3285,0.028060561
3286,-0.03151275
3287,-0.018086094
3288,0.09954298
3289,-0.0022175035
3290,-0.077849776
3291,-0.049614064
3292,-0.047371097
3293,0.025711158
3294,-0.022043828
3295,-0.044818595
3296,0.007268312
3297,-0.029283667
3298,-0.009914556
3299,-0.008034469
3300,-0.002288154
3301,-0.029208912
3302,-0.006286175
3303,0.032309547
3304,-0.044553947
3305,0.0061367243
3306,-0.04353389
3307,-0.036490206
3308,-0.0037082133
3309,-0.026397776
3310,-0.027810922
3311,-0.010751087
3312,-0.06213616
3313,-0.04333552
3314,-0.049003527
3315,0.009350643
3316,-0.062214635
3317,-0.021461725
3318,0.056414016
3319,-0.02803769
3320,0.002043313
3321,-0.04180784
3322,-0.0008913921
3323,-0.009688463
3324,-0.018176463
3325,-0.026532214
3326,-0.034945287
3327,-0.037239205
3328,-0.035764556
3329,-0.014251466
3330,-0.031858124
3331,-0.030467423
3332,-0.04857422
3333,-0.013475233
3334,0.047843695
3335,-0.005786706
3336,-0.0041662515
3337,-0.05653808
3338,-0.025768936
3339,-0.019353177
3340,0.002184476
3341,-0.019972943
3342,-0.00820308
3343,-0.037683576
3344,-0.027517151
3345,-0.02402971
3346,-0.017284513
3347,-0.028112754
3348,-0.0099187745
3349,0.0005825109
3350,-0.028583262
3351,0.03289899
3352,-0.039311018
3353,-0.026103621
3354,-0.039589603
3355,-0.01424061
3356,-0.013087151
3357,-0.020502932
3358,-0.024055216
3359,0.022370964
3360,-0.01843065
3361,-0.023065012
3362,-0.018393645
3363,-0.033918902
3364,-0.019532535
3365,-0.03390776
3366,-0.042783603
3367,-0.023330582
3368,-0.03228902
3369,-0.021733597
3370,0.010312241
3371,-0.045283943
3372,0.0015401045
3373,-0.022783145
3374,-0.0032780955
3375,-0.048727766
3376,-0.021363445
3377,-0.016475081
3378,-0.014013648
3379,-0.033468142
3380,0.014603006
3381,0.0118363695
3382,-0.0185192
3383,-0.043478936
3384,-0.03689351
3385,0.01506351
3386,-0.026648771
3387,-0.03412453
3388,-0.045837376
3389,-0.0035490291
3390,-0.015699517
3391,-0.015695928
3392,-0.052828282
3393,-0.05078585
3394,-0.032411724
3395,0.04442498
3396,-0.03674331
3397,-0.030901525
3398,-0.022956526
3399,0.0051196343
3400,-0.041411053
3401,0.0049839453
3402,-0.00756471
3403,-0.035267558
3404,-0.014837955
3405,-0.017430205
3406,-0.024853004
3407,-0.037456818
3408,-0.018125344
3409,-0.02683246
3410,0.0455101
3411,0.009454648
3412,-0.020613365
3413,0.021650301
3414,-0.024457429
3415,-0.03653191
3416,0.0010381703
3417,0.0061945156
3418,0.022049999
3419,-0.02899985
3420,-0.0262865
3421,0.009007474
3422,-0.02941946
3423,-0.053254537
3424,0.004629687
3425,-0.033515945
3426,-0.016016418
3427,-0.030169014
3428,-0.018232979
3429,-0.025242468
3430,-0.011339671
3431,0.068247035
3432,0.007218264
3433,-0.012144763
3434,-0.053417485
3435,-0.03637766
3436,-0.014000012
3437,-0.03079072
3438,0.052399416
3439,-0.0019955314
3440,-0.030203037
3441,-0.044754915
3442,-0.03548618
3443,0.010111339
3444,-0.0441535
3445,0.03915103
3446,0.02726531
3447,-0.017122705
3448,0.00038739847
3449,-0.017977143
3450,-0.045623016
3451,-0.0075517963
3452,-0.026293533
3453,-0.031668108
3454,0.036762092
3455,0.009953362
3456,-0.019105503
3457,-0.0040951213
3458,-0.022507366
3459,-0.014030526
3460,0.0041677724
3461,-0.013677572
3462,-0.011134637
3463,0.02104533
3464,-0.003283076
3465,0.0037375728
3466,-0.0074064536
3467,-0.009305143
3468,0.0032044435
3469,-0.0036107725
3470,-0.012772629
3471,-0.00033590925
3472,-0.010878528
3473,0.0044954503
3474,-0.0049426793
3475,0.003881279
3476,0.010924204
3477,0.0005127006
3478,0.0028458007
3479,0.013636317
3480,0.000643378
3481,-0.011907567
3482,-0.0028240413
3483,0.007956108
3484,-0.0069713276
3485,-0.00070898747
3486,-0.01042818
3487,0.00015025628
3488,0.0027648548
3489,-0.01686569
3490,0.001288791
3491,-0.007479971
3492,-0.0015350551
3493,-0.0010969186
3494,-0.011929538
3495,0.0048105484
3496,0.007237335
3497,-0.010733493
3498,0.005923248
3499,-0.0072382027
3500,-0.011704434
3501,-0.009933295
3502,0.00057425903
3503,0.010979261
3504,0.003185857
3505,0.0140289655
3506,0.0027698108
3507,0.00675006
3508,0.018518792
3509,0.0096454155
3510,0.007992232
3511,-0.009788435
3512,0.004120349
3513,0.008717861
3514,-0.010539974
3515,-0.0010752911
3516,-0.0017386222
3517,-0.002990811
3518,0.0035427674
3519,0.018717915
3520,0.008242383
3521,-0.019388858
3522,-0.0026893988
3523,-0.01738239
3524,0.011678894
3525,-0.014607318
3526,0.008066357
3527,-0.0065411557
3528,-0.0027803162
3529,0.0010611675
3530,-0.0037465696
3531,-0.0055326875
3532,0.015687851
3533,0.002172156
3534,0.007455084
3535,0.014944415
3536,-0.01081066
3537,-0.0022566775
3538,0.02507621
3539,-0.007575007
3540,-0.009076389
3541,0.009795803
3542,-0.012388016
3543,0.01065011
3544,-0.011128284
3545,-0.012898747
3546,0.01482326
3547,-0.008487749
3548,-0.0047740564
3549,-0.0031121343
3550,0.0023210277
3551,-4.6204033e-05
3552,0.005564333
3553,-0.006140132
3554,-0.0022280645
3555,-0.012199629
3556,0.017353235
3557,-0.019798508
3558,0.013101932
3559,-0.017210973
3560,0.007914897
3561,0.004082715
3562,-0.0003584577
3563,0.0018086324
3564,0.014153999
3565,-0.0013917654
3566,0.012895354
3567,0.009535508
3568,-0.01062182
3569,-0.007114344
3570,0.0048136264
3571,0.010267442
3572,0.0071806465
3573,0.002578517
3574,0.019974584
3575,0.0033975039
3576,0.013095556
3577,-0.015627231
3578,0.01160491
3579,0.009646584
3580,0.00057008356
3581,-0.00014235295
3582,0.0048586433
3583,-0.021895237
3584,-0.00032399225
3585,0.0002097066
3586,0.00061077246
3587,0.0072389073
3588,0.0020320972
3589,-0.0014220503
3590,0.0057139862
3591,0.00023558087
3592,0.003986922
3593,-0.006869378
3594,0.005622764
3595,0.0033214136
3596,0.0058274656
3597,0.0001524595
3598,0.00667528
3599,0.0054440484
3600,-0.002798711
3601,-0.00027933283
3602,-0.0084531745
3603,0.0026523918
3604,0.0035668914
3605,0.0060330755
3606,-0.014588603
3607,0.007450012
3608,-0.015949875
3609,-0.009061219
3610,0.011345819
3611,-0.010746828
3612,0.015313962
3613,-0.002285399
3614,-0.0025855263
3615,0.0062459293
3616,-0.0045728507
3617,-0.006649028
3618,-0.0021402566
3619,0.016948717
3620,0.010645029
3621,0.015641114
3622,-0.0014419082
3623,0.0086008655
3624,0.0031028562
3625,0.00784515
3626,0.0066668848
3627,-0.0047618654
3628,0.0106373215
3629,-0.016238777
3630,0.010842243
3631,0.0005953466
3632,-0.005383711
3633,-0.011605316
3634,-0.0045996914
3635,-0.012255665
3636,0.008035147
3637,-0.014949025
3638,0.0061927866
3639,-0.013063663
3640,-0.009872448
3641,-0.008309524
3642,-0.0028713222
3643,0.00018566476
3644,-0.010841233
3645,-0.0024963857
3646,0.017927019
3647,0.009075581
3648,0.0039160415
3649,0.01633816
3650,0.0025966305
3651,-0.010682336
3652,-0.0014496055
3653,0.0021061806
3654,-0.010258421
3655,0.0022170127
3656,-0.004401889
3657,0.006506806
3658,-0.0029519491
3659,0.010283966
3660,0.018025432
3661,0.01373923
3662,0.0005189166
3663,0.012367038
3664,-0.00022330701
3665,0.0002355232
3666,-0.00572967
3667,0.010360357
3668,-0.0026339998
3669,-0.00094505376
3670,-0.010377983
3671,-0.0029204213
3672,0.0059308433
3673,-0.010902121
3674,-0.00909533
3675,-0.0039868183
3676,0.00252112
3677,-0.009608437
3678,0.009880207
3679,-0.0083516035
3680,-0.0029471838
3681,-0.017164715
3682,0.010761363
3683,0.013244782
3684,-0.005481079
3685,-0.0070740646
3686,-0.010930489
3687,-0.0050590048
3688,0.009677423
3689,-0.0144211305
3690,0.012131966
3691,-0.005694735
3692,0.012954063
3693,0.0008760269
3694,-0.0054095597
3695,0.0053269523
3696,-0.019425895
3697,0.0051484248
3698,-0.008180942
3699,0.015450861
3700,0.0027197257
3701,0.002149552
3702,-0.007128908
3703,-0.011568534
3704,-0.011966712
3705,-0.0013863908
3706,-0.012346145
3707,-0.0077081826
3708,0.007113896
3709,-0.018869972
3710,0.0039439113
3711,0.0041797864
3712,-0.011972234
3713,-0.0076384223
3714,0.012423073
3715,-0.000301528
3716,0.0075329137
3717,-0.009669011
3718,0.0054371846
3719,0.004738775
3720,0.00034793242
3721,-0.010547235
3722,0.0002912198
3723,-0.009706999
3724,-0.0024213595
3725,-0.0044614244
3726,0.0026856805
3727,-0.005545189
3728,-0.000121270015
3729,-0.0013561605
3730,0.0035847616
3731,-0.0162832
3732,0.0052731573
3733,-0.011420937
3734,0.001612813
3735,0.010489104
3736,0.0017619848
3737,-0.00523939
3738,0.005993552
3739,-0.0003468945
3740,0.006659985
3741,0.0012980148
3742,0.004215981
3743,0.00032943272
3744,-0.0072526
3745,0.007212565
3746,-0.0018009288
3747,0.010103566
3748,-0.0022755943
3749,0.0074889855
3750,0.0029572549
3751,-0.0055356366
3752,7.605607e-05
3753,-0.013402957
3754,0.007631085
3755,0.010417763
3756,0.0041557765
3757,-0.011082011
3758,-0.00044409427
3759,-0.0058817626
3760,0.0018714103
3761,-0.0071997633
3762,-0.010293579
3763,0.0030465324
3764,0.0012554576
3765,-0.0014071635
3766,0.002451074
3767,0.008657845
3768,-0.015050774
3769,0.0078150565
3770,0.009298586
3771,-0.00036505103
3772,-0.0029086058
3773,-0.017143387
3774,-0.00024970746
3775,-0.016139435
3776,0.0027452304
3777,-0.012112808
3778,0.0016887761
3779,0.00034021912
3780,-0.0057854876
3781,0.006905633
3782,-0.018226316
3783,0.007317168
3784,0.009232908
3785,-0.0042908755
3786,0.0026532155
3787,0.013083804
3788,0.014776504
3789,-0.00081092026
3790,0.01033869
3791,-0.005140072
3792,0.0009949404
3793,0.005063519
3794,-0.00714022
3795,-0.012338767
3796,-0.00018218781
3797,0.001653209
3798,-0.01287024
3799,-0.004676788
3800,-0.004341091
3801,0.00044318603
3802,-0.018304259
3803,-0.012784192
3804,-0.015252408
3805,-0.007377887
3806,0.0030713598
3807,-0.018245874
3808,-0.0006540027
3809,-0.0006346599
3810,0.007938908
3811,-0.0035363077
3812,0.01784308
3813,0.00739689
3814,-0.00019192799
3815,-0.011407171
3816,-0.009541083
3817,0.0014651215
3818,-0.0042236745
3819,0.003696143
3820,0.0064891777
3821,0.006163725
3822,0.0034511047
3823,0.019625295
3824,-0.0035896727
3825,0.0021948633
3826,-0.0047097015
3827,0.005939338
3828,-0.012697489
3829,0.0016954193
3830,0.0021497568
3831,0.0027440146
3832,0.0184441
3833,-0.0024285119
3834,-0.013122454
3835,-0.0176832
3836,0.00089008606
3837,0.0058534355
3838,-0.01833261
3839,-0.0010914076
3840,0.009316186
3841,-0.019138617
3842,-0.0030420374
3843,0.0141825145
3844,-0.0038902687
3845,-0.0012124059
3846,0.012071595
3847,-0.010840009
3848,-0.012492773
3849,0.007937915
3850,-0.002805958
3851,0.0032207628
3852,-0.008143125
3853,0.010774852
3854,0.0004393326
3855,-0.0024411115
3856,-0.005121805
3857,-0.0007926536
3858,0.0021962696
3859,-0.0101154195
3860,0.0032676652
3861,0.0012016052
3862,-0.018092506
3863,0.0029417633
3864,0.0009836201
3865,-0.0075732158
3866,0.0004191412
3867,-0.016602952
3868,-0.004012007
3869,0.006787396
3870,0.0039731413
3871,0.008416921
3872,0.0005091296
3873,0.008068474
3874,0.0061217197
3875,0.005211548
3876,-0.011805162
3877,-0.00042221328
3878,-0.014426177
3879,-0.012967728
3880,-0.0021249407
3881,0.0017254238
3882,-0.0037819736
3883,0.013288541
3884,-0.005872337
3885,-0.015259425
3886,0.005818851
3887,0.0049771112
3888,0.002016722
3889,0.0009983666
3890,0.0014260906
3891,-0.0008238558
3892,0.01728825
3893,-0.009764515
3894,-0.0028006444
3895,-0.005352445
3896,-0.0008061266
3897,-0.010646605
3898,-0.013700481
3899,0.0054716407
3900,-0.0014713551
3901,0.0001117124
3902,0.012073598
3903,-0.00031086837
3904,-0.00028364424
3905,-0.012918473
3906,-0.0026228526
3907,-0.004624812
3908,0.0030395477
3909,-0.008105306
3910,-0.0049763024
3911,-0.008142046
3912,-0.0016806335
3913,0.0056567006
3914,0.0059692
3915,-0.0033317073
3916,0.0058367094
3917,-0.011781986
3918,-0.00065408245
3919,0.0110960705
3920,0.018786924
3921,0.011240204
3922,0.00084821857
3923,0.00475282
3924,-0.002390811
3925,0.0065677785
3926,0.014055913
3927,-0.008988521
3928,0.0035498878
3929,0.004453857
3930,0.007331566
3931,0.009186044
3932,0.009134902
3933,-0.0050016963
3934,-0.007541985
3935,-0.012669589
3936,0.002038529
3937,0.0035660614
3938,0.002427698
3939,0.00045727947
3940,-0.005723764
3941,0.008442146
3942,0.008326634
3943,0.018057233
3944,-0.016037738
3945,0.015162415
3946,-0.000851349
3947,-0.0088066235
3948,-0.0059521673
3949,0.016782315
3950,-0.0019067634
3951,0.0014572279
3952,-0.015604157
3953,0.0031012625
3954,-0.0031049103
3955,0.0138378125
3956,0.00814592
3957,0.011677088
3958,0.0075796014
3959,0.0039067753
3960,0.008664674
3961,0.0020085
3962,-0.015385412
3963,0.012683651
3964,-0.012076152
3965,0.011382331
3966,-0.003269495
3967,0.0068547446
3968,0.007868191
3969,-0.004825718
3970,-0.0046677073
3971,0.011140804
3972,-0.0015100694
3973,-0.010704237
3974,0.0060589593
3975,0.009805551
3976,0.008830898
3977,-0.00017664279
3978,-0.00040065564
3979,0.0002935978
3980,0.002930474
3981,-0.00016351203
3982,0.0070852027
3983,0.0025212406
3984,-0.008541903
3985,0.018139152
3986,-0.01744628
3987,0.0013506802
3988,0.006673724
3989,-0.010500829
3990,-0.01296382
3991,-0.0029765898
3992,-0.0028614213
3993,-0.00028385286
3994,0.0008779074
3995,0.013467591
3996,-0.0028156892
3997,-0.0061970735
3998,0.005848602
3999,0.012684803
4000,0.012316669
4001,-0.0006263787
4002,0.0033377616
4003,0.0113147255
4004,0.0018725389
4005,-0.0010861217
4006,0.005448545
4007,0.0047387397
4008,-0.008608043
4009,0.012836032
4010,-0.009985856
4011,0.010893823
4012,0.008181568
4013,-0.014948526
4014,0.013498803
4015,0.013093128
4016,-0.0041084928
4017,-0.003868062
4018,0.014209139
4019,-0.0068600965
4020,0.00094790873
4021,-0.006313667
4022,-0.010907676
4023,-0.004778006
4024,0.0049816575
4025,0.0070433905
4026,0.01872043
4027,0.0052416925
4028,0.003795278
4029,-0.017224083
4030,-0.00628576
4031,-0.00603593
4032,-0.0018412259
4033,0.0020713524
4034,0.0027543684
4035,-0.008652968
4036,0.007669056
4037,-0.0027236317
4038,0.002143511
4039,0.0074433815
4040,0.0057698656
4041,0.007624186
4042,-0.0010296965
4043,0.0054648113
4044,-0.012983784
4045,0.0030830377
4046,0.0007137934
4047,0.007519531
4048,-0.0012565611
4049,-0.0016070966
4050,0.00011194108
4051,0.015411841
4052,-0.010895499
4053,-0.00078697293
4054,0.0087480135
4055,0.0030016834
4056,0.010411205
4057,0.009627993
4058,0.004092223
4059,-0.014546229
4060,-0.008093142
4061,0.001151624
4062,-0.008290831
4063,0.0035843987
4064,0.0038696316
4065,0.005372799
4066,0.017625898
4067,-0.004871348
4068,-0.01238883
4069,0.0019005267
4070,0.015500684
4071,0.0010892489
4072,0.002621994
4073,-0.009872781
4074,0.007983495
4075,-0.002157933
4076,0.0075518168
4077,0.0019863835
4078,0.01651857
4079,-0.0007488972
4080,0.00021714545
4081,0.008698665
4082,-0.006720792
4083,0.015032221
4084,0.008534669
4085,-0.004535887
4086,0.011533002
4087,-0.0036129209
4088,-0.01267865
4089,0.006809228
4090,-0.0015642894
4091,-0.015567147
4092,-0.0048254384
4093,-0.0082127955
4094,0.01818856
4095,-0.0126799345
