Sno,Weight
0,-0.012710507
1,-0.0300733
2,-0.0578992
3,-0.085080825
4,0.008406628
5,-0.05842648
6,0.11291254
7,-0.11738494
8,0.014489122
9,-0.14854051
10,-0.115736805
11,-0.049004562
12,-0.06690173
13,-0.065952025
14,-0.047205906
15,0.012595382
16,0.07144315
17,-0.089064054
18,-0.025004284
19,0.059421048
20,-0.05911312
21,-0.11535945
22,-0.014248323
23,0.06756273
24,-0.11522195
25,-0.01583379
26,-0.020328892
27,-0.14291292
28,-0.010808212
29,0.077420704
30,0.090292215
31,0.09179971
32,0.024387063
33,0.011158836
34,-0.065520905
35,-0.10012908
36,-0.03127476
37,0.019350538
38,-0.01647955
39,-0.0246694
40,-0.083096094
41,-0.06485132
42,-0.016656639
43,-0.093268044
44,-0.12013884
45,-0.012984472
46,0.0034659826
47,-0.11724321
48,-0.032281864
49,-0.09046112
50,0.028894182
51,-0.060745236
52,-0.2069934
53,-0.077070914
54,0.012915711
55,-0.12714958
56,-0.033749703
57,-0.0023056315
58,-0.031480905
59,-0.014266138
60,-0.018799562
61,0.024296975
62,0.02983515
63,-0.05560575
64,0.022755282
65,-0.0076275277
66,0.037887406
67,-0.07032835
68,0.012095928
69,-0.0990852
70,-0.08596511
71,-0.10406798
72,-0.25719032
73,-0.013178744
74,-0.029660478
75,-0.026280057
76,-0.020272342
77,-0.06586292
78,-0.0012420955
79,0.10850716
80,-0.012391411
81,0.053827133
82,-0.17298162
83,-0.0017205038
84,0.08158566
85,-0.03516026
86,-0.044323232
87,0.029505387
88,-0.043738578
89,-0.10597095
90,0.071062505
91,0.027652938
92,-0.108015455
93,0.010547412
94,0.041941006
95,-0.039138667
96,0.029345578
97,-0.12130492
98,0.011235829
99,-0.086917326
100,-0.026995707
101,-0.0528916
102,-0.11151923
103,-0.03361657
104,-0.015552527
105,0.01777447
106,-0.029882818
107,-0.040130768
108,-0.124667935
109,0.040112972
110,-0.05820639
111,0.02593076
112,0.12131113
113,-0.08441678
114,0.0303055
115,-0.045737054
116,0.03946536
117,-0.06306962
118,0.12854853
119,-0.13722007
120,-0.07603668
121,-0.09858208
122,-0.061955158
123,-0.024233464
124,-0.0044118073
125,0.009514153
126,0.109723404
127,-0.12714969
128,-0.02006303
129,-0.029494198
130,-0.012534504
131,-0.052605104
132,-0.016838696
133,-0.1162401
134,-0.026226912
135,-0.017038738
136,-0.0448213
137,-0.08794906
138,0.00735043
139,-0.036554202
140,-0.054559823
141,0.002522217
142,-0.021533351
143,-0.03958748
144,-0.052850164
145,0.028080598
146,-0.044925157
147,-0.009437353
148,-0.049833912
149,-0.1091083
150,-0.0030029293
151,-0.008676586
152,-0.059268788
153,-0.016787501
154,-0.01912492
155,-0.038922705
156,-0.17196581
157,0.028109817
158,0.05186964
159,-0.12738822
160,0.015174089
161,0.017675666
162,-0.07852362
163,-0.100593545
164,-0.037369575
165,-0.12528367
166,-0.040023666
167,-0.051027037
168,-0.009979848
169,-0.06805407
170,-0.028749704
171,0.011678601
172,0.08137578
173,0.035864946
174,0.0036360964
175,0.028207248
176,-0.0016872112
177,-0.09743511
178,0.013432398
179,-0.044386145
180,-0.015374442
181,-0.03586455
182,-0.0055974717
183,-0.06792149
184,-0.044655204
185,0.03220957
186,-0.047284078
187,-0.22754298
188,-0.0008802945
189,-0.055877432
190,-0.075806186
191,-0.13579704
192,-0.14606252
193,-0.02815942
194,-0.0016218445
195,-0.044398732
196,-0.22432579
197,0.017127741
198,-0.07326405
199,-0.033108845
200,-0.04789623
201,-0.025337365
202,-0.097884275
203,-0.47403228
204,0.0007473514
205,-0.018724443
206,-0.027441967
207,0.051761363
208,-0.12026371
209,-0.2498975
210,-0.15831248
211,-0.062073514
212,-0.014365381
213,-0.01015841
214,-0.12993972
215,-0.07678467
216,0.050505057
217,0.047811955
218,-0.05502841
219,0.02315311
220,-0.060642507
221,8.872188e-05
222,-0.15494402
223,-0.005171757
224,-0.11476758
225,-0.05646177
226,-0.022598714
227,-0.025055025
228,-0.03995419
229,-0.03293463
230,-0.05686482
231,0.0073092664
232,-0.08289928
233,-0.13148938
234,-0.042297363
235,0.032107584
236,-0.029681072
237,-0.12064356
238,-0.016062727
239,-0.115743876
240,-0.16698262
241,-0.06122949
242,-0.043981116
243,-0.03154259
244,-0.06078766
245,-0.019808048
246,0.046263438
247,-0.06972717
248,0.0317579
249,-0.072456904
250,0.03574804
251,-0.051670298
252,-0.19386557
253,0.07247629
254,-0.019373663
255,-0.1545987
256,-0.011203371
257,0.12423766
258,-0.07746376
259,-0.035647515
260,-0.0063580982
261,-0.0154079925
262,0.026550401
263,0.12952834
264,-0.12354466
265,-0.03213864
266,0.12942608
267,0.10614844
268,-0.10680968
269,0.01433564
270,-0.115471944
271,0.05189207
272,0.06475118
273,0.021381529
274,-0.030292274
275,0.09939776
276,-0.10028883
277,-0.09004365
278,-0.0052486192
279,0.11384368
280,-0.048847094
281,-0.03462036
282,0.01965075
283,0.010081632
284,0.06303511
285,0.08782272
286,0.03194881
287,0.025131442
288,0.055932324
289,-0.0688543
290,-0.009452178
291,0.072980806
292,-0.024777777
293,-0.030351043
294,0.13899288
295,-0.020859096
296,-0.016178796
297,-0.122239225
298,-0.05795148
299,0.022952616
300,-0.09340298
301,0.07001561
302,-0.007779001
303,0.1146619
304,-0.00941392
305,0.112096466
306,-0.015478787
307,-0.035307813
308,0.09283725
309,-0.0108307935
310,-0.015968563
311,0.021303553
312,-0.09107492
313,-0.15554406
314,-0.03421279
315,-0.0029425616
316,0.016176457
317,0.11500623
318,0.01002167
319,-0.0025297205
320,0.052446336
321,-0.013070648
322,0.070192754
323,-0.13936472
324,0.10012854
325,0.08132784
326,-0.04650687
327,0.017642248
328,0.004643458
329,-0.011304442
330,0.15503484
331,0.025109878
332,0.15244581
333,-0.03252942
334,-0.004126986
335,0.034452423
336,0.07265135
337,0.048515733
338,-0.023886193
339,-0.16508572
340,0.10811965
341,-0.0574104
342,-0.0015758326
343,0.14181256
344,0.024053607
345,-0.0013155766
346,-0.02033752
347,0.04346184
348,0.02401843
349,0.04443958
350,0.020403717
351,-0.051633365
352,-0.0017905833
353,-0.15891007
354,0.26295936
355,-0.01948945
356,-0.062128007
357,-0.10433928
358,-0.054621365
359,0.14651266
360,-0.08684767
361,0.012098143
362,-0.052597165
363,0.025056865
364,0.040964935
365,-0.06161096
366,0.05161294
367,-0.0016219763
368,0.04831706
369,0.11968081
370,0.0474849
371,-0.11993828
372,0.14047197
373,-0.09869426
374,-0.024161091
375,0.0650269
376,0.0123174
377,-0.119739115
378,-0.10322882
379,0.15243112
380,0.014683914
381,0.054140404
382,-0.024779784
383,0.12831827
384,-0.027645787
385,0.011353692
386,0.0013451319
387,0.0150360605
388,-0.015581066
389,0.0025449868
390,-0.021559188
391,-0.04600451
392,-0.037428133
393,0.04853488
394,-0.013874582
395,-0.006297481
396,-0.0774268
397,0.059324995
398,-0.002582306
399,-0.030047225
400,-0.020756714
401,0.037768193
402,-0.02680814
403,0.007805207
404,0.02985113
405,-0.037127767
406,-0.0082469
407,-0.024823222
408,-0.07653863
409,0.0030261327
410,-0.0022535543
411,-0.06956464
412,0.006957411
413,-0.003747459
414,-0.02198069
415,0.025949925
416,0.091285214
417,-0.05246686
418,0.05793128
419,-0.011663698
420,0.03817006
421,0.03251153
422,0.0056950687
423,-0.0020222862
424,0.046062093
425,0.042555783
426,0.043400805
427,-0.039087556
428,-0.061742365
429,-0.01006161
430,-0.0078268
431,0.005354419
432,-0.013287976
433,-0.004686763
434,-0.069471546
435,0.016171962
436,0.02619908
437,0.033465754
438,-0.028980304
439,0.040623244
440,0.043687332
441,0.021049637
442,0.033019617
443,0.031610895
444,-0.04343988
445,0.02243131
446,0.073722936
447,-0.046011586
448,0.054617126
449,0.010758637
450,0.002532224
451,-0.00011219853
452,0.029269883
453,0.005845356
454,0.05075706
455,0.011121991
456,0.023375101
457,-0.011107131
458,-0.021548055
459,-0.0004084559
460,0.009769281
461,-0.0695411
462,0.0028277058
463,0.022170346
464,0.06283059
465,0.03177223
466,0.017090682
467,0.072231576
468,-0.003309476
469,-0.016134117
470,-0.048300426
471,-0.00079192925
472,0.13584876
473,-0.06464863
474,-0.00070266187
475,-0.024655098
476,0.0049266736
477,-0.02140844
478,0.0055265045
479,-0.015957912
480,0.09799714
481,-0.02290356
482,0.011157866
483,-0.0012640263
484,-0.003383714
485,0.0023425554
486,0.014884164
487,0.0071006496
488,-0.028832033
489,0.0619421
490,-0.026449997
491,0.12439407
492,-0.0020080786
493,0.084417865
494,-0.017343596
495,0.07238717
496,0.0399794
497,-0.07118701
498,-0.024663577
499,-0.004180988
500,0.006791086
501,0.014332528
502,0.044377327
503,0.023958767
504,-0.07504343
505,0.0071842005
506,-0.14791094
507,0.03948666
508,0.015614314
509,-0.003323589
510,-0.008500829
511,-0.071139865
512,-0.15186913
513,-0.02945987
514,-0.06545797
515,-0.01910251
516,-0.018961051
517,0.006617583
518,0.01414261
519,-0.121144585
520,-0.00352483
521,-0.0032307417
522,-0.015588809
523,0.013890291
524,-0.12200157
525,-0.040235214
526,-0.041206457
527,0.09236963
528,0.11978281
529,-0.06562565
530,-0.05385366
531,0.14292523
532,-0.105792694
533,-0.14712667
534,0.0004521919
535,0.11491671
536,-0.15055533
537,-0.07669252
538,-0.02667005
539,0.00896759
540,0.07735639
541,0.07633806
542,0.040144928
543,0.058394816
544,0.022557423
545,-0.047510643
546,-0.09802946
547,0.043035712
548,-0.09246758
549,-0.03877075
550,0.07042741
551,-0.043590188
552,-0.107729845
553,-0.0032328907
554,-0.105941944
555,-0.015645405
556,0.023564175
557,0.08605952
558,-0.006087512
559,-0.0078743
560,-0.014328784
561,0.03616568
562,-0.024677992
563,-0.10805993
564,-0.22344628
565,-0.038724348
566,-0.006785896
567,-0.0063509084
568,-0.106070004
569,-0.05862102
570,-0.11100714
571,-0.09485158
572,0.07314552
573,0.07565665
574,0.031889755
575,-0.11160603
576,-0.045616757
577,-0.0041949404
578,0.080408216
579,-0.12079243
580,0.13406761
581,0.09322973
582,-0.15983537
583,-0.04417097
584,0.03657826
585,-0.03482563
586,0.056587473
587,0.09243674
588,0.06638292
589,-0.011698853
590,0.0094217295
591,0.11971373
592,0.07594059
593,-0.06900661
594,0.06265993
595,-0.1101317
596,0.0025222718
597,-0.014058066
598,-0.106109455
599,0.06376025
600,-0.0010856709
601,-0.010703688
602,-0.04156795
603,0.10473827
604,0.038992297
605,0.08888899
606,0.21526052
607,-0.060874987
608,0.02305885
609,-0.06399056
610,0.097777344
611,-0.05912572
612,-0.07007665
613,-0.091976196
614,-0.16005383
615,0.06691448
616,-0.1019211
617,-0.014137952
618,-0.08555427
619,-0.058506317
620,0.0371492
621,0.04101635
622,-0.010902409
623,-0.031723924
624,0.031906527
625,-0.08948855
626,0.10132918
627,0.037058026
628,0.09470767
629,-0.09705838
630,0.013058975
631,-0.046891876
632,0.0062630945
633,-0.15097903
634,0.043893408
635,0.025356371
636,0.017833859
637,0.07071075
638,0.0098989885
639,0.061465554
640,-0.14313348
641,-0.028531099
642,-0.0732481
643,-0.057126123
644,-0.026922207
645,-0.017061055
646,-0.016618203
647,-0.10885094
648,-0.06286057
649,0.065415494
650,0.014581916
651,-0.0046684416
652,0.005011743
653,0.025348794
654,-0.067582764
655,-0.09704845
656,-0.019567946
657,0.08310365
658,0.04301536
659,0.042454485
660,-0.021603
661,0.033286326
662,-0.0067422325
663,0.012855246
664,0.0053378907
665,-0.0247406
666,-0.046376575
667,-0.08122439
668,0.023149798
669,0.032888304
670,-0.124630034
671,-0.0054843947
672,-0.032270163
673,0.011758114
674,-0.028933806
675,0.021354644
676,0.025011823
677,-0.04051998
678,-0.030919647
679,-0.0039161826
680,0.0038704914
681,-0.09518483
682,-0.10583914
683,0.026528481
684,0.09628582
685,0.0029182136
686,-0.005951866
687,0.009313168
688,-0.0171155
689,-0.0020012057
690,0.015740283
691,-0.087949954
692,0.026143536
693,-0.11549401
694,0.010902473
695,-0.020189064
696,-0.056445405
697,0.071044415
698,0.059427027
699,-0.21864143
700,-0.09252121
701,0.005963156
702,0.026615907
703,0.025782255
704,-0.09129289
705,-0.051450416
706,0.006774201
707,-0.009364316
708,-0.025360107
709,-0.0024125203
710,0.060523037
711,-0.080023855
712,-0.07284499
713,-0.036873847
714,0.0012546479
715,-0.017233983
716,0.023462506
717,0.018374393
718,0.03396864
719,-0.047211077
720,0.005098306
721,-0.26652747
722,0.02815002
723,-0.09095907
724,-0.0733836
725,0.0096303895
726,0.030946072
727,-0.021802284
728,0.003983566
729,0.04315785
730,-0.053812303
731,-0.06302806
732,0.03979945
733,-0.019927848
734,0.059777234
735,-0.10442169
736,-0.062497493
737,-0.22001769
738,-0.003791853
739,-0.05057506
740,-0.027286725
741,-0.031741526
742,0.048174046
743,-0.051284578
744,-0.15213071
745,-0.0061786384
746,-0.027465856
747,0.0031205614
748,-0.061931945
749,-0.109122925
750,-0.0846948
751,0.04043601
752,0.09283861
753,-0.06761961
754,-0.06993304
755,0.010292152
756,-0.0024169066
757,-0.08169605
758,0.0018822005
759,-0.053062737
760,0.028211096
761,-0.0938996
762,-0.070549086
763,-0.03494613
764,0.0072462577
765,-0.01383208
766,-0.08262298
767,-0.10846915
768,0.01066861
769,-0.07612806
770,-0.06261018
771,-0.011316126
772,-0.024850981
773,-0.004155985
774,-0.06401653
775,-0.063092366
776,-0.05766379
777,0.016493846
778,-0.078090645
779,-0.05139759
780,-0.11010883
781,0.04853276
782,-0.13352957
783,-0.028391903
784,-0.07534577
785,0.010359118
786,0.009919526
787,-0.06489926
788,-0.08216072
789,-0.028326415
790,0.008659276
791,-0.034273833
792,-0.11587354
793,-0.029830743
794,-0.039059296
795,-0.030145815
796,0.05182834
797,-0.056713354
798,-0.074769914
799,0.03295459
800,-0.03677995
801,-0.04205025
802,-0.07966096
803,-0.009836707
804,0.025487391
805,0.017761262
806,-0.016379056
807,-0.060188837
808,-0.029004592
809,-0.09315547
810,-0.04202906
811,-0.106298186
812,-0.13857794
813,-0.011148509
814,-0.007838178
815,-0.042553857
816,-0.04008742
817,0.0053105615
818,-0.026925568
819,0.0058001312
820,-0.023355696
821,-0.021245064
822,-0.006985346
823,-0.06142889
824,0.0016590663
825,0.013339219
826,0.020100905
827,-0.0006281766
828,-0.022966266
829,-0.04543276
830,-0.1160721
831,-0.015925184
832,-0.1058248
833,-0.030228663
834,-0.059071068
835,-0.08068367
836,-0.010177134
837,-0.003509064
838,0.026868282
839,-0.045438852
840,-0.025876291
841,-0.040626194
842,-0.06508127
843,-0.0039848285
844,-0.09123839
845,-0.045485917
846,-0.013852419
847,0.0071930224
848,0.023405068
849,-0.007146939
850,-0.0011973976
851,-0.046568163
852,-0.13635303
853,-0.028057268
854,-0.003949454
855,-0.025444997
856,-0.012619694
857,-0.05783417
858,-0.018833756
859,-0.034860842
860,0.008994096
861,-0.046304036
862,0.018725855
863,0.009220183
864,-0.09702194
865,-0.16091841
866,-0.106052555
867,-0.0052893357
868,-0.06669597
869,-0.06863232
870,-0.055425216
871,-0.024721636
872,-0.041463174
873,-0.12487331
874,-0.06422773
875,-0.026048988
876,-0.08363593
877,0.03650158
878,-0.071199745
879,-0.10530153
880,-0.010096072
881,-0.049173195
882,-0.03182096
883,-0.0203305
884,-0.035639875
885,-0.029558683
886,-0.012051627
887,-0.08600403
888,-0.060948562
889,-0.009414681
890,-0.09976573
891,-0.03463815
892,0.03234759
893,-0.033568114
894,-0.13404821
895,-0.08558741
896,0.0021224578
897,-0.019284263
898,-0.0474466
899,0.047565185
900,-0.023638504
901,0.0039713304
902,-0.011468024
903,-0.006213883
904,0.0008446493
905,0.019054621
906,-0.100405514
907,0.01719322
908,-0.06562181
909,0.032446664
910,-0.051962275
911,-0.04696934
912,-0.007767014
913,0.024051642
914,0.00572897
915,-0.029716212
916,-0.017832493
917,-0.0019379313
918,0.010551371
919,-0.06625818
920,-0.07986252
921,-0.043989945
922,-0.009536428
923,0.011074715
924,0.0016732409
925,-0.052805737
926,-0.057032216
927,0.01706622
928,0.0029658296
929,-0.025923748
930,-0.019500831
931,0.018104011
932,0.014084542
933,0.010475011
934,-0.035624966
935,-0.032624517
936,-0.0035782848
937,-0.15587032
938,0.01823006
939,-0.0937228
940,-0.1939557
941,-0.016339155
942,0.0042256177
943,-0.065607086
944,-0.052995
945,-0.014111736
946,-0.09739823
947,0.03516291
948,0.05605845
949,-0.088036925
950,-0.036163867
951,0.02476166
952,0.016107466
953,-0.03181292
954,-0.015196648
955,-0.055380423
956,-0.0751864
957,-0.052910987
958,-0.0053572264
959,0.016943753
960,-0.026623579
961,-0.017222598
962,-0.04849072
963,-0.05435928
964,-0.008761886
965,-0.086212285
966,0.06375396
967,0.05187839
968,-0.0026070573
969,-0.021588748
970,-0.069792494
971,-0.028717937
972,0.011310419
973,-0.0061056097
974,-0.027227737
975,-0.0026728644
976,0.010706426
977,0.026817929
978,0.064370416
979,-0.023189295
980,-0.024939371
981,-0.037362937
982,-0.051990934
983,-0.052183334
984,0.024953801
985,-0.09085773
986,-0.021330517
987,-0.02956753
988,0.020293022
989,-0.03653571
990,0.0007806073
991,-0.04237924
992,-0.017081304
993,0.01791821
994,0.0140969725
995,0.012307782
996,-0.02317448
997,-0.020704377
998,-0.025606362
999,-0.033979725
1000,0.0009664987
1001,-0.020765958
1002,-0.039294798
1003,0.02604503
1004,0.005996416
1005,0.05325714
1006,-0.016456906
1007,0.00011221053
1008,-0.0024095273
1009,-0.053970482
1010,-0.040648546
1011,-0.017225897
1012,-0.032245804
1013,0.04041119
1014,-0.035826582
1015,0.049180947
1016,-0.10850581
1017,0.06414305
1018,-0.13744433
1019,-0.061053924
1020,0.015883148
1021,-0.05789295
1022,-0.074897386
1023,-0.08463791
1024,-0.021819094
1025,0.01784311
1026,0.04325808
1027,-0.08547489
1028,0.11586436
1029,0.10669411
1030,-0.0014144642
1031,-0.20610201
1032,-0.12353399
1033,-0.008669295
1034,-0.22308502
1035,-0.082377665
1036,0.06984795
1037,-0.35169604
1038,0.015526711
1039,-0.057249874
1040,-0.014820588
1041,0.04661035
1042,0.061221182
1043,-0.049785554
1044,0.05497583
1045,0.05311804
1046,-0.02670771
1047,-0.068005696
1048,0.064010404
1049,-0.0039756363
1050,0.063222095
1051,0.09797391
1052,0.2778811
1053,-0.05242262
1054,0.011992994
1055,0.18490459
1056,-0.05096758
1057,-0.072727226
1058,0.014551707
1059,-0.056040347
1060,0.0869777
1061,0.070006445
1062,-0.22476779
1063,0.07762409
1064,0.025489384
1065,0.008851404
1066,0.007812746
1067,0.11639815
1068,-0.025148774
1069,-0.19201203
1070,-0.018736418
1071,-0.097275235
1072,-0.0032964896
1073,-0.080485284
1074,-0.026916042
1075,0.038679942
1076,0.024644865
1077,-0.010596042
1078,-0.0127411075
1079,-0.20340708
1080,-0.09829433
1081,0.008870339
1082,0.06419569
1083,0.05291318
1084,0.013933332
1085,0.13688284
1086,-0.013278052
1087,0.070849665
1088,0.03423914
1089,0.0743378
1090,-0.1650015
1091,0.083561465
1092,0.0700745
1093,-0.254119
1094,0.0689164
1095,-0.030195061
1096,0.08964423
1097,0.07471773
1098,-0.12677002
1099,-0.04147076
1100,-0.0035706256
1101,-0.03220993
1102,-0.018782694
1103,-0.025491614
1104,0.2577164
1105,0.0030638156
1106,0.088808514
1107,0.012130128
1108,-0.04455902
1109,0.025084337
1110,0.098994195
1111,-0.04300972
1112,-0.13670589
1113,-0.14568709
1114,-0.02744676
1115,-0.063828364
1116,-0.036753953
1117,-0.08552439
1118,0.20857124
1119,-0.06891268
1120,-0.0108188195
1121,0.062174432
1122,-0.044234917
1123,-0.08341393
1124,0.028840197
1125,0.04102739
1126,0.05780777
1127,-0.25086987
1128,0.046616644
1129,-0.028382584
1130,0.053883202
1131,-0.06820579
1132,-0.025018724
1133,0.06771427
1134,0.05994822
1135,-0.07752375
1136,0.008679433
1137,0.018732376
1138,-0.04929432
1139,-0.028795091
1140,-0.107275195
1141,0.041717112
1142,0.0042215763
1143,-0.0133023225
1144,-0.030862581
1145,-0.006935962
1146,-0.0019090517
1147,0.017781807
1148,0.16923562
1149,-0.06571192
1150,0.039974425
1151,0.09353919
1152,0.009408904
1153,-0.010210185
1154,0.009105937
1155,0.038310915
1156,-0.008252829
1157,0.013031249
1158,0.039130703
1159,-0.14473341
1160,0.064854026
1161,0.024388792
1162,0.021749875
1163,0.015912648
1164,-0.04671832
1165,0.047709886
1166,0.03529745
1167,0.018411582
1168,0.033244025
1169,0.02585641
1170,-0.011122538
1171,0.109865345
1172,0.009062167
1173,-0.02415067
1174,-0.012445668
1175,0.036013003
1176,-0.027570603
1177,-0.09297557
1178,0.005036338
1179,-0.052655995
1180,0.018246727
1181,-0.0105545595
1182,-0.029464716
1183,0.0666453
1184,-0.06409668
1185,-0.016565904
1186,0.057187114
1187,0.05357987
1188,0.018073658
1189,0.044624135
1190,0.028786894
1191,0.00864119
1192,0.011883758
1193,0.022926364
1194,-0.16044483
1195,0.061210822
1196,-0.060751192
1197,0.048886605
1198,-0.01627397
1199,-0.016937168
1200,-0.0011540074
1201,0.0048788525
1202,0.005839688
1203,-0.053313117
1204,-0.012983772
1205,-0.072407044
1206,0.010023558
1207,0.046676088
1208,-0.06715623
1209,0.028047964
1210,0.010404291
1211,-0.0653492
1212,0.0019471787
1213,0.023918975
1214,0.037406124
1215,-0.05354618
1216,-0.03979953
1217,0.0320722
1218,0.03857073
1219,-0.013939585
1220,0.0702269
1221,0.08818666
1222,0.0031477963
1223,0.061196394
1224,0.024865774
1225,-0.011823585
1226,0.06259269
1227,0.06951957
1228,0.038264345
1229,-0.033054378
1230,-0.014087229
1231,-0.0032744433
1232,0.04976316
1233,-0.11744059
1234,0.08669667
1235,0.011474121
1236,-0.008163742
1237,-0.00014126947
1238,-0.036505233
1239,0.04368871
1240,-0.0243412
1241,0.09617024
1242,-0.009310197
1243,0.042387202
1244,0.039307784
1245,0.046611205
1246,0.13907357
1247,-0.10269036
1248,-0.030310942
1249,-0.081499144
1250,0.003347688
1251,-0.008522281
1252,-0.0069230627
1253,-0.031218853
1254,-0.026650034
1255,0.04885911
1256,-0.113942586
1257,0.010842412
1258,-0.044658896
1259,-0.07281311
1260,0.044023767
1261,-0.01286501
1262,-0.012391823
1263,0.022739451
1264,0.021239452
1265,-0.026465215
1266,0.01982159
1267,0.04177694
1268,0.043311648
1269,-0.03242901
1270,-0.0040629623
1271,0.07631508
1272,0.03500509
1273,-0.06879416
1274,0.009477338
1275,0.046337537
1276,0.036371104
1277,0.062376592
1278,0.0014608889
1279,-0.065697975
1280,0.02489333
1281,0.064121224
1282,-0.10887476
1283,-0.020141324
1284,-0.042281166
1285,-0.2215317
1286,-0.0068888157
1287,0.086094946
1288,-0.09182959
1289,0.0059843683
1290,0.1475809
1291,0.022431744
1292,-0.016450372
1293,0.021605624
1294,-0.06070828
1295,0.14583237
1296,0.039561365
1297,-0.012169476
1298,-0.076184325
1299,0.1912178
1300,-0.032071356
1301,-0.038760565
1302,-0.00887548
1303,0.13389368
1304,-0.057501346
1305,0.06562292
1306,-0.07684493
1307,-0.2609203
1308,-0.13250177
1309,0.18622899
1310,0.022166533
1311,-0.075847656
1312,0.10047044
1313,-0.08499923
1314,-0.08001249
1315,-0.06723141
1316,-0.017703451
1317,-0.016062047
1318,0.14602228
1319,-0.050033282
1320,-0.016366836
1321,-0.043551475
1322,-0.13027182
1323,0.015076653
1324,-0.048254266
1325,0.16977179
1326,0.0026359027
1327,0.08402311
1328,-0.016647143
1329,0.05011096
1330,-0.004028691
1331,-0.045525786
1332,-0.0033525524
1333,0.022695493
1334,0.029758146
1335,-0.099255286
1336,0.014920146
1337,-0.036664054
1338,-0.046956364
1339,0.08408204
1340,-0.009654634
1341,0.04549805
1342,-0.007675202
1343,-0.06940693
1344,-0.07612608
1345,-0.053937405
1346,0.17690651
1347,-0.017789492
1348,0.060477827
1349,0.032171693
1350,-0.0672177
1351,-0.0022440453
1352,-0.34843934
1353,-0.051265616
1354,0.14297698
1355,0.117198564
1356,0.0042848447
1357,0.01208426
1358,0.0012690123
1359,-0.015589778
1360,-0.17436798
1361,0.16480224
1362,-0.23975043
1363,-0.07903168
1364,0.08443273
1365,-0.008213438
1366,-0.12435959
1367,0.14304459
1368,0.094225824
1369,0.036611304
1370,-0.031795785
1371,0.24068016
1372,-0.091378175
1373,0.12936743
1374,-0.010076217
1375,0.011777236
1376,-0.06268842
1377,-0.15659243
1378,0.05162035
1379,-0.041677274
1380,-0.04848887
1381,-0.050714258
1382,-0.021557394
1383,0.1455045
1384,-0.15780139
1385,-0.04072255
1386,-0.009715554
1387,0.05791868
1388,-0.077424936
1389,0.124580815
1390,-0.08751874
1391,-0.052452303
1392,0.05482377
1393,-0.028275294
1394,0.15294093
1395,-0.21752314
1396,0.086628586
1397,-0.10344789
1398,0.03130898
1399,-0.027507223
1400,-0.019955456
1401,-0.08736001
1402,-0.122109525
1403,0.0120687345
1404,-0.20429367
1405,0.19766898
1406,-0.020821491
1407,0.026879987
1408,-0.1285013
1409,-0.069673166
1410,-0.10406275
1411,-0.083230816
1412,-0.0005432286
1413,-0.06754439
1414,0.02372258
1415,-0.14011613
1416,-0.0064985924
1417,-0.118069604
1418,0.016222157
1419,-0.040763553
1420,-0.08230028
1421,-0.060955577
1422,-0.09938339
1423,0.12416074
1424,-0.0203932
1425,-0.11853241
1426,-0.072466835
1427,0.07454491
1428,-0.0522801
1429,-0.10040505
1430,-0.0020707014
1431,0.08189874
1432,-0.12460553
1433,-0.06322642
1434,-0.00033812592
1435,-0.096098624
1436,-0.13029106
1437,0.056976803
1438,0.06672864
1439,-0.091613315
1440,-0.10050209
1441,-0.05015406
1442,-0.099585414
1443,-0.09970432
1444,-0.09773607
1445,-0.015859364
1446,0.117611
1447,-0.013303418
1448,-0.07049689
1449,0.01609311
1450,-0.085245274
1451,0.05557092
1452,0.0322512
1453,0.15507092
1454,-0.00031439902
1455,-0.11559273
1456,0.0076567032
1457,-0.16771692
1458,-0.07493985
1459,-0.08828127
1460,-0.16186646
1461,-0.002994697
1462,-0.018035613
1463,-0.0475616
1464,-0.057073005
1465,-0.015694404
1466,-0.107111245
1467,0.015234953
1468,0.08334407
1469,-0.31176904
1470,0.03830911
1471,-0.09389377
1472,0.021653477
1473,2.2662658e-05
1474,0.079846464
1475,-0.10569675
1476,-0.019316385
1477,0.06030572
1478,-0.19235446
1479,-0.12064501
1480,-0.02957095
1481,-0.018145379
1482,0.057800703
1483,0.080733135
1484,0.0031663764
1485,-0.030483581
1486,-0.008045248
1487,0.11738486
1488,-0.16155967
1489,0.054004997
1490,-0.09416506
1491,0.019669583
1492,-0.017599719
1493,-0.010811574
1494,-0.08260929
1495,0.09478052
1496,-0.13520539
1497,0.030581634
1498,0.043670017
1499,0.14248239
1500,-0.07700591
1501,0.1487147
1502,-0.005516727
1503,-0.040610112
1504,0.038055718
1505,-0.037054952
1506,0.14890586
1507,-0.084441386
1508,-0.031473074
1509,-0.058197014
1510,-0.1290977
1511,0.11910393
1512,-0.032324474
1513,0.032066867
1514,-0.040697727
1515,-0.07352962
1516,-0.092627175
1517,0.06455032
1518,-0.076516986
1519,0.007786611
1520,0.0016474163
1521,-0.0819193
1522,0.12139259
1523,-0.03430715
1524,0.04069322
1525,-0.12196909
1526,0.034038488
1527,-0.09285835
1528,0.044723623
1529,-0.1007803
1530,-0.071857154
1531,0.042919707
1532,-0.07094781
1533,0.09596934
1534,0.016041478
1535,-0.13646488
1536,0.08080519
1537,-0.052235633
1538,0.07034565
1539,0.035352144
1540,0.1184606
1541,-0.26753178
1542,0.091480725
1543,0.10040962
1544,0.06634049
1545,-0.016199514
1546,0.002771768
1547,-0.004807772
1548,-0.040450502
1549,0.07703111
1550,0.08580825
1551,0.003612829
1552,-0.028614659
1553,-0.2533059
1554,-0.17280418
1555,0.0008439312
1556,-0.0070043947
1557,-0.08300439
1558,-0.003891662
1559,-0.008400946
1560,-0.05376961
1561,0.056776084
1562,0.12099217
1563,-0.12773214
1564,-0.12570326
1565,0.007914299
1566,0.102454126
1567,0.00409743
1568,-0.011429597
1569,-0.07912434
1570,0.028169995
1571,0.016055498
1572,-0.23757552
1573,0.018098678
1574,-0.042285636
1575,0.1249652
1576,-0.018038826
1577,0.04824245
1578,0.024474967
1579,0.03132172
1580,-0.004249112
1581,-0.020237645
1582,-0.013561545
1583,0.024462964
1584,0.043811973
1585,0.0068374434
1586,-0.018842665
1587,0.01565821
1588,-0.1676092
1589,0.08083113
1590,0.0022303509
1591,0.01634203
1592,0.054836337
1593,0.057437744
1594,-0.21071957
1595,0.020771336
1596,-0.032335635
1597,-0.04551508
1598,0.03228253
1599,-0.1890292
1600,-0.00062001497
1601,0.048485186
1602,0.023542833
1603,-0.031509444
1604,-0.021998284
1605,-0.06383733
1606,-0.21825287
1607,0.07691151
1608,-0.11809149
1609,0.07531044
1610,-0.0118213985
1611,-0.0171001
1612,-0.048415147
1613,0.025411034
1614,-0.00033787743
1615,-0.039411202
1616,-0.3670751
1617,0.10334391
1618,-0.08435077
1619,0.023979299
1620,0.038525976
1621,-0.026170572
1622,-0.16553046
1623,0.0028865412
1624,-0.01487557
1625,0.06419313
1626,0.04472673
1627,0.0018916671
1628,0.0058552837
1629,-0.035734165
1630,-0.012574876
1631,-0.0329567
1632,-0.017725572
1633,0.036077302
1634,-0.01777169
1635,-0.007100406
1636,0.03766252
1637,-0.01605893
1638,-0.00488265
1639,-0.027106844
1640,0.06284643
1641,0.028746895
1642,0.0048761633
1643,0.00067118724
1644,0.017767172
1645,-0.020898998
1646,-0.007640068
1647,0.03319628
1648,0.029262967
1649,-0.00013493032
1650,0.008803034
1651,-0.004939738
1652,-0.020919017
1653,0.022942916
1654,0.04013678
1655,0.069109574
1656,0.045478716
1657,3.6159094e-05
1658,0.071247965
1659,0.06797009
1660,-0.34215248
1661,0.0055185086
1662,0.045887023
1663,-0.065687336
1664,0.052202135
1665,-0.041379634
1666,-0.03555068
1667,-0.022034612
1668,-0.013520139
1669,0.018917784
1670,-0.07362483
1671,0.05995587
1672,-0.0071106013
1673,0.046499297
1674,0.012205646
1675,0.0141216535
1676,-0.102149785
1677,0.086415134
1678,-0.024646373
1679,-0.014263453
1680,0.046797164
1681,0.03837202
1682,0.028277596
1683,0.024436831
1684,-0.046343807
1685,-0.08681111
1686,0.007376054
1687,0.018792544
1688,-0.11266755
1689,0.044499993
1690,-0.00034862198
1691,-0.021695256
1692,0.06459001
1693,0.044913687
1694,-0.07198585
1695,0.078987174
1696,0.047469143
1697,-0.061563693
1698,-0.01987105
1699,0.016798684
1700,0.02302351
1701,0.079495706
1702,-0.003778962
1703,-0.030432835
1704,-0.062162574
1705,-0.03417989
1706,0.024535807
1707,0.015658572
1708,0.088257946
1709,-0.016086552
1710,-0.011658622
1711,0.056720518
1712,-0.003306955
1713,-0.010192999
1714,-0.05557886
1715,-0.024169486
1716,0.016089583
1717,0.001831018
1718,0.0052310345
1719,-0.004820826
1720,0.061696257
1721,0.0103479475
1722,0.021865299
1723,0.10579222
1724,0.010261448
1725,0.042507857
1726,0.047648374
1727,-0.0128154885
1728,0.04214806
1729,-0.008510294
1730,-0.0040893354
1731,-0.10398216
1732,0.043061037
1733,-0.0680742
1734,0.013891511
1735,-0.008547893
1736,-0.021413948
1737,-0.0019370902
1738,0.012182102
1739,-0.03922051
1740,-0.021825042
1741,-0.0030735824
1742,-0.0009353568
1743,-0.0005157472
1744,0.038097303
1745,0.06742652
1746,0.0119865555
1747,-0.058006074
1748,-0.06277089
1749,-0.04262803
1750,-0.018631952
1751,0.002815104
1752,0.016934766
1753,0.05172122
1754,-0.031030271
1755,-0.07093681
1756,0.023639493
1757,-0.041318
1758,0.03529611
1759,-0.0027357256
1760,-0.017071765
1761,-0.13699354
1762,0.030208135
1763,-0.028013945
1764,-0.006616246
1765,-0.029428944
1766,-0.12493847
1767,-0.01785024
1768,-0.06787646
1769,0.03512141
1770,-0.0692663
1771,0.010150425
1772,-0.013858062
1773,0.10633228
1774,0.014852283
1775,0.029569903
1776,-0.0092608165
1777,0.021532297
1778,-0.017405963
1779,0.016789204
1780,0.022077424
1781,-0.028250737
1782,0.0068256473
1783,-0.14537321
1784,0.09826736
1785,-0.096128374
1786,0.11648504
1787,-0.0344883
1788,0.041748226
1789,-0.036803853
1790,-0.058738843
1791,-0.011694556
1792,0.025977677
1793,-0.018399771
1794,-0.039177407
1795,-0.035941683
1796,-0.017498419
1797,-0.13913976
1798,0.016116902
1799,-0.012567942
1800,-0.009610831
1801,0.05990407
1802,-0.015282738
1803,0.030734587
1804,-0.077829674
1805,0.061676793
1806,-0.002557377
1807,-0.029684464
1808,-0.025466034
1809,-0.036511555
1810,-0.036707744
1811,-0.014621782
1812,-0.046695326
1813,-0.061958816
1814,-0.0037986434
1815,-0.013017737
1816,-0.09996206
1817,-0.06761656
1818,-0.007540685
1819,-0.1887691
1820,-0.039448474
1821,0.04820527
1822,-0.019539982
1823,-0.033119984
1824,0.020133361
1825,0.0015165001
1826,0.0029173337
1827,0.024395838
1828,-0.06139691
1829,0.0012918322
1830,-0.0049155834
1831,-0.013459798
1832,-0.033353653
1833,-0.004612231
1834,-0.002881829
1835,0.012415177
1836,-0.15930289
1837,-0.0072334316
1838,-0.009830202
1839,0.011587046
1840,-0.013811183
1841,0.029978944
1842,0.00016066135
1843,-0.06545172
1844,-0.070364706
1845,-0.1863625
1846,-0.004038723
1847,0.009723226
1848,0.02382806
1849,0.047979407
1850,-0.065861054
1851,0.02223575
1852,-0.14216907
1853,-0.03670191
1854,0.0066388366
1855,-0.08518238
1856,-0.0022811217
1857,-0.005468283
1858,0.015340982
1859,-0.06894324
1860,0.018922796
1861,0.020120665
1862,-0.12626584
1863,-0.04374754
1864,-0.04763495
1865,-0.011852893
1866,-0.000672003
1867,-0.07332348
1868,-0.010539003
1869,-0.028362758
1870,-0.0042578117
1871,-0.02299356
1872,-0.017260978
1873,0.024750946
1874,-0.021295987
1875,-0.07593812
1876,-0.052001216
1877,-0.011522535
1878,-0.08865154
1879,0.004621034
1880,0.0355166
1881,-0.007513708
1882,0.013030151
1883,-0.003475601
1884,0.0388012
1885,-0.039994866
1886,-0.0023927938
1887,-0.007978855
1888,-0.003794009
1889,-0.051274728
1890,0.047779396
1891,-0.05889638
1892,0.0019817343
1893,-0.01314979
1894,-0.08312273
1895,-0.009347466
1896,0.05180675
1897,0.004370018
1898,-0.012224781
1899,0.048556574
1900,-0.021806087
1901,0.05860941
1902,-0.03581767
1903,0.012387814
1904,0.006311568
1905,-0.027275851
1906,-0.023306584
1907,0.0012409969
1908,0.009474806
1909,-0.027371094
1910,0.013573845
1911,-0.056891307
1912,-0.03708062
1913,-0.036042724
1914,-0.0880108
1915,0.010964014
1916,-0.08282556
1917,0.059862223
1918,0.010552479
1919,-0.1718733
1920,0.030728286
1921,-0.030878628
1922,0.015266567
1923,0.03891418
1924,-0.023218436
1925,0.006593496
1926,0.03428418
1927,-0.10843773
1928,0.06785513
1929,-0.02344706
1930,-0.016933827
1931,-0.01968782
1932,-0.0194174
1933,0.017828295
1934,-0.049304053
1935,-0.027910706
1936,0.022160355
1937,-0.017300876
1938,0.025346167
1939,-0.014929211
1940,-0.073128305
1941,-0.023111522
1942,0.008937221
1943,0.026506774
1944,-0.035819363
1945,-0.062344808
1946,-0.031935927
1947,0.011250957
1948,0.037181053
1949,0.0129126245
1950,0.029478796
1951,0.075817384
1952,0.0061241407
1953,-0.056703594
1954,-0.012730346
1955,-0.014173038
1956,0.019126823
1957,0.007991909
1958,-0.05343479
1959,-0.026724584
1960,-0.005992718
1961,-0.057452768
1962,-0.020450328
1963,-0.0047129127
1964,-0.008591167
1965,0.0033496395
1966,0.0064738966
1967,-0.05070055
1968,-0.023462866
1969,-0.05302581
1970,-0.0094006
1971,-0.01854547
1972,-0.051991623
1973,-0.14210252
1974,-0.026460828
1975,-0.004148329
1976,0.0030650059
1977,-0.03856015
1978,-0.020081146
1979,-0.026919864
1980,0.008744736
1981,0.0091717765
1982,-0.08813439
1983,-0.02813112
1984,-0.10050486
1985,-0.022136765
1986,-0.0071684457
1987,-0.04821449
1988,-0.02774936
1989,-0.024154777
1990,-0.017563118
1991,0.047681652
1992,-0.004549388
1993,-0.024825647
1994,-0.063677415
1995,-0.048345853
1996,0.0065952446
1997,-0.04705464
1998,-0.0177172
1999,0.040946614
2000,0.023303794
2001,0.009829612
2002,0.010817241
2003,-0.1604205
2004,-0.0043146564
2005,-0.015724193
2006,0.016138172
2007,-0.041811522
2008,0.009412027
2009,0.024851257
2010,0.010791033
2011,-0.035255052
2012,-0.024280779
2013,-0.020709544
2014,-0.0106486445
2015,-0.06578404
2016,-0.059517846
2017,-0.03585043
2018,0.101761475
2019,-0.012518156
2020,-0.04512803
2021,-0.093353376
2022,0.007481862
2023,-0.053372316
2024,0.011371112
2025,-0.13173442
2026,-0.03771482
2027,0.004468971
2028,-0.005698609
2029,0.040784642
2030,-0.054749392
2031,-0.11541204
2032,0.008827624
2033,-0.078511536
2034,-0.008254292
2035,-0.015250904
2036,-0.019522373
2037,-0.02298823
2038,0.028530046
2039,0.08644107
2040,0.068955146
2041,0.009665039
2042,0.06137987
2043,-0.0052984506
2044,-0.0064029437
2045,-0.026386833
2046,0.0060320958
2047,-0.05621285
2048,0.06158881
2049,0.02373025
2050,0.10864828
2051,-0.020172084
2052,-0.026088335
2053,-0.083887406
2054,0.06397967
2055,0.056038152
2056,0.010406774
2057,0.0031259952
2058,0.10839008
2059,-0.005616844
2060,-0.13642058
2061,0.052956365
2062,0.08697583
2063,-0.0098413145
2064,-0.02883888
2065,-0.1132471
2066,-0.114759915
2067,0.01371697
2068,-0.05450682
2069,-0.07509637
2070,0.004308039
2071,0.030448347
2072,-0.12321495
2073,0.062498152
2074,-0.01565081
2075,-0.15024674
2076,-0.3027962
2077,0.014489807
2078,0.09831342
2079,-0.04510627
2080,0.02379644
2081,-0.01743211
2082,0.02056458
2083,0.009266508
2084,-0.101083614
2085,0.053548075
2086,0.070832126
2087,-0.023885263
2088,-0.027477564
2089,0.011761325
2090,0.05045534
2091,-0.0064187534
2092,-0.10926308
2093,0.08230789
2094,0.0016164487
2095,0.034205582
2096,0.015200861
2097,-0.006728355
2098,-0.023432167
2099,0.009913858
2100,-0.1024978
2101,-0.05876443
2102,-0.008204642
2103,0.0365477
2104,0.05500994
2105,0.05725651
2106,-0.0850381
2107,0.07997263
2108,0.034647286
2109,-0.06614352
2110,0.02381948
2111,-0.07672959
2112,0.0190448
2113,-0.003266813
2114,0.044966985
2115,-0.11110437
2116,-0.051568426
2117,0.18686196
2118,-0.05234501
2119,-0.045101386
2120,-0.08389929
2121,0.0025661292
2122,0.013700071
2123,-0.06676175
2124,0.023141367
2125,-0.05327709
2126,0.0052500814
2127,0.002707169
2128,-0.34540412
2129,0.13138047
2130,-0.11639589
2131,-0.021495841
2132,-0.025052404
2133,-0.06798609
2134,-0.06350498
2135,0.0041735065
2136,-0.018620789
2137,0.0070795575
2138,-0.002485607
2139,0.051906373
2140,0.009675024
2141,0.012905217
2142,-0.03318184
2143,0.0021065155
2144,-0.013829259
2145,0.07063301
2146,-0.0066493643
2147,0.0012075502
2148,-0.07574212
2149,-0.02274153
2150,-0.14663951
2151,0.076609485
2152,0.069610804
2153,0.01698118
2154,-0.029963464
2155,-0.007222292
2156,-0.040655255
2157,0.0037271546
2158,-0.027827376
2159,0.012682808
2160,-0.03394363
2161,0.01406908
2162,0.015944216
2163,0.003156655
2164,0.022465492
2165,0.0070898044
2166,-0.035961173
2167,-0.08147505
2168,0.0063058087
2169,-0.035154007
2170,-0.0024812517
2171,-0.04438537
2172,-0.047716245
2173,0.075246036
2174,0.053849664
2175,-0.009913484
2176,0.05188257
2177,-0.084591985
2178,-0.06611587
2179,-0.10268178
2180,-0.030128239
2181,0.00928089
2182,-0.07187821
2183,0.08634476
2184,-0.035070665
2185,-0.098694846
2186,-0.0016765485
2187,-0.034639973
2188,-0.11677523
2189,-0.046712592
2190,-0.08223592
2191,-0.029125331
2192,0.022974897
2193,0.05316297
2194,0.0046990244
2195,0.04796155
2196,-0.058187608
2197,-0.11889427
2198,0.008694161
2199,0.039492168
2200,-0.12541322
2201,0.048280407
2202,-0.02391567
2203,-0.013648972
2204,0.11095435
2205,0.0011534654
2206,-0.0488037
2207,0.07416202
2208,0.024169497
2209,-0.008565694
2210,-0.11064183
2211,-0.14353387
2212,0.06945027
2213,0.031310648
2214,-0.037110914
2215,-0.024779305
2216,-0.10919778
2217,-0.027487312
2218,-0.07807944
2219,-0.11547262
2220,-0.07970285
2221,-0.0011616554
2222,-0.014258943
2223,0.057869118
2224,-0.019598711
2225,-0.032247398
2226,-0.011659945
2227,-0.028918158
2228,0.042120766
2229,0.075676754
2230,0.0032055166
2231,-0.10172696
2232,-0.06440946
2233,-0.0836527
2234,0.07052082
2235,0.08408839
2236,0.008344724
2237,0.011737446
2238,-0.02996753
2239,-0.020295499
2240,-0.07621795
2241,-0.0019425731
2242,0.026779925
2243,-0.0923345
2244,0.033420797
2245,-0.044930525
2246,-0.0095605105
2247,-0.08660874
2248,-0.0007261883
2249,-0.03724344
2250,-0.050528795
2251,0.011918405
2252,-0.09441121
2253,-0.051403087
2254,-0.005990656
2255,-0.041702256
2256,0.058937103
2257,-0.022534246
2258,-0.044786137
2259,-0.09872805
2260,-0.00041805702
2261,-0.06804865
2262,0.003308344
2263,-0.0073327343
2264,-0.0036434147
2265,-0.074949935
2266,0.0039326064
2267,-0.028269371
2268,-0.12246077
2269,-0.0060005817
2270,0.10283204
2271,0.050955772
2272,-0.045457434
2273,-0.16873387
2274,-0.09892631
2275,-0.07738071
2276,-0.009706648
2277,-0.05193251
2278,-0.12973
2279,-0.02381145
2280,-0.09787087
2281,-0.020813884
2282,-0.10195683
2283,0.0028758335
2284,-0.13185577
2285,0.062472325
2286,-0.09150175
2287,-0.0014666962
2288,-0.0019817934
2289,0.00725725
2290,-0.01800077
2291,-0.14044228
2292,-0.054009993
2293,-0.052035134
2294,0.034691658
2295,-0.06955555
2296,-0.056283258
2297,-0.079719774
2298,-0.21547703
2299,0.01085913
2300,0.022698525
2301,-0.0020894865
2302,-0.047225744
2303,0.04960593
2304,0.03497923
2305,0.027103437
2306,0.07253932
2307,0.07156724
2308,0.0044032596
2309,-0.033430874
2310,0.005511109
2311,0.04930258
2312,0.04120372
2313,0.047723435
2314,0.02042472
2315,0.019490717
2316,-0.070629545
2317,0.124960154
2318,0.08279884
2319,-0.035928406
2320,0.03398818
2321,0.010273555
2322,0.038562313
2323,-0.015485833
2324,-0.10526254
2325,-0.055813696
2326,-0.006690117
2327,-0.023561614
2328,-0.09966698
2329,0.0507527
2330,-0.008230066
2331,-0.07968426
2332,-0.14389318
2333,-0.022946572
2334,-0.02054171
2335,-0.041540217
2336,-0.028464723
2337,0.037438378
2338,0.031438507
2339,0.05522084
2340,-0.010635161
2341,0.093415804
2342,0.0030142404
2343,-0.040217936
2344,-0.058614783
2345,-0.008603608
2346,0.067539014
2347,-0.040745918
2348,-0.10092529
2349,0.0070378557
2350,-0.0051338696
2351,0.020599907
2352,-0.034675103
2353,0.009095224
2354,-0.01319895
2355,0.06643353
2356,0.07428112
2357,-0.00096566556
2358,-0.029813025
2359,0.07384471
2360,0.12242562
2361,0.011490348
2362,-0.0022029337
2363,0.08228557
2364,0.011955276
2365,0.00022433588
2366,0.0464166
2367,-0.054675978
2368,0.043223668
2369,-0.015018128
2370,-0.024192113
2371,-0.062155493
2372,-0.013234367
2373,0.0028998037
2374,-0.031693432
2375,0.050343104
2376,-0.014477119
2377,-0.010638792
2378,-0.02546026
2379,-0.11114702
2380,-0.0010613204
2381,-0.059713952
2382,-0.022499384
2383,-0.004787384
2384,-0.10404158
2385,0.11259629
2386,-0.02749182
2387,-0.0872367
2388,0.039205212
2389,-0.032288305
2390,-0.08646713
2391,-0.026280474
2392,0.061862126
2393,0.028213155
2394,0.004143421
2395,-0.048147865
2396,0.064910635
2397,-0.042822808
2398,-0.072271414
2399,0.03373073
2400,0.061740015
2401,0.06056162
2402,0.022691436
2403,0.07777863
2404,-0.058096863
2405,-0.032548446
2406,-0.061938833
2407,0.010107388
2408,0.056341648
2409,0.04093389
2410,-0.023529897
2411,0.052912496
2412,0.09406579
2413,0.021285813
2414,0.08745145
2415,0.059323158
2416,0.010843302
2417,0.046868302
2418,-0.024368813
2419,0.050585087
2420,0.008035248
2421,0.0780364
2422,0.024194814
2423,0.049537715
2424,-0.024597334
2425,0.08027629
2426,-0.024728589
2427,0.0071117324
2428,-0.16005291
2429,-0.1048338
2430,0.022842307
2431,0.029611167
2432,-0.01597588
2433,0.09076814
2434,-0.20153876
2435,0.076075956
2436,-0.007364233
2437,0.015243568
2438,0.14776707
2439,-0.018916458
2440,0.09909654
2441,0.003415731
2442,0.05723599
2443,-0.028976075
2444,-0.020179093
2445,-0.040010702
2446,-0.054095946
2447,0.07049137
2448,0.15559798
2449,-0.047321197
2450,0.032846153
2451,0.063329615
2452,-0.012206673
2453,-0.032096412
2454,-0.0065780054
2455,0.16443439
2456,-0.022366473
2457,-0.08869983
2458,0.008955795
2459,-0.03676495
2460,-0.006202901
2461,0.15485378
2462,-0.10436214
2463,0.050309587
2464,-0.052577347
2465,-0.062006813
2466,-0.16017672
2467,0.03215078
2468,-0.021259835
2469,-0.09906117
2470,0.14429623
2471,0.0023680036
2472,-0.004597275
2473,0.048758294
2474,-0.07105985
2475,0.026695268
2476,0.03311901
2477,0.14205454
2478,0.0017331357
2479,0.0464726
2480,0.00035007633
2481,0.01859958
2482,-0.041314453
2483,-0.02935373
2484,-0.015211648
2485,0.11364154
2486,-0.042263072
2487,0.006322434
2488,-0.014354752
2489,0.010838173
2490,-0.027163286
2491,-0.020325663
2492,-0.2125771
2493,0.032680348
2494,-0.09258435
2495,-0.06707188
2496,-0.03220825
2497,-0.017296392
2498,0.16693422
2499,-0.0149597
2500,0.098497316
2501,0.0013701897
2502,-0.07947766
2503,0.096666664
2504,-0.05952251
2505,-0.00678172
2506,0.13951513
2507,0.035282813
2508,0.10190802
2509,-0.054681484
2510,-0.021706186
2511,0.039057806
2512,0.003397846
2513,0.016349355
2514,-0.006919975
2515,-0.05289889
2516,0.07065206
2517,-0.01583765
2518,-0.057656717
2519,0.15953696
2520,-0.029787619
2521,0.13585176
2522,0.05454714
2523,0.12470058
2524,0.030159565
2525,0.04463968
2526,0.052802578
2527,0.13775848
2528,-0.120935805
2529,0.03105576
2530,0.06839877
2531,0.0005902375
2532,0.0064958627
2533,-0.021916902
2534,0.019357648
2535,0.1470532
2536,-0.0540757
2537,-0.11455712
2538,0.0066569163
2539,-0.006921374
2540,0.04770573
2541,-0.08283474
2542,-0.007915232
2543,-0.11516431
2544,0.0010895868
2545,-0.060975287
2546,0.07880935
2547,0.04693803
2548,0.08766924
2549,-0.00052571093
2550,0.056421015
2551,0.109927095
2552,0.12582877
2553,0.04286445
2554,0.086424865
2555,0.029617945
2556,-0.0338331
2557,0.14993207
2558,0.06272202
2559,-0.028063795
2560,0.01866369
2561,-0.0512492
2562,-0.06828936
2563,-0.06848424
2564,-0.14540069
2565,0.023937488
2566,-0.16187233
2567,-0.04640707
2568,-0.0055699507
2569,0.019040573
2570,-0.06495273
2571,-0.007468141
2572,0.012428636
2573,0.04126722
2574,-0.027759973
2575,-0.04250633
2576,-0.018309388
2577,0.048078474
2578,0.022727646
2579,-0.0070393463
2580,-0.0024995988
2581,0.012560434
2582,0.0017863163
2583,-0.0127803795
2584,-0.0012919307
2585,-0.016649157
2586,-0.020083131
2587,-0.03235475
2588,0.043831665
2589,-0.002214
2590,-0.15824251
2591,0.058052856
2592,-0.025185559
2593,-0.026141655
2594,-0.08353594
2595,0.014622886
2596,0.06789714
2597,0.05028612
2598,-0.016921066
2599,-0.03162263
2600,0.000113894945
2601,-0.112630315
2602,-0.011462911
2603,-0.03118576
2604,0.012285061
2605,-0.059510145
2606,-0.012360876
2607,-0.053593352
2608,-0.06463938
2609,-0.040339004
2610,-0.028811462
2611,-0.014591314
2612,0.023666468
2613,-0.026419256
2614,-0.029405717
2615,0.006779833
2616,-0.016899638
2617,-0.053346362
2618,0.04177213
2619,0.03176345
2620,-0.021816518
2621,-0.014962267
2622,0.031278502
2623,0.061858106
2624,0.048571058
2625,-0.07387361
2626,0.0066398787
2627,0.040497087
2628,-0.013352729
2629,0.018475695
2630,0.031605143
2631,-0.07919657
2632,-0.02400828
2633,-0.06869095
2634,-0.014781555
2635,-0.03896747
2636,-0.020167047
2637,-0.10095747
2638,5.2109404e-05
2639,-0.17878655
2640,0.06849922
2641,-0.023323173
2642,0.008947357
2643,0.013478589
2644,-0.05862819
2645,0.03402499
2646,0.06289207
2647,0.0060437913
2648,-0.025552165
2649,-0.042048912
2650,-0.08542897
2651,-0.058508076
2652,-0.0017777161
2653,-0.09399374
2654,0.034691714
2655,-0.2711575
2656,0.07132743
2657,0.0056159324
2658,-0.0046358905
2659,-0.03598035
2660,-0.010877912
2661,-0.020482749
2662,0.024137007
2663,-0.012083072
2664,-0.01492439
2665,0.049394272
2666,0.030341415
2667,-0.019424153
2668,-0.06845508
2669,0.058002453
2670,0.038320232
2671,0.029232716
2672,-0.009817106
2673,-0.012070777
2674,-0.030514872
2675,0.00039082096
2676,-0.025271721
2677,0.021618651
2678,-0.0122856945
2679,-0.0049035903
2680,-0.033336323
2681,-0.11440837
2682,-0.034018483
2683,-0.036299985
2684,0.048961654
2685,-0.034303024
2686,-0.034988716
2687,-0.01961424
2688,0.009636657
2689,-0.031108279
2690,-0.038275987
2691,-0.034228913
2692,-0.023142299
2693,-0.005113935
2694,0.02929065
2695,-0.00815112
2696,0.018304842
2697,-0.09731586
2698,0.027559703
2699,-0.00440309
2700,-0.04794283
2701,-0.037319705
2702,-0.021360219
2703,-0.0036007415
2704,-0.08987501
2705,0.021553215
2706,0.038810015
2707,-0.05432381
2708,-0.04751176
2709,-0.034765337
2710,-0.015620565
2711,-0.004216995
2712,-0.030322056
2713,-0.00093632296
2714,-0.01998165
2715,-0.030698923
2716,-0.12434872
2717,-0.063532166
2718,0.015594151
2719,-0.112607814
2720,-0.15727365
2721,0.008978925
2722,0.024857558
2723,-0.17537661
2724,0.00906697
2725,-0.07380894
2726,0.034453638
2727,-0.006889916
2728,-0.03622251
2729,0.008067557
2730,-0.030614678
2731,0.056828022
2732,0.0873354
2733,0.073395796
2734,-0.006684292
2735,-0.05573873
2736,-0.011974316
2737,-0.036811493
2738,0.0024791395
2739,-0.09899241
2740,0.029623413
2741,0.028978048
2742,-0.019413887
2743,-0.23104252
2744,0.054678913
2745,-0.010579572
2746,0.0042672106
2747,0.028040998
2748,-0.005625142
2749,-0.19754575
2750,0.014336438
2751,0.029393522
2752,0.0146896485
2753,-0.024881823
2754,0.03946044
2755,-0.06442609
2756,-0.11740157
2757,0.0022348536
2758,0.052629918
2759,0.046998583
2760,0.002458681
2761,-0.010182191
2762,0.017105186
2763,0.02840804
2764,0.005419801
2765,-0.04620214
2766,-0.01035835
2767,-0.008741056
2768,-0.18025662
2769,0.036034204
2770,-0.0880228
2771,-0.048616774
2772,0.010820203
2773,-0.055601317
2774,0.06470009
2775,0.01537463
2776,-0.16466986
2777,0.04872139
2778,0.010191052
2779,0.022962429
2780,-0.1445595
2781,-0.01130162
2782,-0.10230057
2783,-0.03833416
2784,-0.04501451
2785,-0.011792704
2786,0.05131706
2787,-0.09658811
2788,-0.0903509
2789,-0.046326626
2790,-0.028160857
2791,0.032171126
2792,-0.006546789
2793,-0.020112881
2794,-0.078044415
2795,-0.09444305
2796,-0.07463885
2797,0.08729924
2798,-0.031831652
2799,0.011320413
2800,0.012904854
2801,0.017893394
2802,0.010718103
2803,-0.10560571
2804,-0.009220338
2805,-0.07543181
2806,-0.0057993536
2807,-0.015754089
2808,0.046055086
2809,-0.048532832
2810,0.113078184
2811,0.010400199
2812,-0.0039428174
2813,0.06727934
2814,-0.033217773
2815,-0.04154712
2816,0.044426583
2817,0.013377822
2818,-0.059699595
2819,-0.061991517
2820,-0.026221126
2821,-0.15869425
2822,-0.051550705
2823,-0.003390923
2824,-0.036592096
2825,-0.01822701
2826,0.09279197
2827,-0.04061683
2828,-0.08421984
2829,0.060318697
2830,-0.017732244
2831,-0.055660207
2832,0.02901894
2833,-0.004699908
2834,-0.045584455
2835,0.06027091
2836,-0.041367523
2837,-0.094335414
2838,-0.0059673646
2839,0.014173091
2840,-0.05510398
2841,0.047954388
2842,-0.016723787
2843,-0.0512854
2844,-0.17101493
2845,0.037504468
2846,0.020773925
2847,-0.06877681
2848,-0.005421062
2849,0.0136542795
2850,-0.06267391
2851,0.0030825
2852,-0.106965125
2853,0.062153634
2854,0.060899425
2855,-0.026800996
2856,-0.017567242
2857,0.0065211044
2858,-0.14117801
2859,0.11348499
2860,0.08262448
2861,0.12604752
2862,0.002319143
2863,0.05748618
2864,-0.012386078
2865,-0.04029023
2866,0.019864729
2867,0.028827118
2868,-0.14715497
2869,0.012459704
2870,0.0060378443
2871,0.009103459
2872,0.0034911432
2873,-0.24312156
2874,-0.1066947
2875,-0.011732189
2876,0.039258704
2877,-0.19238833
2878,0.058023155
2879,-0.17629366
2880,0.04113223
2881,-0.036031414
2882,-0.0049737203
2883,-0.06948694
2884,0.0011420822
2885,-0.06185884
2886,-0.11303446
2887,-0.058944333
2888,-0.1559034
2889,-0.01497766
2890,-0.011310058
2891,-0.028993009
2892,0.046595525
2893,-0.04182606
2894,0.004686496
2895,0.057066955
2896,-0.15601704
2897,0.020980433
2898,-0.10294067
2899,0.13227992
2900,-0.016292883
2901,-0.024324413
2902,-0.14336613
2903,0.017574083
2904,-0.03260753
2905,0.110808246
2906,0.011243941
2907,0.13275315
2908,-0.016835427
2909,0.09178261
2910,0.0040906873
2911,0.031790096
2912,0.041000657
2913,-0.101806425
2914,0.065544754
2915,9.898651e-05
2916,-0.03040039
2917,-0.05363478
2918,-0.108547516
2919,0.081235185
2920,-0.039785307
2921,0.035654925
2922,-0.034907766
2923,-0.06636377
2924,-0.06145246
2925,-0.050224543
2926,-0.023398204
2927,0.042175148
2928,0.019693663
2929,-0.04776879
2930,-0.038584128
2931,-0.009349137
2932,0.02961079
2933,-0.0071438467
2934,0.043897483
2935,-0.15978548
2936,0.039833985
2937,-0.102824
2938,0.056545988
2939,0.015600951
2940,-0.31269908
2941,0.07288803
2942,0.03418127
2943,-0.08397086
2944,0.021962846
2945,-0.08204295
2946,-0.0271895
2947,-0.006066295
2948,-0.036784198
2949,-0.05828424
2950,-0.06586107
2951,-0.10202946
2952,0.0047615175
2953,0.065850735
2954,0.0073900307
2955,0.0025307108
2956,-0.046871267
2957,0.039365217
2958,-0.046583876
2959,0.0072562806
2960,-0.01620982
2961,0.00038846064
2962,-0.005982286
2963,0.020584563
2964,0.011471827
2965,-0.01184342
2966,-0.0035780268
2967,-0.01905561
2968,-0.03762123
2969,-0.0014435839
2970,-0.09104149
2971,-0.12427378
2972,-0.018738706
2973,-0.032113474
2974,-0.1123027
2975,-0.0077182446
2976,-0.06782186
2977,-0.054634858
2978,0.020615527
2979,0.060564343
2980,0.026585806
2981,0.0040945974
2982,-0.05759809
2983,-0.07522212
2984,-0.009826789
2985,-0.025313035
2986,-0.014926935
2987,-0.03661103
2988,-0.015238585
2989,-0.011513654
2990,-0.012159699
2991,-0.043960318
2992,-0.056333862
2993,0.0039467514
2994,-0.012219077
2995,-0.048697945
2996,-0.10509417
2997,-0.07819068
2998,-0.010633443
2999,0.04195665
3000,-0.008568226
3001,0.010518499
3002,-0.040804636
3003,0.032469746
3004,-0.06509084
3005,-0.020894706
3006,-0.0070459154
3007,0.0051251296
3008,-0.05202149
3009,-0.00028080988
3010,-0.03342995
3011,-0.012360305
3012,-0.028633747
3013,-0.07455586
3014,0.015742429
3015,0.006624056
3016,0.009315859
3017,-0.07049089
3018,-0.0038484277
3019,-0.014455358
3020,0.054062378
3021,-0.082603075
3022,-0.007753856
3023,-0.14793278
3024,-0.017460851
3025,-0.008920133
3026,-0.086320445
3027,0.013704546
3028,0.004556029
3029,-0.0180353
3030,0.026977982
3031,0.03795108
3032,-0.12563741
3033,0.0074482453
3034,0.00687179
3035,-0.04013511
3036,0.063377224
3037,-0.02499463
3038,0.027876444
3039,-0.10411272
3040,0.23169266
3041,0.070546605
3042,-0.02107829
3043,-0.053836
3044,-0.038609967
3045,0.0022766879
3046,-0.037686896
3047,-0.03762122
3048,-0.015901394
3049,-0.025394637
3050,0.013775272
3051,-0.063925035
3052,-0.091722794
3053,0.075713605
3054,-0.05007318
3055,-0.016908342
3056,-0.031234927
3057,-0.04451059
3058,0.014185425
3059,0.008816997
3060,-0.03235733
3061,-0.06448496
3062,-0.006713411
3063,-0.08290418
3064,-0.006313429
3065,-0.09393343
3066,0.016366111
3067,-0.046451613
3068,0.0011112017
3069,-0.035608627
3070,-0.035568826
3071,-0.043790344
3072,0.020081842
3073,-0.04894261
3074,-0.04669938
3075,-0.07346691
3076,0.018329347
3077,-0.07821268
3078,-0.10769527
3079,-0.0035243777
3080,-0.02009297
3081,0.05521285
3082,0.031199353
3083,-0.005050742
3084,-0.00015327855
3085,0.055792294
3086,-0.028451877
3087,0.05157736
3088,-0.017436037
3089,-0.063566245
3090,0.013450954
3091,0.02233062
3092,-0.0255609
3093,-0.01472843
3094,-0.0080200415
3095,0.02376543
3096,-0.035532296
3097,0.030118726
3098,-0.0013043074
3099,-0.09793006
3100,-0.043857563
3101,0.029400539
3102,-0.121020064
3103,0.009245926
3104,0.037067812
3105,0.018277379
3106,-0.16010413
3107,-0.0048445063
3108,-0.040243197
3109,-0.016448041
3110,0.09966438
3111,0.0028177013
3112,-0.020575281
3113,-0.0795229
3114,0.07366681
3115,0.008290132
3116,0.004449824
3117,0.047274407
3118,0.0055500646
3119,0.0024459367
3120,-0.018518975
3121,-0.010328913
3122,0.021452045
3123,-0.03475601
3124,-0.0013514344
3125,0.0017005485
3126,-0.019226385
3127,-0.010186227
3128,0.0012804964
3129,0.053125422
3130,-0.013515453
3131,0.041301686
3132,0.07023144
3133,0.024157463
3134,0.0017696694
3135,0.0062667783
3136,0.010684752
3137,0.029345606
3138,0.027710853
3139,-0.019504704
3140,-0.007879064
3141,0.0061198855
3142,-0.011565033
3143,-0.13121064
3144,-0.052336466
3145,-0.012097678
3146,0.06565267
3147,0.0840623
3148,0.012607961
3149,-0.015245204
3150,-0.008742022
3151,0.09742163
3152,-0.06499028
3153,0.07334069
3154,0.02170033
3155,0.013990533
3156,-0.19301665
3157,-0.012701337
3158,0.022688376
3159,0.044062275
3160,0.005689804
3161,0.05159068
3162,-0.08322655
3163,0.09800328
3164,0.022358067
3165,0.059231672
3166,0.01902707
3167,-0.015033246
3168,0.03502494
3169,0.049898017
3170,-0.081138305
3171,-0.062395766
3172,-0.013348729
3173,-0.037029743
3174,0.015741928
3175,0.09624875
3176,0.06465748
3177,0.00516489
3178,-0.0010776757
3179,0.015327163
3180,-0.071582556
3181,0.05299982
3182,-0.013471545
3183,0.026270539
3184,-0.058389064
3185,0.06645127
3186,0.049837418
3187,-0.005440458
3188,-0.0049975365
3189,-0.010838359
3190,-0.08710718
3191,-0.1450195
3192,-0.07672562
3193,-0.1623126
3194,-0.033535894
3195,0.004140921
3196,-0.007898346
3197,0.1001066
3198,-0.07259366
3199,-0.056310583
3200,-0.025634695
3201,0.2381596
3202,0.21419652
3203,-0.06939803
3204,-0.09816495
3205,-0.032664075
3206,-0.01914609
3207,-0.034293596
3208,0.0042208736
3209,-0.092632726
3210,0.060576297
3211,-0.030900104
3212,0.053816583
3213,-0.03600539
3214,0.09847321
3215,0.15059187
3216,-0.045752764
3217,0.03268313
3218,-0.15977
3219,0.06917481
3220,-0.06578509
3221,0.05157425
3222,-0.0047048633
3223,0.041694354
3224,-0.062247247
3225,-0.014790487
3226,-0.104803585
3227,-0.040163483
3228,-0.10343159
3229,0.062163454
3230,0.23204447
3231,0.03566698
3232,-0.020157494
3233,0.029390594
3234,0.11892281
3235,-0.15346773
3236,-0.043029472
3237,-0.051232807
3238,0.14681031
3239,-0.06766261
3240,0.008833345
3241,0.18633291
3242,0.01655154
3243,0.08591184
3244,0.010128645
3245,0.12831633
3246,-0.008098331
3247,-0.033465557
3248,-0.02372416
3249,-0.057470463
3250,0.021908779
3251,-0.1090075
3252,-0.024513748
3253,0.1612285
3254,-0.00018768043
3255,-0.16062184
3256,-0.042677328
3257,0.15506959
3258,-0.0448987
3259,-0.04210316
3260,0.10952843
3261,-0.1919105
3262,-0.010845818
3263,0.00017939061
3264,-0.0048741587
3265,0.0054981774
3266,0.058421537
3267,0.020259207
3268,0.044025913
3269,-0.039896708
3270,0.028202886
3271,-0.05480163
3272,-0.037003346
3273,-0.06708677
3274,0.12318966
3275,0.18033876
3276,0.07002948
3277,0.18385431
3278,-0.010430945
3279,0.17590365
3280,-0.24206407
3281,0.059083253
3282,-0.021421798
3283,-0.13470118
3284,0.13027894
3285,-0.025981896
3286,-0.003206678
3287,0.08886257
3288,-0.017020104
3289,0.061769117
3290,0.1153861
3291,0.15516299
3292,-0.10848721
3293,0.22349937
3294,0.023789683
3295,0.119238496
3296,0.077174395
3297,0.06802966
3298,0.14383087
3299,-0.10725286
3300,-0.028767457
3301,0.0024095767
3302,0.017283536
3303,0.14623305
3304,0.08329956
3305,0.012010098
3306,-0.030170167
3307,-0.0019539038
3308,-0.08251211
3309,0.029185928
3310,-0.04023315
3311,-0.021962184
3312,0.11292915
3313,-0.08805841
3314,0.1289377
3315,-0.06524294
3316,0.027929885
3317,-0.074000314
3318,0.13324904
3319,0.10888612
3320,0.060282458
3321,-0.11629428
3322,-0.011071851
3323,0.14462322
3324,-0.06732968
3325,0.13104156
3326,0.13686684
3327,-0.24672733
3328,0.005250638
3329,-0.060339186
3330,0.03933451
3331,-0.007838244
3332,-0.0176266
3333,0.040634036
3334,-0.010969776
3335,-0.0053640767
3336,-0.008322374
3337,-0.009877068
3338,0.03403994
3339,0.010602456
3340,-0.024702307
3341,-0.012757647
3342,0.008174032
3343,0.056314047
3344,-0.01507104
3345,-0.024415627
3346,-0.00010976993
3347,0.001271032
3348,-0.017708935
3349,-0.035720162
3350,-0.0054441094
3351,-0.0076178643
3352,-0.029742634
3353,0.037436027
3354,-0.025350392
3355,-0.041463714
3356,0.009015738
3357,-0.04367535
3358,-0.0089053735
3359,-0.13476409
3360,-0.6117438
3361,0.0009026224
3362,0.016350187
3363,-0.010113018
3364,0.013313794
3365,0.024392163
3366,0.14609618
3367,-0.046719864
3368,-0.036987692
3369,-0.05951612
3370,0.0043339143
3371,0.0013506933
3372,-0.0025633115
3373,0.1063639
3374,-0.0050164405
3375,0.0021800261
3376,-0.0072117643
3377,-0.09995263
3378,0.009635406
3379,0.0032445297
3380,0.020821776
3381,0.010272435
3382,0.0071239043
3383,-0.018908365
3384,-0.09959796
3385,-0.026048746
3386,0.01466257
3387,0.053589873
3388,0.04515922
3389,-0.16697823
3390,-0.027168235
3391,0.042057272
3392,0.046988357
3393,-0.045932416
3394,0.00016543694
3395,-0.016619356
3396,-0.23283082
3397,0.04106888
3398,0.0011031383
3399,0.012905925
3400,0.027183818
3401,-0.029080125
3402,0.103795886
3403,0.061956342
3404,-0.011132536
3405,-0.036387578
3406,-0.008282284
3407,0.0534682
3408,-0.06784239
3409,-0.038280893
3410,-0.06730323
3411,0.016067734
3412,0.0105179055
3413,0.027311
3414,0.06727617
3415,0.036120836
3416,-0.5529546
3417,-0.0019998595
3418,-0.0046693003
3419,0.024223115
3420,-0.019495124
3421,0.08745894
3422,-0.16826561
3423,-0.048109625
3424,-0.034136046
3425,0.042726733
3426,-0.039983705
3427,-0.004811681
3428,-0.03861399
3429,-0.006919987
3430,-0.064069465
3431,0.13454528
3432,0.016330833
3433,-0.026966264
3434,0.008418433
3435,-0.5178595
3436,-0.023063252
3437,0.0064760647
3438,0.11625963
3439,-0.049824115
3440,-0.018352937
3441,0.0686181
3442,0.051231425
3443,0.0009134984
3444,0.015581165
3445,0.010546639
3446,0.0014876673
3447,-0.01696739
3448,0.01932543
3449,0.008911233
3450,0.05400725
3451,-0.03642932
3452,0.047035478
3453,0.06459628
3454,-0.004965901
3455,0.005351163
3456,0.030945117
3457,-0.026567025
3458,-0.08407104
3459,-0.067583255
3460,-0.035928752
3461,-0.017519398
3462,-0.1585424
3463,0.037376862
3464,-0.023482168
3465,0.032071374
3466,-0.055800304
3467,-0.028638251
3468,0.05494729
3469,0.0328583
3470,-0.007028892
3471,-0.0090796575
3472,-0.050430864
3473,0.055934504
3474,0.055659488
3475,-0.011345102
3476,0.019270826
3477,0.030900076
3478,-0.015692338
3479,0.015346485
3480,0.03140091
3481,0.029920528
3482,0.004806509
3483,-0.0021437597
3484,0.0030138788
3485,0.015939228
3486,-0.0990803
3487,0.03233185
3488,-0.034256283
3489,-0.036671426
3490,-0.09431819
3491,-0.013997739
3492,0.049464736
3493,0.046409607
3494,-0.060960367
3495,-0.0013557158
3496,0.04244838
3497,-0.33739543
3498,0.00050536555
3499,-0.03668554
3500,-0.042409524
3501,-0.06647344
3502,0.006252963
3503,0.02431925
3504,-0.020991553
3505,-0.032385696
3506,-0.04584822
3507,-0.018781729
3508,0.08246899
3509,-0.1572368
3510,-0.005328476
3511,-0.007284558
3512,0.007928719
3513,0.006603742
3514,0.03712842
3515,0.055170935
3516,-0.0040287417
3517,-0.030606806
3518,0.08071318
3519,0.09600038
3520,0.030831382
3521,-0.05368955
3522,0.0010528272
3523,0.04043159
3524,-0.011560482
3525,-0.14193794
3526,0.09516743
3527,-0.082716085
3528,-0.04985962
3529,-0.03644752
3530,-0.04563763
3531,-0.022427063
3532,-0.036798503
3533,-0.047761172
3534,-0.0061002956
3535,-0.106840305
3536,-0.010521778
3537,0.058595046
3538,0.009126657
3539,0.0077325003
3540,-0.15397854
3541,0.025076702
3542,0.08015082
3543,0.00920539
3544,-0.051998243
3545,-0.040359564
3546,-0.05100084
3547,-0.016477093
3548,-0.001400142
3549,-0.080916174
3550,0.025959644
3551,-0.1722702
3552,0.023957092
3553,-0.035385188
3554,-0.098349564
3555,-0.039852895
3556,0.05856112
3557,-0.005597194
3558,0.065985836
3559,-0.063781746
3560,-0.013841186
3561,0.06498028
3562,0.030766329
3563,0.0007909641
3564,-0.08585869
3565,0.06971984
3566,0.00657945
3567,0.0700741
3568,-0.10424099
3569,-0.069423355
3570,-0.02158676
3571,-0.015850052
3572,-0.04405608
3573,0.048361566
3574,-0.12834933
3575,0.0024515488
3576,-0.06369726
3577,-0.11902124
3578,-0.0951756
3579,-0.08080499
3580,0.021847397
3581,-0.029317299
3582,-0.047498714
3583,-0.08603108
3584,-0.051160567
3585,0.07261432
3586,-0.006863233
3587,-0.042625085
3588,-0.014721
3589,0.025542757
3590,-0.049491644
3591,0.06011927
3592,-0.07140849
3593,0.017931018
3594,-0.005983193
3595,0.050176647
3596,-0.12205714
3597,0.014430036
3598,-0.007992235
3599,0.028362393
3600,0.08876797
3601,-0.036052004
3602,0.06731805
3603,0.08685032
3604,-0.1123886
3605,-0.08777987
3606,-0.008395208
3607,0.080811754
3608,-0.11790012
3609,-0.040416934
3610,-0.012916242
3611,0.043472983
3612,0.060905594
3613,0.0655031
3614,-0.13162033
3615,0.03132286
3616,0.012276117
3617,-0.06853696
3618,0.041633848
3619,-0.0751746
3620,-0.031271417
3621,-0.1471634
3622,0.01846533
3623,-0.045327168
3624,-0.07806514
3625,0.11559075
3626,-0.00021130747
3627,-0.044622842
3628,-0.14994772
3629,0.036812857
3630,-0.005450179
3631,0.038411133
3632,-0.01278494
3633,0.021187374
3634,-0.014426578
3635,-0.043667115
3636,-0.031890474
3637,0.025848117
3638,-0.012436779
3639,-0.042408124
3640,0.01843123
3641,0.045112338
3642,-0.033010323
3643,-0.09262026
3644,0.016512353
3645,0.054732483
3646,-0.0073588304
3647,-0.035146236
3648,-0.02526556
3649,-0.017088966
3650,0.059227124
3651,-0.12047792
3652,0.063166656
3653,-0.035549816
3654,0.011337828
3655,-0.1940051
3656,0.007088725
3657,-0.022187099
3658,0.018523945
3659,0.015031031
3660,0.011247803
3661,-0.044970676
3662,0.008642284
3663,-0.082069755
3664,0.021452691
3665,-0.10833628
3666,0.052369725
3667,-0.039186746
3668,0.0713632
3669,0.004659663
3670,-0.061984967
3671,0.025204327
3672,0.01948984
3673,0.025920652
3674,-0.0074733994
3675,0.0740422
3676,-0.015761152
3677,0.013850479
3678,0.0833983
3679,-0.0031329684
3680,-0.034355175
3681,0.0036200304
3682,0.023656894
3683,-0.035837803
3684,-0.078394584
3685,-0.1032758
3686,-0.098639034
3687,0.010496823
3688,0.058597453
3689,-0.009910524
3690,-0.06350301
3691,0.008242619
3692,-0.041211493
3693,-0.05986786
3694,-0.05782916
3695,-0.036417983
3696,0.013100143
3697,-0.074925974
3698,0.006730291
3699,-0.024751788
3700,0.059033755
3701,-0.049187228
3702,-0.0058256085
3703,-0.09938118
3704,0.027142767
3705,0.038013097
3706,-0.05825905
3707,0.05570865
3708,0.011496081
3709,0.077176
3710,0.0022235247
3711,0.07602507
3712,-0.0569135
3713,0.054202013
3714,-0.06658625
3715,-0.030317802
3716,-0.008284934
3717,0.008228093
3718,-0.017732918
3719,0.05835548
3720,-0.09813206
3721,0.0228989
3722,0.056112826
3723,0.06104256
3724,-0.023416938
3725,-0.047465928
3726,0.017668305
3727,0.103544585
3728,0.025268601
3729,-0.0048071407
3730,-0.02290758
3731,0.039639395
3732,-0.01203353
3733,-0.014949028
3734,0.0047299433
3735,0.04342306
3736,-0.021715654
3737,-0.0043518776
3738,-0.007088299
3739,0.02430573
3740,0.014647359
3741,0.06559338
3742,-0.113346264
3743,0.046045307
3744,0.037263855
3745,-0.0704003
3746,0.016201893
3747,-0.054342035
3748,-0.015368962
3749,-0.1946183
3750,0.09821058
3751,-0.006791126
3752,-0.012984219
3753,0.011352659
3754,-0.024763357
3755,-0.004375228
3756,-0.055078033
3757,0.10657546
3758,0.0023356471
3759,0.041574284
3760,-0.0057314984
3761,0.07895572
3762,-0.016286097
3763,-0.04085912
3764,0.07053679
3765,0.011128707
3766,-0.030851495
3767,-0.002928408
3768,-0.032669798
3769,0.085302904
3770,-0.034116406
3771,-0.10480509
3772,-0.1091802
3773,0.08652671
3774,0.016119082
3775,-0.046382785
3776,0.024434794
3777,-0.00913507
3778,0.08149765
3779,-0.014938222
3780,0.07822526
3781,0.08407089
3782,-0.028242711
3783,-0.13863929
3784,0.057634212
3785,0.006159462
3786,0.093238145
3787,0.09629079
3788,-0.004912155
3789,-0.031183757
3790,-0.008341029
3791,-0.03877814
3792,0.036155548
3793,-0.06786653
3794,0.07125944
3795,0.032297153
3796,0.032323584
3797,-0.008128281
3798,-0.05611959
3799,0.09124029
3800,0.10296305
3801,-0.021962918
3802,0.0005347411
3803,0.14143115
3804,-0.004094561
3805,0.09874385
3806,0.08710369
3807,0.0070308186
3808,0.04502697
3809,0.000568064
3810,0.01270843
3811,-0.032734625
3812,0.00297235
3813,-0.011002096
3814,-0.023231383
3815,0.10457979
3816,0.06998423
3817,0.00047153473
3818,-0.0057828166
3819,0.048244637
3820,-0.036217503
3821,-0.09455118
3822,-0.013459837
3823,0.023017092
3824,0.016640091
3825,0.0070388177
3826,0.0823968
3827,-0.0179768
3828,0.042237397
3829,-0.03778167
3830,0.0075490274
3831,-0.1043319
3832,-0.00693253
3833,0.038021825
3834,-0.08778637
3835,0.06412702
3836,-0.007040986
3837,0.19282013
3838,0.035016406
3839,0.004631994
3840,0.10504932
3841,0.0800516
3842,0.03181738
3843,-0.0483176
3844,-0.0153932795
3845,-0.0042463522
3846,-0.031588715
3847,0.016508775
3848,-0.12034991
3849,-0.22997053
3850,0.060731497
3851,-0.09866381
3852,-0.07544222
3853,-0.0055520874
3854,0.008074732
3855,0.052653365
3856,-0.061680704
3857,-0.020528505
3858,0.05377756
3859,0.052332725
3860,-0.08537963
3861,-0.05999528
3862,0.0053457743
3863,0.046740435
3864,-0.03013597
3865,-0.04425378
3866,-0.019764375
3867,0.012867984
3868,0.047091603
3869,0.062291026
3870,0.09578502
3871,0.06436858
3872,-0.06336396
3873,0.07745499
3874,-0.023389623
3875,-0.060534455
3876,-0.007886167
3877,-0.051176768
3878,-0.0015909695
3879,-0.00036476646
3880,-0.043410078
3881,-0.009174204
3882,-0.04071204
3883,-0.019701872
3884,-0.043371018
3885,0.037550427
3886,-0.0043547656
3887,0.041589778
3888,0.00785013
3889,0.041354027
3890,-0.015260319
3891,-0.007198704
3892,0.017775813
3893,0.01992896
3894,-0.019259168
3895,-0.0824536
3896,-0.026313672
3897,0.026680756
3898,-0.02717008
3899,-0.002005426
3900,-0.008729945
3901,0.07270947
3902,-0.03063804
3903,-0.0012114701
3904,-0.051193543
3905,-0.00947625
3906,0.043882187
3907,-0.08907799
3908,0.0023688788
3909,0.028356362
3910,0.008909352
3911,-0.028510574
3912,-0.045646615
3913,-0.0073181195
3914,-0.02739875
3915,0.008761353
3916,0.013989819
3917,-0.031739548
3918,-0.0009914526
3919,0.010720596
3920,0.0259943
3921,-0.067062125
3922,-0.050620306
3923,-0.096068256
3924,-0.005598287
3925,-0.06739007
3926,0.02346665
3927,0.050933298
3928,-0.04122935
3929,0.120551296
3930,0.045760646
3931,0.03282043
3932,-0.06905508
3933,0.04104965
3934,0.050929382
3935,0.03544218
3936,-0.03357859
3937,0.0063816872
3938,0.07478849
3939,-0.04572608
3940,-0.033311494
3941,-0.082241066
3942,0.003258882
3943,-0.012079894
3944,0.09791537
3945,-0.024825754
3946,-0.04115511
3947,-0.051673226
3948,-0.05235704
3949,-0.15061834
3950,-0.013766055
3951,-0.025872972
3952,-0.114023045
3953,0.02295739
3954,0.06764758
3955,-0.1003182
3956,-0.018077223
3957,-0.0044229333
3958,-0.0560981
3959,-0.23807678
3960,0.056883663
3961,-0.0475633
3962,0.07895507
3963,0.073268905
3964,0.034368068
3965,0.055559114
3966,-0.026989155
3967,0.11865038
3968,0.06456829
3969,-0.13931762
3970,-0.09713338
3971,0.036249604
3972,-0.06664177
3973,-0.042008962
3974,-0.052735955
3975,0.07372417
3976,0.009298282
3977,-0.017116461
3978,0.011460679
3979,-0.022415532
3980,-0.082884915
3981,0.0522713
3982,-0.07045983
3983,-0.035287507
3984,-0.103841044
3985,-0.009261806
3986,-0.032325838
3987,-0.108045444
3988,0.0037208244
3989,-0.04252977
3990,-0.0010493579
3991,-0.04312987
3992,-0.091178074
3993,-0.03878719
3994,0.017893732
3995,-0.043223493
3996,0.027107898
3997,-0.06455735
3998,0.023887869
3999,0.045104023
4000,-0.0026238053
4001,0.049337327
4002,-0.11659317
4003,0.040604744
4004,-0.017408364
4005,0.035339363
4006,-0.08374984
4007,-0.0068036914
4008,-0.01164411
4009,-0.039804976
4010,-0.016635073
4011,-0.039724227
4012,-0.17384732
4013,-0.0678933
4014,-0.0060894
4015,-0.05439692
4016,-0.0377919
4017,-0.07983036
4018,0.046909716
4019,0.02644846
4020,0.05990759
4021,-0.24506183
4022,0.024121126
4023,0.006170146
4024,-0.0003847254
4025,-0.15758832
4026,-0.026786616
4027,0.004285309
4028,-0.0123800505
4029,-0.033706464
4030,0.0028701522
4031,-0.04086339
4032,-0.044927955
4033,-0.04406677
4034,-0.050635062
4035,-0.03517553
4036,-0.08848363
4037,-0.031283077
4038,-0.009559759
4039,0.03908354
4040,-0.031430367
4041,-0.022382142
4042,-0.07668355
4043,-0.08407507
4044,-0.0123732975
4045,-0.099726774
4046,0.0009456797
4047,0.025574785
4048,0.05202852
4049,-0.02060372
4050,-0.06510172
4051,-0.013259004
4052,-0.04182077
4053,0.008658925
4054,-0.04650368
4055,-0.04601834
4056,-0.056893207
4057,0.023045842
4058,-0.04798998
4059,-0.08403783
4060,0.03728092
4061,-0.021379579
4062,-0.09172985
4063,-0.0837612
4064,-0.009360305
4065,0.00919922
4066,0.05194605
4067,0.04126117
4068,-0.03519756
4069,-0.034856513
4070,-0.067149684
4071,-0.07985832
4072,-0.0036051464
4073,-0.014570363
4074,-0.020837855
4075,-0.011053519
4076,0.030892868
4077,-0.05140932
4078,0.024496704
4079,-0.025196757
4080,-0.06988328
4081,-0.083880335
4082,-0.06900392
4083,0.003901698
4084,-0.09041957
4085,0.038647808
4086,-0.06627614
4087,-0.015354777
4088,-0.021115916
4089,-0.007899443
4090,-0.008343244
4091,-0.059227526
4092,-0.007862453
4093,-0.041631885
4094,-0.11447904
4095,-0.07269449
4096,0.06847961
4097,0.14885123
4098,0.045851786
4099,-0.07685013
4100,-0.0046727112
4101,-0.15901223
4102,0.04913943
4103,0.08775409
4104,-0.0016186526
4105,-0.02551435
4106,0.033932846
4107,-0.007440661
4108,-0.087740645
4109,-0.0993484
4110,0.06199341
4111,0.10851399
4112,0.04624997
4113,-0.05601141
4114,-0.13607086
4115,0.09889054
4116,-0.04766004
4117,-0.11120305
4118,0.022588817
4119,0.06785212
4120,-0.13410902
4121,0.034291875
4122,-0.0018559375
4123,-0.19897732
4124,-0.048506483
4125,0.062339425
4126,0.11482566
4127,0.055114686
4128,0.026310125
4129,-0.01424762
4130,0.045497954
4131,-0.07271705
4132,-0.089991845
4133,-0.027210942
4134,0.049740188
4135,-0.044230837
4136,-0.12157679
4137,-0.078428514
4138,-0.15969183
4139,-0.074254274
4140,0.05560111
4141,0.10112983
4142,-0.006723453
4143,0.008993452
4144,-0.004797924
4145,-0.05912474
4146,-0.021911964
4147,-0.014951686
4148,-0.08531176
4149,0.035640363
4150,-0.0092537515
4151,-0.07187234
4152,-0.01698254
4153,0.032584313
4154,-0.07545925
4155,-0.03117186
4156,0.13888629
4157,0.00091574684
4158,0.010519795
4159,-0.07341453
4160,-0.08199012
4161,-0.009116091
4162,0.037142336
4163,-0.08925921
4164,0.044061426
4165,0.017808741
4166,-0.112470984
4167,-0.019631306
4168,-0.024570273
4169,-0.056592822
4170,0.041641798
4171,0.12364203
4172,-0.020428862
4173,-0.041110758
4174,0.029650569
4175,0.0035753509
4176,-0.014330283
4177,0.14167126
4178,-0.20110323
4179,-0.05954999
4180,0.040219907
4181,-0.09181342
4182,-0.10148914
4183,0.08795299
4184,-0.01770969
4185,0.030938767
4186,-0.0021216848
4187,0.15830442
4188,-0.091073476
4189,0.14606088
4190,0.06880668
4191,-0.092030935
4192,0.038927905
4193,-0.124260604
4194,0.011534057
4195,-0.0667134
4196,-0.055341627
4197,-0.04660476
4198,-0.14670262
4199,0.0034529383
4200,-0.1279218
4201,-0.04435148
4202,-0.05809366
4203,-0.07887881
4204,-0.16112259
4205,0.029577283
4206,-0.14407036
4207,8.060991e-05
4208,0.09429252
4209,-0.08690738
4210,0.088981435
4211,-0.11536451
4212,0.043806814
4213,-0.09646045
4214,0.057615712
4215,-0.050793264
4216,0.02590233
4217,-0.079651855
4218,0.007873658
4219,0.108983494
4220,-0.0828845
4221,0.14145072
4222,0.12357767
4223,0.040731616
4224,0.026795158
4225,0.051895246
4226,-0.18768395
4227,-0.10031103
4228,-0.0029340128
4229,-0.2010856
4230,0.016947934
4231,-0.032673568
4232,-0.016900122
4233,-0.08814918
4234,0.09259098
4235,-0.064418174
4236,-0.047693778
4237,0.003986221
4238,-0.1748757
4239,0.062370285
4240,-0.0005641477
4241,0.0150325345
4242,-0.17585534
4243,0.015433449
4244,-0.07017796
4245,-0.06494152
4246,0.01052731
4247,0.04994985
4248,-0.085574225
4249,-0.03189334
4250,0.0058773765
4251,-0.104986854
4252,-0.13209745
4253,0.051059037
4254,-0.010098422
4255,0.035704
4256,0.027298003
4257,-0.033607755
4258,-0.22111604
4259,-0.079407774
4260,-0.065992706
4261,-0.01398138
4262,0.076402
4263,0.0072201
4264,-0.13406166
4265,-0.05598435
4266,0.027952323
4267,0.05673975
4268,0.14822166
4269,0.07716412
4270,0.0055047683
4271,-0.0173008
4272,-0.013252855
4273,0.040047612
4274,0.0037874728
4275,-0.025960153
4276,-0.046941563
4277,0.09047567
4278,-0.026890256
4279,-0.109776884
4280,0.009853341
4281,0.00033300658
4282,-0.01308165
4283,0.045307353
4284,0.11527615
4285,-0.02073059
4286,-0.010962954
4287,-0.16497695
4288,0.006980214
4289,0.031224288
4290,0.04186078
4291,-0.0719722
4292,0.026784735
4293,-0.047292866
4294,-0.048131805
4295,-0.08342204
4296,-0.20542349
4297,-0.019801775
4298,0.06502962
4299,0.09793463
4300,0.061576366
4301,-0.061535027
4302,-0.005225851
4303,0.14468165
4304,-0.27088508
4305,0.0443071
4306,-0.049234178
4307,-0.11222455
4308,-0.012634751
4309,-0.049306463
4310,-0.13642028
4311,0.06950676
4312,-0.01365244
4313,0.16521926
4314,-0.003101061
4315,0.078648336
4316,-0.0870766
4317,0.098504946
4318,-0.010199522
4319,0.11537075
4320,0.013288428
4321,-0.13021907
4322,0.121280186
4323,-0.09020172
4324,-0.031109802
4325,-0.121842064
4326,0.0034074192
4327,0.07840768
4328,-0.012541961
4329,0.024736227
4330,-0.086275734
4331,0.014288426
4332,-0.198671
4333,0.034861542
4334,-0.10305395
4335,-0.005208719
4336,-0.034532078
4337,0.0077507175
4338,0.06279628
4339,-0.102923974
4340,0.03572183
4341,-0.045333225
4342,-0.020275464
4343,-0.102505326
4344,0.19860521
4345,-0.13557665
4346,0.1720581
4347,-0.0006199249
4348,-0.17733288
4349,0.07333639
4350,-0.023435209
4351,-0.061727002
4352,0.030388955
4353,0.07780991
4354,-0.21556696
4355,-0.054680835
4356,0.004494778
4357,-0.067200124
4358,-0.19307505
4359,0.09136038
4360,-0.12138592
4361,-0.10663145
4362,0.08955351
4363,0.03393796
4364,-0.010004339
4365,-0.0132948775
4366,-0.19224322
4367,0.11888709
4368,0.080915675
4369,0.03498482
4370,0.010931977
4371,0.13274947
4372,-0.026209816
4373,-0.018260753
4374,-0.009569913
4375,0.10231606
4376,-0.04695759
4377,0.0043084454
4378,-0.00725366
4379,-0.10591351
4380,0.038202967
4381,0.07623213
4382,-0.05080393
4383,0.0353134
4384,-0.024520846
4385,-0.10802409
4386,-0.1636705
4387,-0.0470268
4388,0.01686708
4389,-0.013035907
4390,0.16946788
4391,-0.001794008
4392,0.02612585
4393,0.03919885
4394,-0.06769793
4395,0.037525713
4396,-0.1439057
4397,0.08556989
4398,-0.0037738483
4399,0.10617491
4400,-0.013330369
4401,0.06804486
4402,-0.049371697
4403,-0.042249214
4404,0.06693443
4405,-0.01682602
4406,-0.024369106
4407,-0.18289661
4408,0.039354593
4409,-0.10561113
4410,-0.02729783
4411,-0.005235281
4412,-0.08669465
4413,0.11538484
4414,0.018995011
4415,-0.016727176
4416,0.011066071
4417,-0.012858915
4418,0.04585048
4419,-0.009753724
4420,0.059872426
4421,0.073964246
4422,-0.021869205
4423,-0.023588367
4424,-0.03562678
4425,-0.003165581
4426,0.20801117
4427,0.11109553
4428,0.018519528
4429,-0.053426903
4430,-0.009149565
4431,-0.17162518
4432,-0.017046023
4433,0.0031014648
4434,-0.06685264
4435,-0.061334137
4436,-0.05170731
4437,-0.002591657
4438,-0.063153565
4439,0.19008589
4440,-0.029592477
4441,0.028214324
4442,0.024688348
4443,0.13398752
4444,-0.08337327
4445,0.08087761
4446,0.036543127
4447,-0.023438534
4448,0.041765876
4449,-0.14540465
4450,0.09480778
4451,-0.08518322
4452,-0.0050605903
4453,0.0053572226
4454,-0.027963236
4455,0.14830057
4456,-0.12722784
4457,0.015402254
4458,-0.0040251384
4459,-0.032245908
4460,-0.023117939
4461,-0.20358928
4462,-0.06255872
4463,0.01616057
4464,0.027790653
4465,-0.009668508
4466,0.13285407
4467,-0.15085869
4468,0.1273438
4469,-0.05304083
4470,-0.0646272
4471,0.029013963
4472,0.039154075
4473,-0.14648263
4474,-0.28342178
4475,0.04973547
4476,-0.02662615
4477,0.05545131
4478,0.018357422
4479,0.11286535
4480,0.020299597
4481,0.11459093
4482,0.15355235
4483,0.040769905
4484,-0.012672088
4485,0.044211794
4486,0.07473322
4487,0.00068649097
4488,0.0205752
4489,-0.022643184
4490,0.04259613
4491,-0.031762443
4492,0.06568728
4493,-0.14553306
4494,0.14684132
4495,0.18283685
4496,0.011700923
4497,-0.03860026
4498,0.122030385
4499,0.06959313
4500,0.034127835
4501,0.055979222
4502,-0.01203311
4503,0.1009164
4504,0.038823582
4505,-0.051556967
4506,-0.007868115
4507,0.06899515
4508,0.039265502
4509,0.096176475
4510,0.03898418
4511,0.059385557
4512,-0.27642015
4513,0.04376653
4514,0.07611839
4515,0.004957791
4516,-0.04249456
4517,-0.099708326
4518,0.13434607
4519,-0.008567035
4520,0.0668737
4521,0.16663681
4522,0.076344356
4523,-0.026611079
4524,0.063820556
4525,0.13714921
4526,-0.018083248
4527,0.021778444
4528,-0.020269908
4529,-0.06830632
4530,-0.018109918
4531,0.03157241
4532,-0.0072663454
4533,-0.002591895
4534,0.0065364894
4535,0.024121849
4536,0.06296518
4537,0.08303988
4538,-0.025290662
4539,-0.06332798
4540,0.138467
4541,-0.007875018
4542,-0.0028653746
4543,0.02201949
4544,-0.0004322604
4545,0.011826375
4546,0.05975229
4547,0.074048445
4548,0.0066402014
4549,-0.0047972207
4550,0.0010079804
4551,0.031846084
4552,-0.048290048
4553,-0.012155185
4554,0.09374472
4555,0.11235208
4556,0.058690775
4557,-0.06526092
4558,-0.0048894826
4559,-0.003538739
4560,0.017154474
4561,0.09140517
4562,0.090670995
4563,0.025118623
4564,-0.040594403
4565,0.037656303
4566,0.026365856
4567,0.1613265
4568,-0.044476114
4569,-0.011842876
4570,-0.060128536
4571,0.13890019
4572,0.0052983477
4573,0.12437664
4574,0.080688946
4575,-0.009516606
4576,-0.024693564
4577,0.120362654
4578,0.061418194
4579,0.019956304
4580,0.061514895
4581,0.054294318
4582,0.071275145
4583,0.11444898
4584,0.11201051
4585,-0.09041534
4586,0.059976276
4587,-0.04765064
4588,0.053896602
4589,-0.099036045
4590,0.041624323
4591,-0.064417996
4592,-0.11602459
4593,0.055644788
4594,0.19027421
4595,0.006598989
4596,0.017607521
4597,0.09996818
4598,-0.04219333
4599,-0.047125388
4600,0.019017853
4601,0.065457016
4602,-0.016100328
4603,0.13683315
4604,0.031115003
4605,0.08613887
4606,0.178307
4607,0.02178278
4608,0.061819676
4609,0.15481265
4610,0.05093403
4611,-0.018404404
4612,-0.024841577
4613,0.013349814
4614,0.0948181
4615,0.05710326
4616,-0.010789356
4617,-0.19968095
4618,0.06855861
4619,-0.002978058
4620,0.105339974
4621,-0.055074316
4622,0.06691236
4623,0.05018645
4624,-0.040446922
4625,-0.0099985
4626,0.09901729
4627,0.0553633
4628,0.06975868
4629,0.098039865
4630,0.0015483178
4631,0.053977102
4632,0.07794598
4633,-0.064489886
4634,-0.022459
4635,0.04517387
4636,-0.03384185
4637,0.031173073
4638,0.100831166
4639,0.04717964
4640,0.024725383
4641,-0.030379092
4642,0.029488515
4643,-0.15373594
4644,-0.037918836
4645,-0.025307843
4646,-8.029269e-05
4647,-0.009932915
4648,0.085063115
4649,0.124592744
4650,0.008959201
4651,0.0025705458
4652,0.028734788
4653,0.009950595
4654,-0.011553077
4655,0.034938205
4656,-0.019117212
4657,-0.029346937
4658,-0.020465914
4659,-0.035694912
4660,-0.030420566
4661,0.04551705
4662,-0.017508663
4663,-0.089621775
4664,-0.018587483
4665,0.03308715
4666,-0.014030645
4667,0.022604719
4668,0.028000802
4669,0.067116976
4670,-0.07406082
4671,0.033960056
4672,-0.032930326
4673,0.012757872
4674,0.0052185697
4675,0.101507105
4676,0.006394222
4677,-0.080811724
4678,0.05758672
4679,-0.009349936
4680,-0.4146308
4681,-0.062417023
4682,-0.031726763
4683,0.04137495
4684,0.058043554
4685,-0.075872384
4686,-0.008275383
4687,0.104333974
4688,-0.07441537
4689,0.13416702
4690,0.06845563
4691,0.05323254
4692,0.03309939
4693,0.066317126
4694,0.028222814
4695,0.014313976
4696,-0.03799955
4697,-0.07122547
4698,0.02340311
4699,0.105483584
4700,-0.17830244
4701,0.015614787
4702,0.019516312
4703,0.040542867
4704,-0.07226715
4705,-0.0003558244
4706,-0.0053523057
4707,-0.06712712
4708,0.08837382
4709,0.07147147
4710,0.09392243
4711,0.0030466907
4712,0.025114987
4713,-0.0778881
4714,0.08597269
4715,-0.026691325
4716,-0.10006511
4717,-0.059580073
4718,-0.099953406
4719,-0.13215683
4720,-0.038813088
4721,-0.004461693
4722,0.056448374
4723,-0.13481289
4724,0.015800025
4725,0.03710335
4726,0.025817538
4727,0.055321768
4728,0.004754852
4729,-0.174549
4730,-0.09152222
4731,0.08316149
4732,0.0064169113
4733,0.023389345
4734,0.08060593
4735,0.00461918
4736,-0.01823954
4737,-0.035637826
4738,-0.03799382
4739,-0.016079195
4740,-0.009422959
4741,-0.0048669525
4742,0.020472888
4743,-0.044359647
4744,-0.0072337487
4745,0.027004272
4746,0.04434943
4747,-0.037193082
4748,-0.0653433
4749,-0.025276227
4750,-0.05587645
4751,0.020838227
4752,-0.025847705
4753,-0.09679775
4754,-0.0046397923
4755,-0.0070958994
4756,-0.036888883
4757,-0.016584363
4758,-0.0044759377
4759,-0.026459856
4760,-0.11277896
4761,-0.03564138
4762,0.016536282
4763,-0.07687193
4764,0.017198326
4765,-0.00036697797
4766,0.022375831
4767,0.059777148
4768,0.09312665
4769,0.008323144
4770,-0.0948016
4771,-0.037906002
4772,-0.051688336
4773,-0.08268637
4774,0.032403346
4775,-0.022141654
4776,-0.01843251
4777,0.0423044
4778,-0.010079744
4779,-0.07415699
4780,-0.1561937
4781,0.014808866
4782,0.003525101
4783,-0.05711541
4784,-0.020466227
4785,-0.010275506
4786,0.028017035
4787,-0.044696566
4788,-0.029505124
4789,-0.06942711
4790,0.002742574
4791,-0.017470038
4792,-0.021596054
4793,0.013647406
4794,-0.042576708
4795,-0.043724593
4796,-0.04389724
4797,0.00019863437
4798,-0.022504233
4799,-0.08650412
4800,-0.014838302
4801,0.011301766
4802,1.4114579e-05
4803,-0.08039609
4804,0.004327713
4805,0.06482534
4806,-0.04936296
4807,-0.056243166
4808,0.015223707
4809,-0.0038432137
4810,-0.022325566
4811,0.009216037
4812,-0.07587616
4813,-0.03244227
4814,0.0010571104
4815,0.049840286
4816,0.055019926
4817,0.034715235
4818,0.0009372848
4819,-0.09154241
4820,-0.04552303
4821,-0.011418835
4822,-0.08231101
4823,-0.0045181713
4824,0.073860794
4825,-0.06417961
4826,-0.013192341
4827,0.025276639
4828,-0.002521223
4829,0.041051522
4830,0.01676139
4831,-1.837012e-05
4832,-0.006652836
4833,-0.047057234
4834,-0.02993817
4835,-0.016511226
4836,-0.022957005
4837,-0.032688946
4838,-0.08672247
4839,0.026126474
4840,0.0018016958
4841,-0.015062788
4842,-0.0053009996
4843,0.07548504
4844,-0.08852311
4845,-0.0013965257
4846,-0.15863061
4847,-0.019280845
4848,-0.002418039
4849,-0.0165257
4850,0.038994856
4851,-0.07938219
4852,-0.041098837
4853,-0.023454566
4854,0.014571072
4855,-0.006676003
4856,-0.057660773
4857,-0.03637305
4858,-0.08794596
4859,-0.046407055
4860,0.016204538
4861,0.06477523
4862,-0.04106447
4863,-0.075565696
4864,0.061129414
4865,0.018930918
4866,-0.012639229
4867,-0.01852953
4868,-0.0026080778
4869,0.009487824
4870,-0.26001418
4871,0.10066446
4872,-0.07710081
4873,0.06784561
4874,0.07910548
4875,0.04369052
4876,-0.13633326
4877,0.11561157
4878,0.012833119
4879,0.006144622
4880,0.010551887
4881,-0.045423094
4882,-0.038941298
4883,-0.06475244
4884,-0.08258508
4885,-0.10211128
4886,-0.0039143683
4887,-0.012713059
4888,-0.14183867
4889,0.0313079
4890,-0.004623136
4891,0.016240291
4892,0.030377027
4893,0.004408637
4894,-0.0066282954
4895,0.009663621
4896,0.023990823
4897,-0.0094687715
4898,0.027459549
4899,0.026770327
4900,-0.0755538
4901,0.03246418
4902,0.044261407
4903,-0.011284324
4904,-0.07469949
4905,-0.0062834932
4906,0.04444468
4907,0.008325716
4908,-0.00015072867
4909,-0.008168152
4910,0.003622089
4911,0.07328492
4912,0.0030112364
4913,0.023121724
4914,-0.009799211
4915,0.00062644505
4916,0.0016063228
4917,0.013290849
4918,0.0020071587
4919,0.010433427
4920,0.10749067
4921,0.032639895
4922,-0.11057505
4923,0.14812176
4924,0.01133115
4925,0.09038022
4926,0.01722508
4927,-0.086792745
4928,0.04137589
4929,-0.03783249
4930,-0.005919364
4931,-0.09542413
4932,0.030656576
4933,0.042817105
4934,-0.17919396
4935,-0.051533397
4936,0.062157296
4937,-0.008796497
4938,0.081875145
4939,0.059545383
4940,0.00028206062
4941,-0.024065154
4942,0.005054207
4943,0.04352202
4944,0.03140465
4945,0.08601368
4946,0.046465416
4947,-0.05879233
4948,-0.12600175
4949,-0.022599319
4950,-0.079396784
4951,0.0030213268
4952,-0.00044774628
4953,-0.004740466
4954,-0.061497632
4955,-0.012701662
4956,0.040279336
4957,-0.003003446
4958,0.005852842
4959,-0.021920307
4960,0.014066589
4961,-0.08872874
4962,0.11152738
4963,-0.03607757
4964,-0.028226407
4965,-0.08593933
4966,-0.1066869
4967,0.06721701
4968,-0.007892602
4969,0.038342223
4970,-0.062254816
4971,0.053291917
4972,0.018605957
4973,0.08426253
4974,0.012024975
4975,0.023637235
4976,-0.02267546
4977,0.013654723
4978,0.018999755
4979,0.023802381
4980,0.05684297
4981,-0.00477669
4982,-0.08980637
4983,-0.0903659
4984,-0.018632526
4985,-0.072728515
4986,-0.03732796
4987,0.037331555
4988,0.0038852429
4989,-0.019870915
4990,-0.08170686
4991,0.07417815
4992,0.07612774
4993,0.05848156
4994,0.103468575
4995,-0.032237116
4996,-0.020545647
4997,-0.1640022
4998,0.0717742
4999,-0.13332687
5000,-0.14266297
5001,-0.17661397
5002,0.06369122
5003,-0.10185787
5004,0.008605309
5005,0.011067259
5006,0.0605525
5007,0.11551374
5008,0.032078188
5009,-0.059975527
5010,-0.19581188
5011,0.0883757
5012,0.0017557018
5013,-0.07543599
5014,-0.023555756
5015,0.16408911
5016,-0.050350152
5017,-0.022246344
5018,-0.010631994
5019,-0.050725706
5020,-0.093026504
5021,0.15219335
5022,0.10112138
5023,-0.011097699
5024,0.09949213
5025,0.08635792
5026,-0.10662602
5027,-0.0439423
5028,-0.018544227
5029,-0.026393037
5030,0.15858193
5031,-0.06041557
5032,-0.02050425
5033,0.007744344
5034,0.061491713
5035,0.016856717
5036,-0.026619535
5037,0.104778305
5038,0.0102942
5039,0.011106137
5040,-0.014607194
5041,0.14013015
5042,-0.013694814
5043,0.0005663288
5044,-0.042977247
5045,0.046190776
5046,-0.020905402
5047,0.0016527575
5048,-0.042854168
5049,0.014958195
5050,-0.01578904
5051,-0.01871246
5052,0.022149174
5053,0.1249997
5054,-0.039060935
5055,-0.13520163
5056,-0.11518198
5057,-0.029390225
5058,0.14338806
5059,0.004748005
5060,-0.033161934
5061,0.15575564
5062,-0.11826655
5063,-0.02134495
5064,-0.15927896
5065,-0.023866327
5066,0.18167503
5067,0.09077309
5068,0.07557584
5069,-0.062294237
5070,-0.010245467
5071,-0.03022459
5072,-0.10916593
5073,0.0034417813
5074,-0.053095482
5075,0.054964002
5076,-0.08136772
5077,-0.0040487554
5078,-0.14483905
5079,0.14416367
5080,0.091276206
5081,0.032179143
5082,-0.089940496
5083,0.101510115
5084,-0.054441474
5085,0.07763552
5086,-0.06759395
5087,0.009830393
5088,-0.10907562
5089,0.07623571
5090,0.12030848
5091,-0.004808607
5092,-0.02300067
5093,0.017992355
5094,-0.0027309314
5095,0.1278328
5096,0.08718755
5097,-0.035520736
5098,0.011575969
5099,0.08672812
5100,-0.0046887533
5101,0.0034578175
5102,0.022837378
5103,-0.013869527
5104,-0.034843214
5105,-0.035573974
5106,0.14025009
5107,-0.0640279
5108,0.13112079
5109,-0.027403273
5110,-0.03788184
5111,-0.21598814
5112,0.026166568
5113,-0.043209124
5114,0.009982528
5115,-0.012186433
5116,-0.20751934
5117,0.18471497
5118,0.092664465
5119,0.004061281
5120,-0.045502584
5121,0.05831971
5122,0.013184255
5123,-0.054147605
5124,-0.017941806
5125,-0.028787378
5126,0.059249725
5127,-0.042044614
5128,-0.09092877
5129,-0.008508519
5130,0.0058172243
5131,0.03380602
5132,-0.074787475
5133,-0.17796133
5134,0.059600294
5135,0.106312156
5136,0.0072069187
5137,-0.040395036
5138,-0.035163816
5139,0.042971257
5140,-0.0995614
5141,-0.0618314
5142,-0.0013819353
5143,0.08309003
5144,-0.054458816
5145,-0.019171694
5146,-0.0072116903
5147,-0.022213457
5148,-0.056051146
5149,0.10078085
5150,0.06894372
5151,-0.20350184
5152,-0.6000834
5153,0.018311165
5154,-0.013172742
5155,-0.10755848
5156,-0.0026527864
5157,-0.052898645
5158,0.17508264
5159,-0.037460882
5160,-0.06718135
5161,-0.049606208
5162,-0.48625037
5163,0.016979802
5164,-0.03278377
5165,0.179533
5166,-0.00085704
5167,0.076422825
5168,-0.018582206
5169,-0.07810797
5170,-0.0021634733
5171,-0.12615617
5172,-0.018502451
5173,0.011499248
5174,-0.01827062
5175,-0.1561173
5176,-0.21712723
5177,0.017402343
5178,-0.02444827
5179,0.018947896
5180,0.020468498
5181,-0.030081965
5182,-0.006798683
5183,0.021180907
5184,-0.105395086
5185,-0.036108796
5186,0.084170304
5187,-0.10287746
5188,-0.08459643
5189,0.13855357
5190,-0.00448086
5191,-0.04661478
5192,-0.19143845
5193,0.0032424964
5194,0.14353707
5195,0.09084771
5196,-0.0117571205
5197,-0.0074080867
5198,-0.02106343
5199,0.06382227
5200,-0.12342565
5201,-0.18800609
5202,-0.10194376
5203,-0.18151984
5204,0.110805765
5205,-0.09318087
5206,0.041128058
5207,0.15076613
5208,-0.58413655
5209,0.005103218
5210,0.04489507
5211,0.09719857
5212,-0.062439736
5213,0.12301609
5214,-0.12584071
5215,-0.14654273
5216,-0.06633535
5217,-0.008616578
5218,0.03497899
5219,-0.0680847
5220,-0.054128274
5221,-0.10092265
5222,-0.031592038
5223,0.18109725
5224,-0.02322369
5225,-0.08149028
5226,-0.079626285
5227,-0.62506616
5228,0.013824059
5229,-0.0025839387
5230,-0.117779136
5231,-0.026078882
5232,0.0072172247
5233,-0.073431276
5234,0.12803183
5235,-0.048402958
5236,0.08753728
5237,-0.13919954
5238,0.1041503
5239,-0.08960409
5240,0.011562556
5241,-0.043003142
5242,0.010314169
5243,0.094732344
5244,-0.024131946
5245,0.10806277
5246,0.096442774
5247,0.019148314
5248,-0.0015883339
5249,-0.022187803
5250,0.008880002
5251,0.0008913079
5252,0.2076009
5253,-0.07379401
5254,0.054003794
5255,-0.031646885
5256,0.07289484
5257,0.027209163
5258,0.011321747
5259,0.0057094884
5260,0.01163873
5261,0.082006425
5262,0.05788872
5263,-0.03482238
5264,-0.01879421
5265,-0.0013202644
5266,0.013883594
5267,-0.026087832
5268,0.010915116
5269,0.014961507
5270,0.0035447518
5271,-0.015181468
5272,-0.0088800015
5273,-0.004265413
5274,0.2315032
5275,-0.056190796
5276,-0.10382412
5277,0.0015986915
5278,0.04761786
5279,-0.05808247
5280,0.11258363
5281,-0.009419843
5282,0.06914437
5283,0.011961133
5284,-0.015348627
5285,0.029186081
5286,0.018020298
5287,0.28205636
5288,0.006130054
5289,0.22933874
5290,0.0068603996
5291,-0.0031221828
5292,-0.20156364
5293,0.000562632
5294,0.006484644
5295,0.009931351
5296,0.1670946
5297,0.0036776708
5298,0.01314172
5299,0.0121907415
5300,-0.051506054
5301,0.18640459
5302,-0.01996066
5303,0.050107364
5304,0.034497373
5305,0.09641099
5306,-0.032041527
5307,0.020262139
5308,-0.00015703069
5309,-0.04783632
5310,0.031820834
5311,-0.05557738
5312,0.04780246
5313,0.17851177
5314,0.01906583
5315,0.015827024
5316,-0.031544726
5317,0.003526462
5318,-0.036259398
5319,0.0020834533
5320,-0.098667845
5321,0.18242244
5322,-0.008353674
5323,-0.0049584303
5324,-0.018805686
5325,0.16526753
5326,-0.015835317
5327,0.0023271577
5328,-0.20481335
5329,0.037248477
5330,-0.0076974416
5331,0.008991926
5332,0.029946286
5333,0.04483497
5334,-0.074929774
5335,-0.015559252
5336,0.085444525
5337,-0.06957561
5338,0.026290033
5339,0.03277286
5340,0.017797127
5341,0.048879415
5342,0.0014683605
5343,0.08284451
5344,0.06762309
5345,0.1333061
5346,0.01149972
5347,0.0072496617
5348,0.23181851
5349,0.01339455
5350,0.016238697
5351,0.024128243
5352,0.15242612
5353,0.035489116
5354,0.017099673
5355,0.08737526
5356,0.015634619
5357,0.043994427
5358,0.045543097
5359,0.046709947
5360,0.06051015
5361,0.2726122
5362,-0.027588978
5363,0.040785957
5364,-0.03369597
5365,0.020236295
5366,0.08672422
5367,0.19896539
5368,-0.056343082
5369,0.0441905
5370,-0.063947424
5371,0.26609212
5372,-0.07147977
5373,0.022474352
5374,0.078868054
5375,-0.0872181
5376,0.07480597
5377,0.05708275
5378,-0.064632714
5379,-0.032757044
5380,-0.016688583
5381,-0.090001404
5382,-0.017692203
5383,0.09496124
5384,-0.012839869
5385,-0.053037446
5386,0.14617884
5387,0.01743264
5388,-0.07462272
5389,-0.017914748
5390,-0.027249018
5391,0.077333935
5392,-0.030762648
5393,-0.115208514
5394,-0.07104114
5395,0.010321568
5396,-0.04897802
5397,-0.08394698
5398,-0.0021841263
5399,0.033188894
5400,-0.11888002
5401,0.030083692
5402,0.0033202313
5403,-0.089022815
5404,-0.17761639
5405,0.004738224
5406,0.12053534
5407,-0.19931807
5408,0.0031625435
5409,-0.07177361
5410,-0.13486512
5411,-0.10672121
5412,-0.08828823
5413,0.062256288
5414,0.065568335
5415,0.0063336417
5416,-0.052348383
5417,0.010002961
5418,-0.028531736
5419,0.08224916
5420,-0.021954102
5421,0.06729631
5422,0.007753749
5423,0.08579594
5424,-0.006064993
5425,-0.059960607
5426,-0.0012238874
5427,-0.027854854
5428,0.058921967
5429,0.01342744
5430,-0.008404557
5431,-0.078962974
5432,0.018293016
5433,-0.020375047
5434,-0.1243412
5435,0.13518438
5436,0.05608706
5437,-0.1117189
5438,-0.0070288586
5439,-0.10191088
5440,-0.013528166
5441,-0.016784307
5442,0.04627484
5443,-0.06582467
5444,-0.048441786
5445,0.081856415
5446,-0.2248679
5447,-0.01552667
5448,-0.073327474
5449,0.00410255
5450,0.04284244
5451,0.068687685
5452,-0.07566933
5453,-0.017753746
5454,0.00471917
5455,0.081819065
5456,-0.23589575
5457,0.15001741
5458,-0.13944593
5459,-0.052551445
5460,0.023220804
5461,0.009917755
5462,-0.093547866
5463,0.020122496
5464,-0.077019766
5465,0.15348418
5466,0.006487014
5467,0.06106031
5468,-0.10752889
5469,0.10498652
5470,-0.09190734
5471,-0.013644943
5472,-0.03531622
5473,-0.16578606
5474,0.109053254
5475,-0.056456048
5476,-0.020377345
5477,-0.038728386
5478,-0.097241424
5479,0.077397384
5480,-0.059882555
5481,-0.028528443
5482,-0.006077272
5483,-0.019637398
5484,-0.066962585
5485,0.048287485
5486,-0.07214243
5487,-0.019703468
5488,0.025105862
5489,0.022625636
5490,0.06479921
5491,-0.19226442
5492,0.029201156
5493,-0.06754733
5494,0.036968254
5495,-0.060017988
5496,0.07390384
5497,-0.11704842
5498,-0.06187287
5499,0.04149542
5500,-0.09670067
5501,0.10118565
5502,0.0033095102
5503,0.03822058
5504,-0.14352125
5505,-0.026798349
5506,-0.06160575
5507,0.020364739
5508,-0.010938409
5509,-0.01563278
5510,0.012452172
5511,-0.11320363
5512,-0.012256749
5513,0.07943269
5514,0.011961325
5515,0.011688195
5516,-0.029329237
5517,-0.00016846112
5518,-0.020186294
5519,0.026139824
5520,-0.00069378316
5521,-0.040143054
5522,-0.04801855
5523,-0.008170976
5524,-0.015570628
5525,-0.09456686
5526,-0.014982325
5527,0.007027404
5528,-0.0896348
5529,-0.06519263
5530,0.012285123
5531,-0.020748736
5532,0.05844437
5533,0.013039893
5534,0.0039696316
5535,0.02774206
5536,-0.0083396435
5537,0.025478655
5538,-0.014539423
5539,0.029635264
5540,-0.08244284
5541,-0.02315883
5542,0.01889686
5543,0.0013664269
5544,-0.02660149
5545,-0.019375933
5546,-0.06131867
5547,0.059869673
5548,0.09281036
5549,0.04273626
5550,0.00018583094
5551,-0.014752396
5552,0.009226228
5553,0.03290539
5554,0.011729663
5555,-0.13527651
5556,-0.15992725
5557,-0.02656942
5558,-0.0037011374
5559,0.020107863
5560,-0.056918856
5561,0.01853889
5562,-0.07275704
5563,-0.061092447
5564,0.042915702
5565,-0.008230879
5566,-0.037599612
5567,-0.07825147
5568,-0.041937027
5569,0.0077729123
5570,0.017896514
5571,-0.04181335
5572,0.0073753083
5573,0.03696203
5574,-0.1910433
5575,-0.024376722
5576,0.036851797
5577,0.004250795
5578,0.02683363
5579,0.039449528
5580,0.052241225
5581,-0.04144362
5582,-0.0031465983
5583,0.08310146
5584,0.067256615
5585,-0.012273108
5586,0.06739314
5587,-0.023797374
5588,-0.019063441
5589,0.0072505064
5590,-0.06902916
5591,-0.010518566
5592,0.015082629
5593,-0.0146919545
5594,-0.044087347
5595,0.06451157
5596,0.04065072
5597,0.034499303
5598,0.0681918
5599,-0.027308756
5600,-0.05996831
5601,-0.062304784
5602,0.10309623
5603,-0.029237598
5604,-0.0114735495
5605,-0.027329525
5606,-0.07246611
5607,0.02195417
5608,-0.025993075
5609,-0.050132122
5610,0.017210238
5611,-0.028230753
5612,0.012577216
5613,0.030442877
5614,-0.034238387
5615,-0.044374827
5616,0.038543377
5617,-0.040404856
5618,0.038766995
5619,0.01762691
5620,0.018459288
5621,-0.09300305
5622,-0.0061076633
5623,-0.035803165
5624,0.005977368
5625,-0.043221753
5626,0.04543714
5627,0.021594595
5628,-0.011674275
5629,0.047243603
5630,-0.026809303
5631,-0.0073867864
5632,0.04748694
5633,-0.019114072
5634,-0.024794998
5635,-0.038160518
5636,-0.038320925
5637,-0.010330545
5638,-0.0683057
5639,0.0652909
5640,-0.0088852225
5641,0.029002175
5642,0.016761117
5643,0.038128164
5644,-0.0980183
5645,0.046223056
5646,-0.023542676
5647,-0.023870543
5648,-0.005717698
5649,0.017084919
5650,0.015407084
5651,-0.024703754
5652,-0.05129405
5653,-0.10078319
5654,0.013920528
5655,-0.013111344
5656,-0.06541045
5657,0.03761231
5658,-0.019888237
5659,-0.101785585
5660,0.005643563
5661,0.024582295
5662,-0.059965745
5663,-0.01607333
5664,-0.039962664
5665,-0.089128315
5666,0.048465796
5667,0.011765674
5668,0.027659738
5669,0.058862254
5670,-0.022922246
5671,-0.01748341
5672,-0.0067749685
5673,-0.020056201
5674,0.027618807
5675,0.024443554
5676,-0.057182033
5677,-0.046560623
5678,0.006299199
5679,0.053050622
5680,-0.003233217
5681,0.014700508
5682,-0.042091176
5683,-0.015685635
5684,0.03873014
5685,-0.023028158
5686,-0.013601511
5687,0.052009128
5688,0.064920984
5689,0.02135124
5690,0.028112723
5691,0.084427476
5692,-0.0245645
5693,0.032322973
5694,0.06645118
5695,0.022411358
5696,0.014231459
5697,-0.021753987
5698,0.0032928952
5699,-0.106076255
5700,-0.007707225
5701,-0.07262701
5702,0.041797556
5703,-0.081825525
5704,-0.002159562
5705,-0.006606452
5706,6.995681e-05
5707,-0.030704083
5708,-0.033367254
5709,-0.040771745
5710,-0.012656687
5711,-0.028308092
5712,0.006590963
5713,0.056079626
5714,-0.004394225
5715,0.003215484
5716,-0.074518114
5717,-0.06905526
5718,-0.008976031
5719,-0.0019470626
5720,-0.055983707
5721,-0.0048344857
5722,0.002423409
5723,-0.067287
5724,0.01933339
5725,-0.07696296
5726,-0.0110599315
5727,-0.008071732
5728,-0.03534058
5729,-0.10832532
5730,0.03471432
5731,-0.022489738
5732,-0.022341
5733,-0.025966441
5734,-0.07765341
5735,-0.05419719
5736,-0.0601807
5737,0.04523939
5738,-0.062228788
5739,-0.011011633
5740,-0.0025446222
5741,0.114406094
5742,-0.02158801
5743,0.050470304
5744,0.0049508605
5745,0.038552213
5746,-0.04084523
5747,0.008278903
5748,-0.009524163
5749,-0.02388226
5750,0.0022914193
5751,-0.08481642
5752,0.017953884
5753,-0.018572252
5754,-0.019823583
5755,-0.043430272
5756,-0.010193746
5757,-0.05958262
5758,-0.068162076
5759,0.0030795613
5760,0.003947493
5761,-0.04300774
5762,-0.07913805
5763,-0.041386236
5764,-0.014618971
5765,-0.014447109
5766,-0.14357239
5767,-0.2142262
5768,-0.05982972
5769,-0.06521003
5770,-0.006110179
5771,-0.061440635
5772,-0.041772105
5773,-0.020326452
5774,-0.13716887
5775,-0.08459181
5776,-0.007861164
5777,0.009465893
5778,0.047586054
5779,0.008715229
5780,-0.03456645
5781,-0.06237152
5782,-0.016035298
5783,-0.026859162
5784,0.0159195
5785,-0.023726584
5786,-0.0055104746
5787,0.017833062
5788,0.0029069826
5789,-0.021918025
5790,0.05724365
5791,0.025025532
5792,-0.025702115
5793,-0.028499847
5794,-0.15846059
5795,-0.07119904
5796,-0.035329945
5797,-0.076820195
5798,-0.07288081
5799,-0.027983274
5800,0.028527848
5801,-0.0031773245
5802,-0.09485001
5803,0.068576954
5804,0.017698878
5805,-0.034719575
5806,0.009759816
5807,0.044504672
5808,-0.0071625863
5809,-0.071617275
5810,-0.0017434201
5811,-0.0064381626
5812,-0.06834608
5813,-0.0859443
5814,-0.0039871573
5815,-0.2503354
5816,-0.036200624
5817,-0.13763236
5818,-0.011549319
5819,-0.2726727
5820,0.007633607
5821,0.010584566
5822,0.04705078
5823,-0.0021453842
5824,0.025569033
5825,-0.019176371
5826,-0.03136697
5827,-0.061017293
5828,0.00361034
5829,-0.08639176
5830,0.003199268
5831,-0.07952339
5832,-0.033508122
5833,-0.017242603
5834,-0.077613026
5835,-0.027085118
5836,-0.0065462072
5837,-0.033739585
5838,0.008673966
5839,0.02556979
5840,0.007024712
5841,-0.49029657
5842,-0.0059160977
5843,-0.06270189
5844,-0.06975938
5845,-0.041757252
5846,-0.018485028
5847,-0.08894861
5848,0.011922947
5849,0.03701957
5850,-0.036315095
5851,-0.022417452
5852,-0.07282508
5853,0.0006129462
5854,0.02770223
5855,0.023096746
5856,0.048336662
5857,-0.057782136
5858,0.056315403
5859,-0.08635944
5860,-0.022446271
5861,-0.037681106
5862,0.015594101
5863,-0.06785674
5864,-0.14449657
5865,0.06182571
5866,-0.019770896
